{"learner":{"attributes":{"scikit_learn":"{\"_estimator_type\": \"classifier\"}"},"feature_names":[],"feature_types":[],"gradient_booster":{"model":{"gbtree_model_param":{"num_parallel_tree":"1","num_trees":"100"},"iteration_indptr":[0,1,2,3,4,5,6,7,8,9,10,11,12,13,14,15,16,17,18,19,20,21,22,23,24,25,26,27,28,29,30,31,32,33,34,35,36,37,38,39,40,41,42,43,44,45,46,47,48,49,50,51,52,53,54,55,56,57,58,59,60,61,62,63,64,65,66,67,68,69,70,71,72,73,74,75,76,77,78,79,80,81,82,83,84,85,86,87,88,89,90,91,92,93,94,95,96,97,98,99,100],"tree_info":[0,0,0,0,0,0,0,0,0,0,0,0,0,0,0,0,0,0,0,0,0,0,0,0,0,0,0,0,0,0,0,0,0,0,0,0,0,0,0,0,0,0,0,0,0,0,0,0,0,0,0,0,0,0,0,0,0,0,0,0,0,0,0,0,0,0,0,0,0,0,0,0,0,0,0,0,0,0,0,0,0,0,0,0,0,0,0,0,0,0,0,0,0,0,0,0,0,0,0,0],"trees":[{"base_weights":[-8.612179E-8,3.4889236E-1,-7.1766806E-1,6.009162E-1,-3.2907486E-1,-3.4194177E-1,-9.338766E-1,8.693037E-1,2.5040656E-1,3.816089E-1,-5.7909566E-1,1.6253982E-2,-6.9232166E-1,-9.5908093E-1,3.3415753E-1,-9.434744E-1,9.0931094E-1,1.0475106E0,6.1123792E-2,6.012597E-1,-5.671988E-1,-6.300385E-1,3.2410392E-1,6.507919E-1,-3.461143E-1,-3.3487278E-1,-1.1734214E0,5.037059E-1,-9.933511E-1,-4.2751512E-1,6.748993E-2,1.410548E0,7.578122E-1,-3.3251143E-1,1.1833402E0,8.2380253E-1,-1.4120814E-1,7.6203245E-1,-6.6304827E-1,-1.1960553E0,2.0098846E-1,-7.2509515E-1,1.3783334E-1,1.0742522E0,-1.4966846E-1,1.3365261E-1,-8.5256225E-1,-5.484666E-1,1.0037082E0,-1.3386478E0,1.2088932E-1,-5.3602923E-2,3.3415753E-1,-7.718853E-1,-1.2693427E0,4.7791132E-1,2.1064715E-1,1.1165597E-1,2.8030086E-1,3.9742455E-1,1.1110968E-3,-7.075594E-2,3.2998428E-1,-6.415937E-2,4.5995855E-1,2.9130423E-1,-1.3218172E-1,6.748993E-2,-3.5911247E-1,-4.3891558E-1,-6.5843865E-2,2.011532E-1,-2.3816681E-1,-2.1697082E-1,2.4570772E-1,4.3916154E-1,-2.39112E-1,3.608902E-1,-2.3881601E-1,3.6118695E-1,-1.02995776E-1,-3.4864396E-1,2.0098846E-1,-2.3859401E-1,2.011532E-1,3.8276243E-1,6.748993E-2,-5.1086104E-1,-1.9871713E-1,-6.524545E-2,-2.985459E-1,-4.0107763E-1,4.1086584E-2],"categories":[],"categories_nodes":[],"categories_segments":[],"categories_sizes":[],"default_left":[0,0,0,0,0,0,0,0,0,0,0,0,0,0,0,0,0,0,0,0,0,0,0,0,0,0,0,0,0,0,0,0,0,0,0,0,0,0,0,0,0,0,0,0,0,0,0,0,0,0,0,0,0,0,0,0,0,0,0,0,0,0,0,0,0,0,0,0,0,0,0,0,0,0,0,0,0,0,0,0,0,0,0,0,0,0,0,0,0,0,0,0,0],"id":0,"left_children":[1,3,5,7,9,11,13,15,17,19,21,23,25,27,-1,29,31,33,35,37,39,41,-1,43,45,47,49,51,53,-1,-1,55,57,-1,59,61,63,65,67,69,-1,71,73,75,77,79,81,83,85,87,-1,-1,-1,89,91,-1,-1,-1,-1,-1,-1,-1,-1,-1,-1,-1,-1,-1,-1,-1,-1,-1,-1,-1,-1,-1,-1,-1,-1,-1,-1,-1,-1,-1,-1,-1,-1,-1,-1,-1,-1,-1,-1],"loss_changes":[1.7796284E2,8.191292E1,1.8567734E1,3.261338E1,2.3364414E1,1.0867334E1,8.655167E0,1.5163223E1,2.2982456E1,7.5310097E0,8.859535E0,1.0284906E1,7.1306324E0,7.8067627E0,0E0,2.9933677E0,1.3624771E1,9.876884E0,1.9328337E1,6.29832E0,6.247257E0,6.9975777E0,0E0,5.668902E0,7.0387497E0,8.127142E0,5.2928085E0,1.8644414E0,7.7454224E0,0E0,0E0,4.53714E0,9.91407E0,0E0,4.6657524E0,7.9406204E0,1.2402193E1,6.899523E0,2.047513E0,9.825959E-1,0E0,8.621071E0,7.1910424E0,9.004459E0,6.6406984E0,8.326119E0,7.377448E0,7.6043873E0,5.6075716E-1,2.9976673E0,0E0,0E0,0E0,9.902496E0,6.075638E0,0E0,0E0,0E0,0E0,0E0,0E0,0E0,0E0,0E0,0E0,0E0,0E0,0E0,0E0,0E0,0E0,0E0,0E0,0E0,0E0,0E0,0E0,0E0,0E0,0E0,0E0,0E0,0E0,0E0,0E0,0E0,0E0,0E0,0E0,0E0,0E0,0E0,0E0],"parents":[2147483647,0,0,1,1,2,2,3,3,4,4,5,5,6,6,7,7,8,8,9,9,10,10,11,11,12,12,13,13,15,15,16,16,17,17,18,18,19,19,20,20,21,21,23,23,24,24,25,25,26,26,27,27,28,28,31,31,32,32,34,34,35,35,36,36,37,37,38,38,39,39,41,41,42,42,43,43,44,44,45,45,46,46,47,47,48,48,49,49,53,53,54,54],"right_children":[2,4,6,8,10,12,14,16,18,20,22,24,26,28,-1,30,32,34,36,38,40,42,-1,44,46,48,50,52,54,-1,-1,56,58,-1,60,62,64,66,68,70,-1,72,74,76,78,80,82,84,86,88,-1,-1,-1,90,92,-1,-1,-1,-1,-1,-1,-1,-1,-1,-1,-1,-1,-1,-1,-1,-1,-1,-1,-1,-1,-1,-1,-1,-1,-1,-1,-1,-1,-1,-1,-1,-1,-1,-1,-1,-1,-1,-1],"split_conditions":[8E3,8E3,8E3,6E3,6E3,8E3,1.8E4,2E3,4E3,1E4,1.4E4,6E3,8E3,2E3,3.3415753E-1,1E4,4E3,4E3,4E3,1.2E4,6E3,1.2E4,3.2410392E-1,8E3,8E3,1E4,1.2E4,8E3,8E3,-4.2751512E-1,6.748993E-2,8E3,6E3,-3.3251143E-1,1E4,2E3,1.4E4,1E4,6E3,8E3,2.0098846E-1,4E3,8E3,1E4,4E3,6E3,1.2E4,1E4,1E4,8E3,1.2088932E-1,-5.3602923E-2,3.3415753E-1,6E3,1.4E4,4.7791132E-1,2.1064715E-1,1.1165597E-1,2.8030086E-1,3.9742455E-1,1.1110968E-3,-7.075594E-2,3.2998428E-1,-6.415937E-2,4.5995855E-1,2.9130423E-1,-1.3218172E-1,6.748993E-2,-3.5911247E-1,-4.3891558E-1,-6.5843865E-2,2.011532E-1,-2.3816681E-1,-2.1697082E-1,2.4570772E-1,4.3916154E-1,-2.39112E-1,3.608902E-1,-2.3881601E-1,3.6118695E-1,-1.02995776E-1,-3.4864396E-1,2.0098846E-1,-2.3859401E-1,2.011532E-1,3.8276243E-1,6.748993E-2,-5.1086104E-1,-1.9871713E-1,-6.524545E-2,-2.985459E-1,-4.0107763E-1,4.1086584E-2],"split_indices":[136,139,135,135,142,138,70,138,138,27,48,88,143,52,0,20,139,60,139,100,144,95,0,8,67,18,1,30,63,0,0,142,47,0,90,139,104,140,10,0,0,7,73,93,89,43,129,47,1,33,0,0,0,48,124,0,0,0,0,0,0,0,0,0,0,0,0,0,0,0,0,0,0,0,0,0,0,0,0,0,0,0,0,0,0,0,0,0,0,0,0,0,0],"split_type":[0,0,0,0,0,0,0,0,0,0,0,0,0,0,0,0,0,0,0,0,0,0,0,0,0,0,0,0,0,0,0,0,0,0,0,0,0,0,0,0,0,0,0,0,0,0,0,0,0,0,0,0,0,0,0,0,0,0,0,0,0,0,0,0,0,0,0,0,0,0,0,0,0,0,0,0,0,0,0,0,0,0,0,0,0,0,0,0,0,0,0,0,0],"sum_hessian":[7.0874567E2,4.7724707E2,2.3149858E2,3.4799786E2,1.292492E2,8.549947E1,1.459991E2,1.962488E2,1.5174907E2,3.3499794E1,9.574941E1,4.2749737E1,4.2749737E1,1.4474911E2,1.2499924E0,3.7499769E0,1.9249883E2,2.8249826E1,1.23499245E2,2.749983E1,5.9999633E0,9.349943E1,2.2499862E0,1.5249907E1,2.749983E1,2.5499844E1,1.7249893E1,2.9999816E0,1.4174913E2,2.4999847E0,1.2499924E0,4.2749737E1,1.4974908E2,1.2499924E0,2.6999834E1,2.5249846E1,9.82494E1,2.4749847E1,2.749983E0,3.9999754E0,1.9999877E0,8.324949E1,1.0249937E1,9.74994E0,5.499966E0,1.4499911E1,1.299992E1,2.2499863E1,2.9999816E0,1.5749904E1,1.4999908E0,1.7499893E0,1.2499924E0,8.0749504E1,6.0999626E1,3.2999798E1,9.74994E0,4.7999706E1,1.01749374E2,2.3999853E1,2.9999816E0,5.2499676E0,1.9999878E1,9.499942E1,3.24998E0,2.124987E1,3.4999785E0,1.2499924E0,1.4999908E0,2.749983E0,1.2499924E0,3.4999785E0,7.974951E1,4.4999723E0,5.7499647E0,8.249949E0,1.4999908E0,1.4999908E0,3.9999754E0,3.9999754E0,1.0499935E1,1.0999932E1,1.9999877E0,1.8999884E1,3.4999785E0,1.7499893E0,1.2499924E0,9.249943E0,6.49996E0,2.3749855E1,5.699965E1,5.824964E1,2.749983E0],"tree_param":{"num_deleted":"0","num_feature":"145","num_nodes":"93","size_leaf_vector":"1"}},{"base_weights":[2.1763267E-3,2.523257E-1,-5.168752E-1,4.338087E-1,-2.3548867E-1,-3.1897733E-1,-7.6622045E-1,5.882353E-1,8.2835644E-2,3.4991124E-1,-3.8777548E-1,7.403397E-2,-5.030146E-1,-4.932544E-1,-1.1268098E0,6.9350964E-1,8.80773E-2,-4.3121118E-2,9.4203943E-1,7.6566523E-1,-3.198726E-1,5.4499835E-2,-5.791758E-1,-1.1520456E-1,1.1947083E0,-7.6056165E-1,-1.6092438E-1,-5.5081236E-1,3.638352E-1,1.4892013E-1,-1.1970718E0,-3.1922236E-1,7.415339E-1,-9.34554E-2,9.2460775E-1,6.926612E-2,-9.989976E-1,1.1784948E0,-8.6231485E-2,1.0241972E0,-1.982002E-1,5.647102E-1,-8.877478E-1,-7.605335E-1,4.2870995E-1,9.190552E-1,-6.68733E-1,3.67956E-1,-6.5764976E-1,5.0004596E-1,-4.4878046E-3,-4.130743E-1,-1.2415179E0,3.3352613E-1,-5.0989115E-1,-6.9162536E-1,3.2863742E-1,5.8270015E-2,-1.2720726E0,-3.29439E-1,1.9492957E-1,-1.9604467E-1,2.3129141E-1,1.6638893E-1,-1.05870605E-1,-4.9917247E-2,4.6743745E-1,2.558762E-1,-2.672119E-2,2.0430428E-1,-4.1276255E-1,4.499334E-2,4.261985E-1,-2.3015438E-1,1.895284E-1,3.6436537E-1,-1.2592527E-1,-1.7878987E-1,3.3358115E-1,-4.025313E-1,2.4648955E-2,-3.2245505E-1,1.5530232E-1,2.0498295E-1,-1.3236502E-1,4.1234165E-1,-4.538218E-2,-9.9380024E-2,-3.0954552E-1,-1.1144513E-1,2.9250354E-1,-3.4557962E-1,8.6004E-3,8.61963E-2,-2.2388901E-1,7.116151E-2,-4.0503713E-1,3.2189485E-1,-1.0901102E-1,-2.4283727E-1,1.3626845E-1,-3.072905E-1,-9.137784E-2,-9.384449E-2,3.7914905E-1,9.877481E-2,-4.0002882E-1],"categories":[],"categories_nodes":[],"categories_segments":[],"categories_sizes":[],"default_left":[0,0,0,0,0,0,0,0,0,0,0,0,0,0,0,0,0,0,0,0,0,0,0,0,0,0,0,0,0,0,0,0,0,0,0,0,0,0,0,0,0,0,0,0,0,0,0,0,0,0,0,0,0,0,0,0,0,0,0,0,0,0,0,0,0,0,0,0,0,0,0,0,0,0,0,0,0,0,0,0,0,0,0,0,0,0,0,0,0,0,0,0,0,0,0,0,0,0,0,0,0,0,0,0,0,0,0],"id":1,"left_children":[1,3,5,7,9,11,13,15,17,19,21,23,25,27,29,31,33,35,37,39,41,43,45,47,49,51,53,55,-1,-1,57,59,61,63,65,67,69,71,73,75,-1,77,79,81,83,85,87,89,91,-1,-1,93,95,97,99,101,103,-1,105,-1,-1,-1,-1,-1,-1,-1,-1,-1,-1,-1,-1,-1,-1,-1,-1,-1,-1,-1,-1,-1,-1,-1,-1,-1,-1,-1,-1,-1,-1,-1,-1,-1,-1,-1,-1,-1,-1,-1,-1,-1,-1,-1,-1,-1,-1,-1,-1],"loss_changes":[9.05195E1,4.1749588E1,1.0943188E1,1.8553894E1,1.1565273E1,9.303609E0,9.248455E0,1.2480377E1,1.1516252E1,7.7614546E0,8.684261E0,8.987753E0,7.5764675E0,6.4095926E0,5.3999863E0,9.7997055E0,6.549797E0,1.0106897E1,3.4085903E0,6.926774E0,6.0487685E0,1.0021164E1,1.0198555E1,9.838191E0,3.5181675E0,7.7738667E0,6.8648763E0,7.317011E0,0E0,0E0,4.492218E0,7.9598885E0,8.225182E0,6.22889E0,5.5681973E0,1.0565982E1,7.2020006E0,2.5582104E0,2.1835146E0,4.5614586E0,0E0,3.7932796E0,3.2431927E0,4.719861E0,5.2675767E0,2.3770323E0,7.9874134E0,9.342823E0,6.006181E0,0E0,0E0,7.2824516E0,3.5802288E0,8.974257E0,7.051443E0,6.0834217E0,5.5419216E0,0E0,4.2446938E0,0E0,0E0,0E0,0E0,0E0,0E0,0E0,0E0,0E0,0E0,0E0,0E0,0E0,0E0,0E0,0E0,0E0,0E0,0E0,0E0,0E0,0E0,0E0,0E0,0E0,0E0,0E0,0E0,0E0,0E0,0E0,0E0,0E0,0E0,0E0,0E0,0E0,0E0,0E0,0E0,0E0,0E0,0E0,0E0,0E0,0E0,0E0,0E0],"parents":[2147483647,0,0,1,1,2,2,3,3,4,4,5,5,6,6,7,7,8,8,9,9,10,10,11,11,12,12,13,13,14,14,15,15,16,16,17,17,18,18,19,19,20,20,21,21,22,22,23,23,24,24,25,25,26,26,27,27,30,30,31,31,32,32,33,33,34,34,35,35,36,36,37,37,38,38,39,39,41,41,42,42,43,43,44,44,45,45,46,46,47,47,48,48,51,51,52,52,53,53,54,54,55,55,56,56,58,58],"right_children":[2,4,6,8,10,12,14,16,18,20,22,24,26,28,30,32,34,36,38,40,42,44,46,48,50,52,54,56,-1,-1,58,60,62,64,66,68,70,72,74,76,-1,78,80,82,84,86,88,90,92,-1,-1,94,96,98,100,102,104,-1,106,-1,-1,-1,-1,-1,-1,-1,-1,-1,-1,-1,-1,-1,-1,-1,-1,-1,-1,-1,-1,-1,-1,-1,-1,-1,-1,-1,-1,-1,-1,-1,-1,-1,-1,-1,-1,-1,-1,-1,-1,-1,-1,-1,-1,-1,-1,-1,-1],"split_conditions":[8E3,8E3,8E3,8E3,6E3,6E3,1E4,8E3,1.2E4,8E3,6E3,1.2E4,8E3,1.4E4,4E3,4E3,1E4,1.2E4,1E4,1E4,6E3,6E3,4E3,8E3,8E3,8E3,8E3,1.2E4,3.638352E-1,1.4892013E-1,4E3,8E3,2E3,6E3,6E3,4E3,4E3,6E3,6E3,1E4,-1.982002E-1,6E3,8E3,8E3,1.2E4,8E3,6E3,8E3,8E3,5.0004596E-1,-4.4878046E-3,6E3,4E3,8E3,1E4,8E3,8E3,5.8270015E-2,2E3,-3.29439E-1,1.9492957E-1,-1.9604467E-1,2.3129141E-1,1.6638893E-1,-1.05870605E-1,-4.9917247E-2,4.6743745E-1,2.558762E-1,-2.672119E-2,2.0430428E-1,-4.1276255E-1,4.499334E-2,4.261985E-1,-2.3015438E-1,1.895284E-1,3.6436537E-1,-1.2592527E-1,-1.7878987E-1,3.3358115E-1,-4.025313E-1,2.4648955E-2,-3.2245505E-1,1.5530232E-1,2.0498295E-1,-1.3236502E-1,4.1234165E-1,-4.538218E-2,-9.9380024E-2,-3.0954552E-1,-1.1144513E-1,2.9250354E-1,-3.4557962E-1,8.6004E-3,8.61963E-2,-2.2388901E-1,7.116151E-2,-4.0503713E-1,3.2189485E-1,-1.0901102E-1,-2.4283727E-1,1.3626845E-1,-3.072905E-1,-9.137784E-2,-9.384449E-2,3.7914905E-1,9.877481E-2,-4.0002882E-1],"split_indices":[136,139,140,142,141,25,137,135,3,52,88,86,11,76,68,45,15,23,129,74,127,83,91,93,138,116,135,133,0,0,124,13,139,103,57,139,44,115,40,82,0,87,44,132,139,108,135,127,20,0,0,76,61,8,24,27,20,0,77,0,0,0,0,0,0,0,0,0,0,0,0,0,0,0,0,0,0,0,0,0,0,0,0,0,0,0,0,0,0,0,0,0,0,0,0,0,0,0,0,0,0,0,0,0,0,0,0],"split_type":[0,0,0,0,0,0,0,0,0,0,0,0,0,0,0,0,0,0,0,0,0,0,0,0,0,0,0,0,0,0,0,0,0,0,0,0,0,0,0,0,0,0,0,0,0,0,0,0,0,0,0,0,0,0,0,0,0,0,0,0,0,0,0,0,0,0,0,0,0,0,0,0,0,0,0,0,0,0,0,0,0,0,0,0,0,0,0,0,0,0,0,0,0,0,0,0,0,0,0,0,0,0,0,0,0,0,0],"sum_hessian":[6.9515515E2,4.694327E2,2.2572243E2,3.4222458E2,1.27208115E2,1.2711462E2,9.860782E1,2.3718724E2,1.05037346E2,2.5992733E1,1.01215385E2,4.073112E1,8.638349E1,5.7470543E1,4.1137276E1,1.9562509E2,4.1562157E1,9.243627E1,1.2601075E1,1.5949357E1,1.0043376E1,3.0787918E1,7.042747E1,3.561442E1,5.116697E0,4.8583508E1,3.7799988E1,5.6249935E1,1.2206081E0,1.4551455E0,3.968213E1,8.600987E0,1.8702411E2,3.4881023E1,6.6811333E0,8.354142E1,8.894851E0,1.0126377E1,2.474698E0,1.3740703E1,2.2086544E0,3.9288914E0,6.114485E0,9.36295E0,2.1424969E1,3.44995E0,6.6977516E1,1.9006681E1,1.6607742E1,3.4085038E0,1.7081931E0,2.9284521E1,1.9298985E1,1.5658181E1,2.2141806E1,4.8670612E1,7.579321E0,1.9484055E0,3.7733723E1,4.6942787E0,3.9067085E0,3.4269123E0,1.8359718E2,9.646582E0,2.5234442E1,2.725251E0,3.955882E0,1.3304892E1,7.023653E1,1.4819136E0,7.412937E0,2.2384937E0,7.887883E0,1.2349521E0,1.239746E0,1.2280629E1,1.4600732E0,1.2303132E0,2.6985781E0,3.9037242E0,2.2107606E0,7.64268E0,1.7202703E0,1.6740698E1,4.6842694E0,2.2208407E0,1.2291092E0,3.570459E1,3.1272924E1,8.743948E0,1.0262733E1,9.260184E0,7.3475575E0,9.485285E0,1.9799236E1,1.2394302E0,1.8059555E1,7.335273E0,8.322908E0,1.701531E1,5.126496E0,2.5287785E1,2.3382828E1,4.8904495E0,2.6888714E0,1.2313406E0,3.6502384E1],"tree_param":{"num_deleted":"0","num_feature":"145","num_nodes":"107","size_leaf_vector":"1"}},{"base_weights":[1.7082752E-3,1.956157E-1,-4.1520146E-1,3.4256387E-1,-2.0550779E-1,-2.0647343E-1,-6.962452E-1,8.075722E-1,2.3279555E-1,1.3141954E-1,-3.9343047E-1,1.6394697E-1,-3.951532E-1,-7.442239E-1,6.566194E-1,-3.3497405E-1,8.836646E-1,6.7010236E-1,1.3156526E-1,6.273643E-1,-1.0411236E-1,6.5673065E-1,-4.649387E-1,4.412184E-1,-4.5839977E-1,-5.335722E-1,3.041123E-1,-3.4103936E-1,-9.166397E-1,3.3968103E-1,-5.491693E-2,-1.6138428E-1,9.1921264E-1,-2.9999316E-1,7.2835827E-1,8.309718E-1,7.8480184E-2,-1.8748128E-1,9.892614E-1,3.7558433E-1,-2.5857812E-1,-2.6063576E-1,1.249809E0,-6.1547354E-2,-6.439657E-1,7.612041E-1,-5.0736688E-2,-6.9737476E-1,2.7046314E-1,-6.000062E-1,3.53055E-1,1.0367472E0,-5.385027E-1,-5.3739125E-1,9.7576445E-1,3.7013856E-1,-9.803971E-1,2.9276004E-1,-3.2923203E-2,2.3676139E-1,-2.9575464E-1,-4.9276873E-3,3.9969477E-1,3.2242376E-2,-3.3173802E-1,-3.0322438E-1,2.083925E-1,3.715311E-1,-1.5397963E-1,-6.1029713E-3,-3.967743E-1,4.3886453E-1,1.1174084E-1,8.447402E-2,-1.8569003E-1,-2.3113415E-1,5.620211E-2,3.9057106E-1,5.9484635E-2,-1.7464165E-1,2.7865207E-1,2.2231768E-1,-2.776741E-1,-2.2417624E-1,3.5597704E-2,-1.4400354E-1,4.1284952E-1,-2.702091E-1,2.0972852E-1,-3.8332114E-1,-6.297573E-2,4.032572E-1,1.0341268E-2,-1.9107516E-1,3.951774E-1,-3.0882767E-1,1.8068975E-1],"categories":[],"categories_nodes":[],"categories_segments":[],"categories_sizes":[],"default_left":[0,0,0,0,0,0,0,0,0,0,0,0,0,0,0,0,0,0,0,0,0,0,0,0,0,0,0,0,0,0,0,0,0,0,0,0,0,0,0,0,0,0,0,0,0,0,0,0,0,0,0,0,0,0,0,0,0,0,0,0,0,0,0,0,0,0,0,0,0,0,0,0,0,0,0,0,0,0,0,0,0,0,0,0,0,0,0,0,0,0,0,0,0,0,0,0,0],"id":2,"left_children":[1,3,5,7,9,11,13,15,17,19,21,23,25,27,29,-1,31,33,35,37,39,41,43,45,47,49,51,53,55,-1,-1,-1,57,-1,59,61,63,65,67,-1,69,-1,71,73,75,77,79,81,-1,83,-1,85,87,89,91,93,95,-1,-1,-1,-1,-1,-1,-1,-1,-1,-1,-1,-1,-1,-1,-1,-1,-1,-1,-1,-1,-1,-1,-1,-1,-1,-1,-1,-1,-1,-1,-1,-1,-1,-1,-1,-1,-1,-1,-1,-1],"loss_changes":[5.464982E1,2.726732E1,1.2445286E1,1.706791E1,7.924128E0,8.770876E0,6.3977737E0,1.0380154E1,1.2081645E1,5.3530784E0,6.3179913E0,7.5781913E0,8.178795E0,5.831707E0,1.6647636E0,0E0,3.6415672E0,5.732155E0,8.269175E0,4.525758E0,6.9322224E0,6.0790586E0,5.4163036E0,4.7737293E0,5.069646E0,8.603415E0,9.400023E0,7.781612E0,5.39365E0,0E0,0E0,0E0,3.6703377E0,0E0,6.0219746E0,6.705261E0,7.320932E0,4.5998683E0,4.5110464E0,0E0,7.3626204E0,0E0,2.7465868E-1,4.827427E0,5.635008E0,5.30814E0,7.1995397E0,4.6861444E0,0E0,7.2384014E0,0E0,4.7807016E0,3.91062E0,5.810033E0,1.3399427E0,4.2924814E0,5.1748734E0,0E0,0E0,0E0,0E0,0E0,0E0,0E0,0E0,0E0,0E0,0E0,0E0,0E0,0E0,0E0,0E0,0E0,0E0,0E0,0E0,0E0,0E0,0E0,0E0,0E0,0E0,0E0,0E0,0E0,0E0,0E0,0E0,0E0,0E0,0E0,0E0,0E0,0E0,0E0,0E0],"parents":[2147483647,0,0,1,1,2,2,3,3,4,4,5,5,6,6,7,7,8,8,9,9,10,10,11,11,12,12,13,13,14,14,16,16,17,17,18,18,19,19,20,20,21,21,22,22,23,23,24,24,25,25,26,26,27,27,28,28,32,32,34,34,35,35,36,36,37,37,38,38,40,40,42,42,43,43,44,44,45,45,46,46,47,47,49,49,51,51,52,52,53,53,54,54,55,55,56,56],"right_children":[2,4,6,8,10,12,14,16,18,20,22,24,26,28,30,-1,32,34,36,38,40,42,44,46,48,50,52,54,56,-1,-1,-1,58,-1,60,62,64,66,68,-1,70,-1,72,74,76,78,80,82,-1,84,-1,86,88,90,92,94,96,-1,-1,-1,-1,-1,-1,-1,-1,-1,-1,-1,-1,-1,-1,-1,-1,-1,-1,-1,-1,-1,-1,-1,-1,-1,-1,-1,-1,-1,-1,-1,-1,-1,-1,-1,-1,-1,-1,-1,-1],"split_conditions":[8E3,8E3,8E3,4E3,6E3,8E3,1.4E4,2E3,4E3,6E3,4E3,8E3,1E4,6E3,6E3,-3.3497405E-1,2E3,2E3,4E3,6E3,4E3,6E3,6E3,8E3,1E4,1.4E4,8E3,8E3,4E3,3.3968103E-1,-5.491693E-2,-1.6138428E-1,1E4,-2.9999316E-1,1.4E4,6E3,1.4E4,8E3,1.2E4,3.7558433E-1,1E4,-2.6063576E-1,8E3,8E3,1.2E4,6E3,6E3,4E3,2.7046314E-1,1E4,3.53055E-1,4E3,1E4,6E3,8E3,8E3,1.4E4,2.9276004E-1,-3.2923203E-2,2.3676139E-1,-2.9575464E-1,-4.9276873E-3,3.9969477E-1,3.2242376E-2,-3.3173802E-1,-3.0322438E-1,2.083925E-1,3.715311E-1,-1.5397963E-1,-6.1029713E-3,-3.967743E-1,4.3886453E-1,1.1174084E-1,8.447402E-2,-1.8569003E-1,-2.3113415E-1,5.620211E-2,3.9057106E-1,5.9484635E-2,-1.7464165E-1,2.7865207E-1,2.2231768E-1,-2.776741E-1,-2.2417624E-1,3.5597704E-2,-1.4400354E-1,4.1284952E-1,-2.702091E-1,2.0972852E-1,-3.8332114E-1,-6.297573E-2,4.032572E-1,1.0341268E-2,-1.9107516E-1,3.951774E-1,-3.0882767E-1,1.8068975E-1],"split_indices":[138,135,143,139,137,137,123,138,138,82,27,135,22,37,92,0,112,92,76,23,61,127,42,53,100,105,98,38,120,0,0,0,142,0,2,44,83,56,65,0,129,0,18,71,127,142,133,107,0,15,0,67,63,80,129,134,40,0,0,0,0,0,0,0,0,0,0,0,0,0,0,0,0,0,0,0,0,0,0,0,0,0,0,0,0,0,0,0,0,0,0,0,0,0,0,0,0],"split_type":[0,0,0,0,0,0,0,0,0,0,0,0,0,0,0,0,0,0,0,0,0,0,0,0,0,0,0,0,0,0,0,0,0,0,0,0,0,0,0,0,0,0,0,0,0,0,0,0,0,0,0,0,0,0,0,0,0,0,0,0,0,0,0,0,0,0,0,0,0,0,0,0,0,0,0,0,0,0,0,0,0,0,0,0,0,0,0,0,0,0,0,0,0,0,0,0,0],"sum_hessian":[6.7400397E2,4.603998E2,2.1360414E2,3.370649E2,1.23334885E2,1.2356698E2,9.0037155E1,6.3157143E1,2.7390778E2,4.4267746E1,7.906714E1,4.174444E1,8.182254E1,8.738788E1,2.6492796E0,1.8824159E0,6.1274727E1,5.0430862E1,2.2347691E2,1.3718325E1,3.0549421E1,4.5189137E0,7.4548225E1,2.907972E1,1.2664721E1,6.8499985E1,1.332256E1,2.7068272E1,6.0319607E1,1.4687927E0,1.1804869E0,1.1500419E0,6.0124687E1,1.1549691E0,4.927589E1,1.4731598E1,2.0874532E2,4.3671722E0,9.351152E0,2.3974156E0,2.8152006E1,1.1348855E0,3.3840282E0,2.3328115E1,5.122011E1,1.7287796E1,1.1791923E1,1.1186232E1,1.4784888E0,6.6563805E1,1.9361794E0,7.003115E0,6.3194447E0,2.4070898E1,2.9973738E0,2.62077E0,5.7698837E1,5.70359E1,3.0887876E0,4.8107895E1,1.1679959E0,5.8354535E0,8.896144E0,2.0464429E2,4.1010275E0,2.1835234E0,2.183649E0,8.171735E0,1.1794176E0,2.383448E1,4.3175254E0,2.1857786E0,1.1982496E0,1.4745912E1,8.582205E0,4.451974E1,6.7003703E0,8.1483555E0,9.1394415E0,7.907808E0,3.8841143E0,1.2239641E0,9.962268E0,5.521166E1,1.1352144E1,1.2048358E0,5.7982793E0,5.0993075E0,1.2201374E0,6.492009E0,1.757889E1,1.8465873E0,1.1507865E0,1.4289323E0,1.1918375E0,5.6304234E1,1.3946025E0],"tree_param":{"num_deleted":"0","num_feature":"145","num_nodes":"97","size_leaf_vector":"1"}},{"base_weights":[2.6073793E-3,1.5168451E-1,-3.0090818E-1,3.6273214E-1,8.600192E-3,-1.3880737E-1,-5.367565E-1,9.232105E-1,2.894809E-1,-1.5448155E-1,2.1177192E-1,2.5372526E-1,-3.1421116E-1,-3.364413E-2,-6.9521654E-1,-3.109946E-1,1.1198273E0,-3.0957717E-2,4.1747487E-1,-2.4020739E-1,7.5946975E-1,4.2906567E-1,-1.4851241E-1,-6.933134E-2,6.439577E-1,-3.654302E-1,3.3749396E-1,8.889915E-1,-4.92138E-1,-8.081277E-1,5.380488E-3,-1.2195018E-1,1.3074889E0,3.0034208E-1,-4.5408285E-1,-9.950526E-1,4.6309024E-1,-3.4738842E-1,3.647491E-1,7.966903E-2,1.265166E0,1.4666456E-1,7.8472537E-1,-4.2507066E-3,-1.0920228E0,-3.8537738E-1,5.772727E-1,-2.4425648E-1,1.0038909E0,-4.6388066E-1,3.5028523E-1,-1.2153985E-1,1.2174096E0,-9.386332E-1,9.817003E-2,4.75358E-1,-8.719029E-1,1.0811772E0,-6.6654205E-1,-1.6259763E-2,4.237625E-1,-5.7127144E-2,2.1788418E-1,4.132382E-2,-3.1558058E-1,-4.5127743E-1,2.6115298E-2,7.5521864E-2,2.1820596E-1,-1.3951027E-1,8.415069E-2,-3.5902163E-1,1.6738263E-1,-2.6482093E-1,2.2659089E-1,4.4453797E-1,6.872036E-2,-2.0546395E-2,3.0624416E-1,2.8798443E-1,5.620753E-3,1.0829013E-1,-1.4233355E-1,-1.6530307E-2,-4.0038505E-1,1.013527E-1,-2.2740057E-1,2.8332886E-1,-2.5463274E-1,2.0539916E-1,-2.793796E-1,-3.8680278E-2,3.966834E-1,-1.7056286E-1,6.36893E-2,2.4631356E-1,-1.4815654E-1,4.4579247E-1,-1.003287E-2,-3.9326072E-1,5.276138E-3,2.0139198E-1,-2.3390327E-1,3.320065E-1,-1.2463951E-1,-1.841021E-3,-2.8670928E-1,4.8837093E-1,-8.770606E-2,6.936992E-2,-3.0781582E-1],"categories":[],"categories_nodes":[],"categories_segments":[],"categories_sizes":[],"default_left":[0,0,0,0,0,0,0,0,0,0,0,0,0,0,0,0,0,0,0,0,0,0,0,0,0,0,0,0,0,0,0,0,0,0,0,0,0,0,0,0,0,0,0,0,0,0,0,0,0,0,0,0,0,0,0,0,0,0,0,0,0,0,0,0,0,0,0,0,0,0,0,0,0,0,0,0,0,0,0,0,0,0,0,0,0,0,0,0,0,0,0,0,0,0,0,0,0,0,0,0,0,0,0,0,0,0,0,0,0,0,0],"id":3,"left_children":[1,3,5,7,9,11,13,15,17,19,21,23,25,27,29,-1,31,33,35,37,39,41,43,45,47,49,-1,51,53,55,57,-1,59,61,63,65,67,69,71,73,75,77,79,81,83,85,87,89,91,93,95,-1,97,99,101,103,105,107,109,-1,-1,-1,-1,-1,-1,-1,-1,-1,-1,-1,-1,-1,-1,-1,-1,-1,-1,-1,-1,-1,-1,-1,-1,-1,-1,-1,-1,-1,-1,-1,-1,-1,-1,-1,-1,-1,-1,-1,-1,-1,-1,-1,-1,-1,-1,-1,-1,-1,-1,-1,-1],"loss_changes":[2.9618301E1,1.3252578E1,8.168688E0,7.013418E0,8.734558E0,8.970865E0,6.950762E0,8.883511E0,6.5052767E0,1.1642284E1,9.251751E0,5.1422625E0,7.023163E0,9.745699E0,5.2629166E0,0E0,5.886236E0,6.6004753E0,7.753502E0,8.8465805E0,4.2936993E0,7.263751E0,6.106327E0,4.9277234E0,6.1311593E0,6.318884E0,0E0,3.7492461E0,4.136094E0,5.1011124E0,8.108122E0,0E0,2.4919224E0,5.670314E0,7.450708E0,2.2569256E0,5.978756E0,8.607236E0,6.9208E0,4.9063177E0,1.2907362E0,8.003012E0,4.315365E0,7.030949E0,1.4232707E0,4.585481E0,4.9690914E0,4.539131E0,4.966564E0,5.586735E0,4.830325E0,0E0,2.1862545E0,3.1661E0,4.30325E0,2.3480473E0,3.976818E0,3.7128592E0,2.467335E0,0E0,0E0,0E0,0E0,0E0,0E0,0E0,0E0,0E0,0E0,0E0,0E0,0E0,0E0,0E0,0E0,0E0,0E0,0E0,0E0,0E0,0E0,0E0,0E0,0E0,0E0,0E0,0E0,0E0,0E0,0E0,0E0,0E0,0E0,0E0,0E0,0E0,0E0,0E0,0E0,0E0,0E0,0E0,0E0,0E0,0E0,0E0,0E0,0E0,0E0,0E0,0E0],"parents":[2147483647,0,0,1,1,2,2,3,3,4,4,5,5,6,6,7,7,8,8,9,9,10,10,11,11,12,12,13,13,14,14,16,16,17,17,18,18,19,19,20,20,21,21,22,22,23,23,24,24,25,25,27,27,28,28,29,29,30,30,32,32,33,33,34,34,35,35,36,36,37,37,38,38,39,39,40,40,41,41,42,42,43,43,44,44,45,45,46,46,47,47,48,48,49,49,50,50,52,52,53,53,54,54,55,55,56,56,57,57,58,58],"right_children":[2,4,6,8,10,12,14,16,18,20,22,24,26,28,30,-1,32,34,36,38,40,42,44,46,48,50,-1,52,54,56,58,-1,60,62,64,66,68,70,72,74,76,78,80,82,84,86,88,90,92,94,96,-1,98,100,102,104,106,108,110,-1,-1,-1,-1,-1,-1,-1,-1,-1,-1,-1,-1,-1,-1,-1,-1,-1,-1,-1,-1,-1,-1,-1,-1,-1,-1,-1,-1,-1,-1,-1,-1,-1,-1,-1,-1,-1,-1,-1,-1,-1,-1,-1,-1,-1,-1,-1,-1,-1,-1,-1,-1],"split_conditions":[8E3,6E3,8E3,4E3,8E3,6E3,6E3,2E3,6E3,1.2E4,8E3,8E3,1.4E4,6E3,1E4,-3.109946E-1,4E3,8E3,2E3,1E4,6E3,8E3,1E4,1E4,6E3,1.2E4,3.3749396E-1,6E3,8E3,4E3,6E3,-1.2195018E-1,4E3,8E3,8E3,8E3,8E3,1E4,4E3,8E3,1E4,1E4,1E4,8E3,6E3,6E3,1E4,6E3,8E3,1.2E4,8E3,-1.2153985E-1,1E4,1E4,1E4,8E3,4E3,8E3,6E3,-1.6259763E-2,4.237625E-1,-5.7127144E-2,2.1788418E-1,4.132382E-2,-3.1558058E-1,-4.5127743E-1,2.6115298E-2,7.5521864E-2,2.1820596E-1,-1.3951027E-1,8.415069E-2,-3.5902163E-1,1.6738263E-1,-2.6482093E-1,2.2659089E-1,4.4453797E-1,6.872036E-2,-2.0546395E-2,3.0624416E-1,2.8798443E-1,5.620753E-3,1.0829013E-1,-1.4233355E-1,-1.6530307E-2,-4.0038505E-1,1.013527E-1,-2.2740057E-1,2.8332886E-1,-2.5463274E-1,2.0539916E-1,-2.793796E-1,-3.8680278E-2,3.966834E-1,-1.7056286E-1,6.36893E-2,2.4631356E-1,-1.4815654E-1,4.4579247E-1,-1.003287E-2,-3.9326072E-1,5.276138E-3,2.0139198E-1,-2.3390327E-1,3.320065E-1,-1.2463951E-1,-1.841021E-3,-2.8670928E-1,4.8837093E-1,-8.770606E-2,6.936992E-2,-3.0781582E-1],"split_indices":[135,142,139,137,4,92,142,138,106,132,139,9,103,47,37,0,58,98,140,48,72,24,33,133,26,115,0,82,23,107,42,0,80,80,60,88,57,12,105,110,15,58,80,122,81,113,17,71,8,86,53,0,96,13,126,85,27,16,55,0,0,0,0,0,0,0,0,0,0,0,0,0,0,0,0,0,0,0,0,0,0,0,0,0,0,0,0,0,0,0,0,0,0,0,0,0,0,0,0,0,0,0,0,0,0,0,0,0,0,0,0],"split_type":[0,0,0,0,0,0,0,0,0,0,0,0,0,0,0,0,0,0,0,0,0,0,0,0,0,0,0,0,0,0,0,0,0,0,0,0,0,0,0,0,0,0,0,0,0,0,0,0,0,0,0,0,0,0,0,0,0,0,0,0,0,0,0,0,0,0,0,0,0,0,0,0,0,0,0,0,0,0,0,0,0,0,0,0,0,0,0,0,0,0,0,0,0,0,0,0,0,0,0,0,0,0,0,0,0,0,0,0,0,0,0],"sum_hessian":[6.5257947E2,4.3796518E2,2.1461424E2,1.7633626E2,2.6162894E2,1.2813463E2,8.6479614E1,1.9041067E1,1.572952E2,1.4526631E2,1.1636261E2,3.943572E1,8.869891E1,2.1004E1,6.547562E1,1.3465304E0,1.7694538E1,4.5112404E1,1.1218279E2,1.3348318E2,1.1783137E1,7.2466125E1,4.389649E1,2.2024727E1,1.741099E1,8.6371155E1,2.3277557E0,6.661003E0,1.4342998E1,5.6255726E1,9.2198925E0,1.8096664E0,1.5884871E1,2.5464396E1,1.9648008E1,2.8583088E0,1.09324486E2,1.1375483E2,1.9728348E1,5.520093E0,6.263044E0,4.118041E1,3.1285717E1,3.8946167E1,4.950321E0,1.5065187E1,6.959539E0,5.113556E0,1.2297435E1,7.623631E1,1.0134846E1,1.3009703E0,5.3600326E0,7.8302813E0,6.512716E0,2.3574772E0,5.3898247E1,3.3104854E0,5.9094076E0,1.1723967E0,1.4712474E1,1.2088718E1,1.3375677E1,1.0260491E1,9.387517E0,1.6783866E0,1.1799221E0,6.182836E1,4.7496124E1,9.6022736E1,1.7732096E1,1.6001959E0,1.8128153E1,2.1504118E0,3.3696814E0,4.824229E0,1.4388151E0,3.3786304E1,7.3941016E0,2.5255274E1,6.0304437E0,2.2050789E1,1.6895378E1,1.1712348E0,3.779086E0,5.154419E0,9.910769E0,5.803161E0,1.156378E0,2.1754687E0,2.9380872E0,2.8285294E0,9.468905E0,6.615561E1,1.0080703E1,6.5239377E0,3.610908E0,4.2578735E0,1.1021594E0,5.3692594E0,2.461022E0,4.0825486E0,2.4301674E0,1.2378712E0,1.119606E0,4.8510003E0,4.904725E1,2.2354727E0,1.0750124E0,1.7917744E0,4.1176333E0],"tree_param":{"num_deleted":"0","num_feature":"145","num_nodes":"111","size_leaf_vector":"1"}},{"base_weights":[2.545552E-3,1.2401567E-1,-2.6585233E-1,5.319681E-1,4.6760395E-2,-9.244966E-2,-4.724103E-1,-3.4379625E-1,6.324213E-1,1.7707105E-1,-1.921369E-1,8.248283E-1,-1.619129E-1,-5.105539E-1,2.6284942E-1,-1.0120082E0,4.8444283E-1,2.4781296E-1,8.074211E-1,9.1950476E-2,6.316892E-1,3.4702688E-1,-4.252698E-1,-3.1057385E-1,1.3664774E0,2.1913467E-1,-3.3032072E-1,3.9684033E-1,-5.700657E-1,-3.9017412E-1,-4.339705E-3,-2.2566177E-1,3.4454632E-1,-3.8561738E-1,8.0267817E-1,-1.702131E-1,8.6535156E-1,-1.2753992E0,1.2307344E-1,-7.4258E-2,8.8837844E-1,5.168051E-1,-6.952855E-1,-5.0643724E-1,3.7390703E-1,1.2428541E-1,-2.4606678E-1,5.304589E-1,1.0020308E-2,6.6395074E-1,-1.8158981E-1,-4.923103E-1,3.1126687E-1,-4.0202725E-1,1.0362136E0,-9.014593E-1,-4.0532893E-1,-2.9281512E-1,1.6314942E-1,3.2114723E-1,-2.1757565E-1,3.510054E-1,1.6806306E-1,-8.132317E-2,-4.5911065E-1,1.2638816E-1,-6.560326E-3,-1.4456251E-1,3.392634E-1,6.645242E-2,3.559325E-1,4.281436E-2,3.1616706E-1,8.233592E-2,-3.625239E-1,-4.6928633E-2,-2.0929699E-1,-8.598046E-2,3.9831373E-1,-1.10233985E-1,3.0162203E-1,3.4821028E-1,-1.0578264E-1,-1.03054926E-1,-3.3451176E-1,2.4385743E-1,-1.7021284E-1,-2.4866837E-1,7.578205E-2,9.267485E-2,3.763492E-1,1.7286569E-1,-3.0124918E-1,-3.790712E-2,-2.2403507E-1],"categories":[],"categories_nodes":[],"categories_segments":[],"categories_sizes":[],"default_left":[0,0,0,0,0,0,0,0,0,0,0,0,0,0,0,0,0,0,0,0,0,0,0,0,0,0,0,0,0,0,0,0,0,0,0,0,0,0,0,0,0,0,0,0,0,0,0,0,0,0,0,0,0,0,0,0,0,0,0,0,0,0,0,0,0,0,0,0,0,0,0,0,0,0,0,0,0,0,0,0,0,0,0,0,0,0,0,0,0,0,0,0,0,0,0],"id":4,"left_children":[1,3,5,7,9,11,13,15,17,19,21,23,25,27,-1,29,31,33,35,37,39,41,43,45,47,49,51,53,55,-1,-1,-1,-1,57,59,-1,61,63,65,67,69,71,73,75,77,-1,-1,-1,-1,79,81,83,85,87,89,91,93,-1,-1,-1,-1,-1,-1,-1,-1,-1,-1,-1,-1,-1,-1,-1,-1,-1,-1,-1,-1,-1,-1,-1,-1,-1,-1,-1,-1,-1,-1,-1,-1,-1,-1,-1,-1,-1,-1],"loss_changes":[2.0708494E1,1.3756258E1,7.044858E0,6.333847E0,1.1513271E1,7.0679345E0,5.080736E0,4.808231E0,4.021618E0,9.195076E0,1.6566818E1,5.2369366E0,6.6182137E0,4.9906597E0,0E0,1.3174262E0,4.280164E0,7.7106476E0,3.889021E0,8.777792E0,6.868541E0,7.4347243E0,6.1339874E0,1.5745056E0,2.8773003E0,5.8006024E0,7.546817E0,3.4914331E0,4.177227E0,0E0,0E0,0E0,0E0,6.2974787E0,5.5024166E0,0E0,3.1874847E0,7.621412E-1,8.61E0,5.915585E0,5.2246113E0,6.8728657E0,3.3305655E0,5.4873085E0,6.0660753E0,0E0,0E0,0E0,0E0,5.7636623E0,4.4377666E0,4.915741E0,7.051439E0,1.1585546E0,1.8769097E-1,4.6477337E0,5.3730707E0,0E0,0E0,0E0,0E0,0E0,0E0,0E0,0E0,0E0,0E0,0E0,0E0,0E0,0E0,0E0,0E0,0E0,0E0,0E0,0E0,0E0,0E0,0E0,0E0,0E0,0E0,0E0,0E0,0E0,0E0,0E0,0E0,0E0,0E0,0E0,0E0,0E0,0E0],"parents":[2147483647,0,0,1,1,2,2,3,3,4,4,5,5,6,6,7,7,8,8,9,9,10,10,11,11,12,12,13,13,15,15,16,16,17,17,18,18,19,19,20,20,21,21,22,22,23,23,24,24,25,25,26,26,27,27,28,28,33,33,34,34,36,36,37,37,38,38,39,39,40,40,41,41,42,42,43,43,44,44,49,49,50,50,51,51,52,52,53,53,54,54,55,55,56,56],"right_children":[2,4,6,8,10,12,14,16,18,20,22,24,26,28,-1,30,32,34,36,38,40,42,44,46,48,50,52,54,56,-1,-1,-1,-1,58,60,-1,62,64,66,68,70,72,74,76,78,-1,-1,-1,-1,80,82,84,86,88,90,92,94,-1,-1,-1,-1,-1,-1,-1,-1,-1,-1,-1,-1,-1,-1,-1,-1,-1,-1,-1,-1,-1,-1,-1,-1,-1,-1,-1,-1,-1,-1,-1,-1,-1,-1,-1,-1,-1,-1],"split_conditions":[8E3,4E3,8E3,2E3,8E3,4E3,1.8E4,8E3,6E3,1E4,6E3,6E3,6E3,4E3,2.6284942E-1,1E4,6E3,8E3,2E3,2E3,6E3,1E4,1.2E4,8E3,6E3,8E3,1E4,8E3,6E3,-3.9017412E-1,-4.339705E-3,-2.2566177E-1,3.4454632E-1,8E3,1E4,-1.702131E-1,8E3,8E3,6E3,1.2E4,6E3,8E3,6E3,6E3,1E4,1.2428541E-1,-2.4606678E-1,5.304589E-1,1.0020308E-2,6E3,4E3,1E4,8E3,8E3,6E3,4E3,8E3,-2.9281512E-1,1.6314942E-1,3.2114723E-1,-2.1757565E-1,3.510054E-1,1.6806306E-1,-8.132317E-2,-4.5911065E-1,1.2638816E-1,-6.560326E-3,-1.4456251E-1,3.392634E-1,6.645242E-2,3.559325E-1,4.281436E-2,3.1616706E-1,8.233592E-2,-3.625239E-1,-4.6928633E-2,-2.0929699E-1,-8.598046E-2,3.9831373E-1,-1.10233985E-1,3.0162203E-1,3.4821028E-1,-1.0578264E-1,-1.03054926E-1,-3.3451176E-1,2.4385743E-1,-1.7021284E-1,-2.4866837E-1,7.578205E-2,9.267485E-2,3.763492E-1,1.7286569E-1,-3.0124918E-1,-3.790712E-2,-2.2403507E-1],"split_indices":[138,139,53,139,134,41,43,25,110,70,92,32,68,120,0,121,101,59,80,122,119,112,113,143,40,100,42,134,89,0,0,0,0,66,26,0,80,75,41,72,125,13,17,34,133,0,0,0,0,4,142,27,88,48,38,101,130,0,0,0,0,0,0,0,0,0,0,0,0,0,0,0,0,0,0,0,0,0,0,0,0,0,0,0,0,0,0,0,0,0,0,0,0,0,0],"split_type":[0,0,0,0,0,0,0,0,0,0,0,0,0,0,0,0,0,0,0,0,0,0,0,0,0,0,0,0,0,0,0,0,0,0,0,0,0,0,0,0,0,0,0,0,0,0,0,0,0,0,0,0,0,0,0,0,0,0,0,0,0,0,0,0,0,0,0,0,0,0,0,0,0,0,0,0,0,0,0,0,0,0,0,0,0,0,0,0,0,0,0,0,0,0,0],"sum_hessian":[6.331734E2,4.362676E2,1.9690578E2,6.852583E1,3.677418E2,1.0783082E2,8.907496E1,6.8020678E0,6.1723763E1,2.3811606E2,1.2962572E2,6.8254094E0,1.0100541E2,8.722916E1,1.8458079E0,3.6419296E0,3.160138E0,2.005771E1,4.1666054E1,2.0157614E2,3.6539913E1,3.8982594E1,9.064313E1,2.3422372E0,4.4831724E0,3.0865791E1,7.013962E1,5.019968E0,8.220918E1,2.5891483E0,1.0527813E0,1.057673E0,2.102465E0,9.508219E0,1.0549492E1,1.3291332E0,4.0336918E1,3.5963306E0,1.9797981E2,9.932965E0,2.6606949E1,3.3955833E1,5.0267596E0,8.261839E1,8.024734E0,1.0442079E0,1.2980293E0,3.1942043E0,1.2889678E0,1.4316819E1,1.6548971E1,5.618625E1,1.395337E1,2.3966634E0,2.6233044E0,2.5812073E1,5.6397114E1,5.7838707E0,3.7243476E0,9.230903E0,1.3185893E0,1.876589E1,2.1571028E1,1.1458836E0,2.450447E0,6.412802E1,1.3385179E2,7.870911E0,2.0620546E0,8.757207E0,1.7849743E1,2.0761059E1,1.3194777E1,1.900403E0,3.1263566E0,2.9831955E1,5.2786438E1,5.154659E0,2.8700745E0,3.5419464E0,1.0774873E1,1.2162126E0,1.5332758E1,4.6602703E1,9.583548E0,8.930235E0,5.0231347E0,1.2895749E0,1.1070886E0,1.1631202E0,1.4601843E0,1.3778335E0,2.443424E1,3.179243E1,2.4604681E1],"tree_param":{"num_deleted":"0","num_feature":"145","num_nodes":"95","size_leaf_vector":"1"}},{"base_weights":[3.8989629E-3,1.9292918E-1,-1.2978354E-1,2.4907646E-1,-2.8257766E-1,4.3082902E-1,-1.8361914E-1,2.2066525E-1,1.1208235E0,4.2020354E-1,-6.212971E-1,-2.5539467E-1,7.3380464E-1,3.625769E-1,-2.2186987E-1,2.3699686E-1,-3.3715594E-1,4.1068977E-1,-5.169878E-2,1.0122802E0,-6.954147E-1,-9.060226E-1,3.5032067E-1,5.2187145E-1,-9.1634965E-1,-5.5448476E-2,1.0237525E0,8.263925E-1,-2.3658705E-1,-2.8476495E-1,6.772963E-2,2.6307875E-1,-6.4285135E-1,3.9656115E-1,-5.8475003E-2,1.4177784E-1,-4.3818992E-1,1.3923773E-1,-1.091611E0,-1.9239323E-1,7.9511166E-1,-1.106779E-1,2.9295498E-1,1.1251403E-1,-4.105047E-1,-5.6225795E-1,3.0097622E-1,-1.272452E-1,1.149456E0,1.1855308E0,-6.077433E-2,-9.283324E-1,2.3660655E-1,-6.781686E-2,-4.2143536E-1,-2.4735837E-1,5.357283E-1,1.4121275E-1,4.0677924E-2,7.252839E-2,-3.7347054E-1,1.2416189E-1,-3.7787405E-1,3.0331464E-2,3.002767E-1,1.1662538E-1,-2.696903E-1,3.818319E-1,-3.336382E-2,5.786013E-2,4.232153E-1,2.883727E-1,-2.0747913E-1,-2.5578553E-2,-3.4571993E-1,1.638494E-1,-2.1930204E-1,-3.4191564E-1,-1.1556385E-3,-1.976141E-1,-2.9251374E-2,2.6322478E-2,-2.067448E-1,4.9097236E-2,4.313275E-1],"categories":[],"categories_nodes":[],"categories_segments":[],"categories_sizes":[],"default_left":[0,0,0,0,0,0,0,0,0,0,0,0,0,0,0,0,0,0,0,0,0,0,0,0,0,0,0,0,0,0,0,0,0,0,0,0,0,0,0,0,0,0,0,0,0,0,0,0,0,0,0,0,0,0,0,0,0,0,0,0,0,0,0,0,0,0,0,0,0,0,0,0,0,0,0,0,0,0,0,0,0,0,0,0,0],"id":5,"left_children":[1,3,5,7,9,11,13,15,17,19,21,23,25,27,29,31,-1,-1,-1,33,35,37,39,41,43,45,47,49,51,53,55,57,59,-1,-1,-1,-1,-1,61,-1,63,-1,-1,-1,-1,65,-1,-1,67,69,71,73,75,77,79,81,83,-1,-1,-1,-1,-1,-1,-1,-1,-1,-1,-1,-1,-1,-1,-1,-1,-1,-1,-1,-1,-1,-1,-1,-1,-1,-1,-1,-1],"loss_changes":[1.5584214E1,6.890769E0,1.0982148E1,5.4247303E0,6.7947865E0,6.8302526E0,6.9813166E0,5.163678E0,2.4766855E0,6.9942126E0,5.5526967E0,5.886746E0,5.188075E0,6.3086185E0,5.653142E0,5.2447605E0,0E0,0E0,0E0,2.73497E0,4.1711254E0,4.2991114E0,2.719658E0,2.577759E0,4.0460773E0,4.305504E0,3.4815426E0,4.093522E0,3.6159096E0,7.5118313E0,8.389912E0,5.640995E0,3.846993E0,0E0,0E0,0E0,0E0,0E0,3.918295E0,0E0,4.5658183E-1,0E0,0E0,0E0,0E0,2.0646777E0,0E0,0E0,2.5365047E0,1.7471924E0,3.6229465E0,7.3626065E-1,2.4833982E0,6.816393E0,1.1913149E1,5.1161647E0,7.432688E0,0E0,0E0,0E0,0E0,0E0,0E0,0E0,0E0,0E0,0E0,0E0,0E0,0E0,0E0,0E0,0E0,0E0,0E0,0E0,0E0,0E0,0E0,0E0,0E0,0E0,0E0,0E0,0E0],"parents":[2147483647,0,0,1,1,2,2,3,3,4,4,5,5,6,6,7,7,8,8,9,9,10,10,11,11,12,12,13,13,14,14,15,15,19,19,20,20,21,21,22,22,23,23,24,24,25,25,26,26,27,27,28,28,29,29,30,30,31,31,32,32,38,38,40,40,45,45,48,48,49,49,50,50,51,51,52,52,53,53,54,54,55,55,56,56],"right_children":[2,4,6,8,10,12,14,16,18,20,22,24,26,28,30,32,-1,-1,-1,34,36,38,40,42,44,46,48,50,52,54,56,58,60,-1,-1,-1,-1,-1,62,-1,64,-1,-1,-1,-1,66,-1,-1,68,70,72,74,76,78,80,82,84,-1,-1,-1,-1,-1,-1,-1,-1,-1,-1,-1,-1,-1,-1,-1,-1,-1,-1,-1,-1,-1,-1,-1,-1,-1,-1,-1,-1],"split_conditions":[6E3,1.2E4,4E3,1.4E4,6E3,6E3,4E3,1.8E4,1.2E4,1E4,1E4,8E3,6E3,8E3,1E4,1.4E4,-3.3715594E-1,4.1068977E-1,-5.169878E-2,1E4,6E3,6E3,6E3,6E3,6E3,8E3,2E3,8E3,6E3,6E3,1E4,6E3,8E3,3.9656115E-1,-5.8475003E-2,1.4177784E-1,-4.3818992E-1,1.3923773E-1,4E3,-1.9239323E-1,6E3,-1.106779E-1,2.9295498E-1,1.1251403E-1,-4.105047E-1,8E3,3.0097622E-1,-1.272452E-1,1.2E4,6E3,6E3,6E3,1.2E4,4E3,8E3,8E3,1E4,1.4121275E-1,4.0677924E-2,7.252839E-2,-3.7347054E-1,1.2416189E-1,-3.7787405E-1,3.0331464E-2,3.002767E-1,1.1662538E-1,-2.696903E-1,3.818319E-1,-3.336382E-2,5.786013E-2,4.232153E-1,2.883727E-1,-2.0747913E-1,-2.5578553E-2,-3.4571993E-1,1.638494E-1,-2.1930204E-1,-3.4191564E-1,-1.1556385E-3,-1.976141E-1,-2.9251374E-2,2.6322478E-2,-2.067448E-1,4.9097236E-2,4.313275E-1],"split_indices":[135,34,138,123,115,12,89,62,129,7,130,64,106,144,104,81,0,0,0,3,60,32,44,39,81,124,140,95,84,103,102,141,5,0,0,0,0,0,41,0,58,0,0,0,0,134,0,0,98,117,30,65,142,29,49,84,107,0,0,0,0,0,0,0,0,0,0,0,0,0,0,0,0,0,0,0,0,0,0,0,0,0,0,0,0],"split_type":[0,0,0,0,0,0,0,0,0,0,0,0,0,0,0,0,0,0,0,0,0,0,0,0,0,0,0,0,0,0,0,0,0,0,0,0,0,0,0,0,0,0,0,0,0,0,0,0,0,0,0,0,0,0,0,0,0,0,0,0,0,0,0,0,0,0,0,0,0,0,0,0,0,0,0,0,0,0,0,0,0,0,0,0,0],"sum_hessian":[6.1471643E2,2.5446033E2,3.602561E2,2.2801302E2,2.6447317E1,3.0950716E1,3.293054E2,2.2202994E2,5.9830775E0,8.5230255E0,1.7924292E1,9.5278E0,2.1422916E1,2.0997374E1,3.08308E2,2.2017918E2,1.8507462E0,4.9706373E0,1.0124397E0,5.628512E0,2.8945136E0,1.3914315E1,4.0099773E0,4.4753413E0,5.0524583E0,5.972964E0,1.5449952E1,1.162171E1,9.375663E0,2.5331079E2,5.4997227E1,2.1452101E2,5.658183E0,4.4040775E0,1.224434E0,1.297086E0,1.5974276E0,1.4808412E0,1.2433475E1,1.1048852E0,2.905092E0,1.5759948E0,2.8993464E0,1.3540589E0,3.6983993E0,4.356426E0,1.6165383E0,1.0445211E0,1.4405431E1,8.033371E0,3.588339E0,3.4176598E0,5.958003E0,9.8480644E1,1.5483015E2,3.3149933E1,2.1847296E1,8.058442E1,1.3393658E2,2.5337286E0,3.1244547E0,1.1010382E0,1.1332436E1,1.0055534E0,1.8995386E0,1.0986943E0,3.2577314E0,1.3113121E1,1.2923102E0,1.8286833E0,6.2046876E0,1.1696155E0,2.4187238E0,1.0074754E0,2.4101844E0,4.843901E0,1.114102E0,4.5987206E0,9.388192E1,8.877168E1,6.605847E1,1.9306944E1,1.3842988E1,1.6303736E1,5.5435605E0],"tree_param":{"num_deleted":"0","num_feature":"145","num_nodes":"85","size_leaf_vector":"1"}},{"base_weights":[3.555518E-3,9.2601314E-2,-1.9076437E-1,2.6644298E-1,-1.7993866E-2,8.260381E-1,-2.1965598E-1,3.277429E-1,-3.4460324E-1,-8.636401E-2,3.5541958E-1,1.2220463E0,-1.2951986E-1,1.7599404E-2,-3.2733414E-1,6.187451E-1,1.7657013E-1,-1.0580509E0,5.3586495E-1,-1.0550065E0,-6.0243268E-2,7.9256696E-1,-9.466658E-2,4.3384364E-1,7.180867E-2,-1.5881468E-1,7.8938365E-1,9.233747E-1,-3.5920393E-1,-9.010096E-1,7.509963E-1,-7.3363537E-1,2.3550138E-1,-8.8891454E-2,-1.4972585E0,7.628659E-1,-1.1859862E-1,4.190654E-2,-4.1831708E-1,-8.825626E-2,9.596879E-1,2.6218733E-1,1.2896624E0,6.110751E-1,-4.1000488E-1,2.9132745E-1,-3.603681E-1,1.1079841E0,-2.5020164E-1,7.953967E-2,3.291486E-1,-1.8057363E-1,-6.316471E-1,6.977898E-2,-4.2928627E-1,2.4412082E-1,-1.7580745E-1,-4.3037665E-1,4.6670724E-2,8.13705E-2,-3.5047466E-1,1.8321173E-1,-2.389442E-1,-5.342784E-2,-5.4207355E-1,3.198065E-1,-5.5568326E-2,-4.7039393E-2,8.814342E-2,-3.2633867E-2,3.6806303E-1,1.7202184E-1,-2.392912E-1,4.8969567E-1,2.3329673E-2,3.1594998E-1,-2.302558E-1,1.8172327E-1,-2.1345223E-1,-1.5683636E-1,1.8379009E-1,-1.6365364E-1,1.9748203E-1,-1.1754449E-1,3.9978948E-1,-9.4888985E-2,2.0494698E-1,-2.108934E-1,1.9840656E-1],"categories":[],"categories_nodes":[],"categories_segments":[],"categories_sizes":[],"default_left":[0,0,0,0,0,0,0,0,0,0,0,0,0,0,0,0,0,0,0,0,0,0,0,0,0,0,0,0,0,0,0,0,0,0,0,0,0,0,0,0,0,0,0,0,0,0,0,0,0,0,0,0,0,0,0,0,0,0,0,0,0,0,0,0,0,0,0,0,0,0,0,0,0,0,0,0,0,0,0,0,0,0,0,0,0,0,0,0,0],"id":6,"left_children":[1,3,5,7,9,11,13,15,17,19,21,23,-1,25,27,29,31,33,35,37,39,41,43,-1,-1,45,47,49,51,53,55,57,59,61,63,65,-1,-1,-1,67,69,71,73,75,77,79,81,83,-1,-1,-1,85,87,-1,-1,-1,-1,-1,-1,-1,-1,-1,-1,-1,-1,-1,-1,-1,-1,-1,-1,-1,-1,-1,-1,-1,-1,-1,-1,-1,-1,-1,-1,-1,-1,-1,-1,-1,-1],"loss_changes":[1.0423131E1,7.9462357E0,5.7424808E0,6.131111E0,6.499771E0,3.237299E0,4.72838E0,6.3369427E0,1.0074988E1,5.375749E0,7.829031E0,6.2249565E-1,0E0,8.111642E0,5.401931E0,1.0665388E1,5.420573E0,3.5690079E0,1.874017E0,2.4590273E0,6.0959287E0,4.9609203E0,4.770649E0,0E0,0E0,4.51215E0,6.6550984E0,1.0271478E-1,5.9576435E0,2.9960444E0,4.357744E0,4.082671E0,4.9639125E0,2.3553486E0,2.097188E0,2.0145788E0,0E0,0E0,0E0,5.432473E0,1.7630906E0,4.0786777E0,4.0754566E0,4.8759394E0,4.913489E0,4.3947177E0,6.7712445E0,3.7877007E0,0E0,0E0,0E0,9.213878E0,4.9848423E0,0E0,0E0,0E0,0E0,0E0,0E0,0E0,0E0,0E0,0E0,0E0,0E0,0E0,0E0,0E0,0E0,0E0,0E0,0E0,0E0,0E0,0E0,0E0,0E0,0E0,0E0,0E0,0E0,0E0,0E0,0E0,0E0,0E0,0E0,0E0,0E0],"parents":[2147483647,0,0,1,1,2,2,3,3,4,4,5,5,6,6,7,7,8,8,9,9,10,10,11,11,13,13,14,14,15,15,16,16,17,17,18,18,19,19,20,20,21,21,22,22,25,25,26,26,27,27,28,28,29,29,30,30,31,31,32,32,33,33,34,34,35,35,39,39,40,40,41,41,42,42,43,43,44,44,45,45,46,46,47,47,51,51,52,52],"right_children":[2,4,6,8,10,12,14,16,18,20,22,24,-1,26,28,30,32,34,36,38,40,42,44,-1,-1,46,48,50,52,54,56,58,60,62,64,66,-1,-1,-1,68,70,72,74,76,78,80,82,84,-1,-1,-1,86,88,-1,-1,-1,-1,-1,-1,-1,-1,-1,-1,-1,-1,-1,-1,-1,-1,-1,-1,-1,-1,-1,-1,-1,-1,-1,-1,-1,-1,-1,-1,-1,-1,-1,-1,-1,-1],"split_conditions":[8E3,6E3,2E3,1.2E4,1E4,1E4,6E3,6E3,8E3,2E3,8E3,8E3,-1.2951986E-1,1E4,2E3,4E3,4E3,6E3,1.2E4,6E3,1.4E4,8E3,6E3,4.3384364E-1,7.180867E-2,6E3,1.4E4,6E3,8E3,6E3,1.4E4,6E3,1.4E4,8E3,6E3,1E4,-1.1859862E-1,4.190654E-2,-4.1831708E-1,1E4,6E3,1E4,1E4,1.2E4,6E3,6E3,1E4,4E3,-2.5020164E-1,7.953967E-2,3.291486E-1,1E4,1.4E4,6.977898E-2,-4.2928627E-1,2.4412082E-1,-1.7580745E-1,-4.3037665E-1,4.6670724E-2,8.13705E-2,-3.5047466E-1,1.8321173E-1,-2.389442E-1,-5.342784E-2,-5.4207355E-1,3.198065E-1,-5.5568326E-2,-4.7039393E-2,8.814342E-2,-3.2633867E-2,3.6806303E-1,1.7202184E-1,-2.392912E-1,4.8969567E-1,2.3329673E-2,3.1594998E-1,-2.302558E-1,1.8172327E-1,-2.1345223E-1,-1.5683636E-1,1.8379009E-1,-1.6365364E-1,1.9748203E-1,-1.1754449E-1,3.9978948E-1,-9.4888985E-2,2.0494698E-1,-2.108934E-1,1.9840656E-1],"split_indices":[136,142,52,69,26,23,25,6,123,56,112,34,0,128,68,88,121,77,8,48,48,0,2,0,0,90,129,86,116,99,1,33,83,46,58,86,0,0,0,92,26,95,128,108,105,132,47,4,0,0,0,119,73,0,0,0,0,0,0,0,0,0,0,0,0,0,0,0,0,0,0,0,0,0,0,0,0,0,0,0,0,0,0,0,0,0,0,0,0],"split_type":[0,0,0,0,0,0,0,0,0,0,0,0,0,0,0,0,0,0,0,0,0,0,0,0,0,0,0,0,0,0,0,0,0,0,0,0,0,0,0,0,0,0,0,0,0,0,0,0,0,0,0,0,0,0,0,0,0,0,0,0,0,0,0,0,0,0,0,0,0,0,0,0,0,0,0,0,0,0,0,0,0,0,0,0,0,0,0,0,0],"sum_hessian":[6.003549E2,4.120563E2,1.882986E2,1.5966846E2,2.5238785E2,4.4402113E0,1.8385838E2,1.4553235E2,1.4136106E1,2.1397823E2,3.840963E1,3.398576E0,1.0416356E0,5.7656364E1,1.2620203E2,4.869781E1,9.683453E1,7.697275E0,6.438831E0,4.5843906E0,2.0939383E2,1.9098875E1,1.9310755E1,2.3834147E0,1.0151613E0,4.7575745E1,1.0080618E1,2.4408066E0,1.2376122E2,3.4331508E0,4.526466E1,5.1921225E0,9.164241E1,2.7754135E0,4.9218616E0,5.322185E0,1.1166458E0,1.1443759E0,3.4400148E0,2.046855E2,4.708336E0,9.979071E0,9.119804E0,5.674074E0,1.363668E1,1.4576253E1,3.2999493E1,8.692204E0,1.3884133E0,1.037343E0,1.4034636E0,7.575466E1,4.800656E1,1.2724155E0,2.1607351E0,4.360966E1,1.6550013E0,2.5604212E0,2.6317012E0,9.0154236E1,1.4881718E0,1.4644371E0,1.3109763E0,1.2351385E0,3.6867232E0,3.938465E0,1.3837199E0,1.7405093E2,3.0634571E1,1.0604707E0,3.6478648E0,8.068661E0,1.9104104E0,6.8391604E0,2.2806435E0,4.475058E0,1.1990161E0,2.8902998E0,1.074638E1,3.9473963E0,1.0628857E1,2.8317154E1,4.6823378E0,1.035413E0,7.6567917E0,6.601512E1,9.739539E0,4.592912E1,2.0774436E0],"tree_param":{"num_deleted":"0","num_feature":"145","num_nodes":"89","size_leaf_vector":"1"}},{"base_weights":[2.7015472E-3,-9.4200265E-1,1.9224841E-2,2.8758831E-2,-1.2455918E0,5.9686586E-2,-3.2317287E-1,2.5336376E-1,-2.4932954E-1,-1.4369361E-3,-4.320761E-1,3.656653E-1,1.817853E-2,-4.1881624E-1,4.0749684E-1,-4.1157234E-1,4.831757E-1,-2.3739818E-2,3.2608083E-1,-4.8384118E-1,2.580735E-1,7.5239396E-1,-2.3748751E-1,5.542755E-1,-9.806341E-1,-4.3288884E-1,5.549817E-1,-7.497865E-2,2.5970304E-1,1.8614614E-1,1.1869848E0,-5.5482656E-1,2.846337E-1,1.0439177E0,-9.697435E-2,2.8223827E-1,-5.538445E-2,-3.643922E-1,-4.499304E-2,1.2268123E-1,-2.6418716E-1,-1.4959022E-1,1.8690766E-1,1.5997915E-2,-6.6639125E-2,3.348722E-2,2.7611774E-1,1.4241707E-1,-5.1122103E-2,8.568005E-2,4.560176E-1,1.06209196E-1,-1.8779854E-1,4.181793E-1,-3.0578729E-2],"categories":[],"categories_nodes":[],"categories_segments":[],"categories_sizes":[],"default_left":[0,0,0,0,0,0,0,0,0,0,0,0,0,0,0,0,0,0,0,0,0,0,0,0,0,0,0,0,0,0,0,0,0,0,0,0,0,0,0,0,0,0,0,0,0,0,0,0,0,0,0,0,0,0,0],"id":7,"left_children":[1,3,5,7,9,11,13,-1,-1,-1,-1,15,17,19,21,23,25,27,29,31,-1,33,-1,35,37,39,41,43,45,47,49,51,-1,53,-1,-1,-1,-1,-1,-1,-1,-1,-1,-1,-1,-1,-1,-1,-1,-1,-1,-1,-1,-1,-1],"loss_changes":[9.172944E0,3.0128841E0,8.018385E0,3.0755975E0,1.8571949E0,6.56221E0,4.445851E0,0E0,0E0,0E0,0E0,5.836829E0,5.8994145E0,4.9563475E0,3.7337112E0,5.296255E0,3.7977238E0,5.8681836E0,6.376843E0,5.8742514E0,0E0,2.346061E0,0E0,1.2717364E0,9.4569254E-1,2.0535672E0,3.9375181E0,6.465788E0,5.9510703E0,5.050183E0,1.8089876E0,3.503293E0,0E0,2.2581263E0,0E0,0E0,0E0,0E0,0E0,0E0,0E0,0E0,0E0,0E0,0E0,0E0,0E0,0E0,0E0,0E0,0E0,0E0,0E0,0E0,0E0],"parents":[2147483647,0,0,1,1,2,2,3,3,4,4,5,5,6,6,11,11,12,12,13,13,14,14,15,15,16,16,17,17,18,18,19,19,21,21,23,23,24,24,25,25,26,26,27,27,28,28,29,29,30,30,31,31,33,33],"right_children":[2,4,6,8,10,12,14,-1,-1,-1,-1,16,18,20,22,24,26,28,30,32,-1,34,-1,36,38,40,42,44,46,48,50,52,-1,54,-1,-1,-1,-1,-1,-1,-1,-1,-1,-1,-1,-1,-1,-1,-1,-1,-1,-1,-1,-1,-1],"split_conditions":[2E3,6E3,1E4,8E3,4E3,4E3,1.2E4,2.5336376E-1,-2.4932954E-1,-1.4369361E-3,-4.320761E-1,2E3,1.2E4,1.4E4,8E3,6E3,4E3,1E4,1.2E4,2E4,2.580735E-1,1E4,-2.3748751E-1,1.2E4,8E3,6E3,4E3,8E3,1E4,8E3,1E4,4E3,2.846337E-1,8E3,-9.697435E-2,2.8223827E-1,-5.538445E-2,-3.643922E-1,-4.499304E-2,1.2268123E-1,-2.6418716E-1,-1.4959022E-1,1.8690766E-1,1.5997915E-2,-6.6639125E-2,3.348722E-2,2.7611774E-1,1.4241707E-1,-5.1122103E-2,8.568005E-2,4.560176E-1,1.06209196E-1,-1.8779854E-1,4.181793E-1,-3.0578729E-2],"split_indices":[110,136,135,14,13,138,36,0,0,0,0,138,119,84,66,47,66,92,35,133,0,84,0,124,84,8,72,53,107,21,118,66,0,63,0,0,0,0,0,0,0,0,0,0,0,0,0,0,0,0,0,0,0,0,0],"split_type":[0,0,0,0,0,0,0,0,0,0,0,0,0,0,0,0,0,0,0,0,0,0,0,0,0,0,0,0,0,0,0,0,0,0,0,0,0,0,0,0,0,0,0,0,0,0,0,0,0,0,0,0,0,0,0],"sum_hessian":[5.854865E2,9.101577E0,5.7638495E2,2.3839355E0,6.7176414E0,5.162092E2,6.0175682E1,1.2324547E0,1.1514807E0,1.0499185E0,5.6677227E0,6.0729465E1,4.554798E2,5.358792E1,6.58776E0,7.6471605E0,5.3082306E1,4.017128E2,5.3766975E1,5.158706E1,2.0008624E0,5.405539E0,1.1822208E0,2.8447883E0,4.8023725E0,3.4929147E0,4.958939E1,3.4083456E2,6.087824E1,4.7295586E1,6.4713874E0,4.973542E1,1.8516372E0,4.2761083E0,1.1294307E0,1.6883487E0,1.1564398E0,3.3861792E0,1.4161931E0,1.242824E0,2.2500906E0,2.6243792E0,4.696501E1,1.8241783E2,1.5841673E2,5.068685E1,1.019139E1,2.5956327E1,2.133926E1,2.247239E0,4.2241483E0,3.3231142E0,4.6412308E1,3.109703E0,1.1664051E0],"tree_param":{"num_deleted":"0","num_feature":"145","num_nodes":"55","size_leaf_vector":"1"}},{"base_weights":[3.0417244E-3,3.1718084E-1,-3.428592E-2,1.6003472E-1,9.317059E-1,-8.216717E-1,-1.5454465E-2,4.157472E-1,-1.9598123E-1,1.1244266E0,8.890148E-2,-1.0655197E0,2.0958628E-1,1.784627E-1,-1.00650065E-1,8.449429E-1,1.538978E-1,-2.186292E-2,-1.1981351E0,3.5790282E-1,8.0265395E-2,-1.7757013E-1,2.2949949E-1,-1.3118273E0,2.1658698E-2,2.36341E-1,-1.3119306E-1,-9.671671E-2,2.9973507E-1,-1.2403527E-1,7.1925163E-1,-6.125332E-2,1.0007724E0,-4.8353145E-1,5.2862746E-1,2.2858365E-1,-8.277328E-1,-1.122567E-1,-4.3901315E-1,-4.593583E-1,-4.049004E-2,-3.8199413E-1,2.6916873E-1,3.761346E-1,-3.0559096E-1,-9.5703015E-3,-3.0710268E-1,1.0359476E0,-1.7117837E-1,3.4350577E-1,-2.6060583E-2,-3.9142057E-1,1.3181922E-1,2.1333443E-1,-2.2393699E-1,-1.4827886E-1,1.7286353E-1,-4.4786772E-1,3.41244E-2,-2.6832914E-1,2.7787779E-2,2.5812212E-1,-4.0722985E-2,1.3759518E-1,-8.113374E-2,-2.5182033E-1,1.04491375E-1,-1.3381145E-2,2.394174E-1,3.847458E-3,-1.4130256E-1,4.2588845E-1,1.2510748E-1],"categories":[],"categories_nodes":[],"categories_segments":[],"categories_sizes":[],"default_left":[0,0,0,0,0,0,0,0,0,0,0,0,0,0,0,0,0,0,0,0,0,0,0,0,0,0,0,0,0,0,0,0,0,0,0,0,0,0,0,0,0,0,0,0,0,0,0,0,0,0,0,0,0,0,0,0,0,0,0,0,0,0,0,0,0,0,0,0,0,0,0,0,0],"id":8,"left_children":[1,3,5,7,9,11,13,15,17,19,21,23,25,27,29,31,33,35,37,-1,-1,-1,-1,39,-1,-1,-1,41,43,45,47,-1,49,51,53,55,57,-1,-1,-1,-1,59,61,63,65,67,69,71,-1,-1,-1,-1,-1,-1,-1,-1,-1,-1,-1,-1,-1,-1,-1,-1,-1,-1,-1,-1,-1,-1,-1,-1,-1],"loss_changes":[6.7730536E0,5.774891E0,7.64332E0,4.638736E0,1.8954287E0,3.25134E0,8.365861E0,3.1801295E0,3.7437518E0,2.6334763E-1,2.004981E0,2.8697777E0,1.5184125E0,5.1880836E0,6.832532E0,1.9925075E0,4.917268E0,4.1098204E0,1.472888E-1,0E0,0E0,0E0,0E0,1.9084015E0,0E0,0E0,0E0,5.117787E0,5.088732E0,7.180338E0,4.6351657E0,0E0,1.6201582E0,6.4453335E0,3.5018377E0,4.2056727E0,3.1895757E0,0E0,0E0,0E0,0E0,6.749323E0,5.296374E0,5.242998E0,4.6920614E0,6.0325556E0,6.9198503E0,1.3798304E0,0E0,0E0,0E0,0E0,0E0,0E0,0E0,0E0,0E0,0E0,0E0,0E0,0E0,0E0,0E0,0E0,0E0,0E0,0E0,0E0,0E0,0E0,0E0,0E0,0E0],"parents":[2147483647,0,0,1,1,2,2,3,3,4,4,5,5,6,6,7,7,8,8,9,9,10,10,11,11,12,12,13,13,14,14,15,15,16,16,17,17,18,18,23,23,27,27,28,28,29,29,30,30,32,32,33,33,34,34,35,35,36,36,41,41,42,42,43,43,44,44,45,45,46,46,47,47],"right_children":[2,4,6,8,10,12,14,16,18,20,22,24,26,28,30,32,34,36,38,-1,-1,-1,-1,40,-1,-1,-1,42,44,46,48,-1,50,52,54,56,58,-1,-1,-1,-1,60,62,64,66,68,70,72,-1,-1,-1,-1,-1,-1,-1,-1,-1,-1,-1,-1,-1,-1,-1,-1,-1,-1,-1,-1,-1,-1,-1,-1,-1],"split_conditions":[4E3,1E4,2E3,8E3,1E4,1E4,6E3,6E3,1.2E4,1E4,6E3,1E4,6E3,6E3,1.4E4,4E3,8E3,1E4,6E3,3.5790282E-1,8.0265395E-2,-1.7757013E-1,2.2949949E-1,1E4,2.1658698E-2,2.36341E-1,-1.3119306E-1,8E3,1.2E4,8E3,1E4,-6.125332E-2,1.2E4,8E3,1E4,6E3,8E3,-1.122567E-1,-4.3901315E-1,-4.593583E-1,-4.049004E-2,8E3,6E3,1.2E4,8E3,1.4E4,6E3,8E3,-1.7117837E-1,3.4350577E-1,-2.6060583E-2,-3.9142057E-1,1.3181922E-1,2.1333443E-1,-2.2393699E-1,-1.4827886E-1,1.7286353E-1,-4.4786772E-1,3.41244E-2,-2.6832914E-1,2.7787779E-2,2.5812212E-1,-4.0722985E-2,1.3759518E-1,-8.113374E-2,-2.5182033E-1,1.04491375E-1,-1.3381145E-2,2.394174E-1,3.847458E-3,-1.4130256E-1,4.2588845E-1,1.2510748E-1],"split_indices":[139,42,92,72,125,34,92,57,65,120,89,77,23,125,9,141,56,125,87,0,0,0,0,22,0,0,0,77,17,143,136,0,118,61,142,66,84,0,0,0,0,112,34,24,105,90,103,96,0,0,0,0,0,0,0,0,0,0,0,0,0,0,0,0,0,0,0,0,0,0,0,0,0],"split_type":[0,0,0,0,0,0,0,0,0,0,0,0,0,0,0,0,0,0,0,0,0,0,0,0,0,0,0,0,0,0,0,0,0,0,0,0,0,0,0,0,0,0,0,0,0,0,0,0,0,0,0,0,0,0,0,0,0,0,0,0,0,0,0,0,0,0,0,0,0,0,0,0,0],"sum_hessian":[5.7567883E2,6.0343918E1,5.153349E2,4.905899E1,1.1284928E1,1.1041275E1,5.0429364E2,2.8453888E1,2.0605103E1,8.912738E0,2.3721898E0,8.902901E0,2.1383746E0,1.5359503E2,3.506986E2,9.937903E0,1.8515985E1,1.8425583E1,2.1795204E0,7.8890357E0,1.0237024E0,1.2440326E0,1.1281571E0,7.1926947E0,1.7102058E0,1.0141102E0,1.1242645E0,4.70458E1,1.06549225E2,3.4179855E2,8.900046E0,1.2450889E0,8.692814E0,6.747643E0,1.1768342E1,1.4603492E1,3.822091E0,1.1178339E0,1.0616865E0,5.8088417E0,1.3838532E0,2.6410082E1,2.0635717E1,9.494468E1,1.160455E1,2.1095122E2,1.3084735E2,7.303631E0,1.596416E0,7.6283603E0,1.0644541E0,3.351688E0,3.395955E0,1.0681875E1,1.0864667E0,4.6053863E0,9.998105E0,1.8965126E0,1.9255784E0,1.2273811E1,1.413627E1,7.9306865E0,1.2705031E1,8.4457E1,1.0487673E1,6.2327385E0,5.3718123E0,2.0308644E2,7.864765E0,4.4638763E1,8.620859E1,3.7100189E0,3.5936117E0],"tree_param":{"num_deleted":"0","num_feature":"145","num_nodes":"73","size_leaf_vector":"1"}},{"base_weights":[2.3763895E-3,-7.756231E-1,1.4987751E-2,1.4225892E-2,-1.0359247E0,4.3516763E-2,-2.983753E-1,2.2112964E-1,-2.083984E-1,-3.6260307E-1,-1.3771497E-2,1.5064562E-3,2.615765E-1,-1.4750516E-1,-9.600253E-1,-1.5508039E-2,6.9277257E-1,4.4982535E-1,-7.976699E-2,-7.3410165E-1,1.2086814E-1,-1.1846912E0,3.478524E-2,-8.78365E-1,-1.4524781E-3,-1.7197834E-2,1.0382506E0,7.883093E-1,9.184132E-2,4.2663127E-1,-3.959373E-1,-9.379765E-1,1.5829687E-1,4.1818756E-1,-3.6025396E-1,-3.8850638E-1,-8.72623E-2,5.68599E-2,-3.504839E-1,1.3680135E-2,-7.636371E-2,-1.7976661E-1,2.8882113E-1,3.9234412E-1,1.7710978E-2,-1.8054035E-1,2.7175745E-1,-1.4887959E-1,1.2119089E-1,2.500407E-1,-7.285905E-2,-1.9023852E-1,1.254287E-1,-3.317966E-1,1.2945631E-2,1.76527E-1,-2.643806E-1,1.5207131E-1,-2.3013502E-1],"categories":[],"categories_nodes":[],"categories_segments":[],"categories_sizes":[],"default_left":[0,0,0,0,0,0,0,0,0,0,0,0,0,0,0,0,0,0,0,0,0,0,0,0,0,0,0,0,0,0,0,0,0,0,0,0,0,0,0,0,0,0,0,0,0,0,0,0,0,0,0,0,0,0,0,0,0,0,0],"id":9,"left_children":[1,3,5,7,9,11,13,-1,-1,-1,-1,15,17,19,21,23,25,27,29,31,33,35,-1,37,39,41,43,45,47,49,51,53,-1,55,57,-1,-1,-1,-1,-1,-1,-1,-1,-1,-1,-1,-1,-1,-1,-1,-1,-1,-1,-1,-1,-1,-1,-1,-1],"loss_changes":[5.571205E0,1.8769565E0,5.0066013E0,2.1679947E0,1.1119499E0,4.6975794E0,4.52385E0,0E0,0E0,0E0,0E0,5.0799894E0,5.358658E0,6.2662377E0,2.1913185E0,5.1121807E0,2.562756E0,6.4152822E0,5.0192237E0,3.6998615E0,4.124729E0,3.252697E-1,0E0,2.3131924E0,4.964108E0,3.0749552E0,1.7693548E0,5.020548E0,5.184791E0,3.5050867E0,3.9818156E0,1.8751307E0,0E0,4.4193215E0,4.3220916E0,0E0,0E0,0E0,0E0,0E0,0E0,0E0,0E0,0E0,0E0,0E0,0E0,0E0,0E0,0E0,0E0,0E0,0E0,0E0,0E0,0E0,0E0,0E0,0E0],"parents":[2147483647,0,0,1,1,2,2,3,3,4,4,5,5,6,6,11,11,12,12,13,13,14,14,15,15,16,16,17,17,18,18,19,19,20,20,21,21,23,23,24,24,25,25,26,26,27,27,28,28,29,29,30,30,31,31,33,33,34,34],"right_children":[2,4,6,8,10,12,14,-1,-1,-1,-1,16,18,20,22,24,26,28,30,32,34,36,-1,38,40,42,44,46,48,50,52,54,-1,56,58,-1,-1,-1,-1,-1,-1,-1,-1,-1,-1,-1,-1,-1,-1,-1,-1,-1,-1,-1,-1,-1,-1,-1,-1],"split_conditions":[2E3,6E3,1.2E4,8E3,1.2E4,1E4,1E4,2.2112964E-1,-2.083984E-1,-3.6260307E-1,-1.3771497E-2,1.4E4,8E3,6E3,1E4,2E3,6E3,8E3,6E3,1.2E4,8E3,1E4,3.478524E-2,6E3,1E4,1E4,1E4,4E3,6E3,8E3,1E4,1.2E4,1.5829687E-1,1E4,6E3,-3.8850638E-1,-8.72623E-2,5.68599E-2,-3.504839E-1,1.3680135E-2,-7.636371E-2,-1.7976661E-1,2.8882113E-1,3.9234412E-1,1.7710978E-2,-1.8054035E-1,2.7175745E-1,-1.4887959E-1,1.2119089E-1,2.500407E-1,-7.285905E-2,-1.9023852E-1,1.254287E-1,-3.317966E-1,1.2945631E-2,1.76527E-1,-2.643806E-1,1.5207131E-1,-2.3013502E-1],"split_indices":[110,136,142,20,40,15,82,0,0,0,0,11,136,80,95,21,91,19,144,67,100,116,0,61,5,0,94,5,26,9,119,74,0,86,112,0,0,0,0,0,0,0,0,0,0,0,0,0,0,0,0,0,0,0,0,0,0,0,0],"split_type":[0,0,0,0,0,0,0,0,0,0,0,0,0,0,0,0,0,0,0,0,0,0,0,0,0,0,0,0,0,0,0,0,0,0,0,0,0,0,0,0,0,0,0,0,0,0,0,0,0,0,0,0,0,0,0,0,0,0,0],"sum_hessian":[5.6563153E2,8.057532E0,5.5757404E2,2.2315507E0,5.8259816E0,5.1183682E2,4.573721E1,1.0851722E0,1.1463785E0,4.7723713E0,1.0536102E0,4.3000174E2,8.183508E1,3.82405E1,7.496706E0,4.206262E2,9.375526E0,5.2541153E1,2.9293934E1,1.1458886E1,2.6781616E1,6.11818E0,1.3785261E0,5.756364E0,4.1486984E2,3.3799074E0,5.9956193E0,2.6388248E1,2.6152905E1,1.1125408E1,1.8168526E1,1.0085829E1,1.3730571E0,1.6633442E1,1.0148174E1,5.046401E0,1.0717785E0,1.3030047E0,4.4533596E0,3.5052338E2,6.434647E1,2.3642118E0,1.0156956E0,4.4382577E0,1.5573618E0,1.7362385E0,2.4652008E1,8.863159E0,1.7289745E1,6.767823E0,4.357585E0,1.42267065E1,3.941819E0,8.502558E0,1.5832716E0,1.5190573E1,1.4428697E0,3.162328E0,6.985846E0],"tree_param":{"num_deleted":"0","num_feature":"145","num_nodes":"59","size_leaf_vector":"1"}},{"base_weights":[-2.3473379E-4,6.1995994E-2,-1.257054E-1,-5.075874E-2,2.083778E-1,2.7158644E-2,-3.232322E-1,-1.1775225E-1,4.5082393E-1,9.7690433E-1,1.6316433E-1,-6.070219E-2,7.5759304E-1,3.534085E-1,-3.6426586E-1,-1.9024977E-1,2.6078898E-1,-2.6074913E-1,5.580989E-1,4.0471697E-1,2.2335587E-2,-4.9096406E-1,2.0848344E-1,-2.772948E-1,1.5438418E-1,9.588955E-1,-1.9250458E-1,-4.7287226E-1,1.9797847E-1,-2.6211146E-1,3.6002168E-1,-6.7991726E-2,8.3479464E-1,7.532936E-1,-3.8548455E-1,2.159382E-1,-2.1557668E-1,-1.0063452E0,2.8171533E-1,-5.074194E-1,2.5064945E-1,-3.5245883E-1,3.3842745E-1,6.0375476E-1,-1.16384394E-1,-9.9325344E-2,1.1634651E0,-9.8322636E-1,-3.522411E-1,8.1361705E-1,-3.9353603E-1,8.457085E-2,-9.96072E-2,-2.9974934E-1,1.6089763E-1,1.8138625E-1,-9.465939E-2,3.2433823E-1,-1.2550663E-2,6.503597E-2,3.7558013E-1,1.6991124E-1,-2.7000958E-1,4.01544E-2,-3.984085E-1,-1.6952638E-1,2.839094E-1,3.1601593E-2,-3.2112736E-1,4.923911E-2,1.9537205E-1,-1.7598669E-1,2.2104617E-2,3.6764225E-1,5.0275832E-2,-9.660545E-2,2.2852917E-1,3.884662E-1,3.270623E-2,-3.493275E-1,2.5776634E-2,-3.4779858E-2,-2.1028909E-1,3.6917007E-1,-1.278082E-1,-2.1620077E-1,2.0536388E-1],"categories":[],"categories_nodes":[],"categories_segments":[],"categories_sizes":[],"default_left":[0,0,0,0,0,0,0,0,0,0,0,0,0,0,0,0,0,0,0,0,0,0,0,0,0,0,0,0,0,0,0,0,0,0,0,0,0,0,0,0,0,0,0,0,0,0,0,0,0,0,0,0,0,0,0,0,0,0,0,0,0,0,0,0,0,0,0,0,0,0,0,0,0,0,0,0,0,0,0,0,0,0,0,0,0,0,0],"id":10,"left_children":[1,3,5,7,9,11,13,15,17,19,21,23,25,-1,27,29,31,-1,33,-1,35,37,39,41,43,45,-1,47,49,51,53,55,57,59,61,-1,-1,63,65,67,69,71,-1,73,75,-1,77,79,81,83,85,-1,-1,-1,-1,-1,-1,-1,-1,-1,-1,-1,-1,-1,-1,-1,-1,-1,-1,-1,-1,-1,-1,-1,-1,-1,-1,-1,-1,-1,-1,-1,-1,-1,-1,-1,-1],"loss_changes":[4.3814774E0,6.2017508E0,5.6262493E0,7.2001843E0,5.5187254E0,6.8358736E0,5.433756E0,5.2206345E0,4.063086E0,3.1240702E0,4.7129936E0,4.4855456E0,3.8360057E0,0E0,4.9691343E0,6.370591E0,5.852091E0,0E0,4.7066917E0,0E0,2.3297484E0,4.4152145E0,4.5391483E0,5.4547815E0,5.9705257E0,3.1288414E0,0E0,3.7915802E0,5.2840576E0,5.454892E0,5.030011E0,3.595583E0,2.4764848E0,5.1342974E0,2.846699E0,0E0,0E0,2.5407948E0,3.311029E0,3.0314212E0,4.700116E0,4.6539416E0,0E0,4.7826853E0,5.8607945E0,0E0,1.1330919E0,2.4812393E0,4.526974E0,4.145094E0,3.1827443E0,0E0,0E0,0E0,0E0,0E0,0E0,0E0,0E0,0E0,0E0,0E0,0E0,0E0,0E0,0E0,0E0,0E0,0E0,0E0,0E0,0E0,0E0,0E0,0E0,0E0,0E0,0E0,0E0,0E0,0E0,0E0,0E0,0E0,0E0,0E0,0E0],"parents":[2147483647,0,0,1,1,2,2,3,3,4,4,5,5,6,6,7,7,8,8,9,9,10,10,11,11,12,12,14,14,15,15,16,16,18,18,20,20,21,21,22,22,23,23,24,24,25,25,27,27,28,28,29,29,30,30,31,31,32,32,33,33,34,34,37,37,38,38,39,39,40,40,41,41,43,43,44,44,46,46,47,47,48,48,49,49,50,50],"right_children":[2,4,6,8,10,12,14,16,18,20,22,24,26,-1,28,30,32,-1,34,-1,36,38,40,42,44,46,-1,48,50,52,54,56,58,60,62,-1,-1,64,66,68,70,72,-1,74,76,-1,78,80,82,84,86,-1,-1,-1,-1,-1,-1,-1,-1,-1,-1,-1,-1,-1,-1,-1,-1,-1,-1,-1,-1,-1,-1,-1,-1,-1,-1,-1,-1,-1,-1,-1,-1,-1,-1,-1,-1],"split_conditions":[8E3,8E3,8E3,1.2E4,4E3,1.2E4,2E3,1E4,4E3,8E3,4E3,6E3,1E4,3.534085E-1,1E4,1.2E4,8E3,-2.6074913E-1,1E4,4.0471697E-1,8E3,8E3,4E3,1.4E4,6E3,4E3,-1.9250458E-1,6E3,8E3,4E3,4E3,6E3,1E4,8E3,6E3,2.159382E-1,-2.1557668E-1,6E3,8E3,8E3,1E4,8E3,3.3842745E-1,6E3,1E4,-9.9325344E-2,1E4,1.2E4,8E3,8E3,1E4,8.457085E-2,-9.96072E-2,-2.9974934E-1,1.6089763E-1,1.8138625E-1,-9.465939E-2,3.2433823E-1,-1.2550663E-2,6.503597E-2,3.7558013E-1,1.6991124E-1,-2.7000958E-1,4.01544E-2,-3.984085E-1,-1.6952638E-1,2.839094E-1,3.1601593E-2,-3.2112736E-1,4.923911E-2,1.9537205E-1,-1.7598669E-1,2.2104617E-2,3.6764225E-1,5.0275832E-2,-9.660545E-2,2.2852917E-1,3.884662E-1,3.270623E-2,-3.493275E-1,2.5776634E-2,-3.4779858E-2,-2.1028909E-1,3.6917007E-1,-1.278082E-1,-2.1620077E-1,2.0536388E-1],"split_indices":[139,59,84,105,0,114,68,39,65,30,31,83,135,0,31,98,57,0,114,0,66,5,107,98,123,18,0,86,130,136,71,29,51,30,55,0,0,69,39,64,119,30,0,57,22,0,124,26,114,79,70,0,0,0,0,0,0,0,0,0,0,0,0,0,0,0,0,0,0,0,0,0,0,0,0,0,0,0,0,0,0,0,0,0,0,0,0],"split_type":[0,0,0,0,0,0,0,0,0,0,0,0,0,0,0,0,0,0,0,0,0,0,0,0,0,0,0,0,0,0,0,0,0,0,0,0,0,0,0,0,0,0,0,0,0,0,0,0,0,0,0,0,0,0,0,0,0,0,0,0,0,0,0,0,0,0,0,0,0,0,0,0,0,0,0,0,0,0,0,0,0,0,0,0,0,0,0],"sum_hessian":[5.5914484E2,3.741035E2,1.8504132E2,2.1169368E2,1.6240982E2,1.0480007E2,8.024124E1,1.8742557E2,2.4268114E1,7.8789515E0,1.5453087E2,9.436607E1,1.0433997E1,1.3976569E0,7.884359E1,1.5771725E2,2.9708305E1,1.2902133E0,2.29779E1,5.371524E0,2.5074277E0,9.375336E0,1.4515553E2,4.6874294E1,4.7491783E1,9.396865E0,1.0371318E0,6.621254E1,1.2631045E1,1.3996275E2,1.7754509E1,1.9449507E1,1.0258799E1,1.9206425E1,3.771475E0,1.3062899E0,1.2011378E0,5.44265E0,3.9326854E0,7.460242E0,1.376953E2,4.520577E1,1.6685233E0,1.7394272E1,3.0097511E1,1.2015648E0,8.1953E0,1.1291392E1,5.492115E1,6.0053234E0,6.6257224E0,1.559332E1,1.2436942E2,1.5026637E0,1.6251846E1,4.844244E0,1.4605263E1,7.826327E0,2.432472E0,9.943051E0,9.263374E0,1.2880358E0,2.4834392E0,1.3261341E0,4.116516E0,1.7952389E0,2.1374466E0,3.9615297E0,3.498712E0,1.1439756E2,2.3297728E1,2.8931423E1,1.6274345E1,6.425567E0,1.0968705E1,2.4900032E1,5.197479E0,7.0843086E0,1.1109914E0,9.578858E0,1.7125336E0,3.3531395E1,2.1389753E1,4.499317E0,1.5060061E0,5.3376064E0,1.288116E0],"tree_param":{"num_deleted":"0","num_feature":"145","num_nodes":"87","size_leaf_vector":"1"}},{"base_weights":[2.3042564E-3,1.03720434E-1,-7.052839E-2,3.182608E-1,9.172606E-3,-1.6844322E-1,5.5030227E-2,4.6920598E-1,-3.300464E-1,1.9320327E-1,-1.920019E-1,-2.2970153E-1,3.458191E-1,-1.2088768E-1,2.7437615E-1,6.163555E-1,-2.6903376E-1,1.9878605E-1,-8.840089E-1,4.990554E-1,-1.11273825E-1,-9.036601E-1,-7.361714E-2,3.2007527E-2,-3.818887E-1,9.4462454E-1,-1.211765E-1,2.2781058E-1,-3.0439788E-1,1.4000542E-1,7.665098E-1,6.743379E-1,-2.4468945E-1,5.783827E-1,-7.089538E-1,5.2156085E-1,-2.7170256E-1,-1.089707E0,4.3467946E-2,1.4414652E-1,8.989636E-1,-2.370385E-1,2.983073E-1,-1.1661633E0,1.3193153E-1,3.6255988E-1,-2.4640758E-1,-4.218437E-1,1.8634844E-1,-1.6779278E-1,-6.854704E-1,1.1634625E0,-6.1552145E-2,2.741346E-1,-6.6471946E-1,-1.5190195E-1,7.6849484E-1,-6.335307E-1,1.4916423E-1,-3.936961E-1,3.390159E-1,1.2578351E0,-4.494879E-2,6.729074E-2,2.6544955E-1,3.138579E-1,-1.1707273E-1,-3.052673E-1,6.52893E-2,2.4042724E-1,-1.3918737E-1,-3.3289123E-2,-3.8569155E-1,-1.6052367E-1,1.4079088E-1,-2.2265746E-1,3.0854797E-1,-1.862944E-1,1.1196771E-4,-4.1847E-1,2.47503E-2,3.1347844E-1,6.049965E-3,-1.0242767E-1,1.9382924E-1,-1.9418325E-1,2.9774606E-1,-2.6718017E-1,8.0920435E-2,-8.3745115E-2,2.0977882E-1,-2.2127886E-1,1.9180523E-1,4.0137628E-1,2.9306395E-2,-1.9080903E-1,2.0020072E-1,8.234252E-3,-2.890497E-1,1.6687761E-1,-1.2826934E-1,2.9093274E-1,-1.21398024E-1,-2.3356706E-1,1.0522015E-1,2.2368798E-1,-3.9397817E-2,-2.0082836E-1,1.1720451E-1,1.823496E-1,-2.7779859E-2,8.137845E-3,4.3845198E-1,1.7344216E-1,-2.8025854E-1],"categories":[],"categories_nodes":[],"categories_segments":[],"categories_sizes":[],"default_left":[0,0,0,0,0,0,0,0,0,0,0,0,0,0,0,0,0,0,0,0,0,0,0,0,0,0,0,0,0,0,0,0,0,0,0,0,0,0,0,0,0,0,0,0,0,0,0,0,0,0,0,0,0,0,0,0,0,0,0,0,0,0,0,0,0,0,0,0,0,0,0,0,0,0,0,0,0,0,0,0,0,0,0,0,0,0,0,0,0,0,0,0,0,0,0,0,0,0,0,0,0,0,0,0,0,0,0,0,0,0,0,0,0,0,0],"id":11,"left_children":[1,3,5,7,9,11,13,15,17,19,21,23,25,27,29,31,33,35,37,39,41,43,45,47,49,51,53,55,57,59,61,63,-1,65,67,69,-1,71,-1,73,75,77,-1,79,-1,81,83,85,87,89,91,93,-1,95,97,99,101,103,105,107,109,111,113,-1,-1,-1,-1,-1,-1,-1,-1,-1,-1,-1,-1,-1,-1,-1,-1,-1,-1,-1,-1,-1,-1,-1,-1,-1,-1,-1,-1,-1,-1,-1,-1,-1,-1,-1,-1,-1,-1,-1,-1,-1,-1,-1,-1,-1,-1,-1,-1,-1,-1,-1,-1],"loss_changes":[4.0596642E0,4.656762E0,3.942186E0,7.028415E0,5.9783874E0,5.749457E0,5.4708166E0,6.3998795E0,4.233819E0,7.906802E0,6.4349976E0,6.4416914E0,5.583273E0,5.1178403E0,4.0603685E0,4.548191E0,4.22514E0,3.2898412E0,1.628602E0,5.865841E0,6.2241592E0,4.3630114E0,5.1579494E0,4.301001E0,6.5242233E0,2.42345E0,2.733556E0,5.8192353E0,7.875036E0,5.521657E0,5.3566294E0,4.2374306E0,0E0,2.242496E0,2.2762337E0,2.233694E0,0E0,9.904113E-1,0E0,5.4568815E0,4.9449215E0,3.59858E0,0E0,2.8018389E0,0E0,4.5318365E0,4.3560805E0,5.617344E0,4.342003E0,6.1069036E0,3.3665829E0,1.2534437E0,0E0,3.1379952E0,1.1207745E0,3.5860906E0,3.1372557E0,4.6115265E0,3.9000862E0,3.3416486E0,4.405946E0,2.0445242E0,3.8529606E0,0E0,0E0,0E0,0E0,0E0,0E0,0E0,0E0,0E0,0E0,0E0,0E0,0E0,0E0,0E0,0E0,0E0,0E0,0E0,0E0,0E0,0E0,0E0,0E0,0E0,0E0,0E0,0E0,0E0,0E0,0E0,0E0,0E0,0E0,0E0,0E0,0E0,0E0,0E0,0E0,0E0,0E0,0E0,0E0,0E0,0E0,0E0,0E0,0E0,0E0,0E0,0E0],"parents":[2147483647,0,0,1,1,2,2,3,3,4,4,5,5,6,6,7,7,8,8,9,9,10,10,11,11,12,12,13,13,14,14,15,15,16,16,17,17,18,18,19,19,20,20,21,21,22,22,23,23,24,24,25,25,26,26,27,27,28,28,29,29,30,30,31,31,33,33,34,34,35,35,37,37,39,39,40,40,41,41,43,43,45,45,46,46,47,47,48,48,49,49,50,50,51,51,53,53,54,54,55,55,56,56,57,57,58,58,59,59,60,60,61,61,62,62],"right_children":[2,4,6,8,10,12,14,16,18,20,22,24,26,28,30,32,34,36,38,40,42,44,46,48,50,52,54,56,58,60,62,64,-1,66,68,70,-1,72,-1,74,76,78,-1,80,-1,82,84,86,88,90,92,94,-1,96,98,100,102,104,106,108,110,112,114,-1,-1,-1,-1,-1,-1,-1,-1,-1,-1,-1,-1,-1,-1,-1,-1,-1,-1,-1,-1,-1,-1,-1,-1,-1,-1,-1,-1,-1,-1,-1,-1,-1,-1,-1,-1,-1,-1,-1,-1,-1,-1,-1,-1,-1,-1,-1,-1,-1,-1,-1,-1],"split_conditions":[6E3,6E3,8E3,1E4,8E3,1.2E4,8E3,1E4,8E3,8E3,4E3,6E3,6E3,6E3,1E4,1.4E4,6E3,1.2E4,1E4,8E3,1.2E4,1.2E4,6E3,6E3,8E3,1.2E4,8E3,8E3,8E3,6E3,1E4,6E3,-2.4468945E-1,8E3,8E3,1E4,-2.7170256E-1,4E3,4.3467946E-2,6E3,4E3,6E3,2.983073E-1,1E4,1.3193153E-1,6E3,1.2E4,1.2E4,4E3,1.2E4,1.4E4,1.2E4,-6.1552145E-2,6E3,6E3,6E3,1E4,1E4,6E3,8E3,8E3,6E3,8E3,6.729074E-2,2.6544955E-1,3.138579E-1,-1.1707273E-1,-3.052673E-1,6.52893E-2,2.4042724E-1,-1.3918737E-1,-3.3289123E-2,-3.8569155E-1,-1.6052367E-1,1.4079088E-1,-2.2265746E-1,3.0854797E-1,-1.862944E-1,1.1196771E-4,-4.1847E-1,2.47503E-2,3.1347844E-1,6.049965E-3,-1.0242767E-1,1.9382924E-1,-1.9418325E-1,2.9774606E-1,-2.6718017E-1,8.0920435E-2,-8.3745115E-2,2.0977882E-1,-2.2127886E-1,1.9180523E-1,4.0137628E-1,2.9306395E-2,-1.9080903E-1,2.0020072E-1,8.234252E-3,-2.890497E-1,1.6687761E-1,-1.2826934E-1,2.9093274E-1,-1.21398024E-1,-2.3356706E-1,1.0522015E-1,2.2368798E-1,-3.9397817E-2,-2.0082836E-1,1.1720451E-1,1.823496E-1,-2.7779859E-2,8.137845E-3,4.3845198E-1,1.7344216E-1,-2.8025854E-1],"split_indices":[135,108,107,27,97,35,2,62,66,118,134,103,72,142,67,85,34,69,24,23,70,38,61,9,0,38,57,73,12,112,65,104,0,43,29,47,0,139,0,38,45,94,0,112,0,131,77,116,58,112,11,50,0,41,46,18,86,16,20,138,137,4,72,0,0,0,0,0,0,0,0,0,0,0,0,0,0,0,0,0,0,0,0,0,0,0,0,0,0,0,0,0,0,0,0,0,0,0,0,0,0,0,0,0,0,0,0,0,0,0,0,0,0,0,0],"split_type":[0,0,0,0,0,0,0,0,0,0,0,0,0,0,0,0,0,0,0,0,0,0,0,0,0,0,0,0,0,0,0,0,0,0,0,0,0,0,0,0,0,0,0,0,0,0,0,0,0,0,0,0,0,0,0,0,0,0,0,0,0,0,0,0,0,0,0,0,0,0,0,0,0,0,0,0,0,0,0,0,0,0,0,0,0,0,0,0,0,0,0,0,0,0,0,0,0,0,0,0,0,0,0,0,0,0,0,0,0,0,0,0,0,0,0],"sum_hessian":[5.476224E2,2.2871832E2,3.1890405E2,6.9239494E1,1.5947884E2,1.7898444E2,1.3991963E2,5.6387146E1,1.28523445E1,8.3308975E1,7.616986E1,1.604278E2,1.8556631E1,7.789546E1,6.2024166E1,4.7153404E1,9.233744E0,6.903332E0,5.9490123E0,4.1241833E1,4.206714E1,9.917649E0,6.625221E1,5.9278698E1,1.011491E2,7.682706E0,1.0873925E1,2.6775806E1,5.111965E1,4.9730408E1,1.2293757E1,4.582692E1,1.3264835E0,3.0478795E0,6.1858644E0,5.75053E0,1.1528025E0,4.90859E0,1.0404223E0,2.2571033E1,1.86708E1,3.847612E1,3.591019E0,8.406912E0,1.5107374E0,1.8486998E1,4.7765213E1,1.4603322E1,4.4675377E1,6.0227432E1,4.0921673E1,6.444297E0,1.2384092E0,6.582337E0,4.291588E0,1.6151772E1,1.0624034E1,2.9393276E1,2.1726376E1,1.3241474E1,3.6488937E1,7.3147187E0,4.9790387E0,1.5262125E1,3.0564795E1,2.001263E0,1.0466166E0,4.5667152E0,1.6191489E0,4.6241765E0,1.1263535E0,1.0799944E0,3.8285954E0,7.0980906E0,1.5472942E1,1.0198085E0,1.7650991E1,1.4083926E1,2.4392195E1,7.0063415E0,1.4005709E0,5.491317E0,1.2995681E1,4.372736E1,4.037854E0,1.3063449E1,1.539873E0,2.5148778E0,4.21605E1,5.3973553E1,6.2538786E0,3.9799007E1,1.1226647E0,5.3183727E0,1.125924E0,1.7994587E0,4.7828784E0,1.5677644E0,2.7238235E0,4.240439E0,1.1911333E1,9.216157E0,1.4078767E0,2.580068E1,3.592597E0,6.418706E0,1.530767E1,9.905833E0,3.3356407E0,2.2233397E1,1.425554E1,1.1995395E0,6.115179E0,3.1333637E0,1.8456749E0],"tree_param":{"num_deleted":"0","num_feature":"145","num_nodes":"115","size_leaf_vector":"1"}},{"base_weights":[3.307285E-3,5.873046E-1,-9.598111E-3,-2.2226943E-2,9.076393E-1,-1.7930496E-2,8.6212176E-1,5.237456E-1,-2.1413699E-1,2.8294125E-3,3.478478E-1,-4.7937516E-2,2.1240439E-1,6.829159E-2,3.165943E-1,-4.7419082E-2,2.6691815E-1,5.3834002E-2,-1.7851548E-1,-2.0665525E-1,4.0177867E-1,-4.9402124E-1,8.541385E-2,-2.009942E-1,7.2981536E-1,-5.168416E-1,4.4018182E-1,4.9782586E-1,-6.541879E-1,-2.3577961E-1,1.6644445E-1,-3.26875E-1,3.0303884E-2,-2.1961495E-2,-1.0785351E-1,3.544333E-1,-1.02543734E-1,-2.0742594E-1,2.0375103E-1,2.4755801E-1,-1.714206E-1,-1.7760424E-1,1.766642E-1,5.767805E-3,-2.7054253E-1],"categories":[],"categories_nodes":[],"categories_segments":[],"categories_sizes":[],"default_left":[0,0,0,0,0,0,0,0,0,0,0,0,0,0,0,0,0,0,0,0,0,0,0,0,0,0,0,0,0,0,0,0,0,0,0,0,0,0,0,0,0,0,0,0,0],"id":12,"left_children":[1,3,5,7,9,11,13,15,-1,-1,-1,17,19,-1,-1,-1,-1,21,23,25,27,29,31,33,35,37,39,41,43,-1,-1,-1,-1,-1,-1,-1,-1,-1,-1,-1,-1,-1,-1,-1,-1],"loss_changes":[4.0313177E0,2.2782032E0,3.818471E0,2.2466278E0,1.7093349E0,3.601485E0,3.699162E-1,9.761994E-1,0E0,0E0,0E0,6.1296086E0,4.850393E0,0E0,0E0,0E0,0E0,4.5332317E0,4.270075E0,4.111511E0,4.5565386E0,4.8126326E0,4.624192E0,3.9815865E0,2.8686807E0,3.2974985E0,3.1254973E0,4.199461E0,6.693466E-1,0E0,0E0,0E0,0E0,0E0,0E0,0E0,0E0,0E0,0E0,0E0,0E0,0E0,0E0,0E0,0E0],"parents":[2147483647,0,0,1,1,2,2,3,3,4,4,5,5,6,6,7,7,11,11,12,12,17,17,18,18,19,19,20,20,21,21,22,22,23,23,24,24,25,25,26,26,27,27,28,28],"right_children":[2,4,6,8,10,12,14,16,-1,-1,-1,18,20,-1,-1,-1,-1,22,24,26,28,30,32,34,36,38,40,42,44,-1,-1,-1,-1,-1,-1,-1,-1,-1,-1,-1,-1,-1,-1,-1,-1],"split_conditions":[2E3,6E3,1.8E4,8E3,6E3,1.2E4,1E4,6E3,-2.1413699E-1,2.8294125E-3,3.478478E-1,8E3,6E3,6.829159E-2,3.165943E-1,-4.7419082E-2,2.6691815E-1,4E3,1.4E4,8E3,1.2E4,8E3,2E3,8E3,8E3,1E4,8E3,4E3,6E3,-2.3577961E-1,1.6644445E-1,-3.26875E-1,3.0303884E-2,-2.1961495E-2,-1.0785351E-1,3.544333E-1,-1.02543734E-1,-2.0742594E-1,2.0375103E-1,2.4755801E-1,-1.714206E-1,-1.7760424E-1,1.766642E-1,5.767805E-3,-2.7054253E-1],"split_indices":[52,87,123,14,4,50,125,121,0,0,0,53,9,0,0,0,0,19,131,6,1,51,73,67,20,16,136,61,29,0,0,0,0,0,0,0,0,0,0,0,0,0,0,0,0],"split_type":[0,0,0,0,0,0,0,0,0,0,0,0,0,0,0,0,0,0,0,0,0,0,0,0,0,0,0,0,0,0,0,0,0,0,0,0,0,0,0,0,0,0,0,0,0],"sum_hessian":[5.3314264E2,1.0564566E1,5.2257806E2,3.9600377E0,6.6045275E0,5.186004E2,3.9776418E0,2.3485653E0,1.6114724E0,1.673525E0,4.9310026E0,4.5952713E2,5.90733E1,1.4368933E0,2.5407486E0,1.018762E0,1.3298033E0,2.585797E2,2.0094742E2,1.8358086E1,4.0715214E1,1.3294786E1,2.4528491E2,1.9685452E2,4.0928926E0,1.2543775E1,5.8143115E0,3.780514E1,2.9100704E0,1.0596299E1,2.6984866E0,2.3116477E0,2.4297327E2,1.0980045E2,8.705407E1,2.8073018E0,1.285591E0,1.1314175E1,1.2296002E0,4.34489E0,1.469421E0,2.4908066E0,3.5314335E1,1.0303497E0,1.8797208E0],"tree_param":{"num_deleted":"0","num_feature":"145","num_nodes":"45","size_leaf_vector":"1"}},{"base_weights":[3.1291519E-3,-5.6202334E-1,1.554289E-2,-1.012397E0,-1.7416126E-1,-2.7881277E-1,3.7325803E-2,-6.460733E-2,-3.474484E-1,3.3439642E-1,-6.322938E-1,-4.1984162E-1,6.180166E-1,1.0023538E-1,-9.939891E-2,2.3357262E-1,-5.9052214E-2,5.6925565E-2,-3.0612633E-1,-1.2368777E-1,-7.28212E-1,2.8993776E-1,-3.2006685E-2,6.1267477E-2,4.040221E-1,-3.6056854E-2,-4.677269E-1,-6.4738625E-1,1.5695241E-1,-8.7954754E-1,1.885205E-1,2.2447842E-1,-2.5487475E-2,7.384712E-1,4.0639076E-2,8.002307E-1,-8.071037E-2,-6.1148065E-1,4.666623E-1,9.8680824E-2,-2.870891E-1,1.15296535E-1,-2.2944723E-1,8.258882E-2,-3.1254947E-1,9.54282E-2,-7.085565E-2,3.1380482E-2,-6.603518E-2,-1.2805662E-1,2.5699097E-1,1.2433959E-1,-1.1900098E-1,3.522727E-1,-8.942266E-2,-7.4086614E-2,6.0989864E-2,-3.357319E-1,-8.280469E-2,2.3686272E-1,-1.9251185E-2],"categories":[],"categories_nodes":[],"categories_segments":[],"categories_sizes":[],"default_left":[0,0,0,0,0,0,0,0,0,0,0,0,0,0,0,0,0,0,0,0,0,0,0,0,0,0,0,0,0,0,0,0,0,0,0,0,0,0,0,0,0,0,0,0,0,0,0,0,0,0,0,0,0,0,0,0,0,0,0,0,0],"id":13,"left_children":[1,3,5,7,9,11,13,-1,-1,15,17,19,21,23,25,-1,-1,-1,-1,27,29,-1,-1,31,33,35,37,39,41,43,-1,45,47,49,51,53,55,57,59,-1,-1,-1,-1,-1,-1,-1,-1,-1,-1,-1,-1,-1,-1,-1,-1,-1,-1,-1,-1,-1,-1],"loss_changes":[3.7194076E0,1.8141801E0,3.335106E0,3.3900976E-1,1.9192606E0,4.7931733E0,4.1701736E0,0E0,0E0,1.1273084E0,1.5343616E0,2.7930775E0,1.435241E0,3.9025228E0,3.5508347E0,0E0,0E0,0E0,0E0,2.6454804E0,3.6859531E0,0E0,0E0,4.1857786E0,4.5321546E0,4.9775896E0,3.2881718E0,2.1990714E0,2.8245392E0,2.9380608E0,0E0,4.4981227E0,4.9261837E0,3.049346E0,3.278529E0,3.1270332E0,5.990034E0,3.0641365E0,6.5876013E-1,0E0,0E0,0E0,0E0,0E0,0E0,0E0,0E0,0E0,0E0,0E0,0E0,0E0,0E0,0E0,0E0,0E0,0E0,0E0,0E0,0E0,0E0],"parents":[2147483647,0,0,1,1,2,2,3,3,4,4,5,5,6,6,9,9,10,10,11,11,12,12,13,13,14,14,19,19,20,20,23,23,24,24,25,25,26,26,27,27,28,28,29,29,31,31,32,32,33,33,34,34,35,35,36,36,37,37,38,38],"right_children":[2,4,6,8,10,12,14,-1,-1,16,18,20,22,24,26,-1,-1,-1,-1,28,30,-1,-1,32,34,36,38,40,42,44,-1,46,48,50,52,54,56,58,60,-1,-1,-1,-1,-1,-1,-1,-1,-1,-1,-1,-1,-1,-1,-1,-1,-1,-1,-1,-1,-1,-1],"split_conditions":[2E3,6E3,4E3,6E3,8E3,1E4,8E3,-6.460733E-2,-3.474484E-1,6E3,6E3,8E3,8E3,1.2E4,1E4,2.3357262E-1,-5.9052214E-2,5.6925565E-2,-3.0612633E-1,6E3,1E4,2.8993776E-1,-3.2006685E-2,6E3,8E3,4E3,1E4,6E3,1E4,4E3,1.885205E-1,1E4,8E3,2E3,8E3,1E4,8E3,6E3,6E3,9.8680824E-2,-2.870891E-1,1.15296535E-1,-2.2944723E-1,8.258882E-2,-3.1254947E-1,9.54282E-2,-7.085565E-2,3.1380482E-2,-6.603518E-2,-1.2805662E-1,2.5699097E-1,1.2433959E-1,-1.1900098E-1,3.522727E-1,-8.942266E-2,-7.4086614E-2,6.0989864E-2,-3.357319E-1,-8.280469E-2,2.3686272E-1,-1.9251185E-2],"split_indices":[92,7,141,84,14,77,138,0,0,139,66,7,70,119,51,0,0,0,0,29,49,0,0,118,5,100,13,11,25,3,0,87,8,79,25,131,52,81,89,0,0,0,0,0,0,0,0,0,0,0,0,0,0,0,0,0,0,0,0,0,0],"split_type":[0,0,0,0,0,0,0,0,0,0,0,0,0,0,0,0,0,0,0,0,0,0,0,0,0,0,0,0,0,0,0,0,0,0,0,0,0,0,0,0,0,0,0,0,0,0,0,0,0,0,0,0,0,0,0,0,0,0,0,0,0],"sum_hessian":[5.279131E2,1.03949375E1,5.175182E2,4.064808E0,6.33013E0,3.4845554E1,4.826726E2,1.0114782E0,3.0533295E0,3.1279666E0,3.2021635E0,3.0570173E1,4.275383E0,3.307536E2,1.5191899E2,1.4500005E0,1.6779661E0,1.1909224E0,2.011241E0,1.6308681E1,1.4261491E1,2.6619256E0,1.6134577E0,2.9421518E2,3.6538445E1,1.3056361E2,2.1355375E1,5.234269E0,1.1074412E1,1.3146596E1,1.1148945E0,1.0156145E2,1.9265372E2,1.8489204E1,1.804924E1,5.7603703E0,1.24803246E2,1.880747E1,2.5479064E0,1.2450838E0,3.9891853E0,9.350934E0,1.723478E0,1.5339966E0,1.1612599E1,8.4665344E1,1.6896101E1,1.15749916E2,7.690381E1,1.4617096E0,1.7027496E1,9.759087E0,8.2901535E0,4.2454925E0,1.5148777E0,7.880516E1,4.599808E1,6.55399E0,1.225348E1,1.2812304E0,1.2666758E0],"tree_param":{"num_deleted":"0","num_feature":"145","num_nodes":"61","size_leaf_vector":"1"}},{"base_weights":[1.3571605E-3,-6.067423E-1,1.0482147E-2,7.774252E-2,-2.7679467E-1,5.208188E-1,-1.7394111E-4,-1.728722E-1,1.8775041E-1,-2.0812726E-2,8.1876546E-1,4.9138665E-1,-1.1560524E-2,1.8719E-1,-4.978311E-1,1.0025465E0,-3.5861894E-2,6.830615E-1,-1.3500884E-1,2.4568646E-1,-3.301634E-2,-2.4466522E-1,3.239192E-2,3.3518502E-1,6.777061E-2,1.0624769E0,3.9820503E-2,-1.0381744E-1,7.619392E-1,-6.4410865E-1,-1.9788582E-2,8.927186E-2,3.7075627E-1,-1.745232E-1,1.8484582E-1,-1.3677278E-1,1.2585881E-1,3.1199962E-1,8.360495E-2,3.6372636E-2,-3.3238328E-1,-1.18889466E-1,-4.2330314E-4],"categories":[],"categories_nodes":[],"categories_segments":[],"categories_sizes":[],"default_left":[0,0,0,0,0,0,0,0,0,0,0,0,0,0,0,0,0,0,0,0,0,0,0,0,0,0,0,0,0,0,0,0,0,0,0,0,0,0,0,0,0,0,0],"id":14,"left_children":[1,3,5,7,-1,9,11,-1,-1,13,15,17,19,-1,21,23,-1,25,-1,27,29,-1,-1,-1,-1,31,33,35,37,39,41,-1,-1,-1,-1,-1,-1,-1,-1,-1,-1,-1,-1],"loss_changes":[2.9056513E0,1.7457092E0,2.804876E0,1.5674866E0,0E0,1.7194633E0,2.8390238E0,0E0,0E0,1.7620362E0,1.2976985E0,2.3795257E0,2.7442331E0,0E0,7.1717054E-1,2.6606417E-1,0E0,2.3831186E0,0E0,6.9863377E0,3.6930206E0,0E0,0E0,0E0,0E0,4.560566E-1,2.05144E0,4.559753E0,1.8029232E0,3.5712457E0,3.1114872E0,0E0,0E0,0E0,0E0,0E0,0E0,0E0,0E0,0E0,0E0,0E0,0E0],"parents":[2147483647,0,0,1,1,2,2,3,3,5,5,6,6,9,9,10,10,11,11,12,12,14,14,15,15,17,17,19,19,20,20,25,25,26,26,27,27,28,28,29,29,30,30],"right_children":[2,4,6,8,-1,10,12,-1,-1,14,16,18,20,-1,22,24,-1,26,-1,28,30,-1,-1,-1,-1,32,34,36,38,40,42,-1,-1,-1,-1,-1,-1,-1,-1,-1,-1,-1,-1],"split_conditions":[2E3,6E3,2E3,8E3,-2.7679467E-1,6E3,2E3,-1.728722E-1,1.8775041E-1,6E3,1.2E4,1E4,4E3,1.8719E-1,8E3,1E4,-3.5861894E-2,8E3,-1.3500884E-1,8E3,2E3,-2.4466522E-1,3.239192E-2,3.3518502E-1,6.777061E-2,6E3,8E3,8E3,8E3,8E3,4E3,8.927186E-2,3.7075627E-1,-1.745232E-1,1.8484582E-1,-1.3677278E-1,1.2585881E-1,3.1199962E-1,8.360495E-2,3.6372636E-2,-3.3238328E-1,-1.18889466E-1,-4.2330314E-4],"split_indices":[110,64,52,69,0,87,105,0,0,12,108,121,137,0,99,86,0,129,0,94,78,0,0,0,0,69,21,65,72,95,10,0,0,0,0,0,0,0,0,0,0,0,0],"split_type":[0,0,0,0,0,0,0,0,0,0,0,0,0,0,0,0,0,0,0,0,0,0,0,0,0,0,0,0,0,0,0,0,0,0,0,0,0,0,0,0,0,0,0],"sum_hessian":[5.214985E2,6.7415495E0,5.147569E2,2.3669372E0,4.3746123E0,9.549331E0,5.0520758E2,1.0558001E0,1.3111371E0,3.7189212E0,5.83041E0,1.0483382E1,4.9472418E2,1.450391E0,2.2685301E0,4.8182235E0,1.0121866E0,8.938011E0,1.5453712E0,3.7281578E1,4.5744263E2,1.260973E0,1.0075572E0,3.815884E0,1.0023391E0,5.2119746E0,3.7260368E0,2.2707481E1,1.4574097E1,8.681539E0,4.4876108E2,1.4650061E0,3.7469685E0,1.7881533E0,1.9378834E0,1.3651814E1,9.055667E0,8.51983E0,6.054267E0,3.5547092E0,5.1268296E0,1.9927761E1,4.288333E2],"tree_param":{"num_deleted":"0","num_feature":"145","num_nodes":"43","size_leaf_vector":"1"}},{"base_weights":[2.1886379E-3,-1.00353725E-1,5.042225E-2,-3.793196E-1,1.0966278E-2,1.0128963E-1,-2.0277347E-1,-4.9534592E-1,6.306573E-1,-1.5896273E-1,2.4476719E-1,2.5322276E-1,-1.1065165E-2,2.5911681E-2,-5.0531304E-1,-6.241369E-1,5.82098E-1,3.5929984E-1,-7.163385E-2,-3.6290097E-1,1.1084041E-1,-3.7445795E-2,5.114003E-1,1.0541805E0,2.0037909E-1,-1.6948059E-1,1.7790256E-1,-1.0150022E-1,8.1971794E-1,6.3778185E-3,-7.649799E-1,-3.044757E-1,-9.528345E-1,-7.625608E-2,3.0676585E-1,5.581074E-1,-4.5134977E-1,5.880227E-1,-1.4476228E-1,-3.299246E-1,4.8726216E-1,7.440357E-1,-2.9591918E-1,3.7830564E-1,-3.92711E-2,-1.191368E-1,3.350721E-1,1.5163471E-1,-3.0975306E-1,7.0172295E-2,8.864161E-1,-2.2829622E-1,7.250886E-1,3.5132557E-1,1.5841238E-2,-7.713343E-1,4.9152106E-1,-1.0296137E0,-1.23868555E-1,-1.3369204E-1,2.5262448E-1,-3.1368E-1,6.50051E-2,-1.0500559E-1,3.3473673E-1,-1.7638384E-1,7.990049E-2,7.683504E-3,2.7061483E-1,-8.9378156E-2,2.4673693E-1,1.5031911E-2,-2.548043E-1,2.2051077E-1,-1.5155844E-1,-1.0359441E-1,2.7421033E-1,-1.8942769E-1,2.2960752E-1,1.6612085E-2,-2.690967E-1,1.8663068E-1,2.8515646E-2,-2.2838982E-2,3.2217738E-1,-1.2751612E-1,9.322621E-2,1.2470696E-1,-3.0978113E-2,3.0751523E-1,-4.857216E-2,-2.4241035E-1,1.6958816E-2,3.1000343E-1,-2.117931E-2,-6.2312525E-2,-2.959689E-1,-4.976348E-2,3.3443397E-1,-3.483085E-1,2.3036983E-2,-1.6081849E-1,2.5259912E-1],"categories":[],"categories_nodes":[],"categories_segments":[],"categories_sizes":[],"default_left":[0,0,0,0,0,0,0,0,0,0,0,0,0,0,0,0,0,0,0,0,0,0,0,0,0,0,0,0,0,0,0,0,0,0,0,0,0,0,0,0,0,0,0,0,0,0,0,0,0,0,0,0,0,0,0,0,0,0,0,0,0,0,0,0,0,0,0,0,0,0,0,0,0,0,0,0,0,0,0,0,0,0,0,0,0,0,0,0,0,0,0,0,0,0,0,0,0,0,0,0,0,0,0],"id":15,"left_children":[1,3,5,7,9,11,13,15,17,19,21,23,25,27,29,31,33,-1,-1,35,37,39,41,43,45,47,49,51,53,55,57,59,61,-1,-1,63,65,67,69,71,73,75,77,-1,-1,79,81,83,85,87,89,91,93,-1,-1,95,97,99,101,-1,-1,-1,-1,-1,-1,-1,-1,-1,-1,-1,-1,-1,-1,-1,-1,-1,-1,-1,-1,-1,-1,-1,-1,-1,-1,-1,-1,-1,-1,-1,-1,-1,-1,-1,-1,-1,-1,-1,-1,-1,-1,-1,-1],"loss_changes":[2.5697498E0,5.165925E0,4.571126E0,5.8713026E0,4.797674E0,5.0365534E0,4.1256156E0,6.3454027E0,2.912565E0,3.890225E0,3.8423483E0,5.096504E0,5.133505E0,3.6032722E0,3.4113054E0,3.8065538E0,2.1459503E0,0E0,0E0,3.517169E0,3.8524125E0,4.091768E0,5.139621E0,2.0100384E0,5.1559315E0,4.2472143E0,5.9090056E0,3.4020097E0,1.2649786E0,4.0096087E0,2.759262E0,3.8123646E0,2.2611275E0,0E0,0E0,2.395677E0,3.795979E0,1.9145665E0,3.343599E0,3.4068563E0,2.7250204E0,4.1339655E0,2.824359E0,0E0,0E0,4.9350276E0,5.7200413E0,6.178052E0,4.7987704E0,4.177167E0,1.6540546E0,4.592148E0,1.1390061E0,0E0,0E0,2.9071522E-1,2.8631175E0,1.8204155E0,2.8831537E0,0E0,0E0,0E0,0E0,0E0,0E0,0E0,0E0,0E0,0E0,0E0,0E0,0E0,0E0,0E0,0E0,0E0,0E0,0E0,0E0,0E0,0E0,0E0,0E0,0E0,0E0,0E0,0E0,0E0,0E0,0E0,0E0,0E0,0E0,0E0,0E0,0E0,0E0,0E0,0E0,0E0,0E0,0E0,0E0],"parents":[2147483647,0,0,1,1,2,2,3,3,4,4,5,5,6,6,7,7,8,8,9,9,10,10,11,11,12,12,13,13,14,14,15,15,16,16,19,19,20,20,21,21,22,22,23,23,24,24,25,25,26,26,27,27,28,28,29,29,30,30,31,31,32,32,35,35,36,36,37,37,38,38,39,39,40,40,41,41,42,42,45,45,46,46,47,47,48,48,49,49,50,50,51,51,52,52,55,55,56,56,57,57,58,58],"right_children":[2,4,6,8,10,12,14,16,18,20,22,24,26,28,30,32,34,-1,-1,36,38,40,42,44,46,48,50,52,54,56,58,60,62,-1,-1,64,66,68,70,72,74,76,78,-1,-1,80,82,84,86,88,90,92,94,-1,-1,96,98,100,102,-1,-1,-1,-1,-1,-1,-1,-1,-1,-1,-1,-1,-1,-1,-1,-1,-1,-1,-1,-1,-1,-1,-1,-1,-1,-1,-1,-1,-1,-1,-1,-1,-1,-1,-1,-1,-1,-1,-1,-1,-1,-1,-1,-1],"split_conditions":[6E3,6E3,1E4,1E4,8E3,6E3,8E3,1.2E4,8E3,8E3,8E3,4E3,8E3,1.2E4,6E3,8E3,6E3,3.5929984E-1,-7.163385E-2,4E3,6E3,1E4,1E4,1.2E4,6E3,6E3,1.2E4,1.2E4,8E3,6E3,8E3,1.2E4,1E4,-7.625608E-2,3.0676585E-1,6E3,1E4,6E3,1.2E4,8E3,8E3,6E3,1E4,3.7830564E-1,-3.92711E-2,1.2E4,8E3,1E4,1E4,6E3,1E4,6E3,8E3,3.5132557E-1,1.5841238E-2,6E3,8E3,1.2E4,1E4,-1.3369204E-1,2.5262448E-1,-3.1368E-1,6.50051E-2,-1.0500559E-1,3.3473673E-1,-1.7638384E-1,7.990049E-2,7.683504E-3,2.7061483E-1,-8.9378156E-2,2.4673693E-1,1.5031911E-2,-2.548043E-1,2.2051077E-1,-1.5155844E-1,-1.0359441E-1,2.7421033E-1,-1.8942769E-1,2.2960752E-1,1.6612085E-2,-2.690967E-1,1.8663068E-1,2.8515646E-2,-2.2838982E-2,3.2217738E-1,-1.2751612E-1,9.322621E-2,1.2470696E-1,-3.0978113E-2,3.0751523E-1,-4.857216E-2,-2.4241035E-1,1.6958816E-2,3.1000343E-1,-2.117931E-2,-6.2312525E-2,-2.959689E-1,-4.976348E-2,3.3443397E-1,-3.483085E-1,2.3036983E-2,-1.6081849E-1,2.5259912E-1],"split_indices":[70,16,32,13,32,135,144,89,23,94,14,83,28,78,6,53,133,0,0,47,136,31,4,53,104,124,132,91,129,21,46,56,12,0,0,62,74,21,131,91,69,13,78,0,0,47,103,107,100,127,136,83,82,0,0,115,99,27,73,0,0,0,0,0,0,0,0,0,0,0,0,0,0,0,0,0,0,0,0,0,0,0,0,0,0,0,0,0,0,0,0,0,0,0,0,0,0,0,0,0,0,0,0],"split_type":[0,0,0,0,0,0,0,0,0,0,0,0,0,0,0,0,0,0,0,0,0,0,0,0,0,0,0,0,0,0,0,0,0,0,0,0,0,0,0,0,0,0,0,0,0,0,0,0,0,0,0,0,0,0,0,0,0,0,0,0,0,0,0,0,0,0,0,0,0,0,0,0,0,0,0,0,0,0,0,0,0,0,0,0,0,0,0,0,0,0,0,0,0,0,0,0,0,0,0,0,0,0,0],"sum_hessian":[5.175393E2,1.6521646E2,3.5232288E2,4.643749E1,1.1877896E2,2.938816E2,5.844127E1,4.2109493E1,4.3279977E0,6.8970535E1,4.980843E1,1.2440272E2,1.6947888E2,3.3803818E1,2.463745E1,3.798922E1,4.120273E0,2.3911045E0,1.9368932E0,3.9083286E1,2.9887249E1,2.461485E1,2.519358E1,6.5267653E0,1.1787595E2,9.224836E1,7.723052E1,2.9879988E1,3.9238293E0,8.622224E0,1.6015226E1,2.023592E1,1.77533E1,1.5673219E0,2.5529516E0,2.959225E0,3.612406E1,9.971331E0,1.9915918E1,1.6043322E1,8.5715275E0,1.9618689E1,5.574892E0,5.502341E0,1.0244247E0,3.498968E1,8.288628E1,2.8020988E1,6.422737E1,6.7991394E1,9.239125E0,2.6533627E1,3.3463616E0,2.3295283E0,1.5943011E0,3.0857236E0,5.5365E0,1.0907086E1,5.10814E0,1.8561897E1,1.6740222E0,1.6546776E1,1.2065237E0,1.2675389E0,1.6916859E0,3.0499826E1,5.6242347E0,3.9602385E0,6.011092E0,1.779064E1,2.1252794E0,9.78659E0,6.256732E0,7.0666637E0,1.5048636E0,2.5091016E0,1.7109587E1,4.543551E0,1.0313408E0,2.9336807E1,5.652874E0,3.7021675E1,4.5864597E1,2.3207275E1,4.8137116E0,5.4428608E1,9.798762E0,2.2255836E1,4.5735558E1,8.179619E0,1.0595073E0,8.136181E0,1.8397446E1,2.1966689E0,1.1496929E0,1.3957334E0,1.6899903E0,3.051597E0,2.4849026E0,9.704992E0,1.2020942E0,3.8921282E0,1.216012E0],"tree_param":{"num_deleted":"0","num_feature":"145","num_nodes":"103","size_leaf_vector":"1"}},{"base_weights":[5.9272116E-3,-1.2950385E-3,7.283148E-1,-1.2617396E-2,4.877771E-1,1.0050284E0,3.3720393E-2,2.0918094E-1,-3.8858738E-2,9.3128556E-1,1.3082804E-2,9.325754E-2,3.564857E-1,5.2060694E-1,2.9246582E-2,-3.7181753E-1,-1.7764537E-2,3.3802244E-1,1.1235332E-3,-6.2907875E-1,7.1082026E-1,6.619618E-1,-3.9017504E-1,2.9291064E-1,-3.4214276E-1,1.7993547E-1,-6.802808E-1,-9.221925E-2,8.168719E-2,-3.0362335E-1,-3.409984E-3,9.356707E-3,2.996661E-1,-5.9215154E-2,2.4041235E-1,1.1415686E-1,-2.7846262E-1,-1.1555486E-2,2.2331198E-1,-2.1145363E-1,6.3399196E-2,1.9983046E-1,-8.564268E-2,-3.3598366E-1,-1.7857298E-2,-1.8287988E-1,-1.6945915E-2,-1.4362732E-1,3.482955E-2],"categories":[],"categories_nodes":[],"categories_segments":[],"categories_sizes":[],"default_left":[0,0,0,0,0,0,0,0,0,0,0,0,0,0,0,0,0,0,0,0,0,0,0,0,0,0,0,0,0,0,0,0,0,0,0,0,0,0,0,0,0,0,0,0,0,0,0,0,0],"id":16,"left_children":[1,3,5,7,9,11,-1,13,15,17,19,-1,-1,21,23,25,27,-1,-1,29,31,33,35,37,39,41,43,45,47,-1,-1,-1,-1,-1,-1,-1,-1,-1,-1,-1,-1,-1,-1,-1,-1,-1,-1,-1,-1],"loss_changes":[2.6435583E0,2.7887115E0,7.4185777E-1,2.872307E0,2.3868513E0,5.4846287E-2,0E0,2.9109101E0,3.0899444E0,1.061213E0,3.367761E0,0E0,0E0,2.7124867E0,3.4448307E0,4.584484E0,3.0853999E0,0E0,0E0,9.1704834E-1,6.723726E-1,2.1795669E0,1.6760765E0,3.0980866E0,3.088326E0,2.4962823E0,4.5799603E0,4.368854E0,3.4978778E0,0E0,0E0,0E0,0E0,0E0,0E0,0E0,0E0,0E0,0E0,0E0,0E0,0E0,0E0,0E0,0E0,0E0,0E0,0E0,0E0],"parents":[2147483647,0,0,1,1,2,2,3,3,4,4,5,5,7,7,8,8,9,9,10,10,13,13,14,14,15,15,16,16,19,19,20,20,21,21,22,22,23,23,24,24,25,25,26,26,27,27,28,28],"right_children":[2,4,6,8,10,12,-1,14,16,18,20,-1,-1,22,24,26,28,-1,-1,30,32,34,36,38,40,42,44,46,48,-1,-1,-1,-1,-1,-1,-1,-1,-1,-1,-1,-1,-1,-1,-1,-1,-1,-1,-1,-1],"split_conditions":[1.8E4,1.4E4,8E3,4E3,8E3,6E3,3.3720393E-2,6E3,4E3,1E4,8E3,9.325754E-2,3.564857E-1,1.2E4,8E3,6E3,8E3,3.3802244E-1,1.1235332E-3,1.2E4,6E3,2E3,8E3,8E3,8E3,6E3,8E3,4E3,4E3,-3.0362335E-1,-3.409984E-3,9.356707E-3,2.996661E-1,-5.9215154E-2,2.4041235E-1,1.1415686E-1,-2.7846262E-1,-1.1555486E-2,2.2331198E-1,-2.1145363E-1,6.3399196E-2,1.9983046E-1,-8.564268E-2,-3.3598366E-1,-1.7857298E-2,-1.8287988E-1,-1.6945915E-2,-1.4362732E-1,3.482955E-2],"split_indices":[37,48,119,138,52,3,0,0,55,111,130,0,0,114,91,131,6,0,0,50,115,138,9,113,37,136,35,58,37,0,0,0,0,0,0,0,0,0,0,0,0,0,0,0,0,0,0,0,0],"split_type":[0,0,0,0,0,0,0,0,0,0,0,0,0,0,0,0,0,0,0,0,0,0,0,0,0,0,0,0,0,0,0,0,0,0,0,0,0,0,0,0,0,0,0,0,0,0,0,0,0],"sum_hessian":[5.0551358E2,5.0149792E2,4.015643E0,4.9110275E2,1.0395166E1,2.3348765E0,1.6807662E0,5.1218643E1,4.3988412E2,4.8768477E0,5.518318E0,1.050798E0,1.2840786E0,1.8062754E1,3.3155888E1,2.5217358E1,4.1466675E2,3.8506563E0,1.0261917E0,2.9248443E0,2.5934737E0,1.5872508E1,2.190246E0,1.951367E1,1.3642218E1,9.192057E0,1.6025301E1,2.3717671E2,1.7749005E2,1.4113425E0,1.5135019E0,1.1019441E0,1.4915297E0,2.1575367E0,1.3714972E1,1.0207875E0,1.1694585E0,1.1780223E1,7.7334476E0,8.076213E0,5.5660048E0,4.2848806E0,4.9071755E0,8.910253E0,7.1150494E0,1.4284847E1,2.2289186E2,9.520482E0,1.6796957E2],"tree_param":{"num_deleted":"0","num_feature":"145","num_nodes":"49","size_leaf_vector":"1"}},{"base_weights":[5.4926323E-3,-4.9342132E-1,1.5831245E-2,-6.824936E-1,1.8149322E-1,1.4400356E-1,-4.0702686E-2,-1.4669299E-2,-8.9823884E-1,-3.9397128E-2,1.22058354E-1,7.1869504E-1,1.0355762E-1,-7.795843E-2,2.9787064E-1,-1.6639298E-1,1.5958637E-1,-3.1273913E-1,-2.786364E-2,-4.41424E-2,1.0040283E0,4.792846E-2,5.03985E-1,-8.964644E-1,-6.5012984E-2,-1.1483446E-1,6.6356033E-1,-2.263752E-1,2.1728042E-1,3.5691535E-1,2.9301051E-2,-8.020136E-2,2.2791085E-1,1.02631755E-1,9.317635E-1,-3.262046E-1,-3.708594E-2,1.5767299E-2,-1.9538647E-1,4.2062846E-1,-4.3552575E-1,-3.8054533E-2,8.910525E-1,-8.2523435E-2,4.3653123E-2,-7.0089616E-2,1.241489E-1,1.932935E-1,-1.2221931E-1,3.1390476E-1,1.7811507E-2,4.723591E-2,-5.789075E-2,2.2326047E-2,-9.7436994E-2,-2.0484804E-1,2.604499E-1,-2.0005889E-1,1.4101285E-1,-2.560467E-1,1.361724E-1,3.0122507E-1,-4.20063E-2],"categories":[],"categories_nodes":[],"categories_segments":[],"categories_sizes":[],"default_left":[0,0,0,0,0,0,0,0,0,0,0,0,0,0,0,0,0,0,0,0,0,0,0,0,0,0,0,0,0,0,0,0,0,0,0,0,0,0,0,0,0,0,0,0,0,0,0,0,0,0,0,0,0,0,0,0,0,0,0,0,0,0,0],"id":17,"left_children":[1,3,5,7,9,11,13,15,17,-1,-1,19,21,23,25,-1,-1,-1,-1,27,29,31,33,35,37,39,41,-1,-1,-1,-1,43,45,47,49,-1,-1,51,53,55,57,59,61,-1,-1,-1,-1,-1,-1,-1,-1,-1,-1,-1,-1,-1,-1,-1,-1,-1,-1,-1,-1],"loss_changes":[2.5967135E0,1.4281046E0,3.5759447E0,1.1674256E0,2.6680243E-1,3.4358914E0,4.3456E0,1.1856652E0,6.2061787E-1,0E0,0E0,2.1690211E0,3.144734E0,3.2210965E0,5.2341385E0,0E0,0E0,0E0,0E0,2.5200677E0,1.0865278E0,2.9242523E0,2.8656025E0,5.649245E-1,3.2231605E0,3.0866826E0,2.9496574E0,0E0,0E0,0E0,0E0,3.3103395E0,4.6156607E0,3.0314026E0,7.600889E-1,0E0,0E0,5.640997E0,4.1106977E0,3.9717078E0,2.6317544E0,2.5664868E0,1.753068E0,0E0,0E0,0E0,0E0,0E0,0E0,0E0,0E0,0E0,0E0,0E0,0E0,0E0,0E0,0E0,0E0,0E0,0E0,0E0,0E0],"parents":[2147483647,0,0,1,1,2,2,3,3,4,4,5,5,6,6,7,7,8,8,11,11,12,12,13,13,14,14,19,19,20,20,21,21,22,22,23,23,24,24,25,25,26,26,31,31,32,32,33,33,34,34,37,37,38,38,39,39,40,40,41,41,42,42],"right_children":[2,4,6,8,10,12,14,16,18,-1,-1,20,22,24,26,-1,-1,-1,-1,28,30,32,34,36,38,40,42,-1,-1,-1,-1,44,46,48,50,-1,-1,52,54,56,58,60,62,-1,-1,-1,-1,-1,-1,-1,-1,-1,-1,-1,-1,-1,-1,-1,-1,-1,-1,-1,-1],"split_conditions":[2E3,1E4,6E3,6E3,8E3,4E3,1.2E4,8E3,1.2E4,-3.9397128E-2,1.22058354E-1,6E3,1.2E4,2E3,8E3,-1.6639298E-1,1.5958637E-1,-3.1273913E-1,-2.786364E-2,8E3,1E4,8E3,8E3,8E3,8E3,6E3,6E3,-2.263752E-1,2.1728042E-1,3.5691535E-1,2.9301051E-2,8E3,6E3,6E3,1E4,-3.262046E-1,-3.708594E-2,8E3,6E3,6E3,1E4,6E3,1E4,-8.2523435E-2,4.3653123E-2,-7.0089616E-2,1.241489E-1,1.932935E-1,-1.2221931E-1,3.1390476E-1,1.7811507E-2,4.723591E-2,-5.789075E-2,2.2326047E-2,-9.7436994E-2,-2.0484804E-1,2.604499E-1,-2.0005889E-1,1.4101285E-1,-2.560467E-1,1.361724E-1,3.0122507E-1,-4.20063E-2],"split_indices":[92,132,92,41,53,0,36,33,10,0,0,15,120,134,90,0,0,0,0,7,30,66,30,29,134,45,86,0,0,0,0,3,83,45,39,0,0,44,125,73,105,72,137,0,0,0,0,0,0,0,0,0,0,0,0,0,0,0,0,0,0,0,0],"split_type":[0,0,0,0,0,0,0,0,0,0,0,0,0,0,0,0,0,0,0,0,0,0,0,0,0,0,0,0,0,0,0,0,0,0,0,0,0,0,0,0,0,0,0,0,0,0,0,0,0,0,0,0,0,0,0,0,0,0,0,0,0,0,0],"sum_hessian":[5.0091208E2,9.220677E0,4.916914E2,7.1940794E0,2.0265982E0,1.5002081E2,3.416706E2,2.0173879E0,5.1766915E0,1.0233924E0,1.0032057E0,8.761429E0,1.4125938E2,3.0849442E2,3.317619E1,1.0074867E0,1.0099013E0,4.1407533E0,1.0359385E0,2.6151447E0,6.1462836E0,1.2501187E2,1.6247513E1,3.7405396E0,3.0475388E2,1.5908438E1,1.7267752E1,1.3681767E0,1.2469682E0,4.841707E0,1.3045762E0,7.334898E1,5.1662888E1,9.022387E0,7.225126E0,2.6733167E0,1.0672231E0,1.8870811E2,1.1604575E2,5.8421254E0,1.0066313E1,4.4319067E0,1.2835844E1,3.9245865E1,3.4103115E1,1.4761319E1,3.690157E1,4.247752E0,4.7746344E0,6.210054E0,1.0150719E0,1.1255437E2,7.6153755E1,3.7753826E1,7.829192E1,1.5340384E0,4.3080873E0,8.227983E0,1.8383292E0,1.3911654E0,3.0407414E0,1.1591326E1,1.2445185E0],"tree_param":{"num_deleted":"0","num_feature":"145","num_nodes":"63","size_leaf_vector":"1"}},{"base_weights":[4.7055567E-3,2.2638546E-1,-2.0086749E-2,9.618776E-2,8.0056214E-1,-5.8021075E-1,-8.478107E-3,-1.6042985E-1,4.4362238E-1,2.9854336E-1,1.2739928E-1,1.2481795E-1,-9.0528977E-1,-2.2853103E-2,4.974172E-1,2.7012703E-1,-4.2230925E-1,5.4907835E-1,-1.6852708E-1,-1.3932651E-1,2.0871969E-1,-1.3769294E-1,2.0150661E-1,-2.8543636E-2,-3.2529402E-1,3.5178193E-1,-4.6420645E-2,-2.436218E-1,8.4614944E-1,7.357517E-1,-2.6935425E-1,-5.6805813E-1,2.1030077E-1,-1.16756976E-1,8.018676E-1,5.025897E-1,-4.3640572E-1,-7.889596E-1,-3.1576738E-2,-2.3752601E-1,1.3504028E-1,-3.248407E-2,1.0594728E0,2.7012032E-1,-9.087612E-4,1.5014029E-1,-3.02973E-1,-2.3534451E-1,7.830959E-2,2.3119844E-1,-1.5277657E-1,-4.0093116E-2,2.7165064E-1,-1.7553416E-1,1.7645815E-1,-2.845138E-1,1.770569E-1,-2.9219115E-1,5.745056E-2,5.892828E-5,-9.744572E-2,3.916536E-1,-5.8923073E-2],"categories":[],"categories_nodes":[],"categories_segments":[],"categories_sizes":[],"default_left":[0,0,0,0,0,0,0,0,0,0,0,0,0,0,0,0,0,0,0,0,0,0,0,0,0,0,0,0,0,0,0,0,0,0,0,0,0,0,0,0,0,0,0,0,0,0,0,0,0,0,0,0,0,0,0,0,0,0,0,0,0,0,0],"id":18,"left_children":[1,3,5,7,9,11,13,15,17,-1,19,21,23,25,27,29,31,33,-1,-1,-1,-1,-1,-1,-1,35,37,39,41,43,45,47,-1,49,51,53,55,57,59,-1,-1,-1,61,-1,-1,-1,-1,-1,-1,-1,-1,-1,-1,-1,-1,-1,-1,-1,-1,-1,-1,-1,-1],"loss_changes":[2.7256E0,3.6520748E0,2.896514E0,3.79789E0,1.0630803E0,2.1860943E0,3.1978645E0,2.9076855E0,2.2193036E0,0E0,1.3939826E0,1.5001932E0,8.122921E-1,3.7866042E0,3.346142E0,2.7051687E0,2.984341E0,2.9243102E0,0E0,0E0,0E0,0E0,0E0,0E0,0E0,3.2372859E0,4.412972E0,2.1302352E0,1.8424644E0,6.869247E-1,3.5585454E0,2.8127084E0,0E0,2.3084593E0,1.3151512E0,2.371841E0,2.9842582E0,1.6103797E0,3.6876643E0,0E0,0E0,0E0,2.4281716E0,0E0,0E0,0E0,0E0,0E0,0E0,0E0,0E0,0E0,0E0,0E0,0E0,0E0,0E0,0E0,0E0,0E0,0E0,0E0,0E0],"parents":[2147483647,0,0,1,1,2,2,3,3,4,4,5,5,6,6,7,7,8,8,10,10,11,11,12,12,13,13,14,14,15,15,16,16,17,17,25,25,26,26,27,27,28,28,29,29,30,30,31,31,33,33,34,34,35,35,36,36,37,37,38,38,42,42],"right_children":[2,4,6,8,10,12,14,16,18,-1,20,22,24,26,28,30,32,34,-1,-1,-1,-1,-1,-1,-1,36,38,40,42,44,46,48,-1,50,52,54,56,58,60,-1,-1,-1,62,-1,-1,-1,-1,-1,-1,-1,-1,-1,-1,-1,-1,-1,-1,-1,-1,-1,-1,-1,-1],"split_conditions":[4E3,1E4,2E3,8E3,1E4,6E3,1.4E4,6E3,1.2E4,2.9854336E-1,1E4,6E3,6E3,4E3,6E3,8E3,1E4,6E3,-1.6852708E-1,-1.3932651E-1,2.0871969E-1,-1.3769294E-1,2.0150661E-1,-2.8543636E-2,-3.2529402E-1,1E4,2E3,8E3,6E3,1.2E4,8E3,1E4,2.1030077E-1,8E3,4E3,4E3,8E3,1.2E4,1.2E4,-2.3752601E-1,1.3504028E-1,-3.248407E-2,1.2E4,2.7012032E-1,-9.087612E-4,1.5014029E-1,-3.02973E-1,-2.3534451E-1,7.830959E-2,2.3119844E-1,-1.5277657E-1,-4.0093116E-2,2.7165064E-1,-1.7553416E-1,1.7645815E-1,-2.845138E-1,1.770569E-1,-2.9219115E-1,5.745056E-2,5.892828E-5,-9.744572E-2,3.916536E-1,-5.8923073E-2],"split_indices":[139,42,125,129,125,21,19,43,83,0,120,128,47,76,38,126,80,33,0,0,0,0,0,0,0,95,133,130,101,24,104,53,0,128,43,96,45,98,17,0,0,0,55,0,0,0,0,0,0,0,0,0,0,0,0,0,0,0,0,0,0,0,0],"split_type":[0,0,0,0,0,0,0,0,0,0,0,0,0,0,0,0,0,0,0,0,0,0,0,0,0,0,0,0,0,0,0,0,0,0,0,0,0,0,0,0,0,0,0,0,0,0,0,0,0,0,0,0,0,0,0,0,0,0,0,0,0,0,0],"sum_hessian":[4.9410086E2,4.8883022E1,4.4521783E2,4.079912E1,8.083901E0,8.045321E0,4.3717252E2,2.3776144E1,1.7022978E1,5.900119E0,2.183782E0,2.7333324E0,5.3119893E0,4.2602194E2,1.1150571E1,8.9802265E0,1.47959175E1,1.5817693E1,1.2052857E0,1.1593518E0,1.0244303E0,1.3997723E0,1.33356E0,1.2385567E0,4.0734324E0,2.4389786E1,4.0163217E2,3.6646903E0,7.4858804E0,4.6247797E0,4.3554463E0,1.3534169E1,1.2617481E0,4.5008316E0,1.1316861E1,2.0776806E1,3.6129797E0,6.8494754E0,3.9478268E2,1.9682972E0,1.696393E0,1.4574625E0,6.0284176E0,3.6030216E0,1.0217581E0,2.2944853E0,2.0609612E0,1.0775233E1,2.758936E0,1.0847623E0,3.4160695E0,1.0997574E0,1.0217103E1,1.090141E0,1.9686666E1,2.4615629E0,1.1514168E0,5.7677374E0,1.081738E0,3.570908E2,3.7691895E1,5.007822E0,1.0205959E0],"tree_param":{"num_deleted":"0","num_feature":"145","num_nodes":"63","size_leaf_vector":"1"}},{"base_weights":[4.646173E-3,2.5944808E-2,-2.4366188E-1,1.7580086E-2,6.572084E-1,-1.2272794E-1,-7.921362E-1,-5.3534913E-1,2.763182E-2,-5.0733887E-2,3.135485E-1,-2.4855053E-1,7.580078E-1,-2.8951508E-1,-7.126108E-5,-7.9862756E-1,7.051293E-2,-2.5972196E-1,4.49969E-2,1.9505529E-1,-4.5558485E-1,8.153518E-3,3.5101548E-1,-2.9539558E-1,-7.049732E-3,2.0776145E-1,-1.5617529E-1,-4.8752237E-2,-1.0599358E0,1.5033317E-1,-1.9620657E-2,4.2396167E-1,-1.9947268E-1,1.9882984E-1,-5.5928427E-1,-9.671222E-2,1.6089118E-1,-7.1658336E-2,-3.619506E-1,-6.2720072E-3,9.704255E-2,-1.2106172E-2,2.1463253E-1,-5.8213264E-2,2.1119548E-1,1.5550916E-1,-1.9401468E-1],"categories":[],"categories_nodes":[],"categories_segments":[],"categories_sizes":[],"default_left":[0,0,0,0,0,0,0,0,0,0,0,0,0,0,0,0,0,0,0,0,0,0,0,0,0,0,0,0,0,0,0,0,0,0,0,0,0,0,0,0,0,0,0,0,0,0,0],"id":19,"left_children":[1,3,5,7,9,11,13,15,17,-1,-1,19,21,-1,-1,23,25,27,29,31,33,-1,-1,-1,-1,-1,-1,35,37,39,41,43,-1,-1,45,-1,-1,-1,-1,-1,-1,-1,-1,-1,-1,-1,-1],"loss_changes":[2.5931954E0,2.3720024E0,2.4722233E0,2.496538E0,2.0603504E0,3.836789E0,9.3294287E-1,1.3358374E0,2.2047791E0,0E0,0E0,2.8037398E0,1.2818563E0,0E0,0E0,7.948408E-1,1.5917838E0,4.2015657E0,2.829791E0,2.2713459E0,2.7427783E0,0E0,0E0,0E0,0E0,0E0,0E0,3.5323627E0,3.385687E-1,4.6918454E0,3.9652905E0,1.6235714E0,0E0,0E0,2.149983E0,0E0,0E0,0E0,0E0,0E0,0E0,0E0,0E0,0E0,0E0,0E0,0E0],"parents":[2147483647,0,0,1,1,2,2,3,3,4,4,5,5,6,6,7,7,8,8,11,11,12,12,15,15,16,16,17,17,18,18,19,19,20,20,27,27,28,28,29,29,30,30,31,31,34,34],"right_children":[2,4,6,8,10,12,14,16,18,-1,-1,20,22,-1,-1,24,26,28,30,32,34,-1,-1,-1,-1,-1,-1,36,38,40,42,44,-1,-1,46,-1,-1,-1,-1,-1,-1,-1,-1,-1,-1,-1,-1],"split_conditions":[1.2E4,1.8E4,1E4,2E3,6E3,1E4,1E4,8E3,4E3,-5.0733887E-2,3.135485E-1,6E3,8E3,-2.8951508E-1,-7.126108E-5,1E4,6E3,1E4,6E3,1E4,4E3,8.153518E-3,3.5101548E-1,-2.9539558E-1,-7.049732E-3,2.0776145E-1,-1.5617529E-1,8E3,6E3,8E3,1.4E4,6E3,-1.9947268E-1,1.9882984E-1,4E3,-9.671222E-2,1.6089118E-1,-7.1658336E-2,-3.619506E-1,-6.2720072E-3,9.704255E-2,-1.2106172E-2,2.1463253E-1,-5.8213264E-2,2.1119548E-1,1.5550916E-1,-1.9401468E-1],"split_indices":[142,90,82,125,42,81,95,97,121,0,0,21,89,0,0,40,140,4,134,9,51,0,0,0,0,0,0,5,93,4,11,134,0,0,12,0,0,0,0,0,0,0,0,0,0,0,0],"split_type":[0,0,0,0,0,0,0,0,0,0,0,0,0,0,0,0,0,0,0,0,0,0,0,0,0,0,0,0,0,0,0,0,0,0,0,0,0,0,0,0,0,0,0,0,0,0,0],"sum_hessian":[4.8813937E2,4.5040167E2,3.7737713E1,4.4552597E2,4.875709E0,3.1922773E1,5.8149385E0,7.0215697E0,4.385044E2,1.7379822E0,3.1377268E0,2.8560404E1,3.3623695E0,4.593317E0,1.2216216E0,4.67282E0,2.3487494E0,2.4193802E1,4.1431058E2,9.106359E0,1.9454046E1,1.5965598E0,1.7658098E0,3.5504372E0,1.1223829E0,1.0608149E0,1.2879345E0,1.998567E1,4.2081313E0,1.5701926E2,2.5729135E2,7.5924034E0,1.513955E0,1.1933275E0,1.8260717E1,1.3923056E1,6.0626144E0,1.035711E0,3.17242E0,7.9385315E1,7.7633934E1,2.511524E2,6.1389303E0,2.4632037E0,5.1292E0,1.0004694E0,1.7260248E1],"tree_param":{"num_deleted":"0","num_feature":"145","num_nodes":"47","size_leaf_vector":"1"}},{"base_weights":[3.055319E-3,-3.2268125E-3,6.765639E-1,-1.0129046E-1,4.0706173E-2,2.7044296E-1,8.243092E-3,7.4014105E-2,-3.1303093E-1,8.9178994E-2,-2.018438E-1,1.782726E-1,-4.4358167E-1,-8.212646E-2,-5.891039E-1,2.6754934E-1,-1.9272592E-2,-3.3049574E-1,4.8975348E-1,2.7219456E-1,-4.2761272E-1,3.8090324E-1,-7.462198E-1,2.4056785E-1,-5.3628385E-1,-6.92197E-1,5.8302873E-1,8.316933E-2,5.0109243E-1,1.20891996E-1,-1.889172E-1,-4.5644906E-1,4.3406573E-1,9.241079E-1,-1.516273E-1,1.3203311E-1,-3.571054E-2,-2.1421567E-1,1.628256E-1,-6.636898E-2,2.3338372E-1,-3.6071485E-1,-4.782507E-3,1.7588729E-2,3.020988E-1,2.1402708E-1,-2.0467691E-1,1.1857446E-1,-2.3212504E-1,1.9501343E-2,2.4448776E-1,1.0236058E-1,-7.5949356E-2,2.0766588E-1,-1.2032225E-1,6.277869E-2,-1.01710945E-1,-1.16845645E-1,2.5619738E-2,1.4383788E-1,-1.6181588E-1,2.4914394E-1,-3.9565932E-2,7.1063605E-3,3.347118E-1,2.4168077E-1,-2.0102462E-1],"categories":[],"categories_nodes":[],"categories_segments":[],"categories_sizes":[],"default_left":[0,0,0,0,0,0,0,0,0,0,0,0,0,0,0,0,0,0,0,0,0,0,0,0,0,0,0,0,0,0,0,0,0,0,0,0,0,0,0,0,0,0,0,0,0,0,0,0,0,0,0,0,0,0,0,0,0,0,0,0,0,0,0,0,0,0,0],"id":20,"left_children":[1,3,5,7,9,-1,-1,11,13,15,17,19,21,23,25,27,29,31,33,35,37,39,41,43,45,47,49,51,53,55,57,59,61,63,65,-1,-1,-1,-1,-1,-1,-1,-1,-1,-1,-1,-1,-1,-1,-1,-1,-1,-1,-1,-1,-1,-1,-1,-1,-1,-1,-1,-1,-1,-1,-1,-1],"loss_changes":[2.051358E0,2.0756729E0,6.2932014E-1,5.555936E0,3.9305341E0,0E0,0E0,4.5230994E0,4.2674236E0,5.38384E0,5.120858E0,4.0576067E0,3.8008807E0,5.7023497E0,4.1101065E0,4.4883356E0,4.1565742E0,4.780993E0,2.687682E0,4.0317254E0,3.0792847E0,1.2350826E0,3.5277362E0,3.137371E0,3.4249382E0,2.8467102E0,3.1016803E-1,5.292362E0,8.246172E0,3.9648023E0,4.382082E0,3.4679804E0,1.734647E0,9.385023E-1,2.7985916E0,0E0,0E0,0E0,0E0,0E0,0E0,0E0,0E0,0E0,0E0,0E0,0E0,0E0,0E0,0E0,0E0,0E0,0E0,0E0,0E0,0E0,0E0,0E0,0E0,0E0,0E0,0E0,0E0,0E0,0E0,0E0,0E0],"parents":[2147483647,0,0,1,1,2,2,3,3,4,4,7,7,8,8,9,9,10,10,11,11,12,12,13,13,14,14,15,15,16,16,17,17,18,18,19,19,20,20,21,21,22,22,23,23,24,24,25,25,26,26,27,27,28,28,29,29,30,30,31,31,32,32,33,33,34,34],"right_children":[2,4,6,8,10,-1,-1,12,14,16,18,20,22,24,26,28,30,32,34,36,38,40,42,44,46,48,50,52,54,56,58,60,62,64,66,-1,-1,-1,-1,-1,-1,-1,-1,-1,-1,-1,-1,-1,-1,-1,-1,-1,-1,-1,-1,-1,-1,-1,-1,-1,-1,-1,-1,-1,-1,-1,-1],"split_conditions":[1.8E4,6E3,8E3,8E3,1E4,2.7044296E-1,8.243092E-3,1E4,8E3,6E3,1E4,1E4,6E3,8E3,1.2E4,6E3,8E3,1.2E4,1E4,8E3,1E4,8E3,8E3,1E4,4E3,4E3,6E3,8E3,1E4,1E4,8E3,4E3,8E3,8E3,6E3,1.3203311E-1,-3.571054E-2,-2.1421567E-1,1.628256E-1,-6.636898E-2,2.3338372E-1,-3.6071485E-1,-4.782507E-3,1.7588729E-2,3.020988E-1,2.1402708E-1,-2.0467691E-1,1.1857446E-1,-2.3212504E-1,1.9501343E-2,2.4448776E-1,1.0236058E-1,-7.5949356E-2,2.0766588E-1,-1.2032225E-1,6.277869E-2,-1.01710945E-1,-1.16845645E-1,2.5619738E-2,1.4383788E-1,-1.6181588E-1,2.4914394E-1,-3.9565932E-2,7.1063605E-3,3.347118E-1,2.4168077E-1,-2.0102462E-1],"split_indices":[123,17,117,111,27,0,0,102,53,142,110,0,9,40,96,140,97,77,112,135,20,128,106,2,125,142,33,128,3,77,51,57,2,29,140,0,0,0,0,0,0,0,0,0,0,0,0,0,0,0,0,0,0,0,0,0,0,0,0,0,0,0,0,0,0,0,0],"split_type":[0,0,0,0,0,0,0,0,0,0,0,0,0,0,0,0,0,0,0,0,0,0,0,0,0,0,0,0,0,0,0,0,0,0,0,0,0,0,0,0,0,0,0,0,0,0,0,0,0,0,0,0,0,0,0,0,0,0,0,0,0,0,0,0,0,0,0],"sum_hessian":[4.8331604E2,4.798356E2,3.480443E0,1.4805458E2,3.31781E2,2.2960203E0,1.1844227E0,8.135197E1,6.670262E1,2.770465E2,5.4734512E1,6.825836E1,1.3093599E1,3.7029236E1,2.967338E1,1.0420065E2,1.7284584E2,4.6589916E1,8.144597E0,5.957416E1,8.684204E0,3.4462588E0,9.64734E0,2.1922705E1,1.5106532E1,2.7650846E1,2.0225334E0,5.898706E1,4.5213596E1,9.4803894E1,7.804195E1,4.034629E1,6.243627E0,4.5931945E0,3.5514026E0,4.1596153E1,1.7978008E1,6.908919E0,1.7752857E0,1.5453975E0,1.9008611E0,5.5402136E0,4.1071267E0,1.8586937E1,3.3357687E0,1.1733975E0,1.3933135E1,1.6606668E0,2.5990181E1,1.0214243E0,1.0011091E0,3.337079E1,2.561627E1,3.750149E1,7.712107E0,7.998135E1,1.4822542E1,4.4838287E1,3.3203663E1,2.895125E0,3.7451164E1,3.3969052E0,2.846722E0,1.0030359E0,3.5901587E0,1.053134E0,2.4982686E0],"tree_param":{"num_deleted":"0","num_feature":"145","num_nodes":"67","size_leaf_vector":"1"}},{"base_weights":[4.63987E-3,-4.636872E-1,1.390006E-2,9.0333626E-2,-5.959623E-1,1.1849596E-1,-3.268506E-2,-8.1427705E-1,-5.8052536E-2,1.7534581E-1,-3.7119243E-1,-7.3885836E-2,3.272035E-1,-5.754735E-2,-2.8894737E-1,1.17503785E-1,-1.4108874E-1,4.0591756E-1,5.9727024E-2,2.0888509E-1,-6.751481E-1,4.141311E-1,-1.0221647E-1,-6.0863063E-2,7.528663E-1,4.692436E-1,-2.562283E-1,2.5431538E-1,-1.3109721E-1,6.509721E-1,-2.76015E-1,-8.7002367E-1,1.0376733E-1,-4.0666455E-1,7.050161E-1,-4.6239817E-1,-7.437423E-2,-2.7679682E-1,6.527335E-1,1.0440546E0,9.506759E-2,1.5988987E-2,