{"learner":{"attributes":{"scikit_learn":"{\"_estimator_type\": \"classifier\"}"},"feature_names":[],"feature_types":[],"gradient_booster":{"model":{"gbtree_model_param":{"num_parallel_tree":"1","num_trees":"100"},"iteration_indptr":[0,1,2,3,4,5,6,7,8,9,10,11,12,13,14,15,16,17,18,19,20,21,22,23,24,25,26,27,28,29,30,31,32,33,34,35,36,37,38,39,40,41,42,43,44,45,46,47,48,49,50,51,52,53,54,55,56,57,58,59,60,61,62,63,64,65,66,67,68,69,70,71,72,73,74,75,76,77,78,79,80,81,82,83,84,85,86,87,88,89,90,91,92,93,94,95,96,97,98,99,100],"tree_info":[0,0,0,0,0,0,0,0,0,0,0,0,0,0,0,0,0,0,0,0,0,0,0,0,0,0,0,0,0,0,0,0,0,0,0,0,0,0,0,0,0,0,0,0,0,0,0,0,0,0,0,0,0,0,0,0,0,0,0,0,0,0,0,0,0,0,0,0,0,0,0,0,0,0,0,0,0,0,0,0,0,0,0,0,0,0,0,0,0,0,0,0,0,0,0,0,0,0,0,0],"trees":[{"base_weights":[2.6586324E-8,-5.4954576E-1,1.611649E-1,9.571322E-2,-7.203017E-1,1.3597315E-2,6.241496E-1,-2.0440654E-1,1.1142817E0,-8.4895366E-1,-7.663491E-2,-1.2585153E-1,4.4483322E-1,7.4408764E-1,-2.8239137E-1,-6.330469E-1,3.4613603E-1,5.048774E-1,3.3623132E-1,-2.2678131E-2,-9.625903E-1,-9.236944E-1,3.2150128E-1,-2.2740594E-1,3.6706886E-1,7.5197613E-1,3.4191064E-3,4.8231858E-1,1.1870968E0,-1.2600507E0,3.891986E-1,-9.5562077E-1,7.395885E-1,1.0696825E0,-1.7865816E-1,1.0614846E0,-2.7206412E-1,-4.9681452E-1,6.697236E-1,-1.0179127E0,7.395885E-1,-1.2910535E0,1.643004E-1,-2.8252232E-1,9.799E-1,-2.7229995E-1,8.9979106E-1,2.6924249E-2,7.6394427E-1,3.2596844E-1,1.081941E0,-4.581702E-1,5.2059954E-1,-1.539835E-1,6.427339E-1,-1.1498878E-1,1.2620411E0,-4.543189E-2,-4.749642E-1,-2.3222718E-1,1.1140755E0,-3.7045288E-1,1.7217392E-1,4.1610757E-1,-1.1937445E-1,4.0887713E-1,-6.608735E-2,1.8347074E-1,-2.631246E-1,6.724621E-2,4.0069616E-1,3.0069593E-1,-2.6906207E-1,3.2396024E-1,-1.6297297E-1,-3.9815894E-1,-2.1795101E-1,-1.1937445E-1,4.1610757E-1,6.953134E-4,-5.068111E-1,-4.5802703E-1,1.0092735E-1,4.509138E-1,-1.19235426E-1,-1.1615286E-1,3.5680853E-2,-1.1916592E-1,4.2951623E-1,1.3041422E-1,-1.656821E-1,3.264323E-1,-2.133923E-1,-3.348784E-2,2.5098574E-1,-1.4921811E-1,3.5967994E-1,-2.4531746E-1,1.3939792E-1,-9.907319E-2,2.5813693E-1,-3.7058517E-1,5.0985176E-2,3.4965977E-2,2.5960368E-1,-2.7206412E-1,2.4062622E-1,-9.930489E-2,3.974541E-1,-2.4355662E-1,3.8248262E-1,4.6747896E-1,4.6876E-2],"categories":[],"categories_nodes":[],"categories_segments":[],"categories_sizes":[],"default_left":[0,0,0,0,0,0,0,0,0,0,0,0,0,0,0,0,0,0,0,0,0,0,0,0,0,0,0,0,0,0,0,0,0,0,0,0,0,0,0,0,0,0,0,0,0,0,0,0,0,0,0,0,0,0,0,0,0,0,0,0,0,0,0,0,0,0,0,0,0,0,0,0,0,0,0,0,0,0,0,0,0,0,0,0,0,0,0,0,0,0,0,0,0,0,0,0,0,0,0,0,0,0,0,0,0,0,0,0,0,0,0,0,0],"id":0,"left_children":[1,3,5,7,9,11,13,15,17,19,21,23,25,27,29,31,33,-1,35,37,39,41,43,45,47,49,51,53,55,57,59,61,63,65,67,69,-1,71,73,75,77,79,-1,81,83,85,87,89,91,93,95,97,99,101,103,105,107,-1,-1,109,111,-1,-1,-1,-1,-1,-1,-1,-1,-1,-1,-1,-1,-1,-1,-1,-1,-1,-1,-1,-1,-1,-1,-1,-1,-1,-1,-1,-1,-1,-1,-1,-1,-1,-1,-1,-1,-1,-1,-1,-1,-1,-1,-1,-1,-1,-1,-1,-1,-1,-1,-1,-1],"loss_changes":[8.934217E1,2.5272964E1,5.328215E1,1.5130235E1,1.4923317E1,3.568607E1,2.0705421E1,9.304507E0,4.411503E0,1.4132835E1,1.0835846E1,2.2534529E1,1.9656065E1,1.8764732E1,1.5427703E1,1.0447816E1,6.836066E0,0E0,6.3720503E0,6.6523485E0,1.3230148E1,6.247367E0,9.025963E0,1.9095097E1,1.0374019E1,1.1665817E1,1.4681341E1,1.0969667E1,6.1221237E0,3.163722E0,6.6777153E0,8.502876E0,4.0501003E0,3.1372843E0,6.6074286E0,6.7627907E-1,0E0,8.09584E0,4.690921E0,1.063974E1,4.0501003E0,4.382861E0,0E0,9.947519E0,8.343341E0,1.6180801E1,1.0572501E1,1.0278171E1,1.7750835E1,8.752359E0,9.419067E0,1.1163685E1,8.669918E0,8.003424E0,9.884785E0,3.8138459E0,6.2416153E0,0E0,0E0,8.46063E0,2.628315E0,0E0,0E0,0E0,0E0,0E0,0E0,0E0,0E0,0E0,0E0,0E0,0E0,0E0,0E0,0E0,0E0,0E0,0E0,0E0,0E0,0E0,0E0,0E0,0E0,0E0,0E0,0E0,0E0,0E0,0E0,0E0,0E0,0E0,0E0,0E0,0E0,0E0,0E0,0E0,0E0,0E0,0E0,0E0,0E0,0E0,0E0,0E0,0E0,0E0,0E0,0E0,0E0],"parents":[2147483647,0,0,1,1,2,2,3,3,4,4,5,5,6,6,7,7,8,8,9,9,10,10,11,11,12,12,13,13,14,14,15,15,16,16,18,18,19,19,20,20,21,21,22,22,23,23,24,24,25,25,26,26,27,27,28,28,29,29,30,30,31,31,32,32,33,33,34,34,35,35,37,37,38,38,39,39,40,40,41,41,43,43,44,44,45,45,46,46,47,47,48,48,49,49,50,50,51,51,52,52,53,53,54,54,55,55,56,56,59,59,60,60],"right_children":[2,4,6,8,10,12,14,16,18,20,22,24,26,28,30,32,34,-1,36,38,40,42,44,46,48,50,52,54,56,58,60,62,64,66,68,70,-1,72,74,76,78,80,-1,82,84,86,88,90,92,94,96,98,100,102,104,106,108,-1,-1,110,112,-1,-1,-1,-1,-1,-1,-1,-1,-1,-1,-1,-1,-1,-1,-1,-1,-1,-1,-1,-1,-1,-1,-1,-1,-1,-1,-1,-1,-1,-1,-1,-1,-1,-1,-1,-1,-1,-1,-1,-1,-1,-1,-1,-1,-1,-1,-1,-1,-1,-1,-1,-1],"split_conditions":[6E3,4E3,1E4,1E4,1.2E4,1E4,1.2E4,8E3,8E3,4E3,6E3,1.2E4,8E3,1E4,8E3,1.2E4,6E3,5.048774E-1,8E3,8E3,1.8E4,1.2E4,8E3,1.8E4,8E3,8E3,8E3,6E3,4E3,6E3,8E3,1.2E4,6E3,1E4,8E3,8E3,-2.7206412E-1,4E3,1E4,6E3,6E3,6E3,1.643004E-1,6E3,1E4,1E4,6E3,8E3,1E4,8E3,6E3,1E4,6E3,6E3,6E3,8E3,4E3,-4.543189E-2,-4.749642E-1,1.4E4,8E3,-3.7045288E-1,1.7217392E-1,4.1610757E-1,-1.1937445E-1,4.0887713E-1,-6.608735E-2,1.8347074E-1,-2.631246E-1,6.724621E-2,4.0069616E-1,3.0069593E-1,-2.6906207E-1,3.2396024E-1,-1.6297297E-1,-3.9815894E-1,-2.1795101E-1,-1.1937445E-1,4.1610757E-1,6.953134E-4,-5.068111E-1,-4.5802703E-1,1.0092735E-1,4.509138E-1,-1.19235426E-1,-1.1615286E-1,3.5680853E-2,-1.1916592E-1,4.2951623E-1,1.3041422E-1,-1.656821E-1,3.264323E-1,-2.133923E-1,-3.348784E-2,2.5098574E-1,-1.4921811E-1,3.5967994E-1,-2.4531746E-1,1.3939792E-1,-9.907319E-2,2.5813693E-1,-3.7058517E-1,5.0985176E-2,3.4965977E-2,2.5960368E-1,-2.7206412E-1,2.4062622E-1,-9.930489E-2,3.974541E-1,-2.4355662E-1,3.8248262E-1,4.6747896E-1,4.6876E-2],"split_indices":[139,139,96,30,118,144,135,130,116,138,92,110,135,139,120,89,30,0,67,110,2,51,98,130,101,84,87,144,34,28,30,41,138,5,8,12,0,140,24,138,69,48,0,78,132,62,37,123,135,137,142,103,70,52,20,82,58,0,0,96,8,0,0,0,0,0,0,0,0,0,0,0,0,0,0,0,0,0,0,0,0,0,0,0,0,0,0,0,0,0,0,0,0,0,0,0,0,0,0,0,0,0,0,0,0,0,0,0,0,0,0,0,0],"split_type":[0,0,0,0,0,0,0,0,0,0,0,0,0,0,0,0,0,0,0,0,0,0,0,0,0,0,0,0,0,0,0,0,0,0,0,0,0,0,0,0,0,0,0,0,0,0,0,0,0,0,0,0,0,0,0,0,0,0,0,0,0,0,0,0,0,0,0,0,0,0,0,0,0,0,0,0,0,0,0,0,0,0,0,0,0,0,0,0,0,0,0,0,0,0,0,0,0,0,0,0,0,0,0,0,0,0,0,0,0,0,0,0,0],"sum_hessian":[1.006747E3,2.2774933E2,7.789977E2,4.774986E1,1.7999947E2,5.914982E2,1.8749944E2,3.749989E1,1.02499695E1,1.4974956E2,3.024991E1,4.4749866E2,1.4399957E2,1.6574951E2,2.1749935E1,2.0999937E1,1.649995E1,5.2499843E0,4.999985E0,1.8249945E1,1.314996E2,9.249972E0,2.0999937E1,3.714989E2,7.599977E1,8.449975E1,5.9499825E1,1.0549969E2,6.024982E1,8.499974E0,1.3249961E1,1.7249949E1,3.7499888E0,6.4999804E0,9.99997E0,3.2499902E0,1.7499948E0,1.0999968E1,7.2499785E0,1.2774962E2,3.7499888E0,7.4999776E0,1.7499948E0,1.1249967E1,9.749971E0,3.5799893E2,1.349996E1,4.1499878E1,3.4499897E1,3.774989E1,4.674986E1,3.1499907E1,2.7999916E1,2.1249937E1,8.424975E1,3.2499902E0,5.699983E1,2.2499933E0,6.2499814E0,7.4999776E0,5.749983E0,1.4749956E1,2.4999926E0,2.2499933E0,1.4999955E0,5.2499843E0,1.2499963E0,4.7499857E0,5.2499843E0,1.2499963E0,1.999994E0,1.999994E0,8.999973E0,5.499984E0,1.7499948E0,6.024982E1,6.74998E1,1.4999955E0,2.2499933E0,1.999994E0,5.499984E0,3.2499902E0,7.999976E0,6.999979E0,2.749992E0,2.7674918E2,8.1249756E1,3.999988E0,9.499971E0,2.4499928E1,1.6999949E1,2.8499914E1,5.999982E0,2.0749939E1,1.6999949E1,2.999991E0,4.374987E1,2.2749931E1,8.749974E0,7.999976E0,1.999994E1,4.249987E0,1.6999949E1,2.5499924E1,5.8749825E1,1.7499948E0,1.4999955E0,1.999994E0,5.4999836E1,5.749983E0,1.7499948E0,3.4999895E0,2.2499933E0],"tree_param":{"num_deleted":"0","num_feature":"145","num_nodes":"113","size_leaf_vector":"1"}},{"base_weights":[1.9671828E-3,-1.3922411E-1,4.051299E-1,-2.6348552E-1,2.973492E-1,1.5443397E-1,7.380206E-1,-3.6792132E-1,2.675584E-1,1.3642305E-1,9.5612997E-1,4.3364814E-1,-2.5232852E-1,8.111749E-1,-8.222255E-1,-4.6938077E-1,2.2479415E-2,4.2529964E-1,-6.148583E-1,4.4257873E-1,-2.83182E-1,1.9727439E-1,1.2269841E0,2.4585672E-1,1.0257794E0,-4.1378787E-1,8.1251264E-1,9.0234464E-1,-4.8027614E-1,-4.1459838E-1,7.182842E-2,-5.768495E-1,-7.726635E-2,2.1012042E-1,-6.952252E-1,3.3498004E-2,8.0483156E-1,-1.0752046E0,6.079943E-1,2.3646872E-1,1.1079835E0,-5.4651046E-1,5.364725E-1,-7.981192E-1,9.500444E-1,1.3675215E0,2.5739354E-1,8.56359E-1,1.0112921E-2,-1.1154966E-1,1.1915708E0,-8.5191286E-1,-1.5642231E-2,-7.383517E-2,1.1807995E0,7.2513336E-1,1.6544548E0,-3.794879E-1,4.7233117E-1,-1.829149E-1,1.1891884E-1,-1.7245054E-1,5.7342198E-2,6.3489713E-3,3.1189308E-1,-3.1540433E-1,1.1307816E-1,-6.761545E-2,2.7905542E-1,1.1417093E-2,3.2871184E-1,5.405246E-2,-4.497618E-1,-1.4149632E-1,4.151391E-1,-9.641572E-2,1.3600904E-1,-6.716647E-2,4.1584662E-1,-2.159496E-1,2.3842107E-1,-1.8314043E-1,2.667399E-1,1.5500455E-1,-4.2328277E-1,-1.06651865E-1,4.399946E-1,4.6745518E-1,8.145303E-2,-1.7912462E-1,3.2682E-1,3.4121147E-1,-1.491494E-1,-6.234952E-2,2.0959611E-1,4.2122528E-1,7.484471E-2,-3.0652177E-1,1.2510829E-1,-1.6289064E-1,1.3009264E-1,4.512564E-1,1.700488E-2,3.7285846E-2,2.693431E-1,5.2384984E-1,2.2757208E-1,-1.9308673E-1,3.47285E-1],"categories":[],"categories_nodes":[],"categories_segments":[],"categories_sizes":[],"default_left":[0,0,0,0,0,0,0,0,0,0,0,0,0,0,0,0,0,0,0,0,0,0,0,0,0,0,0,0,0,0,0,0,0,0,0,0,0,0,0,0,0,0,0,0,0,0,0,0,0,0,0,0,0,0,0,0,0,0,0,0,0,0,0,0,0,0,0,0,0,0,0,0,0,0,0,0,0,0,0,0,0,0,0,0,0,0,0,0,0,0,0,0,0,0,0,0,0,0,0,0,0,0,0,0,0,0,0,0,0],"id":1,"left_children":[1,3,5,7,9,11,13,15,17,19,21,23,25,27,29,31,33,35,37,39,41,43,45,47,49,51,53,55,57,-1,-1,59,61,63,65,67,69,71,73,75,77,79,81,83,85,87,89,91,93,-1,95,97,99,-1,101,103,105,-1,107,-1,-1,-1,-1,-1,-1,-1,-1,-1,-1,-1,-1,-1,-1,-1,-1,-1,-1,-1,-1,-1,-1,-1,-1,-1,-1,-1,-1,-1,-1,-1,-1,-1,-1,-1,-1,-1,-1,-1,-1,-1,-1,-1,-1,-1,-1,-1,-1,-1,-1],"loss_changes":[5.6584515E1,4.001833E1,2.1403076E1,3.1912422E1,1.7212887E1,1.6956583E1,1.3278557E1,1.9014832E1,1.3464237E1,1.716519E1,6.3250065E0,9.569492E0,1.0825544E1,1.2919632E1,3.5668879E0,1.6005043E1,1.3602829E1,1.2026519E1,8.981369E0,1.0309074E1,1.2501849E1,7.948403E0,2.8303947E0,9.831942E0,5.2979584E0,9.343441E0,3.5539904E0,1.2048943E1,6.312407E0,0E0,0E0,9.798851E0,1.1205933E1,1.2514594E1,8.392339E0,9.710526E0,9.131844E0,6.183029E0,4.576523E0,7.4201097E0,6.9634056E0,1.0639221E1,6.3099566E0,4.4962187E0,4.5143886E0,3.791031E0,3.6281543E0,7.805765E0,7.6992564E0,0E0,3.4472656E0,5.925415E0,7.1347156E0,0E0,2.23489E0,8.419788E0,1.6868591E-1,0E0,3.9427357E0,0E0,0E0,0E0,0E0,0E0,0E0,0E0,0E0,0E0,0E0,0E0,0E0,0E0,0E0,0E0,0E0,0E0,0E0,0E0,0E0,0E0,0E0,0E0,0E0,0E0,0E0,0E0,0E0,0E0,0E0,0E0,0E0,0E0,0E0,0E0,0E0,0E0,0E0,0E0,0E0,0E0,0E0,0E0,0E0,0E0,0E0,0E0,0E0,0E0,0E0],"parents":[2147483647,0,0,1,1,2,2,3,3,4,4,5,5,6,6,7,7,8,8,9,9,10,10,11,11,12,12,13,13,14,14,15,15,16,16,17,17,18,18,19,19,20,20,21,21,22,22,23,23,24,24,25,25,26,26,27,27,28,28,31,31,32,32,33,33,34,34,35,35,36,36,37,37,38,38,39,39,40,40,41,41,42,42,43,43,44,44,45,45,46,46,47,47,48,48,50,50,51,51,52,52,54,54,55,55,56,56,58,58],"right_children":[2,4,6,8,10,12,14,16,18,20,22,24,26,28,30,32,34,36,38,40,42,44,46,48,50,52,54,56,58,-1,-1,60,62,64,66,68,70,72,74,76,78,80,82,84,86,88,90,92,94,-1,96,98,100,-1,102,104,106,-1,108,-1,-1,-1,-1,-1,-1,-1,-1,-1,-1,-1,-1,-1,-1,-1,-1,-1,-1,-1,-1,-1,-1,-1,-1,-1,-1,-1,-1,-1,-1,-1,-1,-1,-1,-1,-1,-1,-1,-1,-1,-1,-1,-1,-1,-1,-1,-1,-1,-1,-1],"split_conditions":[1E4,1E4,1.2E4,1.2E4,1.2E4,8E3,1.4E4,1E4,1E4,8E3,6E3,1E4,1.2E4,2E4,8E3,1E4,1E4,8E3,1E4,1E4,1E4,8E3,1.2E4,8E3,4E3,8E3,6E3,1.8E4,8E3,-4.1459838E-1,7.182842E-2,1.8E4,6E3,1.2E4,1E4,1E4,6E3,8E3,8E3,6E3,8E3,1.8E4,6E3,6E3,6E3,1.2E4,8E3,1.2E4,1E4,-1.1154966E-1,1.2E4,1.2E4,8E3,-7.383517E-2,1E4,6E3,1.2E4,-3.794879E-1,8E3,-1.829149E-1,1.1891884E-1,-1.7245054E-1,5.7342198E-2,6.3489713E-3,3.1189308E-1,-3.1540433E-1,1.1307816E-1,-6.761545E-2,2.7905542E-1,1.1417093E-2,3.2871184E-1,5.405246E-2,-4.497618E-1,-1.4149632E-1,4.151391E-1,-9.641572E-2,1.3600904E-1,-6.716647E-2,4.1584662E-1,-2.159496E-1,2.3842107E-1,-1.8314043E-1,2.667399E-1,1.5500455E-1,-4.2328277E-1,-1.06651865E-1,4.399946E-1,4.6745518E-1,8.145303E-2,-1.7912462E-1,3.2682E-1,3.4121147E-1,-1.491494E-1,-6.234952E-2,2.0959611E-1,4.2122528E-1,7.484471E-2,-3.0652177E-1,1.2510829E-1,-1.6289064E-1,1.3009264E-1,4.512564E-1,1.700488E-2,3.7285846E-2,2.693431E-1,5.2384984E-1,2.2757208E-1,-1.9308673E-1,3.47285E-1],"split_indices":[140,98,138,128,109,135,135,80,136,135,127,45,122,140,26,65,114,95,80,74,120,120,114,139,120,63,23,140,48,0,0,119,141,85,31,88,119,138,144,44,97,97,104,140,16,1,19,140,91,0,30,44,3,0,126,144,55,0,78,0,0,0,0,0,0,0,0,0,0,0,0,0,0,0,0,0,0,0,0,0,0,0,0,0,0,0,0,0,0,0,0,0,0,0,0,0,0,0,0,0,0,0,0,0,0,0,0,0,0],"split_type":[0,0,0,0,0,0,0,0,0,0,0,0,0,0,0,0,0,0,0,0,0,0,0,0,0,0,0,0,0,0,0,0,0,0,0,0,0,0,0,0,0,0,0,0,0,0,0,0,0,0,0,0,0,0,0,0,0,0,0,0,0,0,0,0,0,0,0,0,0,0,0,0,0,0,0,0,0,0,0,0,0,0,0,0,0,0,0,0,0,0,0,0,0,0,0,0,0,0,0,0,0,0,0,0,0,0,0,0,0],"sum_hessian":[9.920616E2,7.3523145E2,2.5683014E2,5.726384E2,1.6259302E2,1.4733662E2,1.0949351E2,4.7878677E2,9.385166E1,1.3164261E2,3.0950413E1,8.7326775E1,6.0009857E1,1.0504827E2,4.4452367E0,3.798635E2,9.892326E1,8.00584E1,1.3793252E1,7.60787E1,5.556391E1,8.595797E0,2.2354616E1,6.73745E1,1.9952276E1,5.263964E1,7.370216E0,9.840284E1,6.645436E0,2.713025E0,1.7322114E0,2.9777866E2,8.208484E1,7.898118E1,1.9942081E1,3.9927925E1,4.013048E1,1.0108587E1,3.6846654E0,5.91212E1,1.6957495E1,4.2305702E1,1.325821E1,3.675462E0,4.920335E0,1.9166164E1,3.188453E0,1.803554E1,4.9338955E1,1.9840544E0,1.7968222E1,2.4518948E1,2.8120693E1,1.9878688E0,5.382347E0,8.12281E1,1.7174736E1,3.464094E0,3.181342E0,2.884124E2,9.366243E0,2.8363453E1,5.3721386E1,6.516316E1,1.3818015E1,1.4984339E1,4.957743E0,3.156378E1,8.364146E0,1.1347682E1,2.8782799E1,2.6973517E0,7.4112353E0,1.7045565E0,1.980109E0,1.6416391E1,4.270481E1,2.963511E0,1.3993983E1,3.787469E1,4.431011E0,2.9460096E0,1.0312201E1,1.2183652E0,2.4570968E0,1.4833884E0,3.4369464E0,1.5966876E1,3.199288E0,1.7122848E0,1.4761682E0,1.5067076E1,2.9684627E0,3.8006783E1,1.1332175E1,1.4260897E1,3.7073252E0,2.1796642E1,2.7223053E0,1.2840838E1,1.5279855E1,3.917302E0,1.4650452E0,1.8516792E1,6.2711308E1,1.4718863E1,2.4558728E0,1.233479E0,1.9478629E0],"tree_param":{"num_deleted":"0","num_feature":"145","num_nodes":"109","size_leaf_vector":"1"}},{"base_weights":[5.3453497E-3,-3.4526667E-1,1.0688534E-1,-5.764139E-1,-8.995294E-2,-6.843188E-2,2.9836956E-1,-1.6294828E-1,-7.438372E-1,-2.2259547E-1,5.7696146E-1,1.1882479E-1,-3.0916557E-1,7.615463E-2,5.188275E-1,-3.8455456E-1,1.183432E0,-8.182412E-1,4.271743E-1,-3.9025325E-1,3.7935692E-1,-1.6759957E-1,1.1059947E0,-1.7773742E-2,6.104242E-1,-5.4128385E-1,-3.741729E-2,-7.649672E-2,6.900912E-1,4.333936E-1,1.2781018E0,4.4390735E-1,-7.507402E-1,-4.7566105E-2,4.9360794E-1,-8.928776E-1,4.2437333E-1,1.0404053E0,-2.907983E-1,-5.147125E-1,4.1203386E-1,-7.0147884E-1,6.620695E-1,-7.8812945E-1,9.4900644E-1,1.4650745E0,-1.9915064E-1,-2.6558134E-1,2.3345974E-1,-2.2484297E-1,8.2579243E-1,-6.318403E-1,8.5808367E-1,-2.8453612E-1,3.674752E-1,-2.587755E-1,4.642212E-1,3.3926976E-1,1.0547014E0,3.791973E-2,5.684017E-1,3.7328103E-1,4.571654E-1,-5.5301547E-2,2.4870564E-1,9.343045E-2,-3.0938414E-1,-3.113895E-1,-9.257914E-2,-1.0792464E-1,3.7715212E-1,3.57313E-2,4.0164182E-1,-1.7826703E-1,3.025901E-1,3.9591363E-1,-4.6501085E-2,1.0245231E-1,-3.8076E-1,1.0623987E-2,3.4812903E-1,-3.44629E-1,9.634029E-2,3.6578846E-1,6.968501E-2,1.40774315E-2,5.549023E-1,-1.0365068E-1,2.913814E-1,-9.644724E-2,1.3613209E-1,-2.4697275E-1,3.1507057E-1,1.0851477E-1,3.7918833E-1,-2.1647732E-1,1.818701E-1,4.137E-1,-2.0065095E-1,-1.4515959E-1,1.7349574E-1,2.3022476E-1,-1.0552956E-1,-9.6303485E-2,3.8487187E-1,2.6533225E-1,-6.316629E-2,-2.8000456E-1,1.5287067E-1,3.6446276E-1,-7.787396E-2,-6.74955E-2,2.3712306E-1,2.0069622E-1,-1.3549887E-2,-1.4912663E-1,3.5740265E-1],"categories":[],"categories_nodes":[],"categories_segments":[],"categories_sizes":[],"default_left":[0,0,0,0,0,0,0,0,0,0,0,0,0,0,0,0,0,0,0,0,0,0,0,0,0,0,0,0,0,0,0,0,0,0,0,0,0,0,0,0,0,0,0,0,0,0,0,0,0,0,0,0,0,0,0,0,0,0,0,0,0,0,0,0,0,0,0,0,0,0,0,0,0,0,0,0,0,0,0,0,0,0,0,0,0,0,0,0,0,0,0,0,0,0,0,0,0,0,0,0,0,0,0,0,0,0,0,0,0,0,0,0,0,0,0,0,0],"id":2,"left_children":[1,3,5,7,9,11,13,15,17,19,21,23,25,27,29,31,33,35,37,39,41,43,45,47,49,51,53,55,57,59,61,63,65,-1,-1,67,69,71,-1,73,75,77,79,81,83,85,-1,87,89,91,93,95,97,99,101,103,105,107,109,111,113,115,-1,-1,-1,-1,-1,-1,-1,-1,-1,-1,-1,-1,-1,-1,-1,-1,-1,-1,-1,-1,-1,-1,-1,-1,-1,-1,-1,-1,-1,-1,-1,-1,-1,-1,-1,-1,-1,-1,-1,-1,-1,-1,-1,-1,-1,-1,-1,-1,-1,-1,-1,-1,-1,-1,-1],"loss_changes":[3.4755646E1,1.2886658E1,2.5432388E1,7.831299E0,9.448662E0,1.7887218E1,1.76941E1,1.071635E1,7.449562E0,9.089989E0,7.1798134E0,1.5016068E1,1.0925629E1,1.7057903E1,1.1222305E1,9.5210285E0,3.426003E0,7.5169144E0,5.7403135E0,7.1811113E0,6.5173607E0,6.460398E0,7.653432E0,1.100909E1,8.931372E0,1.2392546E1,8.210645E0,1.4531521E1,4.276716E0,8.771811E0,3.4003963E0,2.5508835E0,6.690259E0,0E0,0E0,5.861717E0,3.7426167E0,1.0286603E0,0E0,7.9715004E0,5.3146176E0,3.1528683E0,5.0232606E0,2.707411E0,3.7518477E-1,4.8499546E0,0E0,9.132184E0,1.08862705E1,9.068366E0,7.445759E0,1.0261078E1,5.780489E0,9.02961E0,9.228025E0,1.0965729E1,1.0740557E1,4.7969775E0,3.9556942E0,8.6819315E0,7.60326E0,4.2498226E0,0E0,0E0,0E0,0E0,0E0,0E0,0E0,0E0,0E0,0E0,0E0,0E0,0E0,0E0,0E0,0E0,0E0,0E0,0E0,0E0,0E0,0E0,0E0,0E0,0E0,0E0,0E0,0E0,0E0,0E0,0E0,0E0,0E0,0E0,0E0,0E0,0E0,0E0,0E0,0E0,0E0,0E0,0E0,0E0,0E0,0E0,0E0,0E0,0E0,0E0,0E0,0E0,0E0,0E0,0E0],"parents":[2147483647,0,0,1,1,2,2,3,3,4,4,5,5,6,6,7,7,8,8,9,9,10,10,11,11,12,12,13,13,14,14,15,15,16,16,17,17,18,18,19,19,20,20,21,21,22,22,23,23,24,24,25,25,26,26,27,27,28,28,29,29,30,30,31,31,32,32,35,35,36,36,37,37,39,39,40,40,41,41,42,42,43,43,44,44,45,45,47,47,48,48,49,49,50,50,51,51,52,52,53,53,54,54,55,55,56,56,57,57,58,58,59,59,60,60,61,61],"right_children":[2,4,6,8,10,12,14,16,18,20,22,24,26,28,30,32,34,36,38,40,42,44,46,48,50,52,54,56,58,60,62,64,66,-1,-1,68,70,72,-1,74,76,78,80,82,84,86,-1,88,90,92,94,96,98,100,102,104,106,108,110,112,114,116,-1,-1,-1,-1,-1,-1,-1,-1,-1,-1,-1,-1,-1,-1,-1,-1,-1,-1,-1,-1,-1,-1,-1,-1,-1,-1,-1,-1,-1,-1,-1,-1,-1,-1,-1,-1,-1,-1,-1,-1,-1,-1,-1,-1,-1,-1,-1,-1,-1,-1,-1,-1,-1,-1,-1],"split_conditions":[6E3,8E3,8E3,6E3,1.2E4,8E3,8E3,1.2E4,1.4E4,1.2E4,8E3,1E4,8E3,1E4,1.4E4,6E3,6E3,1.4E4,1E4,1.2E4,6E3,8E3,1.2E4,8E3,6E3,1.4E4,1E4,1E4,8E3,6E3,6E3,6E3,4E3,-4.7566105E-2,4.9360794E-1,1E4,8E3,6E3,-2.907983E-1,1.4E4,6E3,8E3,8E3,1E4,6E3,6E3,-1.9915064E-1,1.4E4,6E3,1E4,8E3,1.4E4,1E4,1.2E4,1.2E4,1.4E4,8E3,4E3,1.4E4,1E4,1.2E4,8E3,4.571654E-1,-5.5301547E-2,2.4870564E-1,9.343045E-2,-3.0938414E-1,-3.113895E-1,-9.257914E-2,-1.0792464E-1,3.7715212E-1,3.57313E-2,4.0164182E-1,-1.7826703E-1,3.025901E-1,3.9591363E-1,-4.6501085E-2,1.0245231E-1,-3.8076E-1,1.0623987E-2,3.4812903E-1,-3.44629E-1,9.634029E-2,3.6578846E-1,6.968501E-2,1.40774315E-2,5.549023E-1,-1.0365068E-1,2.913814E-1,-9.644724E-2,1.3613209E-1,-2.4697275E-1,3.1507057E-1,1.0851477E-1,3.7918833E-1,-2.1647732E-1,1.818701E-1,4.137E-1,-2.0065095E-1,-1.4515959E-1,1.7349574E-1,2.3022476E-1,-1.0552956E-1,-9.6303485E-2,3.8487187E-1,2.6533225E-1,-6.316629E-2,-2.8000456E-1,1.5287067E-1,3.6446276E-1,-7.787396E-2,-6.74955E-2,2.3712306E-1,2.0069622E-1,-1.3549887E-2,-1.4912663E-1,3.5740265E-1],"split_indices":[139,26,87,114,16,135,95,100,54,118,86,62,27,99,84,135,84,71,41,96,71,84,105,4,76,120,138,144,61,119,23,104,139,0,0,129,22,25,0,106,60,114,81,29,123,103,0,81,127,81,47,42,91,118,136,59,134,64,78,45,136,69,0,0,0,0,0,0,0,0,0,0,0,0,0,0,0,0,0,0,0,0,0,0,0,0,0,0,0,0,0,0,0,0,0,0,0,0,0,0,0,0,0,0,0,0,0,0,0,0,0,0,0,0,0,0,0],"split_type":[0,0,0,0,0,0,0,0,0,0,0,0,0,0,0,0,0,0,0,0,0,0,0,0,0,0,0,0,0,0,0,0,0,0,0,0,0,0,0,0,0,0,0,0,0,0,0,0,0,0,0,0,0,0,0,0,0,0,0,0,0,0,0,0,0,0,0,0,0,0,0,0,0,0,0,0,0,0,0,0,0,0,0,0,0,0,0,0,0,0,0,0,0,0,0,0,0,0,0,0,0,0,0,0,0,0,0,0,0,0,0,0,0,0,0,0,0],"sum_hessian":[9.742144E2,2.1824074E2,7.559737E2,1.13881195E2,1.0435954E2,3.9498233E2,3.6099136E2,3.3391468E1,8.048973E1,8.7602516E1,1.6757025E1,2.2245236E2,1.7252997E2,1.8044934E2,1.80542E2,2.9285608E1,4.10586E0,7.596434E1,4.5253854E0,6.879359E1,1.8808931E1,7.244425E0,9.5126E0,1.7483546E2,4.76169E1,9.251494E1,8.001503E1,1.4521738E2,3.523196E1,1.636939E2,1.6848116E1,8.911621E0,2.0373987E1,1.2195624E0,2.886298E0,7.192565E1,4.0386887E0,3.321738E0,1.2036475E0,5.986512E1,8.928465E0,3.5926528E0,1.5216278E1,4.845703E0,2.3987215E0,8.051276E0,1.4613236E0,8.79891E1,8.684636E1,9.751902E0,3.7864998E1,8.74071E1,5.107842E0,4.9873127E1,3.0141905E1,1.08995766E2,3.622161E1,1.8939354E1,1.6292606E1,4.1986206E1,1.2170769E2,4.1369934E0,1.27111225E1,3.584856E0,5.326765E0,4.233831E0,1.6140156E1,5.699603E1,1.49296255E1,2.3727005E0,1.6659881E0,1.1549661E0,2.166772E0,5.7475132E1,2.3899882E0,2.9226649E0,6.0058002E0,1.4067347E0,2.185918E0,7.214974E0,8.001305E0,3.6299558E0,1.2157476E0,1.2326578E0,1.1660638E0,1.957035E0,6.0942416E0,8.332556E1,4.6635356E0,2.4549408E1,6.2296955E1,6.8782635E0,2.8736386E0,1.9275402E1,1.8589596E1,8.1888016E1,5.5190797E0,3.880772E0,1.2270699E0,4.0870754E1,9.002372E0,1.9327616E1,1.0814289E1,1.0552751E2,3.4682584E0,2.2129587E1,1.4092023E1,1.7064775E0,1.7232876E1,1.4590113E1,1.7024943E0,3.1634703E1,1.0351503E1,1.04488045E2,1.7219643E1,2.1945143E0,1.9424791E0],"tree_param":{"num_deleted":"0","num_feature":"145","num_nodes":"117","size_leaf_vector":"1"}},{"base_weights":[8.609533E-3,-1.6216826E-1,1.6316307E-1,-2.686829E-1,2.28855E-1,7.271451E-2,5.174594E-1,-3.6423633E-1,5.9624877E-2,9.00133E-2,8.9569676E-1,-1.0350772E-1,2.8483918E-1,3.1632464E-2,7.213948E-1,-5.6429076E-1,-1.4589617E-1,-4.3805453E-1,4.1962293E-1,-4.0646363E-2,7.78224E-1,2.4075234E-1,1.217682E0,-4.1626036E-1,5.7571694E-2,-9.693347E-2,4.2870387E-1,-1.967186E-1,9.641115E-1,5.4064745E-1,1.4711503E0,-6.1413866E-1,9.0321267E-1,-5.393864E-1,7.1963824E-2,-7.127116E-1,2.8704172E-1,1.7330281E-1,1.2199093E0,-1.5449159E-1,1.2172109E0,-1.7975543E-1,9.64189E-1,-5.033206E-1,7.3187643E-1,4.5607254E-1,5.326707E-1,-6.0138655E-1,1.4441502E-1,-8.531525E-2,5.634817E-1,2.1832937E-1,-5.638772E-1,7.381258E-4,5.823377E-1,-3.8788056E-1,8.031992E-1,-8.621804E-2,3.9259005E-1,1.24938525E-1,9.117585E-1,9.411525E-2,4.743909E-1,-2.132686E-1,3.640724E-2,4.3356544E-1,-8.233921E-2,-2.5743216E-1,-2.5002923E-2,-7.557592E-2,1.1617647E-1,-2.8265303E-1,9.345106E-2,2.460969E-1,-1.4662969E-1,-1.6258849E-1,1.5239926E-1,4.3025538E-1,3.2335892E-2,1.0310692E-1,-1.0157023E-1,5.9879877E-2,4.2860115E-1,1.857408E-2,4.0902913E-1,7.3744625E-2,-2.9639006E-1,3.219942E-1,-1.3738644E-2,3.4048074E-1,-6.885899E-2,-2.9347706E-1,-6.9374345E-2,-6.2665254E-2,3.340699E-1,-6.584383E-2,1.21348016E-1,2.7839905E-2,2.76586E-1,-1.3684961E-1,1.7317455E-1,-2.4263234E-1,2.4416924E-1,1.3755368E-1,-1.218816E-1,9.442916E-2,2.5092575E-1,-1.9867833E-1,1.3052832E-1,3.5927862E-1,-5.4567445E-2,2.5662896E-1,-6.5383345E-2,-2.3038998E-1,2.993972E-1],"categories":[],"categories_nodes":[],"categories_segments":[],"categories_sizes":[],"default_left":[0,0,0,0,0,0,0,0,0,0,0,0,0,0,0,0,0,0,0,0,0,0,0,0,0,0,0,0,0,0,0,0,0,0,0,0,0,0,0,0,0,0,0,0,0,0,0,0,0,0,0,0,0,0,0,0,0,0,0,0,0,0,0,0,0,0,0,0,0,0,0,0,0,0,0,0,0,0,0,0,0,0,0,0,0,0,0,0,0,0,0,0,0,0,0,0,0,0,0,0,0,0,0,0,0,0,0,0,0,0,0,0,0,0,0],"id":3,"left_children":[1,3,5,7,9,11,13,15,17,19,21,23,25,27,29,31,33,35,37,39,41,43,45,47,49,51,53,55,57,59,61,63,65,67,69,71,73,75,77,79,81,-1,83,85,87,-1,89,91,93,95,97,99,101,103,105,107,109,-1,-1,111,113,-1,-1,-1,-1,-1,-1,-1,-1,-1,-1,-1,-1,-1,-1,-1,-1,-1,-1,-1,-1,-1,-1,-1,-1,-1,-1,-1,-1,-1,-1,-1,-1,-1,-1,-1,-1,-1,-1,-1,-1,-1,-1,-1,-1,-1,-1,-1,-1,-1,-1,-1,-1,-1,-1],"loss_changes":[2.5189138E1,1.8945404E1,1.6015244E1,1.1214668E1,8.956193E0,1.49903345E1,1.0054659E1,1.1995174E1,1.4748622E1,7.395905E0,3.23034E0,1.1074199E1,1.0030996E1,6.815787E0,8.906891E0,1.1084442E1,1.1488065E1,7.0974507E0,9.188045E0,1.0180567E1,3.9376864E0,2.8362525E0,1.4607182E0,7.839183E0,1.0577387E1,7.57121E0,8.697231E0,5.248385E0,3.0885391E0,9.029724E0,1.2029114E0,1.0035728E1,3.67345E0,6.863412E0,8.965943E0,6.260599E0,4.629771E0,9.282759E0,2.4801846E0,6.06566E0,9.8528767E-1,0E0,4.2167263E0,1.432877E0,1.2375517E0,0E0,2.5078301E0,7.6332455E0,6.856632E0,7.6096797E0,5.349162E0,7.749671E0,7.6329603E0,6.8835063E0,6.354355E0,5.3364773E0,1.9548252E0,0E0,0E0,7.478574E0,5.279152E0,0E0,0E0,0E0,0E0,0E0,0E0,0E0,0E0,0E0,0E0,0E0,0E0,0E0,0E0,0E0,0E0,0E0,0E0,0E0,0E0,0E0,0E0,0E0,0E0,0E0,0E0,0E0,0E0,0E0,0E0,0E0,0E0,0E0,0E0,0E0,0E0,0E0,0E0,0E0,0E0,0E0,0E0,0E0,0E0,0E0,0E0,0E0,0E0,0E0,0E0,0E0,0E0,0E0,0E0],"parents":[2147483647,0,0,1,1,2,2,3,3,4,4,5,5,6,6,7,7,8,8,9,9,10,10,11,11,12,12,13,13,14,14,15,15,16,16,17,17,18,18,19,19,20,20,21,21,22,22,23,23,24,24,25,25,26,26,27,27,28,28,29,29,30,30,31,31,32,32,33,33,34,34,35,35,36,36,37,37,38,38,39,39,40,40,42,42,43,43,44,44,46,46,47,47,48,48,49,49,50,50,51,51,52,52,53,53,54,54,55,55,56,56,59,59,60,60],"right_children":[2,4,6,8,10,12,14,16,18,20,22,24,26,28,30,32,34,36,38,40,42,44,46,48,50,52,54,56,58,60,62,64,66,68,70,72,74,76,78,80,82,-1,84,86,88,-1,90,92,94,96,98,100,102,104,106,108,110,-1,-1,112,114,-1,-1,-1,-1,-1,-1,-1,-1,-1,-1,-1,-1,-1,-1,-1,-1,-1,-1,-1,-1,-1,-1,-1,-1,-1,-1,-1,-1,-1,-1,-1,-1,-1,-1,-1,-1,-1,-1,-1,-1,-1,-1,-1,-1,-1,-1,-1,-1,-1,-1,-1,-1,-1,-1],"split_conditions":[8E3,1E4,1E4,1E4,1.2E4,8E3,6E3,8E3,8E3,1.2E4,6E3,6E3,6E3,1E4,1.2E4,1.8E4,8E3,1E4,1E4,2E4,2E3,6E3,1E4,1E4,1E4,8E3,6E3,1.2E4,6E3,8E3,6E3,1.2E4,8E3,8E3,8E3,1E4,8E3,6E3,1E4,6E3,6E3,-1.7975543E-1,6E3,8E3,8E3,4.5607254E-1,8E3,8E3,1E4,1E4,8E3,6E3,1.2E4,8E3,8E3,1E4,8E3,-8.621804E-2,3.9259005E-1,8E3,6E3,9.411525E-2,4.743909E-1,-2.132686E-1,3.640724E-2,4.3356544E-1,-8.233921E-2,-2.5743216E-1,-2.5002923E-2,-7.557592E-2,1.1617647E-1,-2.8265303E-1,9.345106E-2,2.460969E-1,-1.4662969E-1,-1.6258849E-1,1.5239926E-1,4.3025538E-1,3.2335892E-2,1.0310692E-1,-1.0157023E-1,5.9879877E-2,4.2860115E-1,1.857408E-2,4.0902913E-1,7.3744625E-2,-2.9639006E-1,3.219942E-1,-1.3738644E-2,3.4048074E-1,-6.885899E-2,-2.9347706E-1,-6.9374345E-2,-6.2665254E-2,3.340699E-1,-6.584383E-2,1.21348016E-1,2.7839905E-2,2.76586E-1,-1.3684961E-1,1.7317455E-1,-2.4263234E-1,2.4416924E-1,1.3755368E-1,-1.218816E-1,9.442916E-2,2.5092575E-1,-1.9867833E-1,1.3052832E-1,3.5927862E-1,-5.4567445E-2,2.5662896E-1,-6.5383345E-2,-2.3038998E-1,2.993972E-1],"split_indices":[140,97,19,84,109,121,48,110,88,75,71,118,67,87,100,91,108,102,93,97,31,141,100,50,100,133,129,118,94,33,97,107,104,103,25,60,135,71,133,90,102,0,23,113,42,0,17,43,128,64,34,64,45,49,4,68,43,0,0,139,139,0,0,0,0,0,0,0,0,0,0,0,0,0,0,0,0,0,0,0,0,0,0,0,0,0,0,0,0,0,0,0,0,0,0,0,0,0,0,0,0,0,0,0,0,0,0,0,0,0,0,0,0,0,0],"split_type":[0,0,0,0,0,0,0,0,0,0,0,0,0,0,0,0,0,0,0,0,0,0,0,0,0,0,0,0,0,0,0,0,0,0,0,0,0,0,0,0,0,0,0,0,0,0,0,0,0,0,0,0,0,0,0,0,0,0,0,0,0,0,0,0,0,0,0,0,0,0,0,0,0,0,0,0,0,0,0,0,0,0,0,0,0,0,0,0,0,0,0,0,0,0,0,0,0,0,0,0,0,0,0,0,0,0,0,0,0,0,0,0,0,0,0],"sum_hessian":[9.523371E2,4.5239865E2,4.9993845E2,3.557935E2,9.660517E1,3.992252E2,1.0071325E2,2.7550015E2,8.029331E1,8.0896805E1,1.5708365E1,2.1834636E2,1.8087885E2,3.0118435E1,7.059481E1,1.4294353E2,1.3255664E2,3.361098E1,4.6682335E1,6.877964E1,1.2117164E1,5.7533307E0,9.955034E0,7.368839E1,1.4465796E2,4.9595055E1,1.312838E2,2.4827553E1,5.290883E0,5.8268764E1,1.2326049E1,1.3880997E2,4.133562E0,4.6711784E1,8.584486E1,2.4389597E1,9.221382E0,3.6625824E1,1.0056509E1,6.3875614E1,4.9040284E0,1.177037E0,1.0940126E1,2.277696E0,3.475635E0,6.0593934E0,3.8956409E0,5.5342545E1,1.834585E1,1.1344768E2,3.1210289E1,2.9923956E1,1.9671099E1,3.4945004E1,9.633879E1,2.1356712E1,3.470839E0,1.1778963E0,4.112987E0,2.811346E1,3.0155304E1,1.4055202E0,1.0920529E1,1.2270165E2,1.6108309E1,2.6751795E0,1.4583827E0,2.6976645E1,1.9735142E1,4.2444565E1,4.340029E1,1.9990927E1,4.39867E0,5.430878E0,3.790504E0,1.1477783E1,2.514804E1,8.189105E0,1.8674046E0,1.6999958E1,4.6875656E1,1.1781768E0,3.725852E0,3.7102141E0,7.2299123E0,1.0882857E0,1.1894101E0,2.1510515E0,1.3245836E0,1.9029608E0,1.9926801E0,2.6607847E1,2.8734695E1,1.4019558E1,4.326292E0,8.948784E1,2.3959833E1,1.4037538E1,1.717275E1,1.0298907E1,1.962505E1,1.705295E1,2.6181495E0,1.6387287E1,1.8557716E1,4.8013977E1,4.832481E1,1.616318E1,5.1935334E0,2.3244777E0,1.1463614E0,8.503166E0,1.9610294E1,1.0864483E0,2.9068855E1],"tree_param":{"num_deleted":"0","num_feature":"145","num_nodes":"115","size_leaf_vector":"1"}},{"base_weights":[1.0974338E-2,-7.2832145E-2,2.7696547E-1,-9.077669E-2,1.5470996E0,1.6310748E-1,6.643615E-1,-1.1428041E-1,9.1832227E-1,5.0596094E-1,1.4615476E-1,-5.823787E-2,3.9504316E-1,-3.413612E-2,8.557852E-1,-2.0306064E-1,1.606004E-1,3.2053182E-1,1.3565799E0,-2.594007E-1,4.3615207E-1,4.5259753E-1,-7.835238E-1,6.268205E-1,-7.7333605E-1,1.2217083E0,4.641167E-1,-6.2114537E-2,-4.110633E-1,3.2717663E-1,-2.7481365E-1,-1.8036745E-1,7.5199014E-1,4.770206E-1,4.6104684E-2,-2.2550225E-2,-1.1744596E0,-2.3294888E-1,5.7601947E-1,4.1050185E-2,6.425116E-1,7.9963684E-2,-4.2036393E-1,-1.5242222E-1,1.2110167E0,-4.2972606E-1,1.6024463E-1,-1.15869835E-1,1.3387092E0,-6.698256E-2,9.29698E-1,-4.768808E-2,9.19951E-2,-1.371133E-1,1.6534422E-1,2.1179873E-2,1.8209942E-1,-1.3769308E-1,1.0988481E-1,-5.225344E-2,3.9066967E-1,1.8701376E-1,-8.911232E-2,-4.159268E-1,3.458276E-2,2.3589899E-1,-6.1842162E-2,1.3551374E-1,-1.1737846E-1,2.819754E-1,6.0705047E-2,4.0375018E-1,1.07752904E-1,-1.9976802E-1,2.5767684E-1,4.3092814E-1,5.5161867E-2,-2.716076E-1,1.4897217E-1,-5.658162E-2,3.605877E-1],"categories":[],"categories_nodes":[],"categories_segments":[],"categories_sizes":[],"default_left":[0,0,0,0,0,0,0,0,0,0,0,0,0,0,0,0,0,0,0,0,0,0,0,0,0,0,0,0,0,0,0,0,0,0,0,0,0,0,0,0,0,0,0,0,0,0,0,0,0,0,0,0,0,0,0,0,0,0,0,0,0,0,0,0,0,0,0,0,0,0,0,0,0,0,0,0,0,0,0,0,0],"id":4,"left_children":[1,3,5,7,9,11,13,15,17,-1,-1,19,21,23,25,27,29,31,33,35,37,39,41,43,45,47,49,51,53,55,57,-1,59,-1,-1,61,63,-1,65,67,69,-1,-1,-1,71,-1,73,-1,75,77,79,-1,-1,-1,-1,-1,-1,-1,-1,-1,-1,-1,-1,-1,-1,-1,-1,-1,-1,-1,-1,-1,-1,-1,-1,-1,-1,-1,-1,-1,-1],"loss_changes":[2.0826483E1,2.0794907E1,9.764292E0,1.679486E1,3.3703804E-1,8.971817E0,6.7837124E0,1.683636E1,3.7904587E0,0E0,0E0,9.070243E0,6.1371527E0,6.263564E0,5.12117E0,1.5246035E1,1.2322568E1,3.686058E0,2.2823524E0,1.3983788E1,4.9284663E0,6.375824E0,3.1854599E0,5.1215086E0,3.9405255E0,4.2619915E0,5.2011704E0,1.117998E1,9.55299E0,8.748164E0,5.7423286E0,0E0,3.2759764E0,0E0,0E0,9.470668E0,3.7880936E0,0E0,4.15318E0,4.958192E0,7.1380043E0,0E0,0E0,0E0,6.584883E-2,0E0,2.5316794E0,0E0,1.8551407E0,5.4771466E0,3.618969E0,0E0,0E0,0E0,0E0,0E0,0E0,0E0,0E0,0E0,0E0,0E0,0E0,0E0,0E0,0E0,0E0,0E0,0E0,0E0,0E0,0E0,0E0,0E0,0E0,0E0,0E0,0E0,0E0,0E0,0E0],"parents":[2147483647,0,0,1,1,2,2,3,3,4,4,5,5,6,6,7,7,8,8,11,11,12,12,13,13,14,14,15,15,16,16,17,17,18,18,19,19,20,20,21,21,22,22,23,23,24,24,25,25,26,26,27,27,28,28,29,29,30,30,32,32,35,35,36,36,38,38,39,39,40,40,44,44,46,46,48,48,49,49,50,50],"right_children":[2,4,6,8,10,12,14,16,18,-1,-1,20,22,24,26,28,30,32,34,36,38,40,42,44,46,48,50,52,54,56,58,-1,60,-1,-1,62,64,-1,66,68,70,-1,-1,-1,72,-1,74,-1,76,78,80,-1,-1,-1,-1,-1,-1,-1,-1,-1,-1,-1,-1,-1,-1,-1,-1,-1,-1,-1,-1,-1,-1,-1,-1,-1,-1,-1,-1,-1,-1],"split_conditions":[1E4,1.8E4,1E4,1.8E4,1.2E4,8E3,6E3,1E4,8E3,5.0596094E-1,1.4615476E-1,1E4,1.8E4,8E3,8E3,8E3,1.2E4,6E3,1.2E4,1E4,4E3,6E3,6E3,6E3,8E3,4E3,8E3,1E4,1.4E4,8E3,1E4,-1.8036745E-1,8E3,4.770206E-1,4.6104684E-2,6E3,1E4,-2.3294888E-1,1E4,8E3,8E3,7.9963684E-2,-4.2036393E-1,-1.5242222E-1,1E4,-4.2972606E-1,8E3,-1.15869835E-1,1.8E4,8E3,6E3,-4.768808E-2,9.19951E-2,-1.371133E-1,1.6534422E-1,2.1179873E-2,1.8209942E-1,-1.3769308E-1,1.0988481E-1,-5.225344E-2,3.9066967E-1,1.8701376E-1,-8.911232E-2,-4.159268E-1,3.458276E-2,2.3589899E-1,-6.1842162E-2,1.3551374E-1,-1.1737846E-1,2.819754E-1,6.0705047E-2,4.0375018E-1,1.07752904E-1,-1.9976802E-1,2.5767684E-1,4.3092814E-1,5.5161867E-2,-2.716076E-1,1.4897217E-1,-5.658162E-2,3.605877E-1],"split_indices":[144,143,32,89,15,87,25,138,39,0,0,140,141,39,22,136,136,94,16,135,121,1,68,42,37,103,41,121,108,63,116,0,52,0,0,114,40,0,125,122,133,0,0,0,86,0,61,0,31,95,69,0,0,0,0,0,0,0,0,0,0,0,0,0,0,0,0,0,0,0,0,0,0,0,0,0,0,0,0,0,0],"split_type":[0,0,0,0,0,0,0,0,0,0,0,0,0,0,0,0,0,0,0,0,0,0,0,0,0,0,0,0,0,0,0,0,0,0,0,0,0,0,0,0,0,0,0,0,0,0,0,0,0,0,0,0,0,0,0,0,0,0,0,0,0,0,0,0,0,0,0,0,0,0,0,0,0,0,0,0,0,0,0,0,0],"sum_hessian":[9.3236237E2,7.0953394E2,2.2282841E2,7.026939E2,6.8400216E0,1.7331203E2,4.9516396E1,6.8756604E2,1.5127893E1,5.522337E0,1.3176844E0,8.906381E1,8.424821E1,1.0827811E1,3.8688583E1,5.199087E2,1.6765735E2,7.1316233E0,7.99627E0,6.3643257E1,2.5420557E1,8.0912865E1,3.3353395E0,5.796706E0,5.0311046E0,1.8906044E1,1.9782541E1,3.1068317E2,2.092255E2,1.21444824E2,4.621253E1,2.1483886E0,4.9832344E0,6.426909E0,1.5693613E0,5.1371178E1,1.2272081E1,2.1581101E0,2.3262447E1,2.5932596E1,5.498027E1,1.4458609E0,1.8894787E0,2.0141666E0,3.7825396E0,2.6358986E0,2.395206E0,1.1262938E0,1.7779749E1,9.640983E0,1.0141559E1,2.4651253E2,6.4170654E1,2.0018433E2,9.041168E0,6.400704E1,5.7437775E1,3.6120518E1,1.0092014E1,2.1119123E0,2.8713224E0,1.4941031E1,3.6430145E1,1.0475506E1,1.7965754E0,1.8328793E1,4.933654E0,1.3276286E1,1.2656309E1,3.2133236E1,2.2847036E1,2.7650182E0,1.0175215E0,1.1189959E0,1.2762102E0,1.616785E1,1.6118983E0,3.6317267E0,6.009256E0,2.045792E0,8.095767E0],"tree_param":{"num_deleted":"0","num_feature":"145","num_nodes":"81","size_leaf_vector":"1"}},{"base_weights":[1.0711638E-2,-6.860025E-2,2.8236797E-1,-1.3912523E-1,2.6117083E-1,1.768388E-1,8.137248E-1,-1.6653378E-1,7.9826236E-1,9.301071E-2,9.021797E-1,5.1202044E-2,6.1304E-1,5.2915245E-2,1.0425973E0,6.791929E-1,-1.8897101E-1,-1.0258628E-1,1.0574555E0,-4.1863084E-2,8.714935E-1,1.0964795E0,1.5681477E-3,-2.274828E-1,2.9754445E-1,-3.5020977E-1,7.000733E-1,-4.5103207E-1,2.9537755E-1,6.85695E-1,5.0227994E-1,1.2816072E-1,1.1629553E0,1.5312741E-2,-2.786028E-1,2.2922705E-1,-3.135367E-1,3.8365787E-1,1.262289E0,-3.3585918E-1,2.797371E-1,1.0750936E0,-1.0727018E-1,1.2757709E0,1.8463987E-1,-6.509836E-1,2.9092044E-1,-6.247605E-1,1.590016E-1,1.0442537E-1,9.08837E-1,6.5161227E-3,9.6869856E-1,-8.2196075E-1,1.782999E-1,8.5233593E-1,-1.8631937E-1,-1.1367945E-1,2.9294056E-1,-5.115374E-3,4.462141E-1,-5.8711108E-2,7.5598046E-2,-9.5483415E-2,1.263153E-1,-1.7964825E-1,2.7072746E-1,4.0997288E-1,7.491835E-2,3.3759087E-1,-1.267787E-1,2.789349E-1,-1.328556E-2,3.824117E-1,7.162341E-2,4.0920877E-1,2.5843605E-3,-2.3895627E-1,2.6060554E-1,-3.9360857E-1,1.746287E-1,-2.4313094E-1,1.0498507E-1,1.14342764E-1,-1.3416953E-1,-2.7408123E-2,2.4103075E-1,-5.1621154E-2,3.28123E-1,-2.0653163E-1,2.1923834E-1,3.649123E-1,5.9484053E-2,-3.574061E-1,2.7478207E-2,-8.053106E-2,3.1172398E-1],"categories":[],"categories_nodes":[],"categories_segments":[],"categories_sizes":[],"default_left":[0,0,0,0,0,0,0,0,0,0,0,0,0,0,0,0,0,0,0,0,0,0,0,0,0,0,0,0,0,0,0,0,0,0,0,0,0,0,0,0,0,0,0,0,0,0,0,0,0,0,0,0,0,0,0,0,0,0,0,0,0,0,0,0,0,0,0,0,0,0,0,0,0,0,0,0,0,0,0,0,0,0,0,0,0,0,0,0,0,0,0,0,0,0,0,0,0],"id":5,"left_children":[1,3,5,7,9,11,13,15,17,19,21,23,25,27,29,31,33,35,37,39,41,43,45,47,49,-1,51,53,-1,55,-1,57,59,61,63,-1,-1,65,67,69,71,73,-1,75,77,79,-1,81,83,85,87,89,91,93,-1,95,-1,-1,-1,-1,-1,-1,-1,-1,-1,-1,-1,-1,-1,-1,-1,-1,-1,-1,-1,-1,-1,-1,-1,-1,-1,-1,-1,-1,-1,-1,-1,-1,-1,-1,-1,-1,-1,-1,-1,-1,-1],"loss_changes":[1.9753035E1,1.6542637E1,1.1472963E1,1.5171808E1,1.3432092E1,9.510988E0,5.8738537E0,1.09358225E1,4.0315037E0,1.058303E1,4.538063E0,9.423308E0,6.8365383E0,4.635808E0,4.7410126E0,3.8327298E0,1.0177544E1,4.609754E0,1.3286695E0,8.278855E0,4.107583E0,3.2528896E0,4.1725626E0,1.0003914E1,8.495615E0,0E0,7.010048E0,3.0010507E0,0E0,4.5328283E0,0E0,3.857366E0,3.0229626E0,8.5588665E0,1.085507E1,0E0,0E0,2.8334408E0,6.763506E-1,6.264745E0,8.864128E0,1.8682423E0,0E0,1.963583E0,3.829873E0,3.9807973E0,0E0,6.0772305E0,4.681207E0,7.7960186E0,3.6539183E0,6.3020325E0,4.9373817E0,1.8646855E0,0E0,3.7798538E0,0E0,0E0,0E0,0E0,0E0,0E0,0E0,0E0,0E0,0E0,0E0,0E0,0E0,0E0,0E0,0E0,0E0,0E0,0E0,0E0,0E0,0E0,0E0,0E0,0E0,0E0,0E0,0E0,0E0,0E0,0E0,0E0,0E0,0E0,0E0,0E0,0E0,0E0,0E0,0E0,0E0],"parents":[2147483647,0,0,1,1,2,2,3,3,4,4,5,5,6,6,7,7,8,8,9,9,10,10,11,11,12,12,13,13,14,14,15,15,16,16,17,17,18,18,19,19,20,20,21,21,22,22,23,23,24,24,26,26,27,27,29,29,31,31,32,32,33,33,34,34,37,37,38,38,39,39,40,40,41,41,43,43,44,44,45,45,47,47,48,48,49,49,50,50,51,51,52,52,53,53,55,55],"right_children":[2,4,6,8,10,12,14,16,18,20,22,24,26,28,30,32,34,36,38,40,42,44,46,48,50,-1,52,54,-1,56,-1,58,60,62,64,-1,-1,66,68,70,72,74,-1,76,78,80,-1,82,84,86,88,90,92,94,-1,96,-1,-1,-1,-1,-1,-1,-1,-1,-1,-1,-1,-1,-1,-1,-1,-1,-1,-1,-1,-1,-1,-1,-1,-1,-1,-1,-1,-1,-1,-1,-1,-1,-1,-1,-1,-1,-1,-1,-1,-1,-1],"split_conditions":[1E4,1.2E4,1.2E4,1.8E4,1E4,1E4,6E3,2E3,6E3,1.2E4,1.2E4,8E3,2E3,1E4,1E4,8E3,6E3,8E3,6E3,8E3,1E4,1.2E4,8E3,8E3,1.2E4,-3.5020977E-1,6E3,1E4,2.9537755E-1,1.4E4,5.0227994E-1,1E4,6E3,8E3,1.4E4,2.2922705E-1,-3.135367E-1,6E3,1.2E4,4E3,6E3,1.2E4,-1.0727018E-1,1.4E4,8E3,8E3,2.9092044E-1,1.2E4,8E3,1E4,6E3,8E3,1E4,1E4,1.782999E-1,6E3,-1.8631937E-1,-1.1367945E-1,2.9294056E-1,-5.115374E-3,4.462141E-1,-5.8711108E-2,7.5598046E-2,-9.5483415E-2,1.263153E-1,-1.7964825E-1,2.7072746E-1,4.0997288E-1,7.491835E-2,3.3759087E-1,-1.267787E-1,2.789349E-1,-1.328556E-2,3.824117E-1,7.162341E-2,4.0920877E-1,2.5843605E-3,-2.3895627E-1,2.6060554E-1,-3.9360857E-1,1.746287E-1,-2.4313094E-1,1.0498507E-1,1.14342764E-1,-1.3416953E-1,-2.7408123E-2,2.4103075E-1,-5.1621154E-2,3.28123E-1,-2.0653163E-1,2.1923834E-1,3.649123E-1,5.9484053E-2,-3.574061E-1,2.7478207E-2,-8.053106E-2,3.1172398E-1],"split_indices":[92,128,28,97,120,55,120,144,120,88,25,143,77,143,44,87,114,15,16,96,136,113,90,100,96,0,2,66,0,123,0,22,125,88,55,0,0,5,63,18,122,12,0,35,54,80,0,107,142,40,139,131,62,7,0,89,0,0,0,0,0,0,0,0,0,0,0,0,0,0,0,0,0,0,0,0,0,0,0,0,0,0,0,0,0,0,0,0,0,0,0,0,0,0,0,0,0],"split_type":[0,0,0,0,0,0,0,0,0,0,0,0,0,0,0,0,0,0,0,0,0,0,0,0,0,0,0,0,0,0,0,0,0,0,0,0,0,0,0,0,0,0,0,0,0,0,0,0,0,0,0,0,0,0,0,0,0,0,0,0,0,0,0,0,0,0,0,0,0,0,0,0,0,0,0,0,0,0,0,0,0,0,0,0,0,0,0,0,0,0,0,0,0,0,0,0,0],"sum_hessian":[9.149032E2,7.087317E2,2.061715E2,5.8434216E2,1.2438953E2,1.7312177E2,3.3049736E1,5.685408E2,1.5801394E1,9.944623E1,2.4943293E1,1.3527625E2,3.7845528E1,7.92776E0,2.5121975E1,1.3937149E1,5.5460364E2,3.665576E0,1.21358185E1,8.556767E1,1.3878555E1,2.0338037E1,4.6052547E0,6.3507435E1,7.176881E1,1.1853075E0,3.6660217E1,5.4796753E0,2.4480848E0,1.7384825E1,7.73715E0,7.1069098E0,6.830239E0,1.6938345E2,3.8522018E2,2.0082679E0,1.6573081E0,3.4989796E0,8.636839E0,4.4679153E1,4.0888523E1,1.2013698E1,1.8648577E0,1.6662617E1,3.6754198E0,2.9467409E0,1.6585138E0,3.1012417E1,3.2495018E1,5.5428654E1,1.634015E1,1.0520875E1,2.6139343E1,4.2022815E0,1.2773936E0,1.5727027E1,1.6577972E0,4.7943215E0,2.3125882E0,1.6772275E0,5.1530113E0,8.963822E1,7.974523E1,3.6506363E2,2.0156555E1,1.1557646E0,2.3432148E0,7.5133862E0,1.1234529E0,1.8326435E0,4.2846508E1,1.2979617E1,2.7908907E1,9.275725E0,2.7379727E0,1.5506155E1,1.1564623E0,1.4422706E0,2.2331493E0,1.8766539E0,1.0700868E0,2.6191622E1,4.8207946E0,2.4052721E1,8.442298E0,4.3979687E1,1.1448967E1,2.3970604E0,1.39430895E1,5.394379E0,5.1264963E0,1.9342293E1,6.7970505E0,2.7758076E0,1.4264741E0,2.1837082E0,1.3543319E1],"tree_param":{"num_deleted":"0","num_feature":"145","num_nodes":"97","size_leaf_vector":"1"}},{"base_weights":[1.31984195E-2,-2.1896677E-1,7.973397E-2,7.3638487E-1,-2.6580447E-1,1.340286E-1,-2.65372E-1,-2.4592115E-1,1.1812372E0,9.3427026E-1,-3.0018377E-1,7.594581E-2,4.3189958E-1,-5.609386E-1,8.217765E-2,-2.8106627E-1,1.041021E-1,1.4549722E-2,1.4217266E0,-6.078837E-2,4.2987534E-1,1.4582825E-1,-3.863351E-1,-2.7423224E-1,1.4058007E-1,3.4213468E-1,4.2949736E-1,-7.405238E-1,2.781791E-1,-9.514779E-2,8.282146E-1,4.701128E-1,1.2661274E-1,-8.1661865E-2,9.755415E-1,-4.8922387E-1,5.0260056E-2,-5.878093E-4,-6.911197E-1,4.0629086E-1,1.3631022E-2,5.782618E-2,6.150367E-1,-8.852978E-1,1.6290648E-2,-6.123513E-1,7.3873734E-1,3.298289E-1,-4.440242E-1,-1.2961498E-1,1.0786766E0,-2.2300096E-1,6.099583E-2,3.8167152E-1,-1.0997679E-3,-2.6595956E-1,-9.705616E-2,-2.4335529E-1,1.028528E-1,-1.024638E-1,1.1437929E-1,-3.3097947E-1,-5.589135E-2,3.6546016E-1,1.0535794E-1,-7.3289365E-2,6.376652E-2,-3.6066365E-1,4.377847E-2,2.2947618E-1,-9.461491E-2,-3.0618143E-1,-3.4102567E-2,-3.0054268E-1,1.4155297E-1,8.1736594E-2,-3.1304199E-1,3.0644843E-1,-7.7382475E-2,-1.3528524E-1,1.7818083E-1,-2.3120216E-1,1.865123E-1,4.1266355E-1,8.236553E-3],"categories":[],"categories_nodes":[],"categories_segments":[],"categories_sizes":[],"default_left":[0,0,0,0,0,0,0,0,0,0,0,0,0,0,0,0,0,0,0,0,0,0,0,0,0,0,0,0,0,0,0,0,0,0,0,0,0,0,0,0,0,0,0,0,0,0,0,0,0,0,0,0,0,0,0,0,0,0,0,0,0,0,0,0,0,0,0,0,0,0,0,0,0,0,0,0,0,0,0,0,0,0,0,0,0],"id":6,"left_children":[1,3,5,7,9,11,13,15,17,19,21,23,25,27,29,-1,-1,-1,31,-1,-1,33,35,37,39,41,-1,43,45,47,49,-1,-1,51,53,55,57,59,61,63,65,67,69,71,73,75,77,79,81,-1,83,-1,-1,-1,-1,-1,-1,-1,-1,-1,-1,-1,-1,-1,-1,-1,-1,-1,-1,-1,-1,-1,-1,-1,-1,-1,-1,-1,-1,-1,-1,-1,-1,-1,-1],"loss_changes":[1.3914169E1,9.1744795E0,1.31511135E1,4.504326E0,8.2025585E0,1.0442663E1,9.855131E0,1.8956554E0,1.7860584E0,3.4598098E0,7.258028E0,1.1533915E1,8.35755E0,8.001589E0,5.999845E0,0E0,0E0,0E0,1.4949799E-1,0E0,0E0,5.943775E0,7.093157E0,9.066172E0,1.447938E1,7.085269E0,0E0,4.7131977E0,4.490857E0,5.6410046E0,3.211689E0,0E0,0E0,4.9228477E0,1.9693456E0,8.103172E0,8.07064E0,6.507494E0,6.347028E0,5.7812023E0,1.5014317E1,5.2878637E0,6.7571507E0,3.6443424E0,4.121974E0,1.773239E0,2.2202396E0,3.8313794E0,7.712385E0,0E0,2.316001E0,0E0,0E0,0E0,0E0,0E0,0E0,0E0,0E0,0E0,0E0,0E0,0E0,0E0,0E0,0E0,0E0,0E0,0E0,0E0,0E0,0E0,0E0,0E0,0E0,0E0,0E0,0E0,0E0,0E0,0E0,0E0,0E0,0E0,0E0],"parents":[2147483647,0,0,1,1,2,2,3,3,4,4,5,5,6,6,7,7,8,8,9,9,10,10,11,11,12,12,13,13,14,14,18,18,21,21,22,22,23,23,24,24,25,25,27,27,28,28,29,29,30,30,33,33,34,34,35,35,36,36,37,37,38,38,39,39,40,40,41,41,42,42,43,43,44,44,45,45,46,46,47,47,48,48,50,50],"right_children":[2,4,6,8,10,12,14,16,18,20,22,24,26,28,30,-1,-1,-1,32,-1,-1,34,36,38,40,42,-1,44,46,48,50,-1,-1,52,54,56,58,60,62,64,66,68,70,72,74,76,78,80,82,-1,84,-1,-1,-1,-1,-1,-1,-1,-1,-1,-1,-1,-1,-1,-1,-1,-1,-1,-1,-1,-1,-1,-1,-1,-1,-1,-1,-1,-1,-1,-1,-1,-1,-1,-1],"split_conditions":[6E3,4E3,1.2E4,6E3,2E3,1.2E4,8E3,8E3,6E3,6E3,4E3,6E3,1.4E4,1.2E4,1.2E4,-2.8106627E-1,1.041021E-1,1.4549722E-2,1E4,-6.078837E-2,4.2987534E-1,1E4,1.2E4,8E3,8E3,8E3,4.2949736E-1,1.2E4,6E3,8E3,6E3,4.701128E-1,1.2661274E-1,6E3,1E4,6E3,6E3,8E3,8E3,4E3,1E4,4E3,1.2E4,1.2E4,6E3,6E3,1.2E4,6E3,1.2E4,-1.2961498E-1,1E4,-2.2300096E-1,6.099583E-2,3.8167152E-1,-1.0997679E-3,-2.6595956E-1,-9.705616E-2,-2.4335529E-1,1.028528E-1,-1.024638E-1,1.1437929E-1,-3.3097947E-1,-5.589135E-2,3.6546016E-1,1.0535794E-1,-7.3289365E-2,6.376652E-2,-3.6066365E-1,4.377847E-2,2.2947618E-1,-9.461491E-2,-3.0618143E-1,-3.4102567E-2,-3.0054268E-1,1.4155297E-1,8.1736594E-2,-3.1304199E-1,3.0644843E-1,-7.7382475E-2,-1.3528524E-1,1.7818083E-1,-2.3120216E-1,1.865123E-1,4.1266355E-1,8.236553E-3],"split_indices":[138,44,135,64,69,84,25,12,33,107,139,140,76,38,120,0,0,0,73,0,0,30,107,138,139,62,0,33,81,125,96,0,0,75,118,22,83,119,101,21,139,18,133,45,29,10,6,29,1,0,101,0,0,0,0,0,0,0,0,0,0,0,0,0,0,0,0,0,0,0,0,0,0,0,0,0,0,0,0,0,0,0,0,0,0],"split_type":[0,0,0,0,0,0,0,0,0,0,0,0,0,0,0,0,0,0,0,0,0,0,0,0,0,0,0,0,0,0,0,0,0,0,0,0,0,0,0,0,0,0,0,0,0,0,0,0,0,0,0,0,0,0,0,0,0,0,0,0,0,0,0,0,0,0,0,0,0,0,0,0,0,0,0,0,0,0,0,0,0,0,0,0,0],"sum_hessian":[8.986242E2,1.9965811E2,6.9896606E2,8.643059E0,1.9101506E2,6.044769E2,9.448915E1,2.833474E0,5.809585E0,4.590753E0,1.864243E2,5.0689154E2,9.75854E1,5.0731552E1,4.3757603E1,1.0406517E0,1.7928221E0,1.2278609E0,4.581724E0,1.5806266E0,3.0101266E0,3.0067877E1,1.5635643E2,7.8476364E1,4.2841516E2,9.077706E1,6.808346E0,4.1884964E1,8.846586E0,3.6059166E1,7.6984363E0,3.5047326E0,1.0769918E0,2.4305416E1,5.762461E0,1.2643904E2,2.9917389E1,4.798227E1,3.0494099E1,1.3779753E2,2.9061765E2,4.505294E1,4.5724117E1,3.5016716E1,6.86825E0,2.9032702E0,5.943316E0,1.628118E1,1.9777988E1,1.1561174E0,6.542319E0,6.8327184E0,1.7472698E1,4.192802E0,1.5696596E0,3.5932747E1,9.0506294E1,7.1356263E0,2.2781763E1,2.5404226E1,2.2578041E1,1.6135305E1,1.4358794E1,7.415432E0,1.303821E2,1.2644213E2,1.641755E2,2.1178408E0,4.29351E1,3.9533443E1,6.190675E0,2.9517954E1,5.4987607E0,1.7525117E0,5.1157384E0,1.0717375E0,1.8315326E0,4.6104383E0,1.3328779E0,3.9364386E0,1.234474E1,1.5350025E1,4.427963E0,4.861027E0,1.6812923E0],"tree_param":{"num_deleted":"0","num_feature":"145","num_nodes":"85","size_leaf_vector":"1"}},{"base_weights":[9.457284E-3,-1.9344771E-2,4.8823404E-1,-7.431757E-2,2.4066794E-1,-6.0567117E-1,5.82577E-1,-1.05335005E-1,4.517427E-1,8.06881E-2,7.412699E-1,-3.3160222E-1,1.24683976E-1,2.5714532E-1,9.4240826E-1,-1.5562378E-1,1.6386297E-1,-1.2015307E-1,7.236607E-1,-4.2830165E-2,5.997065E-1,1.50155E-1,1.2302029E0,-1.8873037E-1,6.690918E-1,1.0730608E0,-2.0132406E-1,-2.1112949E-1,1.4562865E-1,-1.4735308E-1,5.07542E-1,7.91794E-1,-5.354543E-1,9.1044736E-1,-1.4569013E-1,1.0191809E0,-9.4663836E-2,7.904643E-1,-1.0518277E-1,-6.2927216E-1,5.5068576E-1,1.3264034E0,-2.0501863E-2,-3.4699622E-1,2.3465493E-1,9.1009367E-1,-1.7399281E-1,1.2565101E0,2.6176924E-1,-6.957038E-2,1.9931422E-1,-3.8779962E-1,6.8546064E-2,6.380763E-2,-1.6562073E-1,2.528692E-2,2.748845E-1,-3.0562999E-2,3.7662378E-1,-2.6019093E-1,2.0215386E-1,-8.152841E-2,3.0619365E-1,1.586489E-1,-3.029564E-1,4.1157064E-1,-1.4325803E-2,3.7595425E-2,-9.6986055E-2,-1.3686262E-1,2.71417E-1,1.6223505E-1,-2.4252118E-1,1.6852827E-1,-3.00476E-1,-1.0852041E-2,3.063128E-1,4.3003377E-1,2.8236123E-2,2.4006255E-1,-1.3623585E-1,3.379854E-1,-2.1882588E-2,4.0147504E-1,5.1096123E-2,-1.944486E-1,2.6091316E-1],"categories":[],"categories_nodes":[],"categories_segments":[],"categories_sizes":[],"default_left":[0,0,0,0,0,0,0,0,0,0,0,0,0,0,0,0,0,0,0,0,0,0,0,0,0,0,0,0,0,0,0,0,0,0,0,0,0,0,0,0,0,0,0,0,0,0,0,0,0,0,0,0,0,0,0,0,0,0,0,0,0,0,0,0,0,0,0,0,0,0,0,0,0,0,0,0,0,0,0,0,0,0,0,0,0,0,0],"id":7,"left_children":[1,3,5,7,9,11,13,15,17,19,21,-1,-1,23,25,27,29,31,33,35,37,39,41,43,45,47,-1,49,51,53,55,57,59,61,63,65,67,69,71,73,75,77,-1,-1,79,81,-1,83,85,-1,-1,-1,-1,-1,-1,-1,-1,-1,-1,-1,-1,-1,-1,-1,-1,-1,-1,-1,-1,-1,-1,-1,-1,-1,-1,-1,-1,-1,-1,-1,-1,-1,-1,-1,-1,-1,-1],"loss_changes":[1.2191104E1,1.1941914E1,5.5299826E0,1.1296419E1,1.1619005E1,2.742094E0,5.2252846E0,8.849577E0,6.0854855E0,7.182315E0,9.987045E0,0E0,0E0,4.8822317E0,5.315403E0,9.2229395E0,1.1100758E1,5.4565353E0,4.400998E0,5.1117287E0,2.977673E0,5.6759696E0,2.4795055E0,5.6867533E0,4.6454697E0,2.7296371E0,0E0,8.603432E0,1.0558791E1,8.113328E0,8.436656E0,2.0177326E0,4.4877768E0,3.1141357E0,3.7463224E0,1.6930361E0,4.4553385E0,2.8427172E0,2.9207587E0,3.33925E0,3.2968652E0,2.220024E0,0E0,0E0,4.2683344E0,2.605626E0,0E0,1.2367954E0,3.3589897E0,0E0,0E0,0E0,0E0,0E0,0E0,0E0,0E0,0E0,0E0,0E0,0E0,0E0,0E0,0E0,0E0,0E0,0E0,0E0,0E0,0E0,0E0,0E0,0E0,0E0,0E0,0E0,0E0,0E0,0E0,0E0,0E0,0E0,0E0,0E0,0E0,0E0,0E0],"parents":[2147483647,0,0,1,1,2,2,3,3,4,4,5,5,6,6,7,7,8,8,9,9,10,10,13,13,14,14,15,15,16,16,17,17,18,18,19,19,20,20,21,21,22,22,23,23,24,24,25,25,27,27,28,28,29,29,30,30,31,31,32,32,33,33,34,34,35,35,36,36,37,37,38,38,39,39,40,40,41,41,44,44,45,45,47,47,48,48],"right_children":[2,4,6,8,10,12,14,16,18,20,22,-1,-1,24,26,28,30,32,34,36,38,40,42,44,46,48,-1,50,52,54,56,58,60,62,64,66,68,70,72,74,76,78,-1,-1,80,82,-1,84,86,-1,-1,-1,-1,-1,-1,-1,-1,-1,-1,-1,-1,-1,-1,-1,-1,-1,-1,-1,-1,-1,-1,-1,-1,-1,-1,-1,-1,-1,-1,-1,-1,-1,-1,-1,-1,-1,-1],"split_conditions":[1.4E4,1.2E4,4E3,1.4E4,1E4,8E3,8E3,1.2E4,6E3,1E4,8E3,-3.3160222E-1,1.24683976E-1,8E3,1.8E4,1.2E4,8E3,6E3,1.2E4,4E3,1.2E4,6E3,1.8E4,6E3,1.2E4,1E4,-2.0132406E-1,1.8E4,4E3,8E3,8E3,6E3,1E4,4E3,1E4,8E3,8E3,4E3,8E3,6E3,8E3,1.4E4,-2.0501863E-2,-3.4699622E-1,8E3,1.2E4,-1.7399281E-1,1.4E4,6E3,-6.957038E-2,1.9931422E-1,-3.8779962E-1,6.8546064E-2,6.380763E-2,-1.6562073E-1,2.528692E-2,2.748845E-1,-3.0562999E-2,3.7662378E-1,-2.6019093E-1,2.0215386E-1,-8.152841E-2,3.0619365E-1,1.586489E-1,-3.029564E-1,4.1157064E-1,-1.4325803E-2,3.7595425E-2,-9.6986055E-2,-1.3686262E-1,2.71417E-1,1.6223505E-1,-2.4252118E-1,1.6852827E-1,-3.00476E-1,-1.0852041E-2,3.063128E-1,4.3003377E-1,2.8236123E-2,2.4006255E-1,-1.3623585E-1,3.379854E-1,-2.1882588E-2,4.0147504E-1,5.1096123E-2,-1.944486E-1,2.6091316E-1],"split_indices":[96,128,7,92,101,142,69,77,24,120,143,0,0,119,24,20,29,137,30,18,113,92,24,31,5,137,0,41,137,135,64,1,101,6,3,89,63,52,49,22,32,45,0,0,116,19,0,123,59,0,0,0,0,0,0,0,0,0,0,0,0,0,0,0,0,0,0,0,0,0,0,0,0,0,0,0,0,0,0,0,0,0,0,0,0,0,0],"split_type":[0,0,0,0,0,0,0,0,0,0,0,0,0,0,0,0,0,0,0,0,0,0,0,0,0,0,0,0,0,0,0,0,0,0,0,0,0,0,0,0,0,0,0,0,0,0,0,0,0,0,0,0,0,0,0,0,0,0,0,0,0,0,0,0,0,0,0,0,0,0,0,0,0,0,0,0,0,0,0,0,0,0,0,0,0,0,0],"sum_hessian":[8.823848E2,8.332199E2,4.9164906E1,6.883919E2,1.4482805E2,3.4732094E0,4.5691696E1,6.5081824E2,3.757362E1,1.1063352E2,3.419452E1,2.276912E0,1.1962974E0,2.4893038E1,2.0798656E1,5.487318E2,1.0208647E2,1.22879095E1,2.528571E1,9.010696E1,2.052657E1,1.6071434E1,1.8123085E1,1.2214438E1,1.2678599E1,1.9550497E1,1.2481608E0,4.6361075E2,8.512105E1,5.3873222E1,4.8213253E1,3.561271E0,8.726639E0,2.077481E1,4.5108986E0,3.3247244E0,8.678223E1,1.6059208E1,4.4673605E0,5.261512E0,1.0809922E1,1.6853096E1,1.2699902E0,3.1899061E0,9.024532E0,1.0855469E1,1.8231307E0,1.5497436E1,4.0530615E0,4.535844E2,1.0026316E1,3.841281E0,8.127977E1,2.8761106E1,2.5112116E1,2.4278713E1,2.393454E1,1.4829656E0,2.0783055E0,7.069481E0,1.6571579E0,1.6463721E0,1.9128437E1,2.7513723E0,1.7595263E0,2.283859E0,1.0408654E0,4.44572E1,4.232503E1,1.0970123E0,1.4962195E1,2.4488668E0,2.018494E0,1.1318601E0,4.1296515E0,5.2200346E0,5.589888E0,1.5355955E1,1.4971404E0,4.8666964E0,4.1578364E0,8.776328E0,2.0791411E0,1.4196998E1,1.3004373E0,1.5968418E0,2.4562194E0],"tree_param":{"num_deleted":"0","num_feature":"145","num_nodes":"87","size_leaf_vector":"1"}},{"base_weights":[9.820862E-3,-1.648028E-2,4.5884427E-1,-3.4901075E-2,5.843888E-1,4.0984698E-2,8.6735785E-1,-2.2982413E-1,2.0464389E-2,1.0977801E0,1.0171692E-1,-3.9006746E-1,5.526117E-1,1.0256271E0,-2.044149E-1,-2.9893485E-1,1.7985706E-1,-8.930611E-2,1.4253569E-1,4.3417695E-1,3.84229E-1,-7.290364E-1,5.481816E-1,-7.0925653E-1,6.199183E-1,1.125631E0,-1.9063398E-2,1.9239968E-1,1.2718568E0,1.9978292E-1,-2.892949E-1,-3.9021245E-1,1.5261722E-1,-2.1603839E-1,7.3766226E-1,-1.1135891E-1,1.0618558E0,6.329934E-2,4.8914218E-1,-1.9606254E-1,3.069769E-1,-3.4744635E-1,1.4744648E-1,7.875691E-1,-1.668795E-1,-9.6257186E-1,1.3013683E-1,-6.8272084E-2,3.1544024E-1,3.855525E-2,3.9252648E-1,-2.7480203E-1,5.604345E-1,-5.288177E-1,9.60386E-1,1.4403318E0,1.5097615E-1,-1.3277665E-1,8.789302E-2,-3.5529632E-2,2.798692E-1,1.065384E-1,-2.086007E-1,3.8823792E-1,2.8972303E-2,-5.6646615E-2,5.4918624E-2,3.954626E-1,1.8929415E-3,-6.783923E-2,5.249558E-2,2.8354814E-2,2.4253462E-1,-2.5650892E-1,1.3598172E-1,-3.8616553E-2,3.3535695E-1,-3.732724E-1,-6.9622644E-3,-1.240572E-1,3.2844952E-1,1.13739215E-1,-2.9913327E-1,3.451087E-1,9.206959E-2,4.5056093E-1,1.01810105E-1,-1.3884939E-1,2.1310067E-1],"categories":[],"categories_nodes":[],"categories_segments":[],"categories_sizes":[],"default_left":[0,0,0,0,0,0,0,0,0,0,0,0,0,0,0,0,0,0,0,0,0,0,0,0,0,0,0,0,0,0,0,0,0,0,0,0,0,0,0,0,0,0,0,0,0,0,0,0,0,0,0,0,0,0,0,0,0,0,0,0,0,0,0,0,0,0,0,0,0,0,0,0,0,0,0,0,0,0,0,0,0,0,0,0,0,0,0,0,0],"id":8,"left_children":[1,3,5,7,9,11,13,15,17,19,21,23,25,27,29,31,33,35,37,-1,39,41,43,45,47,49,51,53,55,-1,-1,57,59,61,63,65,67,69,71,73,-1,-1,-1,75,-1,77,-1,-1,-1,-1,-1,-1,79,81,83,85,87,-1,-1,-1,-1,-1,-1,-1,-1,-1,-1,-1,-1,-1,-1,-1,-1,-1,-1,-1,-1,-1,-1,-1,-1,-1,-1,-1,-1,-1,-1,-1,-1],"loss_changes":[1.025552E1,9.104284E0,8.166615E0,8.6084175E0,5.9515095E0,5.6855106E0,4.322645E0,5.0492163E0,8.34469E0,2.3751574E0,5.4859915E0,4.968298E0,3.8722289E0,4.123953E0,3.2570853E0,6.297386E0,5.9212356E0,8.445174E0,8.065044E0,0E0,2.1384795E0,3.304698E0,2.9473171E0,3.6433249E0,1.6682142E0,9.048896E-1,4.083104E0,3.8507636E0,2.852707E0,0E0,0E0,4.6446E0,5.6447334E0,4.636391E0,3.8197136E0,7.3953986E0,1.6857119E0,7.8327246E0,6.816457E0,1.9185487E0,0E0,0E0,0E0,2.6297379E0,0E0,2.4662695E0,0E0,0E0,0E0,0E0,0E0,0E0,2.9472218E0,1.9756073E0,5.3910732E-2,4.3995094E-1,1.4416856E0,0E0,0E0,0E0,0E0,0E0,0E0,0E0,0E0,0E0,0E0,0E0,0E0,0E0,0E0,0E0,0E0,0E0,0E0,0E0,0E0,0E0,0E0,0E0,0E0,0E0,0E0,0E0,0E0,0E0,0E0,0E0,0E0],"parents":[2147483647,0,0,1,1,2,2,3,3,4,4,5,5,6,6,7,7,8,8,9,9,10,10,11,11,12,12,13,13,14,14,15,15,16,16,17,17,18,18,20,20,21,21,22,22,23,23,24,24,25,25,26,26,27,27,28,28,31,31,32,32,33,33,34,34,35,35,36,36,37,37,38,38,39,39,43,43,45,45,52,52,53,53,54,54,55,55,56,56],"right_children":[2,4,6,8,10,12,14,16,18,20,22,24,26,28,30,32,34,36,38,-1,40,42,44,46,48,50,52,54,56,-1,-1,58,60,62,64,66,68,70,72,74,-1,-1,-1,76,-1,78,-1,-1,-1,-1,-1,-1,80,82,84,86,88,-1,-1,-1,-1,-1,-1,-1,-1,-1,-1,-1,-1,-1,-1,-1,-1,-1,-1,-1,-1,-1,-1,-1,-1,-1,-1,-1,-1,-1,-1,-1,-1],"split_conditions":[1.4E4,1.8E4,8E3,6E3,8E3,8E3,1.2E4,1.2E4,8E3,1.4E4,6E3,1.2E4,8E3,6E3,8E3,1.2E4,8E3,2E4,1.2E4,4.3417695E-1,8E3,1E4,1.2E4,1E4,1E4,6E3,6E3,8E3,1.2E4,1.9978292E-1,-2.892949E-1,1.4E4,1E4,8E3,8E3,1E4,8E3,6E3,8E3,8E3,3.069769E-1,-3.4744635E-1,1.4744648E-1,6E3,-1.668795E-1,1.2E4,1.3013683E-1,-6.8272084E-2,3.1544024E-1,3.855525E-2,3.9252648E-1,-2.7480203E-1,8E3,6E3,6E3,1.4E4,6E3,-1.3277665E-1,8.789302E-2,-3.5529632E-2,2.798692E-1,1.065384E-1,-2.086007E-1,3.8823792E-1,2.8972303E-2,-5.6646615E-2,5.4918624E-2,3.954626E-1,1.8929415E-3,-6.783923E-2,5.249558E-2,2.8354814E-2,2.4253462E-1,-2.5650892E-1,1.3598172E-1,-3.8616553E-2,3.3535695E-1,-3.732724E-1,-6.9622644E-3,-1.240572E-1,3.2844952E-1,1.13739215E-1,-2.9913327E-1,3.451087E-1,9.206959E-2,4.5056093E-1,1.01810105E-1,-1.3884939E-1,2.1310067E-1],"split_indices":[121,14,129,138,65,31,31,89,87,16,119,3,11,104,103,118,99,57,79,0,52,84,117,47,5,45,3,62,142,0,0,128,72,48,20,67,90,2,110,69,0,0,0,115,0,137,0,0,0,0,0,0,106,23,7,36,73,0,0,0,0,0,0,0,0,0,0,0,0,0,0,0,0,0,0,0,0,0,0,0,0,0,0,0,0,0,0,0,0],"split_type":[0,0,0,0,0,0,0,0,0,0,0,0,0,0,0,0,0,0,0,0,0,0,0,0,0,0,0,0,0,0,0,0,0,0,0,0,0,0,0,0,0,0,0,0,0,0,0,0,0,0,0,0,0,0,0,0,0,0,0,0,0,0,0,0,0,0,0,0,0,0,0,0,0,0,0,0,0,0,0,0,0,0,0,0,0,0,0,0,0],"sum_hessian":[8.667482E2,8.196984E2,4.70498E1,7.962304E2,2.3468054E1,2.3802782E1,2.3247019E1,1.7543436E2,6.20796E2,1.0754601E1,1.2713452E1,1.30476055E1,1.07551775E1,2.0293344E1,2.9536743E0,1.5034277E2,2.509159E1,3.270081E2,2.9378793E2,6.52876E0,4.2258406E0,4.2228785E0,8.490575E0,1.0140595E1,2.9070096E0,4.8873405E0,5.867837E0,5.0353575E0,1.5257987E1,1.4344095E0,1.5192649E0,1.25175415E2,2.5167353E1,1.5034054E1,1.0057537E1,3.2174765E2,5.260454E0,2.4008556E2,5.3702393E1,2.57799E0,1.6478503E0,3.162198E0,1.0606802E0,7.2138844E0,1.2766902E0,8.430226E0,1.7103697E0,1.1403022E0,1.7667074E0,1.0209876E0,3.8663528E0,2.0751863E0,3.7926507E0,2.7573488E0,2.2780085E0,1.3016525E1,2.2414613E0,1.16589325E2,8.586091E0,1.9308346E1,5.8590064E0,6.9778233E0,8.056231E0,4.8388104E0,5.2187266E0,2.5501186E2,6.6735794E1,4.0323143E0,1.2281395E0,6.6563614E1,1.7352193E2,2.4598043E1,2.9104347E1,1.1222824E0,1.4557077E0,2.0730512E0,5.140833E0,6.2358446E0,2.1943815E0,1.4238387E0,2.368812E0,1.0030288E0,1.75432E0,1.1758361E0,1.1021724E0,1.1982623E1,1.0339025E0,1.1509962E0,1.0904651E0],"tree_param":{"num_deleted":"0","num_feature":"145","num_nodes":"89","size_leaf_vector":"1"}},{"base_weights":[1.104507E-2,-4.270352E-2,2.011336E-1,-1.0891746E-1,1.9741009E-1,-1.239496E-1,3.168092E-1,-1.6735493E-1,1.8172112E-1,5.037424E-2,5.205118E-1,-6.828639E-1,1.4172234E-1,1.8900575E-1,7.176219E-1,-2.1789484E-1,1.5154935E-1,-1.5090595E-1,5.4260486E-1,1.7251995E-1,-4.9200916E-1,1.1039978E-1,8.3837986E-1,2.3732363E-1,-8.36041E-1,-3.727006E-2,9.3506265E-1,-2.1975042E-2,4.0148857E-1,-1.7969283E-1,8.035092E-1,-4.046381E-3,-3.297252E-1,-4.884914E-1,3.7519515E-1,-4.032361E-1,5.05884E-1,6.741326E-1,-5.4825485E-1,-3.0224863E-1,2.1875042E-1,-7.51958E-1,6.5269786E-1,-1.7399468E-1,1.0768826E0,9.8053396E-1,-2.846924E-1,-9.725864E-1,1.5287927E-1,-4.7059944E-1,5.938296E-1,-2.0541848E-1,4.1406468E-1,4.1493067E-1,-2.99079E-1,7.5648546E-1,-5.0443992E-2,1.12487555E-1,9.906717E-1,-4.6884958E-2,1.5294138E-1,-8.6753204E-2,-2.842865E-1,-2.3988208E-1,2.3969759E-1,-7.281463E-2,1.9401976E-1,-1.8033937E-1,1.8287477E-1,3.1023204E-1,1.8664676E-3,1.6607905E-2,2.6515362E-1,-2.7119964E-1,3.490653E-2,3.429606E-2,2.2951968E-1,3.9660316E-2,-3.4735453E-1,-3.6372326E-2,2.8827083E-1,-1.6516906E-1,2.4893947E-1,3.690193E-1,7.561047E-2,4.0538278E-1,1.2969932E-1,-3.286221E-1,6.2935375E-2,-2.1476336E-1,2.0440894E-1,3.154551E-1,-1.4618282E-2,-1.3537279E-1,2.3760155E-1,2.0340931E-1,-1.5313777E-1,2.758193E-1,-5.41648E-2,-2.8210825E-1,1.1271196E-1,-2.3996395E-1,1.5476552E-1,3.4631038E-1,3.364406E-2],"categories":[],"categories_nodes":[],"categories_segments":[],"categories_sizes":[],"default_left":[0,0,0,0,0,0,0,0,0,0,0,0,0,0,0,0,0,0,0,0,0,0,0,0,0,0,0,0,0,0,0,0,0,0,0,0,0,0,0,0,0,0,0,0,0,0,0,0,0,0,0,0,0,0,0,0,0,0,0,0,0,0,0,0,0,0,0,0,0,0,0,0,0,0,0,0,0,0,0,0,0,0,0,0,0,0,0,0,0,0,0,0,0,0,0,0,0,0,0,0,0,0,0,0,0],"id":9,"left_children":[1,3,5,7,9,11,13,15,17,19,21,23,25,27,29,31,33,35,37,39,41,43,45,-1,47,49,51,53,55,-1,57,59,61,63,65,67,69,71,73,-1,75,77,79,81,83,85,-1,87,-1,89,91,-1,-1,93,95,97,99,101,103,-1,-1,-1,-1,-1,-1,-1,-1,-1,-1,-1,-1,-1,-1,-1,-1,-1,-1,-1,-1,-1,-1,-1,-1,-1,-1,-1,-1,-1,-1,-1,-1,-1,-1,-1,-1,-1,-1,-1,-1,-1,-1,-1,-1,-1,-1],"loss_changes":[8.736593E0,1.0622623E1,7.12687E0,8.918251E0,6.8378487E0,7.548557E0,6.9997644E0,7.063717E0,1.0655365E1,6.736595E0,5.784173E0,4.350685E0,4.982726E0,4.8044844E0,4.249037E0,9.013412E0,8.80966E0,7.92997E0,6.462369E0,4.731293E0,6.0596075E0,5.9143124E0,7.344639E0,0E0,3.304762E0,8.31718E0,5.59772E0,6.737486E0,8.59729E0,0E0,3.9892426E0,1.0284331E1,5.9270363E0,7.0635786E0,7.7450624E0,7.2283745E0,3.5257025E0,4.926775E0,1.3158665E0,0E0,4.4991107E0,5.7930517E0,1.0703167E0,6.8674827E0,3.0609846E-1,4.2685127E0,0E0,2.295392E0,0E0,5.569153E0,3.7000966E0,0E0,0E0,7.4183073E0,7.3698854E0,4.7367325E0,9.609707E0,3.31487E0,3.440052E0,0E0,0E0,0E0,0E0,0E0,0E0,0E0,0E0,0E0,0E0,0E0,0E0,0E0,0E0,0E0,0E0,0E0,0E0,0E0,0E0,0E0,0E0,0E0,0E0,0E0,0E0,0E0,0E0,0E0,0E0,0E0,0E0,0E0,0E0,0E0,0E0,0E0,0E0,0E0,0E0,0E0,0E0,0E0,0E0,0E0,0E0],"parents":[2147483647,0,0,1,1,2,2,3,3,4,4,5,5,6,6,7,7,8,8,9,9,10,10,11,11,12,12,13,13,14,14,15,15,16,16,17,17,18,18,19,19,20,20,21,21,22,22,24,24,25,25,26,26,27,27,28,28,30,30,31,31,32,32,33,33,34,34,35,35,36,36,37,37,38,38,40,40,41,41,42,42,43,43,44,44,45,45,47,47,49,49,50,50,53,53,54,54,55,55,56,56,57,57,58,58],"right_children":[2,4,6,8,10,12,14,16,18,20,22,24,26,28,30,32,34,36,38,40,42,44,46,-1,48,50,52,54,56,-1,58,60,62,64,66,68,70,72,74,-1,76,78,80,82,84,86,-1,88,-1,90,92,-1,-1,94,96,98,100,102,104,-1,-1,-1,-1,-1,-1,-1,-1,-1,-1,-1,-1,-1,-1,-1,-1,-1,-1,-1,-1,-1,-1,-1,-1,-1,-1,-1,-1,-1,-1,-1,-1,-1,-1,-1,-1,-1,-1,-1,-1,-1,-1,-1,-1,-1,-1],"split_conditions":[1E4,1E4,6E3,1.2E4,1.2E4,6E3,1E4,1.2E4,8E3,1E4,8E3,2E3,1.2E4,8E3,4E3,6E3,6E3,1E4,1.2E4,4E3,1E4,1E4,1.4E4,2.3732363E-1,1.2E4,8E3,6E3,6E3,8E3,-1.7969283E-1,6E3,1E4,1.4E4,1.4E4,6E3,1E4,8E3,6E3,8E3,-3.0224863E-1,1.2E4,6E3,6E3,1.2E4,1.4E4,8E3,-2.846924E-1,1.4E4,1.5287927E-1,1.2E4,8E3,-2.0541848E-1,4.1406468E-1,6E3,6E3,1.4E4,6E3,6E3,1.2E4,-4.6884958E-2,1.5294138E-1,-8.6753204E-2,-2.842865E-1,-2.3988208E-1,2.3969759E-1,-7.281463E-2,1.9401976E-1,-1.8033937E-1,1.8287477E-1,3.1023204E-1,1.8664676E-3,1.6607905E-2,2.6515362E-1,-2.7119964E-1,3.490653E-2,3.429606E-2,2.2951968E-1,3.9660316E-2,-3.4735453E-1,-3.6372326E-2,2.8827083E-1,-1.6516906E-1,2.4893947E-1,3.690193E-1,7.561047E-2,4.0538278E-1,1.2969932E-1,-3.286221E-1,6.2935375E-2,-2.1476336E-1,2.0440894E-1,3.154551E-1,-1.4618282E-2,-1.3537279E-1,2.3760155E-1,2.0340931E-1,-1.5313777E-1,2.758193E-1,-5.41648E-2,-2.8210825E-1,1.1271196E-1,-2.3996395E-1,1.5476552E-1,3.4631038E-1,3.364406E-2],"split_indices":[26,53,81,96,56,34,45,19,126,20,48,41,139,144,63,18,14,138,136,115,72,76,97,0,83,92,17,142,135,0,66,107,13,20,143,25,134,14,61,0,33,133,35,59,52,81,0,46,0,106,127,0,0,3,141,29,88,98,120,0,0,0,0,0,0,0,0,0,0,0,0,0,0,0,0,0,0,0,0,0,0,0,0,0,0,0,0,0,0,0,0,0,0,0,0,0,0,0,0,0,0,0,0,0,0],"split_type":[0,0,0,0,0,0,0,0,0,0,0,0,0,0,0,0,0,0,0,0,0,0,0,0,0,0,0,0,0,0,0,0,0,0,0,0,0,0,0,0,0,0,0,0,0,0,0,0,0,0,0,0,0,0,0,0,0,0,0,0,0,0,0,0,0,0,0,0,0,0,0,0,0,0,0,0,0,0,0,0,0,0,0,0,0,0,0,0,0,0,0,0,0,0,0,0,0,0,0,0,0,0,0,0,0],"sum_hessian":[8.5326373E2,6.657847E2,1.8747902E2,5.2230096E2,1.4348378E2,4.918444E1,1.3829457E2,4.3521777E2,8.7083206E1,9.940352E1,4.408025E1,1.5340705E1,3.3843735E1,1.0597489E2,3.231968E1,3.7595343E2,5.9264317E1,4.5618458E1,4.1464752E1,8.168895E1,1.7714573E1,1.9835669E1,2.4244583E1,1.0521308E0,1.4288574E1,2.8391178E1,5.452559E0,5.362527E1,5.234962E1,1.6133924E0,3.0706287E1,1.2944926E2,2.4650418E2,1.503945E1,4.422487E1,3.323576E1,1.2382696E1,3.7344097E1,4.1206555E0,2.295832E0,7.939311E1,1.4715879E1,2.9986944E0,1.59594555E1,3.8762124E0,2.2876543E1,1.3680406E0,1.3223938E1,1.0646368E0,1.6983906E1,1.1407271E1,1.0594221E0,4.393137E0,2.0618694E1,3.3006577E1,2.8941742E1,2.3407877E1,6.8854775E0,2.382081E1,1.0039998E2,2.904929E1,2.3270172E2,1.3802451E1,1.2417697E1,2.6217518E0,1.3533706E1,3.0691164E1,2.8143305E1,5.092456E0,5.4993725E0,6.883324E0,9.772775E0,2.7571321E1,2.4493852E0,1.6712703E0,6.766747E1,1.1725641E1,4.8422356E0,9.873644E0,1.0268285E0,1.9718661E0,1.1933986E1,4.02547E0,2.85479E0,1.0214225E0,1.27732525E1,1.0103291E1,1.2046174E1,1.1777639E0,1.4314573E1,2.6693325E0,6.290296E0,5.116976E0,6.1939507E0,1.4424745E1,5.477779E0,2.7528795E1,2.4671242E1,4.2705E0,7.1888943E0,1.6218983E1,1.8096715E0,5.075806E0,1.9814732E1,4.0060787E0],"tree_param":{"num_deleted":"0","num_feature":"145","num_nodes":"105","size_leaf_vector":"1"}},{"base_weights":[1.0872284E-2,-4.8507373E-3,5.652744E-1,-5.879832E-2,1.6111721E-1,-2.5064918E-1,8.1513137E-1,-7.7705875E-2,6.0435176E-1,-1.4125597E-1,2.77776E-1,-7.8672856E-1,2.0490985E-1,4.090661E-2,1.0769103E0,-9.351094E-2,5.874584E-1,-2.8813088E-1,7.889603E-1,-3.9637068E-1,3.1738022E-1,3.361807E-1,-4.9866676E-1,-3.4715855E-1,3.1786487E-2,-7.13264E-1,3.014024E-1,-4.381223E-2,1.1936617E0,-1.182976E-1,3.212274E-1,-3.319969E-1,8.232205E-1,1.3540043E-1,-2.3906209E-1,7.15379E-2,1.0397274E0,-5.458489E-3,-6.5122646E-1,-6.619252E-1,6.007119E-1,6.2353784E-1,2.1884575E-1,-1.0984092E0,3.2663918E-1,-3.0826554E-1,-1.039481E-2,4.0558577E-2,1.3710128E0,-3.9415352E-2,1.956511E-1,2.1319427E-1,-7.4343264E-2,1.2506013E-1,-2.5898853E-1,1.1270352E-2,3.131155E-1,2.2086139E-1,-1.970528E-1,4.404702E-2,3.7200192E-1,-1.4878972E-1,2.1451534E-1,-3.2538155E-1,-3.357543E-2,2.74353E-2,-3.6117202E-1,2.506534E-1,-1.122814E-1,8.944794E-2,3.003358E-1,-2.3812819E-1,8.185679E-2,-8.670762E-2,-4.1642874E-1,-1.4582884E-1,2.1914257E-1,1.1751251E-1,4.319553E-1],"categories":[],"categories_nodes":[],"categories_segments":[],"categories_sizes":[],"default_left":[0,0,0,0,0,0,0,0,0,0,0,0,0,0,0,0,0,0,0,0,0,0,0,0,0,0,0,0,0,0,0,0,0,0,0,0,0,0,0,0,0,0,0,0,0,0,0,0,0,0,0,0,0,0,0,0,0,0,0,0,0,0,0,0,0,0,0,0,0,0,0,0,0,0,0,0,0,0,0],"id":10,"left_children":[1,3,5,7,9,11,13,15,17,19,21,23,-1,25,27,29,31,33,35,37,39,41,43,-1,-1,45,-1,-1,47,49,51,53,55,-1,-1,57,59,61,63,65,67,69,71,73,75,-1,-1,-1,77,-1,-1,-1,-1,-1,-1,-1,-1,-1,-1,-1,-1,-1,-1,-1,-1,-1,-1,-1,-1,-1,-1,-1,-1,-1,-1,-1,-1,-1,-1],"loss_changes":[7.295917E0,7.302967E0,4.909995E0,7.7643805E0,7.097485E0,3.6287038E0,3.5851126E0,6.355558E0,3.0572882E0,6.7213016E0,6.7306376E0,1.5738297E0,0E0,4.760814E0,2.0793428E0,6.0648637E0,3.3183823E0,1.7427216E0,2.5342321E0,3.6493526E0,6.1421556E0,4.422017E0,5.5695715E0,0E0,0E0,7.548703E-1,0E0,0E0,2.121439E0,5.67109E0,7.562195E0,1.784036E0,1.9474211E0,0E0,0E0,2.8216505E0,1.7261267E0,5.825128E0,5.0643034E0,2.201301E0,4.108714E0,4.4509068E0,5.5511465E0,1.0820746E0,2.0622253E0,0E0,0E0,0E0,1.3814926E-1,0E0,0E0,0E0,0E0,0E0,0E0,0E0,0E0,0E0,0E0,0E0,0E0,0E0,0E0,0E0,0E0,0E0,0E0,0E0,0E0,0E0,0E0,0E0,0E0,0E0,0E0,0E0,0E0,0E0,0E0],"parents":[2147483647,0,0,1,1,2,2,3,3,4,4,5,5,6,6,7,7,8,8,9,9,10,10,11,11,13,13,14,14,15,15,16,16,17,17,18,18,19,19,20,20,21,21,22,22,25,25,28,28,29,29,30,30,31,31,32,32,35,35,36,36,37,37,38,38,39,39,40,40,41,41,42,42,43,43,44,44,48,48],"right_children":[2,4,6,8,10,12,14,16,18,20,22,24,-1,26,28,30,32,34,36,38,40,42,44,-1,-1,46,-1,-1,48,50,52,54,56,-1,-1,58,60,62,64,66,68,70,72,74,76,-1,-1,-1,78,-1,-1,-1,-1,-1,-1,-1,-1,-1,-1,-1,-1,-1,-1,-1,-1,-1,-1,-1,-1,-1,-1,-1,-1,-1,-1,-1,-1,-1,-1],"split_conditions":[1.8E4,1E4,6E3,1.8E4,6E3,8E3,6E3,1.8E4,6E3,1E4,1.8E4,1E4,2.0490985E-1,8E3,6E3,1.4E4,6E3,6E3,6E3,6E3,6E3,6E3,8E3,-3.4715855E-1,3.1786487E-2,8E3,3.014024E-1,-4.381223E-2,6E3,2E4,8E3,8E3,6E3,1.3540043E-1,-2.3906209E-1,1.2E4,6E3,8E3,8E3,8E3,1E4,8E3,4E3,8E3,6E3,-3.0826554E-1,-1.039481E-2,4.0558577E-2,4E3,-3.9415352E-2,1.956511E-1,2.1319427E-1,-7.4343264E-2,1.2506013E-1,-2.5898853E-1,1.1270352E-2,3.131155E-1,2.2086139E-1,-1.970528E-1,4.404702E-2,3.7200192E-1,-1.4878972E-1,2.1451534E-1,-3.2538155E-1,-3.357543E-2,2.74353E-2,-3.6117202E-1,2.506534E-1,-1.122814E-1,8.944794E-2,3.003358E-1,-2.3812819E-1,8.185679E-2,-8.670762E-2,-4.1642874E-1,-1.4582884E-1,2.1914257E-1,1.1751251E-1,4.319553E-1],"split_indices":[92,142,15,129,120,24,133,97,97,138,141,68,0,56,89,84,59,100,33,117,64,130,105,0,0,41,0,0,139,15,133,43,105,0,0,132,4,81,96,60,1,16,83,112,52,0,0,0,122,0,0,0,0,0,0,0,0,0,0,0,0,0,0,0,0,0,0,0,0,0,0,0,0,0,0,0,0,0,0],"split_type":[0,0,0,0,0,0,0,0,0,0,0,0,0,0,0,0,0,0,0,0,0,0,0,0,0,0,0,0,0,0,0,0,0,0,0,0,0,0,0,0,0,0,0,0,0,0,0,0,0,0,0,0,0,0,0,0,0,0,0,0,0,0,0,0,0,0,0,0,0,0,0,0,0,0,0,0,0,0,0],"sum_hessian":[8.3567303E2,8.135906E2,2.208244E1,6.144956E2,1.9909497E2,5.1761684E0,1.6906271E1,5.9831934E2,1.6176292E1,5.536948E1,1.437255E2,3.3882022E0,1.7879661E0,4.564066E0,1.2342204E1,5.85272E2,1.3047318E1,2.6764307E0,1.3499863E1,3.5666103E1,1.9703377E1,1.3419803E2,9.527463E0,2.1850774E0,1.2031246E0,2.7062693E0,1.8577968E0,1.053728E0,1.1288476E1,5.529405E2,3.2331486E1,2.5794528E0,1.0467866E1,1.1368474E0,1.5395832E0,3.8294435E0,9.670419E0,1.4478927E1,2.1187176E1,4.1215305E0,1.5581847E1,3.7658047E1,9.653998E1,5.326113E0,4.20135E0,1.4982105E0,1.2080588E0,1.8729051E0,9.415571E0,5.4452094E2,8.419573E0,1.9047508E1,1.32839775E1,1.159923E0,1.4195297E0,2.55052E0,7.9173455E0,1.9966788E0,1.8327646E0,2.0892045E0,7.5812144E0,8.799836E0,5.67909E0,1.11866665E1,1.0000509E1,2.0722644E0,2.049266E0,1.2672948E1,2.9088988E0,2.1188591E1,1.6469456E1,4.1949396E0,9.234504E1,1.9303727E0,3.3957403E0,1.327005E0,2.874345E0,1.0577732E0,8.357798E0],"tree_param":{"num_deleted":"0","num_feature":"145","num_nodes":"79","size_leaf_vector":"1"}},{"base_weights":[9.322403E-3,6.145989E-1,-4.846209E-3,1.505974E-1,3.6634353E-1,-1.7199151E-1,4.8665658E-2,-4.0402612E-1,7.291591E-1,-2.4492738E-1,2.6254082E-1,2.0700403E-2,5.348141E-1,-3.257821E-1,3.7571877E-1,-1.0295846E-1,3.6589998E-1,-2.8836316E-1,5.0904775E-1,-4.6599236E-1,4.7569108E-1,-1.8096201E-1,9.43568E-2,7.3521954E-1,-2.0997912E-1,2.6311582E-1,-1.1756957E-1,1.6956007E-1,-2.164738E-1,-3.7345868E-1,1.7729357E-1,9.024329E-1,-5.618999E-1,-9.214455E-1,1.372272E-1,6.306611E-1,-5.6716317E-1,-5.3751206E-1,-3.0745592E-2,6.447419E-2,5.9728175E-1,1.8985446E-1,1.0819515E0,-6.7010486E-1,6.499146E-1,-1.21521436E-1,2.6336607E-1,1.7560561E-1,-1.1894157E-1,4.0798196E-1,-5.33933E-3,-2.3039153E-1,-1.8536478E-2,-2.2421384E-2,-3.3784562E-1,-2.2521004E-1,2.3674832E-1,-2.8432623E-1,3.6324326E-2,-2.6362282E-1,-5.4804932E-2,-4.8675414E-2,1.20529465E-1,1.4488246E-4,8.528877E-2,-4.6964962E-2,2.6365164E-1,-7.023257E-2,2.8220412E-1,3.7997398E-1,7.0536286E-2,-3.6579853E-1,3.3233808E-3,2.8854325E-1,5.2969987E-3],"categories":[],"categories_nodes":[],"categories_segments":[],"categories_sizes":[],"default_left":[0,0,0,0,0,0,0,0,0,0,0,0,0,0,0,0,0,0,0,0,0,0,0,0,0,0,0,0,0,0,0,0,0,0,0,0,0,0,0,0,0,0,0,0,0,0,0,0,0,0,0,0,0,0,0,0,0,0,0,0,0,0,0,0,0,0,0,0,0,0,0,0,0,0,0],"id":11,"left_children":[1,3,5,7,-1,9,11,13,15,17,19,21,23,-1,25,27,-1,29,31,33,35,37,39,41,43,-1,-1,-1,-1,45,47,49,51,53,-1,55,57,59,61,63,65,67,69,71,73,-1,-1,-1,-1,-1,-1,-1,-1,-1,-1,-1,-1,-1,-1,-1,-1,-1,-1,-1,-1,-1,-1,-1,-1,-1,-1,-1,-1,-1,-1],"loss_changes":[7.078319E0,5.1292734E0,7.227681E0,4.0928555E0,0E0,6.2749352E0,8.311713E0,3.9635663E0,2.6357346E0,5.659025E0,4.6702285E0,8.631092E0,5.1187067E0,0E0,1.8301795E0,1.7317208E0,0E0,6.397746E0,4.521982E0,3.3610768E0,4.0194473E0,8.311481E0,6.355197E0,4.7923374E0,3.5333931E0,0E0,0E0,0E0,0E0,5.712572E0,6.1710434E0,3.1201062E0,2.7990866E-1,7.846384E-1,0E0,5.0151176E0,1.0205137E0,5.412709E0,6.3479066E0,5.664414E0,5.176202E0,3.8762498E0,2.1951046E0,2.1058939E0,6.213256E-1,0E0,0E0,0E0,0E0,0E0,0E0,0E0,0E0,0E0,0E0,0E0,0E0,0E0,0E0,0E0,0E0,0E0,0E0,0E0,0E0,0E0,0E0,0E0,0E0,0E0,0E0,0E0,0E0,0E0,0E0],"parents":[2147483647,0,0,1,1,2,2,3,3,5,5,6,6,7,7,8,8,9,9,10,10,11,11,12,12,14,14,15,15,17,17,18,18,19,19,20,20,21,21,22,22,23,23,24,24,29,29,30,30,31,31,32,32,33,33,35,35,36,36,37,37,38,38,39,39,40,40,41,41,42,42,43,43,44,44],"right_children":[2,4,6,8,-1,10,12,14,16,18,20,22,24,-1,26,28,-1,30,32,34,36,38,40,42,44,-1,-1,-1,-1,46,48,50,52,54,-1,56,58,60,62,64,66,68,70,72,74,-1,-1,-1,-1,-1,-1,-1,-1,-1,-1,-1,-1,-1,-1,-1,-1,-1,-1,-1,-1,-1,-1,-1,-1,-1,-1,-1,-1,-1,-1],"split_conditions":[2E3,1.2E4,6E3,8E3,3.6634353E-1,1.2E4,1.4E4,8E3,8E3,1.4E4,8E3,6E3,1.2E4,-3.257821E-1,8E3,8E3,3.6589998E-1,1.2E4,1E4,1E4,1E4,6E3,1.4E4,8E3,8E3,2.6311582E-1,-1.1756957E-1,1.6956007E-1,-2.164738E-1,2E4,8E3,8E3,1E4,8E3,1.372272E-1,4E3,8E3,8E3,1E4,1E4,6E3,1.4E4,1.2E4,8E3,6E3,-1.21521436E-1,2.6336607E-1,1.7560561E-1,-1.1894157E-1,4.0798196E-1,-5.33933E-3,-2.3039153E-1,-1.8536478E-2,-2.2421384E-2,-3.3784562E-1,-2.2521004E-1,2.3674832E-1,-2.8432623E-1,3.6324326E-2,-2.6362282E-1,-5.4804932E-2,-4.8675414E-2,1.20529465E-1,1.4488246E-4,8.528877E-2,-4.6964962E-2,2.6365164E-1,-7.023257E-2,2.8220412E-1,3.7997398E-1,7.0536286E-2,-3.6579853E-1,3.3233808E-3,2.8854325E-1,5.2969987E-3],"split_indices":[144,142,144,67,0,28,74,15,78,68,26,128,41,0,76,131,0,22,78,77,122,96,84,109,114,0,0,0,0,108,57,130,118,30,0,106,44,5,51,103,122,76,56,86,8,0,0,0,0,0,0,0,0,0,0,0,0,0,0,0,0,0,0,0,0,0,0,0,0,0,0,0,0,0,0],"split_type":[0,0,0,0,0,0,0,0,0,0,0,0,0,0,0,0,0,0,0,0,0,0,0,0,0,0,0,0,0,0,0,0,0,0,0,0,0,0,0,0,0,0,0,0,0,0,0,0,0,0,0,0,0,0,0,0,0,0,0,0,0,0,0,0,0,0,0,0,0,0,0,0,0,0,0],"sum_hessian":[8.240235E2,1.7878647E1,8.0614484E2,1.0836854E1,7.0417924E0,1.9496233E2,6.111825E2,5.6869116E0,5.149942E0,1.67315E2,2.7647333E1,5.7892303E2,3.2259453E1,2.8242874E0,2.8626244E0,2.2029178E0,2.9470243E0,1.5878508E2,8.529916E0,5.9894805E0,2.1657852E1,1.5449028E2,4.2443277E2,2.5429783E1,6.829672E0,1.6454256E0,1.2171988E0,1.1005704E0,1.1023473E0,1.3441895E2,2.4366129E1,6.3534784E0,2.176437E0,4.01253E0,1.9769503E0,1.919996E1,2.4578927E0,4.502997E1,1.0946031E2,4.016933E2,2.2739466E1,1.0485298E1,1.4944484E1,4.5927963E0,2.2368753E0,1.3176643E2,2.6525247E0,1.4227456E1,1.0138673E1,3.9245186E0,2.4289598E0,1.1620227E0,1.0144142E0,1.0470052E0,2.965525E0,1.5916975E0,1.7608263E1,1.3398892E0,1.1180035E0,2.2202156E1,2.2827812E1,8.441776E1,2.5042547E1,3.1189984E2,8.979347E1,6.30436E0,1.6435106E1,7.141156E0,3.3441424E0,1.1862514E1,3.08197E0,2.1053114E0,2.487485E0,1.1488903E0,1.087985E0],"tree_param":{"num_deleted":"0","num_feature":"145","num_nodes":"75","size_leaf_vector":"1"}},{"base_weights":[8.116488E-3,-5.5906996E-3,5.456767E-1,-1.4153759E-1,4.774444E-2,6.859167E-1,-3.0841407E-1,-2.2862944E-1,1.8870285E-1,-1.1288112E-1,1.1115241E-1,-1.7696065E-1,8.057489E-1,9.1030195E-2,-2.585687E-1,-4.0399113E-1,-5.6527577E-2,7.906516E-2,1.0216206E0,2.3210819E-1,-2.1904552E-1,2.2938582E-1,-2.4647586E-2,-1.297055E-1,9.3651515E-1,-5.497481E-1,1.4924759E-1,2.2799411E-1,-2.9121634E-1,6.000807E-1,-1.0210923E-1,-2.2027304E-2,3.9042458E-1,4.2795882E-1,-4.8264867E-1,-3.1801003E-1,3.217634E-1,1.5002863E-1,5.889382E-1,-2.2775182E-1,1.7004873E-1,1.0412048E0,-5.1417157E-2,-1.8223524E-1,1.8934731E-1,-1.901736E-1,1.395487E-1,1.2062304E-1,-1.3649324E-1,-1.3721798E-1,1.6981293E-1,-1.6381544E-1,2.4204785E-1,-1.9127809E-1,3.180628E-2,5.4337443E-3,2.4755408E-1,-3.0374333E-1,5.497573E-2,-1.4111964E-1,4.74173E-2,-1.3254963E-1,1.8597525E-1,3.1198045E-2,2.632623E-1,-2.4845608E-1,2.0419477E-1,2.34231E-1,-8.4037334E-2,-2.0407269E-2,1.16386E-1,8.078571E-2,3.455477E-1],"categories":[],"categories_nodes":[],"categories_segments":[],"categories_sizes":[],"default_left":[0,0,0,0,0,0,0,0,0,0,0,0,0,0,0,0,0,0,0,0,0,0,0,0,0,0,0,0,0,0,0,0,0,0,0,0,0,0,0,0,0,0,0,0,0,0,0,0,0,0,0,0,0,0,0,0,0,0,0,0,0,0,0,0,0,0,0,0,0,0,0,0,0],"id":12,"left_children":[1,3,5,7,9,11,13,15,17,19,21,-1,23,-1,-1,25,27,29,31,33,35,37,39,-1,41,43,45,47,49,51,53,-1,-1,55,57,59,61,63,65,67,69,71,-1,-1,-1,-1,-1,-1,-1,-1,-1,-1,-1,-1,-1,-1,-1,-1,-1,-1,-1,-1,-1,-1,-1,-1,-1,-1,-1,-1,-1,-1,-1],"loss_changes":[6.0036497E0,5.771869E0,2.6381488E0,6.4941196E0,5.8364167E0,3.1831045E0,1.4627687E0,5.347372E0,4.2436533E0,5.996472E0,6.5963025E0,0E0,3.0947218E0,0E0,0E0,7.1759796E0,6.1406193E0,4.1136985E0,1.7575378E0,5.622023E0,6.773679E0,6.175438E0,7.6290846E0,0E0,1.9579878E0,5.1424847E0,5.0280366E0,5.1382837E0,7.422762E0,3.099729E0,3.712981E0,0E0,0E0,5.014833E0,3.2869189E0,7.754998E0,4.776901E0,5.976588E0,5.6778574E0,5.20341E0,5.140207E0,8.98901E-1,0E0,0E0,0E0,0E0,0E0,0E0,0E0,0E0,0E0,0E0,0E0,0E0,0E0,0E0,0E0,0E0,0E0,0E0,0E0,0E0,0E0,0E0,0E0,0E0,0E0,0E0,0E0,0E0,0E0,0E0,0E0],"parents":[2147483647,0,0,1,1,2,2,3,3,4,4,5,5,6,6,7,7,8,8,9,9,10,10,12,12,15,15,16,16,17,17,18,18,19,19,20,20,21,21,22,22,24,24,25,25,26,26,27,27,28,28,29,29,30,30,33,33,34,34,35,35,36,36,37,37,38,38,39,39,40,40,41,41],"right_children":[2,4,6,8,10,12,14,16,18,20,22,-1,24,-1,-1,26,28,30,32,34,36,38,40,-1,42,44,46,48,50,52,54,-1,-1,56,58,60,62,64,66,68,70,72,-1,-1,-1,-1,-1,-1,-1,-1,-1,-1,-1,-1,-1,-1,-1,-1,-1,-1,-1,-1,-1,-1,-1,-1,-1,-1,-1,-1,-1,-1,-1],"split_conditions":[1.8E4,6E3,1.2E4,1E4,6E3,4E3,8E3,8E3,1.2E4,6E3,8E3,-1.7696065E-1,4E3,9.1030195E-2,-2.585687E-1,1E4,8E3,6E3,6E3,1.2E4,1.2E4,1.2E4,8E3,-1.297055E-1,1.4E4,1.4E4,6E3,1E4,1.2E4,4E3,6E3,-2.2027304E-2,3.9042458E-1,8E3,8E3,1E4,6E3,1.4E4,4E3,4E3,8E3,6E3,-5.1417157E-2,-1.8223524E-1,1.8934731E-1,-1.901736E-1,1.395487E-1,1.2062304E-1,-1.3649324E-1,-1.3721798E-1,1.6981293E-1,-1.6381544E-1,2.4204785E-1,-1.9127809E-1,3.180628E-2,5.4337443E-3,2.4755408E-1,-3.0374333E-1,5.497573E-2,-1.4111964E-1,4.74173E-2,-1.3254963E-1,1.8597525E-1,3.1198045E-2,2.632623E-1,-2.4845608E-1,2.0419477E-1,2.34231E-1,-8.4037334E-2,-2.0407269E-2,1.16386E-1,8.078571E-2,3.455477E-1],"split_indices":[93,69,141,27,120,6,133,8,79,72,136,0,119,0,0,39,11,94,9,14,63,32,97,0,44,74,22,22,22,88,45,0,0,10,126,74,4,126,108,73,26,17,0,0,0,0,0,0,0,0,0,0,0,0,0,0,0,0,0,0,0,0,0,0,0,0,0,0,0,0,0,0,0],"split_type":[0,0,0,0,0,0,0,0,0,0,0,0,0,0,0,0,0,0,0,0,0,0,0,0,0,0,0,0,0,0,0,0,0,0,0,0,0,0,0,0,0,0,0,0,0,0,0,0,0,0,0,0,0,0,0,0,0,0,0,0,0,0,0,0,0,0,0,0,0,0,0,0,0],"sum_hessian":[8.1336505E2,7.9410583E2,1.9259216E1,2.2329402E2,5.708118E2,1.6712038E1,2.547179E0,1.7693892E2,4.635509E1,1.6133543E2,4.094764E2,1.0981536E0,1.5613884E1,1.4243731E0,1.1228058E0,8.6972084E1,8.996684E1,4.193065E1,4.4244423E0,3.7685905E1,1.2364953E2,2.185276E2,1.909488E2,1.2712593E0,1.4342625E1,6.8841354E1,1.8130728E1,4.0678883E1,4.928796E1,1.0222096E1,3.1708551E1,1.0505263E0,3.373916E0,2.989549E1,7.7904153E0,1.0487082E2,1.8778708E1,1.8017766E2,3.8349937E1,9.337336E1,9.757545E1,1.3159357E1,1.1832669E0,6.609725E1,2.744105E0,4.922112E0,1.3208615E1,3.2744038E1,7.934846E0,4.167571E1,7.6122518E0,1.3113275E0,8.910769E0,8.297367E0,2.3411184E1,1.52285385E1,1.4666951E1,4.0486298E0,3.741785E0,7.945066E1,2.5420164E1,5.138002E0,1.3640705E1,1.7052989E2,9.647759E0,1.8429021E0,3.650704E1,3.9229243E0,8.945044E1,4.6958496E1,5.0616955E1,2.0799117E0,1.1079446E1],"tree_param":{"num_deleted":"0","num_feature":"145","num_nodes":"73","size_leaf_vector":"1"}},{"base_weights":[6.6223694E-3,-1.2058846E-2,3.525635E-1,1.22229785E-1,-6.471552E-2,3.8982965E-2,6.617476E-1,7.365186E-2,8.5425353E-1,-1.6195208E-1,4.1593086E-2,-1.8823612E-1,7.7684397E-1,7.998416E-1,-2.0965166E-1,2.0029685E-2,7.9659384E-1,1.0055447E0,-1.0667381E-1,-4.063964E-1,-7.795534E-2,7.2336704E-1,5.905997E-3,-3.6921582E-1,2.69207E-1,4.9720244E-3,3.060211E-1,8.189481E-2,1.0421854E0,1.23615675E-1,-2.6805013E-1,-6.177575E-2,4.6688464E-1,-5.7855963E-5,1.0268688E0,1.1650498E0,1.0089875E-2,-5.769879E-1,2.0207414E-1,-6.4734425E-3,-4.5403647E-1,9.959093E-1,-2.1740471E-1,-7.210508E-1,4.2199366E-2,-5.5260646E-1,1.9187696E-1,2.3077704E-1,-5.1548487E-1,1.2111131E0,5.5408858E-2,-5.1196743E-2,1.0216457E-1,1.7550066E-1,-1.0536976E-1,-1.8366279E-1,2.1989442E-1,6.933843E-2,3.7532863E-1,3.8741657E-1,-9.92911E-4,-2.10515E-1,1.3901335E-2,-2.028482E-1,1.519934E-1,7.006353E-3,-2.882037E-1,2.732151E-1,-1.671904E-1,-3.4781538E-2,3.395798E-1,5.265897E-2,-3.1404546E-1,-2.9505031E-2,5.842478E-2,-3.1278622E-1,-2.182744E-2,-2.8457394E-1,3.8417958E-2,3.8429344E-1,7.783048E-2,-1.1571951E-1,1.4076647E-1],"categories":[],"categories_nodes":[],"categories_segments":[],"categories_sizes":[],"default_left":[0,0,0,0,0,0,0,0,0,0,0,0,0,0,0,0,0,0,0,0,0,0,0,0,0,0,0,0,0,0,0,0,0,0,0,0,0,0,0,0,0,0,0,0,0,0,0,0,0,0,0,0,0,0,0,0,0,0,0,0,0,0,0,0,0,0,0,0,0,0,0,0,0,0,0,0,0,0,0,0,0,0,0],"id":13,"left_children":[1,3,5,7,9,11,13,15,17,19,21,23,25,27,29,31,33,35,-1,37,39,41,43,45,-1,-1,-1,47,49,-1,-1,51,53,55,57,59,-1,61,63,65,67,69,-1,71,73,75,-1,-1,77,79,81,-1,-1,-1,-1,-1,-1,-1,-1,-1,-1,-1,-1,-1,-1,-1,-1,-1,-1,-1,-1,-1,-1,-1,-1,-1,-1,-1,-1,-1,-1,-1,-1],"loss_changes":[5.1936903E0,5.401966E0,3.966198E0,7.589963E0,5.677784E0,3.7515569E0,2.6549864E0,7.850026E0,2.7916517E0,5.855738E0,6.391635E0,3.719696E0,9.553983E-1,3.0551567E0,1.9071529E0,6.9715986E0,2.565648E0,1.8337526E0,0E0,7.7037077E0,5.767296E0,5.878837E0,6.647684E0,3.219261E0,0E0,0E0,0E0,2.712601E0,2.168172E0,0E0,0E0,7.1291065E0,3.0567636E0,2.3046741E0,1.6466436E0,1.5318146E0,0E0,4.491104E0,4.8218555E0,5.184751E0,5.336812E0,1.8581715E0,0E0,3.6832647E0,5.161235E0,3.1323104E0,0E0,0E0,1.1294562E0,4.257431E-1,7.3010045E-1,0E0,0E0,0E0,0E0,0E0,0E0,0E0,0E0,0E0,0E0,0E0,0E0,0E0,0E0,0E0,0E0,0E0,0E0,0E0,0E0,0E0,0E0,0E0,0E0,0E0,0E0,0E0,0E0,0E0,0E0,0E0,0E0],"parents":[2147483647,0,0,1,1,2,2,3,3,4,4,5,5,6,6,7,7,8,8,9,9,10,10,11,11,12,12,13,13,14,14,15,15,16,16,17,17,19,19,20,20,21,21,22,22,23,23,27,27,28,28,31,31,32,32,33,33,34,34,35,35,37,37,38,38,39,39,40,40,41,41,43,43,44,44,45,45,48,48,49,49,50,50],"right_children":[2,4,6,8,10,12,14,16,18,20,22,24,26,28,30,32,34,36,-1,38,40,42,44,46,-1,-1,-1,48,50,-1,-1,52,54,56,58,60,-1,62,64,66,68,70,-1,72,74,76,-1,-1,78,80,82,-1,-1,-1,-1,-1,-1,-1,-1,-1,-1,-1,-1,-1,-1,-1,-1,-1,-1,-1,-1,-1,-1,-1,-1,-1,-1,-1,-1,-1,-1,-1,-1],"split_conditions":[1.4E4,6E3,8E3,1.4E4,8E3,1.2E4,1.2E4,1.4E4,1.2E4,6E3,4E3,1.2E4,6E3,6E3,1.2E4,1.2E4,6E3,1E4,-1.0667381E-1,1E4,1E4,1.2E4,4E3,1.2E4,2.69207E-1,4.9720244E-3,3.060211E-1,6E3,1.2E4,1.23615675E-1,-2.6805013E-1,1E4,1.2E4,8E3,6E3,1.4E4,1.0089875E-2,1.2E4,6E3,1.8E4,4E3,4E3,-2.1740471E-1,6E3,8E3,8E3,1.9187696E-1,2.3077704E-1,8E3,1.4E4,8E3,-5.1196743E-2,1.0216457E-1,1.7550066E-1,-1.0536976E-1,-1.8366279E-1,2.1989442E-1,6.933843E-2,3.7532863E-1,3.8741657E-1,-9.92911E-4,-2.10515E-1,1.3901335E-2,-2.028482E-1,1.519934E-1,7.006353E-3,-2.882037E-1,2.732151E-1,-1.671904E-1,-3.4781538E-2,3.395798E-1,5.265897E-2,-3.1404546E-1,-2.9505031E-2,5.842478E-2,-3.1278622E-1,-2.182744E-2,-2.8457394E-1,3.8417958E-2,3.8429344E-1,7.783048E-2,-1.1571951E-1,1.4076647E-1],"split_indices":[121,115,129,19,54,3,31,103,136,141,139,141,97,104,124,77,60,128,0,82,57,102,42,111,0,0,0,8,142,0,0,98,39,66,64,26,0,108,111,139,54,101,0,35,14,27,0,0,13,108,4,0,0,0,0,0,0,0,0,0,0,0,0,0,0,0,0,0,0,0,0,0,0,0,0,0,0,0,0,0,0,0,0],"split_type":[0,0,0,0,0,0,0,0,0,0,0,0,0,0,0,0,0,0,0,0,0,0,0,0,0,0,0,0,0,0,0,0,0,0,0,0,0,0,0,0,0,0,0,0,0,0,0,0,0,0,0,0,0,0,0,0,0,0,0,0,0,0,0,0,0,0,0,0,0,0,0,0,0,0,0,0,0,0,0,0,0,0,0],"sum_hessian":[8.019953E2,7.618212E2,4.0174072E1,2.1420918E2,5.4761206E2,2.0504297E1,1.9669777E1,2.0191077E2,1.2298413E1,2.8573627E2,2.6187582E2,1.6246264E1,4.2580333E0,1.7049927E1,2.6198494E0,1.8892546E2,1.2985304E1,1.1081512E1,1.2169002E0,7.209364E1,2.1364261E2,1.2067423E1,2.498084E2,1.4490449E1,1.7558151E0,1.2909515E0,2.9670815E0,4.640454E0,1.2409473E1,1.5804627E0,1.0393867E0,1.6041936E2,2.8506107E1,3.135966E0,9.849339E0,9.348556E0,1.7329569E0,5.6347683E1,1.574596E1,1.8037573E2,3.326688E1,1.0418721E1,1.6487018E0,1.0981499E1,2.3882689E2,1.2644097E1,1.8463519E0,2.0239367E0,2.6165173E0,1.0401485E1,2.0079877E0,1.26705246E2,3.371411E1,2.5158703E1,3.3474047E0,1.7987161E0,1.3372499E0,2.61169E0,7.237648E0,8.341284E0,1.0072716E0,4.6847614E1,9.500066E0,3.7403998E0,1.2005561E1,1.7585416E2,4.5215816E0,1.790065E0,3.1476814E1,1.1517814E0,9.26694E0,3.0495822E0,7.931916E0,1.2448753E2,1.1433936E2,5.6755233E0,6.968574E0,1.2806615E0,1.3358558E0,9.367756E0,1.033729E0,1.0047472E0,1.0032406E0],"tree_param":{"num_deleted":"0","num_feature":"145","num_nodes":"83","size_leaf_vector":"1"}},{"base_weights":[6.4359154E-3,-4.259181E-2,1.4281769E-1,6.567958E-2,-2.6386222E-1,4.2593944E-1,3.40682E-3,-1.2596624E-1,2.1233764E-1,-3.5699955E-1,7.2138965E-2,6.8301797E-1,1.3883385E-1,-2.2760144E-1,1.6065682E-1,2.2133602E-1,-2.1943535E-1,1.2556798E0,1.8317342E-1,-4.1267833E-1,8.7891215E-1,2.4644066E-1,-6.3113445E-1,8.2473195E-1,1.2265063E-1,5.66274E-1,-2.4200186E-1,1.3576898E-1,-5.078034E-1,-5.6676775E-1,4.5282942E-1,3.612331E-2,8.1742847E-1,3.206696E-1,-2.9971975E-1,4.4977906E-1,2.6774094E-2,1.5565188E-2,3.619783E-1,-4.9728993E-1,-6.7946725E-2,-1.0080589E-2,1.1026001E0,7.16546E-3,8.399469E-1,-1.0323845E0,2.2348233E-1,9.544449E-1,6.605019E-2,-2.8254136E-1,4.8182136E-1,8.9907163E-1,-5.322884E-1,-6.97257E-1,2.0654008E-1,-3.3140293E-1,6.9053125E-1,2.3507361E-1,-6.084904E-1,-6.6770905E-1,2.4173386E-1,8.375725E-1,-2.0763634E-2,6.499956E-2,-1.6068609E-1,3.1379893E-1,1.1326297E-2,-2.640563E-1,1.5819521E-1,1.5531933E-1,-1.039796E-1,-1.0762776E-2,2.828502E-1,1.2684421E-1,-2.482314E-1,1.0087964E-1,-1.6233702E-1,-7.807359E-2,1.8588378E-1,4.9739897E-2,4.0354428E-1,-4.428775E-2,2.98206E-1,-6.0265064E-2,3.3400613E-1,-3.75762E-1,-4.1833543E-3,3.3517525E-1,1.1150202E-2,2.9054102E-1,-1.5776901E-1,-1.3936512E-1,2.5482315E-1,-7.2352834E-2,3.2492107E-1,-3.762482E-1,1.3666195E-1,-2.8534618E-1,1.3490495E-1,-2.0707615E-1,1.8849325E-1,-1.5525723E-1,2.501275E-1,2.6382646E-1,-1.3111967E-1,-2.0638378E-1,2.0125274E-1,-8.6402625E-2,-3.1247872E-1,-9.4414234E-2,2.7675262E-1,-1.1975619E-1,1.2986788E-1],"categories":[],"categories_nodes":[],"categories_segments":[],"categories_sizes":[],"default_left":[0,0,0,0,0,0,0,0,0,0,0,0,0,0,0,0,0,0,0,0,0,0,0,0,0,0,0,0,0,0,0,0,0,0,0,0,0,0,0,0,0,0,0,0,0,0,0,0,0,0,0,0,0,0,0,0,0,0,0,0,0,0,0,0,0,0,0,0,0,0,0,0,0,0,0,0,0,0,0,0,0,0,0,0,0,0,0,0,0,0,0,0,0,0,0,0,0,0,0,0,0,0,0,0,0,0,0,0,0,0,0,0,0],"id":14,"left_children":[1,3,5,7,9,11,13,15,17,19,21,23,25,27,29,31,33,35,37,39,41,43,45,47,49,51,53,55,57,59,61,63,65,67,69,-1,-1,71,73,75,77,-1,79,81,83,85,-1,87,89,-1,91,93,95,97,99,101,103,-1,105,107,-1,109,111,-1,-1,-1,-1,-1,-1,-1,-1,-1,-1,-1,-1,-1,-1,-1,-1,-1,-1,-1,-1,-1,-1,-1,-1,-1,-1,-1,-1,-1,-1,-1,-1,-1,-1,-1,-1,-1,-1,-1,-1,-1,-1,-1,-1,-1,-1,-1,-1,-1,-1],"loss_changes":[5.2989497E0,1.3985146E1,8.269375E0,1.1052212E1,6.026575E0,5.0075493E0,5.1736555E0,5.5892916E0,6.543107E0,1.070586E1,5.359017E0,2.7749043E0,5.6575103E0,5.9426994E0,1.8263945E1,4.021475E0,5.94957E0,1.5374365E0,6.5189743E0,4.181225E0,1.4248505E0,4.927046E0,5.5793676E0,2.764492E0,3.697788E0,6.4298196E0,3.9492288E0,6.9429126E0,4.7394495E0,3.9633417E0,1.1132965E1,3.1137311E0,1.5023589E0,4.9190564E0,4.702818E0,0E0,0E0,5.443865E0,7.9686823E0,4.4155846E0,4.0796924E0,0E0,1.0244112E0,4.082519E0,3.0614114E0,1.5888696E0,0E0,3.61166E0,3.3241723E0,0E0,2.831768E0,2.96039E0,3.7180629E0,3.1873612E0,4.275876E0,3.6278005E0,2.9758663E0,0E0,3.6101007E0,3.0470285E0,0E0,3.5869503E0,5.034669E0,0E0,0E0,0E0,0E0,0E0,0E0,0E0,0E0,0E0,0E0,0E0,0E0,0E0,0E0,0E0,0E0,0E0,0E0,0E0,0E0,0E0,0E0,0E0,0E0,0E0,0E0,0E0,0E0,0E0,0E0,0E0,0E0,0E0,0E0,0E0,0E0,0E0,0E0,0E0,0E0,0E0,0E0,0E0,0E0,0E0,0E0,0E0,0E0,0E0,0E0],"parents":[2147483647,0,0,1,1,2,2,3,3,4,4,5,5,6,6,7,7,8,8,9,9,10,10,11,11,12,12,13,13,14,14,15,15,16,16,17,17,18,18,19,19,20,20,21,21,22,22,23,23,24,24,25,25,26,26,27,27,28,28,29,29,30,30,31,31,32,32,33,33,34,34,37,37,38,38,39,39,40,40,42,42,43,43,44,44,45,45,47,47,48,48,50,50,51,51,52,52,53,53,54,54,55,55,56,56,58,58,59,59,61,61,62,62],"right_children":[2,4,6,8,10,12,14,16,18,20,22,24,26,28,30,32,34,36,38,40,42,44,46,48,50,52,54,56,58,60,62,64,66,68,70,-1,-1,72,74,76,78,-1,80,82,84,86,-1,88,90,-1,92,94,96,98,100,102,104,-1,106,108,-1,110,112,-1,-1,-1,-1,-1,-1,-1,-1,-1,-1,-1,-1,-1,-1,-1,-1,-1,-1,-1,-1,-1,-1,-1,-1,-1,-1,-1,-1,-1,-1,-1,-1,-1,-1,-1,-1,-1,-1,-1,-1,-1,-1,-1,-1,-1,-1,-1,-1,-1,-1],"split_conditions":[1E4,8E3,1.2E4,6E3,1E4,8E3,1.2E4,4E3,2E3,1.4E4,1E4,1E4,8E3,1.2E4,1.2E4,1E4,4E3,1.2E4,8E3,1E4,6E3,1E4,1E4,1.2E4,6E3,1E4,8E3,8E3,4E3,2E4,1.4E4,6E3,1E4,2E3,4E3,4.4977906E-1,2.6774094E-2,1.4E4,1.2E4,4E3,1.4E4,-1.0080589E-2,6E3,1.2E4,6E3,1E4,2.2348233E-1,1.2E4,8E3,-2.8254136E-1,6E3,6E3,1.2E4,1E4,6E3,1.2E4,1.2E4,2.3507361E-1,1.8E4,8E3,2.4173386E-1,4E3,8E3,6.499956E-2,-1.6068609E-1,3.1379893E-1,1.1326297E-2,-2.640563E-1,1.5819521E-1,1.5531933E-1,-1.039796E-1,-1.0762776E-2,2.828502E-1,1.2684421E-1,-2.482314E-1,1.0087964E-1,-1.6233702E-1,-7.807359E-2,1.8588378E-1,4.9739897E-2,4.0354428E-1,-4.428775E-2,2.98206E-1,-6.0265064E-2,3.3400613E-1,-3.75762E-1,-4.1833543E-3,3.3517525E-1,1.1150202E-2,2.9054102E-1,-1.5776901E-1,-1.3936512E-1,2.5482315E-1,-7.2352834E-2,3.2492107E-1,-3.762482E-1,1.3666195E-1,-2.8534618E-1,1.3490495E-1,-2.0707615E-1,1.8849325E-1,-1.5525723E-1,2.501275E-1,2.6382646E-1,-1.3111967E-1,-2.0638378E-1,2.0125274E-1,-8.6402625E-2,-3.1247872E-1,-9.4414234E-2,2.7675262E-1,-1.1975619E-1,1.2986788E-1],"split_indices":[139,139,139,139,109,88,140,139,140,58,42,36,63,138,138,30,138,73,140,99,49,71,48,23,92,113,24,120,37,46,139,140,118,138,67,0,0,41,140,26,101,0,82,140,102,7,0,130,1,0,113,127,110,103,134,128,136,0,20,48,0,95,88,0,0,0,0,0,0,0,0,0,0,0,0,0,0,0,0,0,0,0,0,0,0,0,0,0,0,0,0,0,0,0,0,0,0,0,0,0,0,0,0,0,0,0,0,0,0,0,0,0,0],"split_type":[0,0,0,0,0,0,0,0,0,0,0,0,0,0,0,0,0,0,0,0,0,0,0,0,0,0,0,0,0,0,0,0,0,0,0,0,0,0,0,0,0,0,0,0,0,0,0,0,0,0,0,0,0,0,0,0,0,0,0,0,0,0,0,0,0,0,0,0,0,0,0,0,0,0,0,0,0,0,0,0,0,0,0,0,0,0,0,0,0,0,0,0,0,0,0,0,0,0,0,0,0,0,0,0,0,0,0,0,0,0,0,0,0],"sum_hessian":[7.9057654E2,5.820307E2,2.0854585E2,3.912759E2,1.907548E2,6.812972E1,1.4041612E2,1.6968314E2,2.2159279E2,1.4930574E2,4.144906E1,3.521696E1,3.291276E1,5.668929E1,8.372684E1,3.5692577E1,1.3399055E2,4.8820834E0,2.167107E2,1.4350674E2,5.7989993E0,3.3737118E1,7.711942E0,2.773193E1,7.48503E0,1.5278095E1,1.7634665E1,2.4906105E1,3.1783184E1,2.3723186E1,6.0003654E1,2.8040634E1,7.6519437E0,1.6952202E1,1.1703835E2,3.802645E0,1.0794388E0,1.1241866E2,1.0429204E2,1.1487023E2,2.8636515E1,1.3089685E0,4.4900312E0,2.4765036E1,8.972082E0,6.1642647E0,1.5476774E0,2.3462484E1,4.2694454E0,1.4791596E0,6.0058703E0,1.1865241E1,3.412854E0,8.47665E0,9.158014E0,1.3738974E1,1.1167131E1,1.8082898E0,2.9974894E1,2.2576376E1,1.1468093E0,3.268339E1,2.7320263E1,2.1783129E1,6.2575054E0,5.653107E0,1.9988366E0,2.0103617E0,1.4941839E1,5.803086E0,1.1123527E2,1.0742071E2,4.9979544E0,9.983047E1,4.461566E0,5.405503E0,1.0946473E2,2.2863483E1,5.7730308E0,1.2696779E0,3.2203531E0,2.2142345E1,2.62269E0,1.9216864E0,7.0503955E0,4.879587E0,1.2846773E0,1.974073E1,3.7217536E0,1.4392463E0,2.8301992E0,1.6063882E0,4.3994823E0,1.6054488E0,1.0259792E1,1.8160964E0,1.5967574E0,7.0800505E0,1.3965997E0,2.7257667E0,6.4322476E0,1.232589E1,1.4130845E0,9.753379E0,1.4137524E0,2.8657337E1,1.3175577E0,1.2079431E1,1.0496945E1,2.058016E0,3.0625374E1,1.4960679E1,1.2359584E1],"tree_param":{"num_deleted":"0","num_feature":"145","num_nodes":"113","size_leaf_vector":"1"}},{"base_weights":[8.409998E-3,-3.2911126E-2,1.5578698E-1,-4.8306573E-2,5.374201E-1,-1.5372635E-1,2.6267964E-1,3.4817535E-2,-1.5941723E-1,-8.67979E-3,9.642118E-1,-3.3800083E-1,6.0919684E-1,2.0842564E-1,9.7352415E-1,-1.0205379E-1,1.8446404E-1,7.238485E-1,-1.7876993E-1,-3.391614E-1,2.1450326E-1,1.1372814E0,-4.3286376E-2,-4.4285178E-1,2.7018186E-1,8.840771E-1,-1.0121823E-1,2.89865E-1,-2.871832E-1,1.2380402E0,-8.12028E-2,7.891843E-1,-1.4777614E-1,-1.1175141E-1,3.0480382E-1,-1.1287827E-1,4.1889986E-1,3.6976974E-2,-2.6629105E-1,-7.8097767E-1,1.4801538E-1,3.6646038E-1,8.441406E-2,-6.204307E-1,1.7154077E-1,1.054559E0,-1.5983438E-2,3.2555598E-1,-8.051645E-1,-4.7042006E-1,7.279284E-1,4.1111267E-1,1.2396506E-1,-2.0999438E-1,3.6420605E-1,-5.7297837E-2,1.4746478E-1,-1.0635355E-1,1.1786858E-1,-1.0668959E-2,1.3263707E-1,-2.185164E-1,1.802064E-1,6.5862045E-2,-1.3883084E-1,-9.001483E-2,1.6103907E-1,1.38468E-2,-3.2134563E-1,-2.288637E-1,1.3238123E-1,-2.1498533E-1,1.7177983E-1,5.64099E-2,3.6091793E-1,6.997768E-2,2.2347413E-1,-2.569027E-2,-3.216415E-1,8.4181346E-2,-2.3853236E-1,2.591739E-1,6.812998E-2],"categories":[],"categories_nodes":[],"categories_segments":[],"categories_sizes":[],"default_left":[0,0,0,0,0,0,0,0,0,0,0,0,0,0,0,0,0,0,0,0,0,0,0,0,0,0,0,0,0,0,0,0,0,0,0,0,0,0,0,0,0,0,0,0,0,0,0,0,0,0,0,0,0,0,0,0,0,0,0,0,0,0,0,0,0,0,0,0,0,0,0,0,0,0,0,0,0,0,0,0,0,0,0],"id":15,"left_children":[1,3,5,7,9,11,13,15,17,19,21,23,25,27,29,31,33,35,37,39,-1,41,-1,43,-1,45,-1,47,49,51,-1,53,55,57,59,61,-1,63,65,67,-1,-1,-1,69,71,73,-1,75,77,79,81,-1,-1,-1,-1,-1,-1,-1,-1,-1,-1,-1,-1,-1,-1,-1,-1,-1,-1,-1,-1,-1,-1,-1,-1,-1,-1,-1,-1,-1,-1,-1,-1],"loss_changes":[4.701241E0,5.321538E0,5.633023E0,5.437887E0,3.722292E0,6.3951125E0,4.657051E0,6.927105E0,4.435127E0,2.1513839E0,1.881774E0,5.087416E0,2.619666E0,4.860203E0,3.1863718E0,7.321266E0,5.7901535E0,3.3079598E0,4.679328E0,2.65025E0,0E0,2.2285938E-1,0E0,3.8110375E0,0E0,1.2051735E0,0E0,4.2543087E0,3.5427651E0,2.3317623E-1,0E0,6.407926E0,4.7637568E0,5.943881E0,5.395197E0,1.939596E0,0E0,6.692895E0,4.933881E0,1.1078689E0,0E0,0E0,0E0,4.3532257E0,3.4013567E0,5.628109E-1,0E0,3.682662E0,5.8286214E-1,3.9252498E0,9.715319E-3,0E0,0E0,0E0,0E0,0E0,0E0,0E0,0E0,0E0,0E0,0E0,0E0,0E0,0E0,0E0,0E0,0E0,0E0,0E0,0E0,0E0,0E0,0E0,0E0,0E0,0E0,0E0,0E0,0E0,0E0,0E0,0E0],"parents":[2147483647,0,0,1,1,2,2,3,3,4,4,5,5,6,6,7,7,8,8,9,9,10,10,11,11,12,12,13,13,14,14,15,15,16,16,17,17,18,18,19,19,21,21,23,23,25,25,27,27,28,28,29,29,31,31,32,32,33,33,34,34,35,35,37,37,38,38,39,39,43,43,44,44,45,45,47,47,48,48,49,49,50,50],"right_children":[2,4,6,8,10,12,14,16,18,20,22,24,26,28,30,32,34,36,38,40,-1,42,-1,44,-1,46,-1,48,50,52,-1,54,56,58,60,62,-1,64,66,68,-1,-1,-1,70,72,74,-1,76,78,80,82,-1,-1,-1,-1,-1,-1,-1,-1,-1,-1,-1,-1,-1,-1,-1,-1,-1,-1,-1,-1,-1,-1,-1,-1,-1,-1,-1,-1,-1,-1,-1,-1],"split_conditions":[1E4,1.8E4,6E3,8E3,8E3,1E4,1.4E4,8E3,2E3,1E4,1.2E4,1.4E4,1E4,1.2E4,1E4,4E3,8E3,8E3,6E3,8E3,2.1450326E-1,1E4,-4.3286376E-2,1E4,2.7018186E-1,1E4,-1.0121823E-1,1.8E4,1.2E4,1E4,-8.12028E-2,6E3,1.4E4,8E3,6E3,1E4,4.1889986E-1,1E4,1.4E4,6E3,1.4801538E-1,3.6646038E-1,8.441406E-2,1.2E4,6E3,6E3,-1.5983438E-2,1.2E4,1.2E4,6E3,8E3,4.1111267E-1,1.2396506E-1,-2.0999438E-1,3.6420605E-1,-5.7297837E-2,1.4746478E-1,-1.0635355E-1,1.1786858E-1,-1.0668959E-2,1.3263707E-1,-2.185164E-1,1.802064E-1,6.5862045E-2,-1.3883084E-1,-9.001483E-2,1.6103907E-1,1.38468E-2,-3.2134563E-1,-2.288637E-1,1.3238123E-1,-2.1498533E-1,1.7177983E-1,5.64099E-2,3.6091793E-1,6.997768E-2,2.2347413E-1,-2.569027E-2,-3.216415E-1,8.4181346E-2,-2.3853236E-1,2.591739E-1,6.812998E-2],"split_indices":[87,95,144,134,17,23,15,46,25,99,53,18,9,17,23,35,47,79,75,67,0,31,0,62,0,92,0,29,29,1,0,23,118,87,100,37,0,64,96,143,0,0,0,70,34,81,0,31,66,135,138,0,0,0,0,0,0,0,0,0,0,0,0,0,0,0,0,0,0,0,0,0,0,0,0,0,0,0,0,0,0,0,0],"split_type":[0,0,0,0,0,0,0,0,0,0,0,0,0,0,0,0,0,0,0,0,0,0,0,0,0,0,0,0,0,0,0,0,0,0,0,0,0,0,0,0,0,0,0,0,0,0,0,0,0,0,0,0,0,0,0,0,0,0,0,0,0,0,0,0,0,0,0,0,0,0,0,0,0,0,0,0,0,0,0,0,0,0,0],"sum_hessian":[7.701464E2,6.021063E2,1.6804012E2,5.871716E2,1.49347315E1,4.3023926E1,1.2501619E2,3.362802E2,2.5089134E2,6.9813867E0,7.9533453E0,3.510236E1,7.921566E0,1.1735266E2,7.663532E0,1.758032E2,1.6047702E2,4.5987635E0,2.4629257E2,5.1575E0,1.8238868E0,6.8568273E0,1.0965183E0,3.2955093E1,2.1472645E0,6.1900735E0,1.7314925E0,1.0114711E2,1.6205547E1,6.3240037E0,1.3395282E0,7.785468E0,1.6801775E2,4.6381264E1,1.1409575E2,2.4199414E0,2.1788223E0,7.1245056E1,1.7504752E2,3.4098814E0,1.7476184E0,5.853436E0,1.0033911E0,2.555815E1,7.396944E0,5.1317058E0,1.058368E0,9.863493E1,2.512174E0,1.4182128E1,2.0234203E0,4.8796864E0,1.4443172E0,1.5843253E0,6.201143E0,1.580362E2,9.981552E0,3.1517344E1,1.4863921E1,3.3011913E1,8.108384E1,1.2880881E0,1.1318533E0,5.2592937E1,1.8652115E1,1.6858722E2,6.4603066E0,1.1039737E0,2.3059077E0,2.2782837E1,2.7753122E0,2.056325E0,5.340619E0,1.0823312E0,4.0493746E0,8.211775E1,1.6517187E1,1.0372918E0,1.474882E0,4.321645E0,9.860482E0,1.0211821E0,1.0022383E0],"tree_param":{"num_deleted":"0","num_feature":"145","num_nodes":"83","size_leaf_vector":"1"}},{"base_weights":[9.296896E-3,-1.3317096E-1,4.950938E-2,8.357762E-1,-1.6287501E-1,1.653231E-3,2.2286187E-1,3.843962E-1,-6.5317035E-2,5.59057E-1,-1.9977525E-1,-7.55866E-1,1.6888367E-2,1.2165361E-1,7.900399E-1,-1.269669E-1,1.0399798E0,-2.279773E-1,7.767426E-1,3.623481E-2,-1.0118878E0,2.8994864E-2,-8.2354873E-1,-1.4987102E-1,3.6739036E-1,-2.1409488E-1,9.3507767E-1,1.553332E-1,-2.2743763E-1,7.8724906E-2,3.7618545E-1,-4.6076337E-1,-1.375744E-1,3.4497944E-1,-5.9873242E-2,-3.8425767E-1,3.2325163E-2,-4.321432E-2,1.9787855E-1,-3.586669E-1,-4.3239035E-2,1.0048821E0,-2.2643253E-1,1.8481831E-1,9.143994E-1,-8.93804E-2,1.05059E0,-1.9307946E-1,1.734719E-2,-1.3085541E-1,-6.3777855E-3,1.8179365E-1,-2.1121502E-2,3.211834E-2,1.8254878E-1,1.398218E-1,-1.5345341E-1,3.9641845E-1,8.588696E-2,-1.1641642E-1,1.3441107E-1,2.4737045E-1,-1.0530545E-2,4.282918E-2,3.4165978E-1,3.4005088E-1,-3.0665586E-2],"categories":[],"categories_nodes":[],"categories_segments":[],"categories_sizes":[],"default_left":[0,0,0,0,0,0,0,0,0,0,0,0,0,0,0,0,0,0,0,0,0,0,0,0,0,0,0,0,0,0,0,0,0,0,0,0,0,0,0,0,0,0,0,0,0,0,0,0,0,0,0,0,0,0,0,0,0,0,0,0,0,0,0,0,0,0,0],"id":16,"left_children":[1,3,5,7,9,11,13,-1,-1,15,17,19,21,23,25,27,29,31,33,-1,35,37,39,41,43,-1,45,-1,-1,-1,-1,47,49,-1,-1,-1,-1,51,53,-1,55,57,59,61,63,-1,65,-1,-1,-1,-1,-1,-1,-1,-1,-1,-1,-1,-1,-1,-1,-1,-1,-1,-1,-1,-1],"loss_changes":[4.3587666E0,4.956897E0,4.9206533E0,2.6939757E0,4.463228E0,5.389217E0,7.2699146E0,0E0,0E0,2.8395917E0,4.4772277E0,2.188527E0,4.680392E0,7.3994884E0,4.865279E0,2.1314967E0,4.9172354E-1,3.1466002E0,1.9090793E0,0E0,2.3159719E0,5.522146E0,1.8446813E0,4.9134846E0,5.630347E0,0E0,2.8750267E0,0E0,0E0,0E0,0E0,4.0423403E0,3.8562214E0,0E0,0E0,0E0,0E0,5.6476684E0,4.991279E0,0E0,9.888468E-1,4.13095E-1,5.681351E0,6.330845E0,2.310485E0,0E0,1.7090626E0,0E0,0E0,0E0,0E0,0E0,0E0,0E0,0E0,0E0,0E0,0E0,0E0,0E0,0E0,0E0,0E0,0E0,0E0,0E0,0E0],"parents":[2147483647,0,0,1,1,2,2,3,3,4,4,5,5,6,6,9,9,10,10,11,11,12,12,13,13,14,14,15,15,16,16,17,17,18,18,20,20,21,21,22,22,23,23,24,24,26,26,31,31,32,32,37,37,38,38,40,40,41,41,42,42,43,43,44,44,46,46],"right_children":[2,4,6,8,10,12,14,-1,-1,16,18,20,22,24,26,28,30,32,34,-1,36,38,40,42,44,-1,46,-1,-1,-1,-1,48,50,-1,-1,-1,-1,52,54,-1,56,58,60,62,64,-1,66,-1,-1,-1,-1,-1,-1,-1,-1,-1,-1,-1,-1,-1,-1,-1,-1,-1,-1,-1,-1],"split_conditions":[6E3,2E3,1E4,1E4,4E3,2E3,1.2E4,3.843962E-1,-6.5317035E-2,8E3,2E4,6E3,2E4,8E3,4E3,6E3,6E3,6E3,1E4,3.623481E-2,1E4,1E4,8E3,4E3,1E4,-2.1409488E-1,4E3,1.553332E-1,-2.2743763E-1,7.8724906E-2,3.7618545E-1,1E4,6E3,3.4497944E-1,-5.9873242E-2,-3.8425767E-1,3.2325163E-2,4E3,1.2E4,-3.586669E-1,6E3,6E3,1E4,6E3,6E3,-8.93804E-2,1.4E4,-1.9307946E-1,1.734719E-2,-1.3085541E-1,-6.3777855E-3,1.8179365E-1,-2.1121502E-2,3.211834E-2,1.8254878E-1,1.398218E-1,-1.5345341E-1,3.9641845E-1,8.588696E-2,-1.1641642E-1,1.3441107E-1,2.4737045E-1,-1.0530545E-2,4.282918E-2,3.4165978E-1,3.4005088E-1,-3.0665586E-2],"split_indices":[138,69,39,79,44,133,49,0,0,36,119,117,140,65,116,31,125,128,9,0,137,140,36,49,102,0,0,0,0,0,0,65,22,0,0,0,0,65,92,0,115,58,118,115,82,0,139,0,0,0,0,0,0,0,0,0,0,0,0,0,0,0,0,0,0,0,0],"split_type":[0,0,0,0,0,0,0,0,0,0,0,0,0,0,0,0,0,0,0,0,0,0,0,0,0,0,0,0,0,0,0,0,0,0,0,0,0,0,0,0,0,0,0,0,0,0,0,0,0,0,0,0,0,0,0,0,0,0,0,0,0,0,0,0,0,0,0],"sum_hessian":[7.586759E2,1.6649457E2,5.9218134E2,4.1450806E0,1.6234949E2,4.6486032E2,1.2732104E2,2.7611063E0,1.3839743E0,7.2065697E0,1.5514291E2,8.206462E0,4.5665387E2,1.0907245E2,1.8248594E1,3.273294E0,3.9332757E0,1.5153314E2,3.6097727E0,1.9743363E0,6.232126E0,4.5112097E2,5.532898E0,5.200267E1,5.7069775E1,1.2604411E0,1.6988152E1,1.7080837E0,1.5652103E0,1.3292491E0,2.6040266E0,4.1241123E1,1.1029202E2,2.48289E0,1.1268828E0,4.908872E0,1.3232539E0,3.1652798E2,1.3459297E2,3.3863308E0,2.1465669E0,2.4795306E0,4.952314E1,4.379158E1,1.32781925E1,1.319901E0,1.5668251E1,3.0312866E1,1.0928259E1,3.0147009E1,8.014501E1,1.1868741E1,3.0465924E2,1.1124855E2,2.334443E1,1.0304766E0,1.1160903E0,1.1389847E0,1.3405459E0,4.0292545E1,9.230596E0,1.049938E1,3.3292202E1,3.360841E0,9.917351E0,1.46325865E1,1.0356648E0],"tree_param":{"num_deleted":"0","num_feature":"145","num_nodes":"67","size_leaf_vector":"1"}},{"base_weights":[8.9411745E-3,4.9948508E-1,-1.7679133E-3,1.19390994E-1,1.0046034E0,-7.4115634E-2,7.339393E-2,-3.6843497E-1,5.297926E-1,3.3152297E-1,1.1349263E-1,-9.445215E-2,6.683272E-1,-5.0477102E-2,1.9682439E-1,-2.5636458E-1,1.0532701E-1,-9.420156E-2,8.2029337E-1,6.7568696E-1,-1.1204015E-1,1.4956091E-1,1.0784621E0,-2.2448847E-2,-1.0170403E0,2.328416E-1,-3.809057E-1,-4.2310327E-2,3.457068E-1,1.1158427E0,-3.9207092E-1,-1.7308101E-1,9.87719E-2,-1.6582271E-1,6.2436926E-1,6.313792E-2,3.75879E-1,-1.1309012E-1,3.1215483E-1,-3.382496E-1,-8.764507E-2,4.5908982E-1,1.4075182E-1,-5.8378965E-1,2.3369727E-1,4.3338057E-1,2.4446642E-2,-2.3468436E-1,5.2132975E-2,-6.1897073E-2,1.03998E-1,-8.1786424E-2,7.3000744E-2,-7.617169E-2,3.112123E-1,-8.303718E-2,1.902663E-2,-9.7627886E-2,1.7781991E-1,1.7589587E-1,-8.087233E-2,-1.1504101E-1,6.859024E-2,-2.4023691E-1,1.8159541E-1],"categories":[],"categories_nodes":[],"categories_segments":[],"categories_sizes":[],"default_left":[0,0,0,0,0,0,0,0,0,0,0,0,0,0,0,0,0,0,0,0,0,0,0,0,0,0,0,0,0,0,0,0,0,0,0,0,0,0,0,0,0,0,0,0,0,0,0,0,0,0,0,0,0,0,0,0,0,0,0,0,0,0,0,0,0],"id":17,"left_children":[1,3,5,7,9,11,13,15,17,-1,-1,19,21,23,25,-1,-1,-1,27,29,31,33,35,37,39,41,43,-1,-1,45,47,49,51,-1,53,-1,-1,55,57,-1,-1,59,61,63,-1,-1,-1,-1,-1,-1,-1,-1,-1,-1,-1,-1,-1,-1,-1,-1,-1,-1,-1,-1,-1],"loss_changes":[3.9388921E0,2.955602E0,4.000093E0,2.2524264E0,6.2761307E-3,5.7222652E0,5.526373E0,2.1484861E0,1.7260818E0,0E0,0E0,5.0290937E0,1.9911656E0,4.8772554E0,3.8534312E0,0E0,0E0,0E0,1.6735222E0,4.341732E0,4.628858E0,2.2217531E0,5.675354E-1,5.3974504E0,7.69248E-2,3.496708E0,3.0425901E0,0E0,0E0,1.9710269E0,8.3474076E-1,4.879488E0,4.4209957E0,0E0,1.6516775E0,0E0,0E0,4.05851E0,6.9819946E0,0E0,0E0,4.701168E0,5.7507653E0,3.0473688E0,0E0,0E0,0E0,0E0,0E0,0E0,0E0,0E0,0E0,0E0,0E0,0E0,0E0,0E0,0E0,0E0,0E0,0E0,0E0,0E0,0E0],"parents":[2147483647,0,0,1,1,2,2,3,3,4,4,5,5,6,6,7,7,8,8,11,11,12,12,13,13,14,14,18,18,19,19,20,20,21,21,22,22,23,23,24,24,25,25,26,26,29,29,30,30,31,31,32,32,34,34,37,37,38,38,41,41,42,42,43,43],"right_children":[2,4,6,8,10,12,14,16,18,-1,-1,20,22,24,26,-1,-1,-1,28,30,32,34,36,38,40,42,44,-1,-1,46,48,50,52,-1,54,-1,-1,56,58,-1,-1,60,62,64,-1,-1,-1,-1,-1,-1,-1,-1,-1,-1,-1,-1,-1,-1,-1,-1,-1,-1,-1,-1,-1],"split_conditions":[2E3,1.2E4,8E3,8E3,8E3,1.8E4,8E3,8E3,6E3,3.3152297E-1,1.1349263E-1,2E3,8E3,1.8E4,1.4E4,-2.5636458E-1,1.0532701E-1,-9.420156E-2,6E3,1E4,1E4,8E3,6E3,1E4,1.2E4,6E3,1.2E4,-4.2310327E-2,3.457068E-1,8E3,8E3,1.4E4,6E3,-1.6582271E-1,8E3,6.313792E-2,3.75879E-1,8E3,6E3,-3.382496E-1,-8.764507E-2,1.2E4,6E3,1.2E4,2.3369727E-1,4.3338057E-1,2.4446642E-2,-2.3468436E-1,5.2132975E-2,-6.1897073E-2,1.03998E-1,-8.1786424E-2,7.3000744E-2,-7.617169E-2,3.112123E-1,-8.303718E-2,1.902663E-2,-9.7627886E-2,1.7781991E-1,1.7589587E-1,-8.087233E-2,-1.1504101E-1,6.859024E-2,-2.4023691E-1,1.8159541E-1],"split_indices":[144,142,110,15,74,39,105,67,40,0,0,21,29,141,40,0,0,0,20,28,129,122,58,25,129,124,58,0,0,77,83,56,56,0,92,0,0,4,134,0,0,114,125,117,0,0,0,0,0,0,0,0,0,0,0,0,0,0,0,0,0,0,0,0,0],"split_type":[0,0,0,0,0,0,0,0,0,0,0,0,0,0,0,0,0,0,0,0,0,0,0,0,0,0,0,0,0,0,0,0,0,0,0,0,0,0,0,0,0,0,0,0,0,0,0,0,0,0,0,0,0,0,0,0,0,0,0,0,0,0,0,0,0],"sum_hessian":[7.4862897E2,1.5019078E1,7.336099E2,9.275651E0,5.7434273E0,3.7380978E2,3.5980014E2,4.2847815E0,4.9908695E0,4.2906356E0,1.4527916E0,3.6469315E2,9.116654E0,1.7987457E2,1.7992557E2,2.4451635E0,1.8396176E0,1.2574705E0,3.7333992E0,7.307257E0,3.5738586E2,4.627784E0,4.4888706E0,1.7579997E2,4.0745964E0,1.6992873E2,9.996832E0,1.1062014E0,2.6271977E0,5.142401E0,2.1648562E0,2.7727856E2,8.010732E1,1.800489E0,2.827295E0,1.1205031E0,3.3683677E0,1.3884898E2,3.6950985E1,3.0538464E0,1.02075E0,4.8004635E1,1.21924095E2,8.931297E0,1.0655348E0,3.6011791E0,1.5412219E0,1.0548995E0,1.1099567E0,2.6117676E2,1.6101803E1,2.2196745E1,5.791058E1,1.0274972E0,1.7997978E0,7.174413E1,6.710486E1,1.1242922E1,2.5708063E1,4.1034996E1,6.9696407E0,1.7022238E1,1.04901855E2,7.8291245E0,1.1021727E0],