{"learner":{"attributes":{"scikit_learn":"{\"_estimator_type\": \"classifier\"}"},"feature_names":[],"feature_types":[],"gradient_booster":{"model":{"gbtree_model_param":{"num_parallel_tree":"1","num_trees":"100"},"iteration_indptr":[0,1,2,3,4,5,6,7,8,9,10,11,12,13,14,15,16,17,18,19,20,21,22,23,24,25,26,27,28,29,30,31,32,33,34,35,36,37,38,39,40,41,42,43,44,45,46,47,48,49,50,51,52,53,54,55,56,57,58,59,60,61,62,63,64,65,66,67,68,69,70,71,72,73,74,75,76,77,78,79,80,81,82,83,84,85,86,87,88,89,90,91,92,93,94,95,96,97,98,99,100],"tree_info":[0,0,0,0,0,0,0,0,0,0,0,0,0,0,0,0,0,0,0,0,0,0,0,0,0,0,0,0,0,0,0,0,0,0,0,0,0,0,0,0,0,0,0,0,0,0,0,0,0,0,0,0,0,0,0,0,0,0,0,0,0,0,0,0,0,0,0,0,0,0,0,0,0,0,0,0,0,0,0,0,0,0,0,0,0,0,0,0,0,0,0,0,0,0,0,0,0,0,0,0],"trees":[{"base_weights":[-5.0330914E-6,2.7762336E-1,-4.960667E-1,-1.9524479E-1,5.065897E-1,-6.805495E-1,4.6506742E-1,-6.743146E-1,4.9525154E-1,1.646084E-1,9.0818006E-1,-8.213346E-1,1.7508146E-1,8.446019E-1,-3.1503436E-1,9.6229535E-1,-8.7854874E-1,1.1462792E0,-3.1600764E-3,-1.1690576E0,2.9090202E-1,-3.2688195E-1,9.883415E-1,-9.056156E-1,6.9555384E-1,-5.8246714E-1,1.0796264E0,1.1704302E0,-2.5783807E-1,7.320313E-2,3.6712688E-1,7.795678E-1,-1.1208276E0,2.7954344E-2,4.7162303E-1,-5.9677637E-1,3.973274E-1,-4.3151355E-1,-6.0158562E-2,-3.497096E-1,5.2195716E-1,6.120582E-1,1.4035814E0,-6.2877893E-1,-1.4064046E0,3.6712688E-1,-6.0158562E-2,-4.073665E-1,1.4760967E-1,-6.0158562E-2,4.5893496E-1,5.4294273E-2,1.4625872E0,2.0656483E-1,-3.2688195E-1,3.8938242E-1,-6.0158562E-2,-3.9584315E-1,2.0787813E-1,-3.2688195E-1,3.399265E-1,-3.099302E-1,2.0787813E-1,-4.2689383E-1,8.7486885E-2,-8.927184E-2,2.591088E-1,-1.0226384E-1,2.988738E-1,2.1050505E-1,5.389884E-1,-2.523481E-1,1.3867775E-1,-2.0429192E-1,-5.020215E-1,-1.9222397E-1,3.399265E-1,7.320313E-2,5.055083E-1],"categories":[],"categories_nodes":[],"categories_segments":[],"categories_sizes":[],"default_left":[0,0,0,0,0,0,0,0,0,0,0,0,0,0,0,0,0,0,0,0,0,0,0,0,0,0,0,0,0,0,0,0,0,0,0,0,0,0,0,0,0,0,0,0,0,0,0,0,0,0,0,0,0,0,0,0,0,0,0,0,0,0,0,0,0,0,0,0,0,0,0,0,0,0,0,0,0,0,0],"id":0,"left_children":[1,3,5,7,9,11,13,15,17,19,21,23,25,27,-1,29,31,33,35,37,39,-1,41,43,45,47,49,51,53,-1,-1,55,57,59,-1,61,-1,-1,-1,63,65,67,69,71,73,-1,-1,-1,75,-1,-1,-1,77,-1,-1,-1,-1,-1,-1,-1,-1,-1,-1,-1,-1,-1,-1,-1,-1,-1,-1,-1,-1,-1,-1,-1,-1,-1,-1],"loss_changes":[3.1939102E1,1.6198086E1,1.5072203E1,1.6619549E1,1.3647579E1,8.602932E0,8.93496E0,1.07022E1,6.734124E0,9.684628E0,8.440842E0,8.361614E0,7.9925857E0,4.520976E0,0E0,4.0545607E-1,1.1615988E1,4.240217E0,1.083481E1,1.0153899E0,7.8025284E0,0E0,6.130398E0,7.1189423E0,2.0198233E0,3.8790064E0,3.3312473E0,2.408327E0,3.504608E0,0E0,0E0,2.2919152E0,9.468323E0,5.5561295E0,0E0,6.0599575E0,0E0,0E0,0E0,1.0220083E1,1.0965516E1,9.580405E0,4.392784E0,9.422393E0,2.684452E0,0E0,0E0,0E0,4.026916E0,0E0,0E0,0E0,1.4856405E0,0E0,0E0,0E0,0E0,0E0,0E0,0E0,0E0,0E0,0E0,0E0,0E0,0E0,0E0,0E0,0E0,0E0,0E0,0E0,0E0,0E0,0E0,0E0,0E0,0E0,0E0],"parents":[2147483647,0,0,1,1,2,2,3,3,4,4,5,5,6,6,7,7,8,8,9,9,10,10,11,11,12,12,13,13,15,15,16,16,17,17,18,18,19,19,20,20,22,22,23,23,24,24,25,25,26,26,27,27,28,28,31,31,32,32,33,33,35,35,39,39,40,40,41,41,42,42,43,43,44,44,48,48,52,52],"right_children":[2,4,6,8,10,12,14,16,18,20,22,24,26,28,-1,30,32,34,36,38,40,-1,42,44,46,48,50,52,54,-1,-1,56,58,60,-1,62,-1,-1,-1,64,66,68,70,72,74,-1,-1,-1,76,-1,-1,-1,78,-1,-1,-1,-1,-1,-1,-1,-1,-1,-1,-1,-1,-1,-1,-1,-1,-1,-1,-1,-1,-1,-1,-1,-1,-1,-1],"split_conditions":[8E3,6E3,1.2E4,8E3,8E3,1E4,1E4,4E3,6E3,4E3,2E3,1.8E4,8E3,1.2E4,-3.1503436E-1,8E3,4E3,6E3,1E4,8E3,6E3,-3.2688195E-1,8E3,1E4,8E3,8E3,6E3,6E3,8E3,7.320313E-2,3.6712688E-1,8E3,1.2E4,8E3,4.7162303E-1,1E4,3.973274E-1,-4.3151355E-1,-6.0158562E-2,6E3,6E3,6E3,8E3,1E4,6E3,3.6712688E-1,-6.0158562E-2,-4.073665E-1,8E3,-6.0158562E-2,4.5893496E-1,5.4294273E-2,6E3,2.0656483E-1,-3.2688195E-1,3.8938242E-1,-6.0158562E-2,-3.9584315E-1,2.0787813E-1,-3.2688195E-1,3.399265E-1,-3.099302E-1,2.0787813E-1,-4.2689383E-1,8.7486885E-2,-8.927184E-2,2.591088E-1,-1.0226384E-1,2.988738E-1,2.1050505E-1,5.389884E-1,-2.523481E-1,1.3867775E-1,-2.0429192E-1,-5.020215E-1,-1.9222397E-1,3.399265E-1,7.320313E-2,5.055083E-1],"split_indices":[137,90,68,106,53,36,135,137,17,124,120,98,118,137,0,0,106,33,54,4,87,0,115,136,24,113,79,3,8,0,0,31,79,81,0,115,0,0,0,102,17,84,57,114,36,0,0,0,49,0,0,0,89,0,0,0,0,0,0,0,0,0,0,0,0,0,0,0,0,0,0,0,0,0,0,0,0,0,0],"split_type":[0,0,0,0,0,0,0,0,0,0,0,0,0,0,0,0,0,0,0,0,0,0,0,0,0,0,0,0,0,0,0,0,0,0,0,0,0,0,0,0,0,0,0,0,0,0,0,0,0,0,0,0,0,0,0,0,0,0,0,0,0,0,0,0,0,0,0,0,0,0,0,0,0,0,0,0,0,0,0],"sum_hessian":[2.2991199E2,1.4769347E2,8.221853E1,4.8231537E1,9.946192E1,6.92235E1,1.2995026E1,2.8489094E1,1.9742443E1,5.4479145E1,4.498278E1,5.947723E1,9.746269E0,1.0745887E1,2.249139E0,2.7489476E0,2.5740147E1,7.9969387E0,1.1745503E1,3.9984694E0,5.0480675E1,1.2495217E0,4.3733257E1,5.6728283E1,2.7489476E0,5.4978952E0,4.2483735E0,8.246843E0,2.4990435E0,1.2495217E0,1.499426E0,2.998852E0,2.2741295E1,2.4990435E0,5.4978952E0,8.496747E0,3.2487564E0,2.7489476E0,1.2495217E0,1.3244929E1,3.7235744E1,2.424072E1,1.9492538E1,3.798546E1,1.8742825E1,1.499426E0,1.2495217E0,2.249139E0,3.2487564E0,1.2495217E0,2.998852E0,2.249139E0,5.997704E0,1.2495217E0,1.2495217E0,1.7493303E0,1.2495217E0,2.074206E1,1.9992347E0,1.2495217E0,1.2495217E0,6.497513E0,1.9992347E0,4.498278E0,8.746652E0,1.09957905E1,2.6239956E1,6.997321E0,1.7243399E1,7.9969387E0,1.14956E1,3.1987755E1,5.997704E0,5.997704E0,1.2745121E1,1.9992347E0,1.2495217E0,1.2495217E0,4.7481823E0],"tree_param":{"num_deleted":"0","num_feature":"145","num_nodes":"79","size_leaf_vector":"1"}},{"base_weights":[4.1619376E-3,-1.3307197E-1,5.587236E-1,-2.8894737E-1,4.5737153E-1,1.3623938E-1,9.963823E-1,-5.6248397E-1,2.8265076E-2,-3.642977E-1,7.5269145E-1,-1.4743485E-1,9.78464E-1,1.2425933E0,-5.3355552E-2,-7.4678046E-1,1.8835531E-1,-1.2621236E-1,9.840392E-1,-8.2337546E-1,2.9508516E-1,9.24543E-1,-3.2485837E-1,-7.115872E-1,4.7052646E-1,4.0357003E-1,-8.313598E-2,-4.0315524E-2,1.3747907E0,-6.7213833E-1,3.1928146E-1,-8.740938E-1,5.5945385E-1,-5.2829957E-1,8.0769134E-1,-2.9343045E-1,1.0040648E0,1.3228275E0,-2.1872532E-1,3.1672835E-1,-1.2779341E0,4.320859E-1,1.4330382E0,1.66159E-1,-3.475384E-1,-9.7101766E-1,1.9667931E-1,1.2311727E0,-6.890371E-1,6.4132166E-1,1.5704106E0,5.528532E-2,-3.3561942E-1,-2.893369E-1,2.4634908E-1,3.3289212E-1,-2.1125971E-1,-3.2346368E-1,3.4720406E-1,3.462072E-1,-1.8331826E-1,-1.5027143E-1,1.746824E-1,4.6667597E-1,-1.8155737E-1,4.720211E-1,2.3358976E-2,-4.660072E-1,-6.704812E-2,-1.3058457E-1,2.4407777E-1,5.2123773E-1,-6.575643E-2,-3.835005E-1,1.0738365E-1,4.3378624E-1,6.0131464E-2,1.0318967E-1,-3.966207E-1,-6.425165E-2,3.6875287E-1,5.093339E-1,1.7697553E-1],"categories":[],"categories_nodes":[],"categories_segments":[],"categories_sizes":[],"default_left":[0,0,0,0,0,0,0,0,0,0,0,0,0,0,0,0,0,0,0,0,0,0,0,0,0,0,0,0,0,0,0,0,0,0,0,0,0,0,0,0,0,0,0,0,0,0,0,0,0,0,0,0,0,0,0,0,0,0,0,0,0,0,0,0,0,0,0,0,0,0,0,0,0,0,0,0,0,0,0,0,0,0,0],"id":1,"left_children":[1,3,5,7,9,11,13,15,17,19,21,23,25,27,29,31,33,35,37,39,-1,41,43,45,47,-1,-1,-1,49,51,-1,53,55,57,59,61,63,65,-1,-1,67,69,71,-1,-1,73,-1,75,77,79,81,-1,-1,-1,-1,-1,-1,-1,-1,-1,-1,-1,-1,-1,-1,-1,-1,-1,-1,-1,-1,-1,-1,-1,-1,-1,-1,-1,-1,-1,-1,-1,-1],"loss_changes":[1.7203964E1,1.6812454E1,8.155751E0,1.2510426E1,9.553398E0,5.872314E0,5.7180195E0,1.084683E1,1.0109126E1,7.4831023E0,5.5697994E0,6.890176E0,3.2148466E0,3.4165478E0,4.251509E0,1.0853382E1,7.5489736E0,1.1465536E1,6.4915953E0,8.685484E0,0E0,5.5915318E0,4.0507364E0,4.26427E0,9.294302E0,0E0,0E0,0E0,1.329853E0,1.699348E0,0E0,9.550995E0,5.053437E0,8.703759E0,5.1289763E0,9.786785E0,7.9027514E0,2.46867E0,0E0,0E0,1.7926865E0,4.9972205E0,6.301132E0,0E0,0E0,4.133112E0,0E0,1.0697689E0,3.3544874E0,2.8379657E0,5.1805305E-1,0E0,0E0,0E0,0E0,0E0,0E0,0E0,0E0,0E0,0E0,0E0,0E0,0E0,0E0,0E0,0E0,0E0,0E0,0E0,0E0,0E0,0E0,0E0,0E0,0E0,0E0,0E0,0E0,0E0,0E0,0E0,0E0],"parents":[2147483647,0,0,1,1,2,2,3,3,4,4,5,5,6,6,7,7,8,8,9,9,10,10,11,11,12,12,13,13,14,14,15,15,16,16,17,17,18,18,19,19,21,21,22,22,23,23,24,24,28,28,29,29,31,31,32,32,33,33,34,34,35,35,36,36,37,37,40,40,41,41,42,42,45,45,47,47,48,48,49,49,50,50],"right_children":[2,4,6,8,10,12,14,16,18,20,22,24,26,28,30,32,34,36,38,40,-1,42,44,46,48,-1,-1,-1,50,52,-1,54,56,58,60,62,64,66,-1,-1,68,70,72,-1,-1,74,-1,76,78,80,82,-1,-1,-1,-1,-1,-1,-1,-1,-1,-1,-1,-1,-1,-1,-1,-1,-1,-1,-1,-1,-1,-1,-1,-1,-1,-1,-1,-1,-1,-1,-1,-1],"split_conditions":[1E4,1E4,8E3,8E3,6E3,1E4,1.2E4,1E4,1.2E4,1E4,1.2E4,8E3,1E4,4E3,8E3,1.2E4,8E3,1E4,1E4,4E3,2.9508516E-1,8E3,8E3,1.2E4,8E3,4.0357003E-1,-8.313598E-2,-4.0315524E-2,6E3,6E3,3.1928146E-1,1.4E4,1E4,1E4,1.2E4,1E4,1E4,1E4,-2.1872532E-1,3.1672835E-1,8E3,6E3,1.2E4,1.66159E-1,-3.475384E-1,1E4,1.9667931E-1,1.2E4,6E3,8E3,1E4,5.528532E-2,-3.3561942E-1,-2.893369E-1,2.4634908E-1,3.3289212E-1,-2.1125971E-1,-3.2346368E-1,3.4720406E-1,3.462072E-1,-1.8331826E-1,-1.5027143E-1,1.746824E-1,4.6667597E-1,-1.8155737E-1,4.720211E-1,2.3358976E-2,-4.660072E-1,-6.704812E-2,-1.3058457E-1,2.4407777E-1,5.2123773E-1,-6.575643E-2,-3.835005E-1,1.0738365E-1,4.3378624E-1,6.0131464E-2,1.0318967E-1,-3.966207E-1,-6.425165E-2,3.6875287E-1,5.093339E-1,1.7697553E-1],"split_indices":[118,88,57,52,11,91,22,112,105,102,49,106,108,33,130,87,26,85,42,61,0,58,125,79,27,0,0,0,98,89,0,107,66,10,134,27,131,110,0,0,118,75,116,0,0,0,0,6,3,35,37,0,0,0,0,0,0,0,0,0,0,0,0,0,0,0,0,0,0,0,0,0,0,0,0,0,0,0,0,0,0,0,0],"split_type":[0,0,0,0,0,0,0,0,0,0,0,0,0,0,0,0,0,0,0,0,0,0,0,0,0,0,0,0,0,0,0,0,0,0,0,0,0,0,0,0,0,0,0,0,0,0,0,0,0,0,0,0,0,0,0,0,0,0,0,0,0,0,0,0,0,0,0,0,0,0,0,0,0,0,0,0,0,0,0,0,0,0,0],"sum_hessian":[2.2407967E2,1.8023747E2,4.38422E1,1.4299724E2,3.724023E1,2.2975039E1,2.086716E1,7.636954E1,6.66277E1,9.784163E0,2.7456068E1,1.7803493E1,5.171545E0,1.6753897E1,4.1132636E0,6.132297E1,1.5046562E1,5.810448E1,8.523216E0,7.588719E0,2.195445E0,2.3802029E1,3.6540396E0,9.227746E0,8.5757475E0,3.9471426E0,1.2244023E0,1.4661212E0,1.5287776E1,2.9040284E0,1.2092354E0,5.6178333E1,5.144641E0,7.043397E0,8.003165E0,5.1261086E1,6.843396E0,7.306171E0,1.2170455E0,1.2205173E0,6.3682017E0,1.3031388E1,1.077064E1,1.9422473E0,1.7117922E0,7.9995565E0,1.228189E0,5.1413736E0,3.4343746E0,4.1196656E0,1.116811E1,1.1966296E0,1.7073987E0,5.374466E1,2.4336722E0,3.669042E0,1.4755989E0,5.5825458E0,1.4608512E0,6.5828204E0,1.4203453E0,4.1788456E1,9.472628E0,5.121511E0,1.7218852E0,5.8624177E0,1.4437535E0,4.674143E0,1.6940587E0,3.9377744E0,9.093614E0,9.051353E0,1.7192874E0,6.528065E0,1.4714916E0,3.9214041E0,1.2199693E0,1.4784415E0,1.955933E0,1.9367787E0,2.1828868E0,9.236678E0,1.9314321E0],"tree_param":{"num_deleted":"0","num_feature":"145","num_nodes":"83","size_leaf_vector":"1"}},{"base_weights":[1.6492717E-2,-9.854359E-2,5.9805024E-1,8.9506E-2,-4.431313E-1,5.857155E-2,9.1264296E-1,-1.385925E-2,7.536864E-1,-6.209614E-1,3.075738E-1,-7.0989245E-1,4.8051196E-1,1.3954848E0,4.505198E-1,-1.390069E-1,5.2212304E-1,1.0448861E0,-2.0810243E-1,-6.928845E-1,2.1875252E-1,-3.2117784E-1,9.9939364E-1,-3.3301082E-1,1.2821093E-1,-1.8440306E-1,8.602984E-1,1.5256416E0,6.185538E-2,-9.994192E-2,1.073411E0,-2.752564E-1,4.3640122E-1,8.556811E-1,-3.4645844E-1,4.568411E-1,4.1786352E-1,2.6095018E-1,-3.373135E-1,-8.450612E-1,-6.08156E-2,-7.9434055E-1,2.608543E-1,4.149851E-1,7.192119E-3,-1.7618647E-1,4.0620953E-1,4.8922387E-1,1.0847847E-1,-7.98105E-1,5.0878716E-1,1.6311778E-2,4.119508E-1,-1.1730844E-1,1.2843212E-1,3.1765935E-1,9.579215E-3,-6.769032E-2,3.560408E-1,-3.0050138E-1,1.4909407E-1,-1.8309237E-1,3.233738E-1,-2.9227895E-1,-3.1590898E-2,2.0578428E-1,-2.7422705E-1,-3.8775593E-1,1.3998462E-1,-2.8323016E-1,1.9701044E-1,-1.3238598E-2,-3.2521167E-1,3.8538548E-1,-1.8631747E-1],"categories":[],"categories_nodes":[],"categories_segments":[],"categories_sizes":[],"default_left":[0,0,0,0,0,0,0,0,0,0,0,0,0,0,0,0,0,0,0,0,0,0,0,0,0,0,0,0,0,0,0,0,0,0,0,0,0,0,0,0,0,0,0,0,0,0,0,0,0,0,0,0,0,0,0,0,0,0,0,0,0,0,0,0,0,0,0,0,0,0,0,0,0,0,0],"id":2,"left_children":[1,3,5,7,9,11,13,15,17,19,21,23,25,27,29,31,33,35,37,39,-1,41,43,-1,-1,-1,45,47,-1,49,51,53,55,57,59,61,-1,-1,-1,63,65,67,-1,-1,-1,69,-1,-1,-1,71,73,-1,-1,-1,-1,-1,-1,-1,-1,-1,-1,-1,-1,-1,-1,-1,-1,-1,-1,-1,-1,-1,-1,-1,-1],"loss_changes":[1.4522597E1,1.1791256E1,6.0299444E0,8.122338E0,8.760944E0,4.968666E0,4.4080353E0,6.996744E0,4.6790886E0,5.577286E0,5.9597745E0,2.960111E0,4.608926E0,1.3204174E0,4.5683355E0,6.7430196E0,6.018624E0,1.89995E0,5.4583554E0,4.7678375E0,0E0,4.9431477E0,2.3690658E0,0E0,0E0,0E0,4.1792107E0,5.559883E-1,0E0,3.7302287E0,1.8158407E0,5.779248E0,4.135511E0,5.480418E0,3.9196954E0,4.6980367E0,0E0,0E0,0E0,3.7495441E0,7.5085034E0,4.3245125E0,0E0,0E0,0E0,2.7750344E0,0E0,0E0,0E0,8.215265E-1,4.995863E0,0E0,0E0,0E0,0E0,0E0,0E0,0E0,0E0,0E0,0E0,0E0,0E0,0E0,0E0,0E0,0E0,0E0,0E0,0E0,0E0,0E0,0E0,0E0,0E0],"parents":[2147483647,0,0,1,1,2,2,3,3,4,4,5,5,6,6,7,7,8,8,9,9,10,10,11,11,12,12,13,13,14,14,15,15,16,16,17,17,18,18,19,19,21,21,22,22,26,26,27,27,29,29,30,30,31,31,32,32,33,33,34,34,35,35,39,39,40,40,41,41,45,45,49,49,50,50],"right_children":[2,4,6,8,10,12,14,16,18,20,22,24,26,28,30,32,34,36,38,40,-1,42,44,-1,-1,-1,46,48,-1,50,52,54,56,58,60,62,-1,-1,-1,64,66,68,-1,-1,-1,70,-1,-1,-1,72,74,-1,-1,-1,-1,-1,-1,-1,-1,-1,-1,-1,-1,-1,-1,-1,-1,-1,-1,-1,-1,-1,-1,-1,-1],"split_conditions":[1.2E4,8E3,6E3,1.2E4,1E4,6E3,6E3,1E4,1.4E4,1.4E4,8E3,8E3,6E3,1E4,8E3,1E4,8E3,6E3,6E3,1E4,2.1875252E-1,1E4,1E4,-3.3301082E-1,1.2821093E-1,-1.8440306E-1,6E3,1.2E4,6.185538E-2,1E4,6E3,1.2E4,6E3,6E3,8E3,6E3,4.1786352E-1,2.6095018E-1,-3.373135E-1,1E4,8E3,1E4,2.608543E-1,4.149851E-1,7.192119E-3,8E3,4.0620953E-1,4.8922387E-1,1.0847847E-1,6E3,6E3,1.6311778E-2,4.119508E-1,-1.1730844E-1,1.2843212E-1,3.1765935E-1,9.579215E-3,-6.769032E-2,3.560408E-1,-3.0050138E-1,1.4909407E-1,-1.8309237E-1,3.233738E-1,-2.9227895E-1,-3.1590898E-2,2.0578428E-1,-2.7422705E-1,-3.8775593E-1,1.3998462E-1,-2.8323016E-1,1.9701044E-1,-1.3238598E-2,-3.2521167E-1,3.8538548E-1,-1.8631747E-1],"split_indices":[100,138,118,9,126,48,133,74,8,65,102,84,23,36,106,34,140,139,29,111,0,46,139,0,0,0,86,57,0,102,50,127,38,106,68,77,0,0,0,57,54,79,0,0,0,43,0,0,0,49,138,0,0,0,0,0,0,0,0,0,0,0,0,0,0,0,0,0,0,0,0,0,0,0,0],"split_type":[0,0,0,0,0,0,0,0,0,0,0,0,0,0,0,0,0,0,0,0,0,0,0,0,0,0,0,0,0,0,0,0,0,0,0,0,0,0,0,0,0,0,0,0,0,0,0,0,0,0,0,0,0,0,0,0,0,0,0,0,0,0,0,0,0,0,0,0,0,0,0,0,0,0,0],"sum_hessian":[2.1519751E2,1.8035294E2,3.484457E1,1.1715756E2,6.3195377E1,1.3271738E1,2.1572832E1,1.0222724E2,1.4930316E1,5.123213E1,1.196325E1,4.462291E0,8.809447E0,9.562199E0,1.2010634E1,8.347673E1,1.875051E1,1.139413E1,3.536187E0,4.9103157E1,2.1289682E0,6.547965E0,5.4152846E0,3.3185909E0,1.1436999E0,2.1090648E0,6.7003827E0,8.364035E0,1.1981637E0,6.821705E0,5.1889296E0,6.7916565E1,1.5560168E1,1.355853E1,5.19198E0,5.0958447E0,6.2982845E0,1.6480517E0,1.8881351E0,3.9303486E1,9.799671E0,4.9240847E0,1.6238804E0,3.5858731E0,1.8294115E0,2.3694324E0,4.3309503E0,7.3036427E0,1.0603919E0,3.0325334E0,3.7891712E0,1.4479532E0,3.7409763E0,5.869894E1,9.217626E0,5.4913325E0,1.0068835E1,3.2532475E0,1.0305283E1,2.816455E0,2.375525E0,1.8810619E0,3.214783E0,3.318975E1,6.113735E0,5.3305855E0,4.469086E0,3.5116634E0,1.4124213E0,1.1633289E0,1.2061034E0,1.1512212E0,1.8813123E0,2.1653228E0,1.6238484E0],"tree_param":{"num_deleted":"0","num_feature":"145","num_nodes":"75","size_leaf_vector":"1"}},{"base_weights":[2.2639593E-2,1.8166158E-1,-2.6682553E-1,7.039276E-2,7.337324E-1,-1.3413589E-1,-8.246851E-1,-6.253741E-2,6.760048E-1,2.5752568E-1,1.2237313E0,-5.898834E-1,1.237677E-1,-1.0941097E0,9.815258E-2,-2.0770238E-1,5.1311094E-1,-1.7224519E-1,7.789301E-1,-5.3065944E-1,9.284203E-1,1.3472145E0,4.0903095E-2,-7.8032976E-1,5.5056536E-1,7.464247E-1,-2.349125E-1,-1.22694E0,3.4688811E-3,2.9604638E-1,-2.1829423E-1,-3.631369E-1,5.0651604E-1,8.7709606E-1,1.4482202E-2,9.4122916E-1,-1.8356802E-1,-9.9414635E-1,1.3799691E-1,9.362961E-4,4.0469068E-1,4.3272385E-1,8.9449465E-2,1.3613565E-1,-9.3751067E-1,-1.5683806E-1,3.5675266E-1,1.2020229E0,1.18663915E-1,-4.258879E-1,7.781661E-1,-3.8897598E-1,-9.921359E-2,-1.5578258E-1,1.0573287E-1,-7.8642145E-2,3.266731E-1,3.5312092E-1,-6.7733765E-2,2.7011806E-1,-1.3741699E-1,-2.4977684E-2,3.26196E-1,-2.5489584E-1,1.9601364E-1,-3.624776E-1,-4.9409408E-2,-1.7756668E-1,1.7272854E-1,-3.3022368E-1,9.2717856E-2,4.5862588E-1,3.935255E-2,-1.8308361E-1,2.2560993E-1,-1.9696479E-1,1.3603525E-1,4.1156182E-1,-8.9774825E-2],"categories":[],"categories_nodes":[],"categories_segments":[],"categories_sizes":[],"default_left":[0,0,0,0,0,0,0,0,0,0,0,0,0,0,0,0,0,0,0,0,0,0,0,0,0,0,0,0,0,0,0,0,0,0,0,0,0,0,0,0,0,0,0,0,0,0,0,0,0,0,0,0,0,0,0,0,0,0,0,0,0,0,0,0,0,0,0,0,0,0,0,0,0,0,0,0,0,0,0],"id":3,"left_children":[1,3,5,7,9,11,13,15,17,19,21,23,25,27,29,31,33,-1,35,37,39,41,-1,43,45,47,49,51,-1,-1,-1,53,55,57,59,61,63,65,-1,67,-1,-1,-1,-1,69,-1,-1,71,73,75,77,-1,-1,-1,-1,-1,-1,-1,-1,-1,-1,-1,-1,-1,-1,-1,-1,-1,-1,-1,-1,-1,-1,-1,-1,-1,-1,-1,-1],"loss_changes":[9.630649E0,8.238153E0,5.382976E0,9.173081E0,4.9421654E0,7.260419E0,3.6047754E0,7.9550004E0,3.0849085E0,7.204405E0,1.271574E0,5.2669506E0,9.081329E0,1.6253147E0,3.7242172E0,8.5897255E0,3.4725137E0,0E0,3.197711E0,3.4291482E0,2.814981E0,5.306587E-1,0E0,4.2077456E0,3.2081642E0,4.0944357E0,5.373844E0,1.8308353E-1,0E0,0E0,0E0,7.19598E0,6.530677E0,3.9325113E0,4.230148E0,2.5949745E0,2.5792882E0,6.4027834E-1,0E0,1.449379E0,0E0,0E0,0E0,0E0,3.9259586E0,0E0,0E0,2.7646465E0,3.8476114E0,4.8766246E0,3.281062E0,0E0,0E0,0E0,0E0,0E0,0E0,0E0,0E0,0E0,0E0,0E0,0E0,0E0,0E0,0E0,0E0,0E0,0E0,0E0,0E0,0E0,0E0,0E0,0E0,0E0,0E0,0E0,0E0],"parents":[2147483647,0,0,1,1,2,2,3,3,4,4,5,5,6,6,7,7,8,8,9,9,10,10,11,11,12,12,13,13,14,14,15,15,16,16,18,18,19,19,20,20,21,21,23,23,24,24,25,25,26,26,27,27,31,31,32,32,33,33,34,34,35,35,36,36,37,37,39,39,44,44,47,47,48,48,49,49,50,50],"right_children":[2,4,6,8,10,12,14,16,18,20,22,24,26,28,30,32,34,-1,36,38,40,42,-1,44,46,48,50,52,-1,-1,-1,54,56,58,60,62,64,66,-1,68,-1,-1,-1,-1,70,-1,-1,72,74,76,78,-1,-1,-1,-1,-1,-1,-1,-1,-1,-1,-1,-1,-1,-1,-1,-1,-1,-1,-1,-1,-1,-1,-1,-1,-1,-1,-1,-1],"split_conditions":[8E3,1.2E4,1.2E4,1.2E4,8E3,6E3,1.2E4,1E4,4E3,8E3,1E4,1E4,8E3,1.2E4,8E3,1E4,8E3,-1.7224519E-1,1E4,1E4,6E3,1.2E4,4.0903095E-2,4E3,8E3,8E3,1E4,1.2E4,3.4688811E-3,2.9604638E-1,-2.1829423E-1,1E4,6E3,1E4,6E3,4E3,8E3,8E3,1.3799691E-1,6E3,4.0469068E-1,4.3272385E-1,8.9449465E-2,1.3613565E-1,1.2E4,-1.5683806E-1,3.5675266E-1,1E4,8E3,1E4,1E4,-3.8897598E-1,-9.921359E-2,-1.5578258E-1,1.0573287E-1,-7.8642145E-2,3.266731E-1,3.5312092E-1,-6.7733765E-2,2.7011806E-1,-1.3741699E-1,-2.4977684E-2,3.26196E-1,-2.5489584E-1,1.9601364E-1,-3.624776E-1,-4.9409408E-2,-1.7756668E-1,1.7272854E-1,-3.3022368E-1,9.2717856E-2,4.5862588E-1,3.935255E-2,-1.8308361E-1,2.2560993E-1,-1.9696479E-1,1.3603525E-1,4.1156182E-1,-8.9774825E-2],"split_indices":[137,77,135,100,53,2,108,118,108,58,20,30,138,111,46,109,27,0,134,91,73,37,0,116,136,116,62,30,0,0,0,7,30,72,85,25,91,22,0,48,0,0,0,0,9,0,0,80,52,55,3,0,0,0,0,0,0,0,0,0,0,0,0,0,0,0,0,0,0,0,0,0,0,0,0,0,0,0,0],"split_type":[0,0,0,0,0,0,0,0,0,0,0,0,0,0,0,0,0,0,0,0,0,0,0,0,0,0,0,0,0,0,0,0,0,0,0,0,0,0,0,0,0,0,0,0,0,0,0,0,0,0,0,0,0,0,0,0,0,0,0,0,0,0,0,0,0,0,0,0,0,0,0,0,0,0,0,0,0,0,0],"sum_hessian":[2.0716649E2,1.3395096E2,7.321553E1,1.1242036E2,2.15306E1,6.0149193E1,1.3066336E1,9.292116E1,1.9499199E1,1.1692638E1,9.83796E0,2.1271896E1,3.8877296E1,9.969983E0,3.096352E0,7.471818E1,1.8202982E1,1.1349912E0,1.8364206E1,5.4724655E0,6.220173E0,8.620117E0,1.2178428E0,1.8498549E1,2.7733486E0,1.3814591E1,2.5062706E1,8.802781E0,1.1672022E0,1.3974863E0,1.6988657E0,6.1767376E1,1.2950799E1,1.0083379E1,8.119603E0,1.5733311E1,2.6308966E0,3.7257833E0,1.7466822E0,2.253187E0,3.9669857E0,7.559173E0,1.0609444E0,1.8766776E0,1.662187E1,1.1021839E0,1.6711645E0,7.4748964E0,6.3396945E0,2.157518E1,3.4875262E0,7.753533E0,1.0492481E0,5.0929066E1,1.0838312E1,5.8197103E0,7.1310883E0,7.874344E0,2.2090347E0,2.5094578E0,5.6101456E0,2.0172265E0,1.37160845E1,1.4565326E0,1.1743639E0,2.5983489E0,1.1274345E0,1.0946132E0,1.1585739E0,1.4800736E1,1.8211348E0,5.39975E0,2.0751467E0,2.964415E0,3.3752794E0,1.7292503E1,4.282676E0,2.0722947E0,1.4152313E0],"tree_param":{"num_deleted":"0","num_feature":"145","num_nodes":"79","size_leaf_vector":"1"}},{"base_weights":[2.6956804E-2,1.6193208E-1,-2.3750432E-1,-1.845056E-1,3.2142943E-1,-3.8288432E-1,3.8591096E-1,-3.0022737E-1,5.587071E-1,2.3102261E-1,1.0733621E0,-5.4733646E-1,1.887902E-1,6.397038E-1,-4.669324E-1,-4.6783057E-1,5.089819E-1,-3.235995E-2,3.2077402E-1,4.576314E-1,-3.683792E-2,1.2723494E0,2.231725E-2,-6.8985593E-1,4.043564E-1,-3.409779E-1,6.6589415E-1,1.0193204E0,-1.7159377E-1,-2.9068857E-1,1.2011229E-1,-8.44613E-1,-2.4617106E-2,-1.381528E-1,8.143469E-1,2.1173218E-1,-2.5129822E-1,7.305547E-1,9.6744284E-2,-2.0079772E-1,5.89082E-1,4.277733E-1,4.7874723E-2,-8.33336E-1,1.1519085E-1,-2.4980743E-1,8.760152E-1,-7.4127066E-1,2.1863769E-1,1.0061204E0,-7.341344E-2,3.5350904E-1,1.14428485E-2,-2.0091039E-1,2.1300232E-1,-2.9921392E-1,2.403345E-2,2.544882E-1,-1.08532764E-1,-1.0604233E-2,3.3708104E-1,-2.59691E-1,2.5299737E-1,-9.621135E-2,2.1459596E-1,-1.2626326E-1,1.6936743E-1,2.6797763E-1,-2.2022972E-1,-3.619939E-1,-1.5751134E-1,1.5839784E-1,-2.1012127E-1,-5.185475E-4,3.3776876E-1,3.7820596E-2,-2.948198E-1,3.8035274E-1,2.2616362E-2],"categories":[],"categories_nodes":[],"categories_segments":[],"categories_sizes":[],"default_left":[0,0,0,0,0,0,0,0,0,0,0,0,0,0,0,0,0,0,0,0,0,0,0,0,0,0,0,0,0,0,0,0,0,0,0,0,0,0,0,0,0,0,0,0,0,0,0,0,0,0,0,0,0,0,0,0,0,0,0,0,0,0,0,0,0,0,0,0,0,0,0,0,0,0,0,0,0,0,0],"id":4,"left_children":[1,3,5,7,9,11,13,15,17,19,21,23,25,27,29,31,33,35,-1,37,39,41,-1,43,45,47,49,51,53,-1,-1,55,57,-1,59,-1,-1,61,63,65,67,-1,-1,69,71,-1,73,75,-1,77,-1,-1,-1,-1,-1,-1,-1,-1,-1,-1,-1,-1,-1,-1,-1,-1,-1,-1,-1,-1,-1,-1,-1,-1,-1,-1,-1,-1,-1],"loss_changes":[7.0999126E0,7.329364E0,6.2430234E0,3.7897344E0,5.901308E0,5.2775497E0,3.1591585E0,5.2684865E0,1.8522234E0,4.99562E0,1.7807379E0,6.111004E0,3.5227091E0,3.441586E0,1.9593081E0,5.197318E0,2.4008465E0,2.827491E0,0E0,4.3130617E0,4.070974E0,1.106185E0,0E0,4.4584293E0,4.364967E0,3.469192E0,2.476585E0,1.1051073E0,2.3360603E0,0E0,0E0,2.4615564E0,4.8356824E0,0E0,1.5020647E0,0E0,0E0,5.2641945E0,5.475959E0,5.504113E0,3.9758496E0,0E0,0E0,3.0696106E0,2.5890222E0,0E0,1.0982292E0,1.2701247E0,0E0,1.2287397E0,0E0,0E0,0E0,0E0,0E0,0E0,0E0,0E0,0E0,0E0,0E0,0E0,0E0,0E0,0E0,0E0,0E0,0E0,0E0,0E0,0E0,0E0,0E0,0E0,0E0,0E0,0E0,0E0,0E0],"parents":[2147483647,0,0,1,1,2,2,3,3,4,4,5,5,6,6,7,7,8,8,9,9,10,10,11,11,12,12,13,13,14,14,15,15,16,16,17,17,19,19,20,20,21,21,23,23,24,24,25,25,26,26,27,27,28,28,31,31,32,32,34,34,37,37,38,38,39,39,40,40,43,43,44,44,46,46,47,47,49,49],"right_children":[2,4,6,8,10,12,14,16,18,20,22,24,26,28,30,32,34,36,-1,38,40,42,-1,44,46,48,50,52,54,-1,-1,56,58,-1,60,-1,-1,62,64,66,68,-1,-1,70,72,-1,74,76,-1,78,-1,-1,-1,-1,-1,-1,-1,-1,-1,-1,-1,-1,-1,-1,-1,-1,-1,-1,-1,-1,-1,-1,-1,-1,-1,-1,-1,-1,-1],"split_conditions":[8E3,6E3,1E4,1.2E4,1.2E4,1E4,1E4,1.2E4,1E4,8E3,1E4,1E4,8E3,1E4,8E3,8E3,6E3,8E3,3.2077402E-1,8E3,1E4,8E3,2.231725E-2,1.2E4,6E3,1E4,1.2E4,1E4,1E4,-2.9068857E-1,1.2011229E-1,1.2E4,6E3,-1.381528E-1,6E3,2.1173218E-1,-2.5129822E-1,4E3,1E4,8E3,1E4,4.277733E-1,4.7874723E-2,6E3,1E4,-2.4980743E-1,6E3,6E3,2.1863769E-1,8E3,-7.341344E-2,3.5350904E-1,1.14428485E-2,-2.0091039E-1,2.1300232E-1,-2.9921392E-1,2.403345E-2,2.544882E-1,-1.08532764E-1,-1.0604233E-2,3.3708104E-1,-2.59691E-1,2.5299737E-1,-9.621135E-2,2.1459596E-1,-1.2626326E-1,1.6936743E-1,2.6797763E-1,-2.2022972E-1,-3.619939E-1,-1.5751134E-1,1.5839784E-1,-2.1012127E-1,-5.185475E-4,3.3776876E-1,3.7820596E-2,-2.948198E-1,3.8035274E-1,2.2616362E-2],"split_indices":[135,90,119,29,17,128,14,56,74,28,61,39,123,136,105,14,30,127,0,74,75,138,0,100,89,70,136,3,36,0,0,49,12,0,8,0,0,59,74,136,116,0,0,115,133,0,137,40,0,56,0,0,0,0,0,0,0,0,0,0,0,0,0,0,0,0,0,0,0,0,0,0,0,0,0,0,0,0,0],"split_type":[0,0,0,0,0,0,0,0,0,0,0,0,0,0,0,0,0,0,0,0,0,0,0,0,0,0,0,0,0,0,0,0,0,0,0,0,0,0,0,0,0,0,0,0,0,0,0,0,0,0,0,0,0,0,0,0,0,0,0,0,0,0,0,0,0,0,0,0,0,0,0,0,0,0,0,0,0,0,0],"sum_hessian":[1.9682353E2,1.3057072E2,6.625281E1,4.1113335E1,8.94574E1,5.4037197E1,1.2215609E1,3.6089993E1,5.023343E0,8.1023026E1,8.43437E0,4.1998245E1,1.2038955E1,9.606716E0,2.6088924E0,3.024709E1,5.8429017E0,2.7621427E0,2.2612004E0,4.350745E1,3.7515575E1,6.805173E0,1.6291969E0,3.676733E1,5.2309136E0,5.839827E0,6.1991277E0,6.3697987E0,3.2369175E0,1.5781769E0,1.0307157E0,1.5859247E1,1.4387841E1,1.2778487E0,4.565053E0,1.5056566E0,1.2564859E0,2.4189587E1,1.9317865E1,3.0266466E1,7.249109E0,5.7326574E0,1.0725155E0,3.1175852E1,5.591479E0,1.232613E0,3.9983008E0,4.4731226E0,1.3667041E0,4.436604E0,1.7625239E0,5.308374E0,1.0614249E0,2.2218971E0,1.0150204E0,1.3543294E1,2.315953E0,3.5864475E0,1.0801394E1,1.4544892E0,3.1105638E0,1.1556662E0,2.303392E1,1.1821566E1,7.496299E0,2.385655E1,6.4099164E0,6.1583295E0,1.0907792E0,1.2783161E1,1.839269E1,3.9465947E0,1.6448842E0,1.106087E0,2.8922138E0,1.0781753E0,3.3949475E0,3.180148E0,1.2564561E0],"tree_param":{"num_deleted":"0","num_feature":"145","num_nodes":"79","size_leaf_vector":"1"}},{"base_weights":[2.5669787E-2,-5.4103848E-2,3.6346427E-1,2.1126424E-1,-2.1112189E-1,-2.157094E-1,4.504632E-1,-2.6696947E-1,4.360642E-1,-3.164904E-1,2.875876E-1,-1.4690197E-1,6.3287187E-1,2.6888663E-1,-4.854435E-1,-1.43342E-1,6.867222E-1,-4.1238105E-1,3.5094932E-1,-3.7608406E-1,5.930583E-1,-6.520646E-1,4.799583E-1,1.807793E-1,8.5596E-1,-6.460295E-1,1.5084088E-1,-4.0261543E-1,2.872838E-1,-1.961508E-1,8.121838E-1,-6.5045536E-1,-9.2833854E-2,-2.2516306E-1,7.259165E-1,-7.655093E-1,1.7601532E-1,-1.5475938E-1,7.606943E-1,-2.9334256E-1,7.6311985E-3,-8.885123E-2,2.613312E-1,-3.252318E-1,7.7087075E-1,1.1200352E0,4.35509E-1,-2.9310992E-1,1.7239931E-3,-1.920573E-1,1.4905858E-1,2.8794637E-1,1.1229392E-2,-2.298411E-1,5.975622E-3,-7.857996E-2,2.3996174E-1,3.0114356E-1,-4.7129933E-2,-4.3355577E-2,-3.1131387E-1,2.969629E-1,-7.941362E-2,-2.1890828E-1,2.2541432E-1,-3.8324084E-2,3.1432486E-1,3.689593E-1,6.831332E-2,2.657513E-1,-3.831933E-2],"categories":[],"categories_nodes":[],"categories_segments":[],"categories_sizes":[],"default_left":[0,0,0,0,0,0,0,0,0,0,0,0,0,0,0,0,0,0,0,0,0,0,0,0,0,0,0,0,0,0,0,0,0,0,0,0,0,0,0,0,0,0,0,0,0,0,0,0,0,0,0,0,0,0,0,0,0,0,0,0,0,0,0,0,0,0,0,0,0,0,0],"id":5,"left_children":[1,3,5,7,9,-1,11,13,15,17,19,21,23,-1,25,27,29,31,33,35,37,39,41,43,45,47,-1,49,-1,-1,51,53,55,-1,57,59,-1,-1,61,-1,-1,-1,-1,63,65,67,69,-1,-1,-1,-1,-1,-1,-1,-1,-1,-1,-1,-1,-1,-1,-1,-1,-1,-1,-1,-1,-1,-1,-1,-1],"loss_changes":[5.0779E0,6.408056E0,3.7133179E0,6.2735395E0,5.1591787E0,0E0,3.7898984E0,5.24685E0,5.811681E0,5.2712555E0,3.7398686E0,3.0832155E0,2.4856462E0,0E0,2.9573717E0,4.012608E0,5.178421E0,5.3028145E0,4.9239473E0,2.7286615E0,2.6728783E0,1.187546E0,1.6179918E0,3.212103E0,1.4288025E0,3.1785636E0,0E0,2.666271E0,0E0,0E0,2.9052181E0,3.1352978E0,4.9291997E0,0E0,2.2234197E0,6.5510154E-1,0E0,0E0,2.8613267E0,0E0,0E0,0E0,0E0,3.1795194E0,1.3468456E0,6.96681E-1,2.2172308E0,0E0,0E0,0E0,0E0,0E0,0E0,0E0,0E0,0E0,0E0,0E0,0E0,0E0,0E0,0E0,0E0,0E0,0E0,0E0,0E0,0E0,0E0,0E0,0E0],"parents":[2147483647,0,0,1,1,2,2,3,3,4,4,6,6,7,7,8,8,9,9,10,10,11,11,12,12,14,14,15,15,16,16,17,17,18,18,19,19,20,20,21,21,22,22,23,23,24,24,25,25,27,27,30,30,31,31,32,32,34,34,35,35,38,38,43,43,44,44,45,45,46,46],"right_children":[2,4,6,8,10,-1,12,14,16,18,20,22,24,-1,26,28,30,32,34,36,38,40,42,44,46,48,-1,50,-1,-1,52,54,56,-1,58,60,-1,-1,62,-1,-1,-1,-1,64,66,68,70,-1,-1,-1,-1,-1,-1,-1,-1,-1,-1,-1,-1,-1,-1,-1,-1,-1,-1,-1,-1,-1,-1,-1,-1],"split_conditions":[1E4,6E3,4E3,6E3,1E4,-2.157094E-1,6E3,4E3,6E3,1.2E4,6E3,8E3,6E3,2.6888663E-1,1.2E4,1.2E4,4E3,8E3,6E3,6E3,4E3,1E4,6E3,8E3,8E3,8E3,1.5084088E-1,1E4,2.872838E-1,-1.961508E-1,1E4,1E4,1.2E4,-2.2516306E-1,1E4,6E3,1.7601532E-1,-1.5475938E-1,1.2E4,-2.9334256E-1,7.6311985E-3,-8.885123E-2,2.613312E-1,1E4,6E3,1.2E4,8E3,-2.9310992E-1,1.7239931E-3,-1.920573E-1,1.4905858E-1,2.8794637E-1,1.1229392E-2,-2.298411E-1,5.975622E-3,-7.857996E-2,2.3996174E-1,3.0114356E-1,-4.7129933E-2,-4.3355577E-2,-3.1131387E-1,2.969629E-1,-7.941362E-2,-2.1890828E-1,2.2541432E-1,-3.8324084E-2,3.1432486E-1,3.689593E-1,6.831332E-2,2.657513E-1,-3.831933E-2],"split_indices":[118,133,32,17,109,0,105,19,89,39,129,41,56,0,106,55,63,85,31,128,103,24,45,60,27,14,0,120,0,0,3,74,95,0,31,14,0,0,76,0,0,0,0,96,65,22,37,0,0,0,0,0,0,0,0,0,0,0,0,0,0,0,0,0,0,0,0,0,0,0,0],"split_type":[0,0,0,0,0,0,0,0,0,0,0,0,0,0,0,0,0,0,0,0,0,0,0,0,0,0,0,0,0,0,0,0,0,0,0,0,0,0,0,0,0,0,0,0,0,0,0,0,0,0,0,0,0,0,0,0,0,0,0,0,0,0,0,0,0,0,0,0,0,0,0],"sum_hessian":[1.8670984E2,1.5171954E2,3.4990295E1,5.6271877E1,9.544767E1,2.062503E0,3.292779E1,1.7933348E1,3.833853E1,7.910051E1,1.6347162E1,7.748171E0,2.5179623E1,2.3449955E0,1.5588351E1,1.1706534E1,2.6631996E1,6.949793E1,9.602578E0,5.0797133E0,1.1267449E1,4.2683024E0,3.4798684E0,8.917825E0,1.6261797E1,1.3707265E1,1.8810871E0,9.988547E0,1.7179868E0,1.9187454E0,2.4713251E1,3.9232635E1,3.0265295E1,2.1843297E0,7.4182487E0,3.7627182E0,1.3169948E0,1.2068403E0,1.0060609E1,2.5830922E0,1.6852101E0,1.2474445E0,2.232424E0,5.0425863E0,3.8752384E0,8.966355E0,7.2954426E0,8.759655E0,4.94761E0,8.129577E0,1.8589709E0,2.0557016E1,4.1562333E0,3.333705E1,5.8955812E0,2.603941E1,4.2258854E0,5.5384393E0,1.8798093E0,1.6132518E0,2.1494665E0,8.251107E0,1.8095013E0,3.8997555E0,1.1428307E0,1.0396485E0,2.83559E0,7.646889E0,1.319466E0,3.7357984E0,3.559644E0],"tree_param":{"num_deleted":"0","num_feature":"145","num_nodes":"71","size_leaf_vector":"1"}},{"base_weights":[2.550342E-2,-9.0560205E-3,7.6830685E-1,4.1554864E-2,-5.3669786E-1,1.0147915E0,-9.000348E-2,3.2655278E-3,7.7589387E-1,2.3003727E-1,-8.4107643E-1,1.04456425E-1,3.4341443E-1,-7.458584E-2,3.2095522E-1,-1.12668395E-1,3.8615975E-1,-1.8083425E-1,7.230822E-1,-9.816794E-1,5.4385375E-2,-2.712456E-1,1.441465E-1,-6.6968046E-2,6.2760663E-1,-2.020023E-1,1.7794318E-1,4.072713E-3,3.1526405E-1,-3.3456045E-1,-3.0909054E-2,-1.1810516E-1,1.4989538E-1,1.12218745E-2,2.2443324E-1,-1.5101331E-1,1.5557031E-1,-1.2830344E-1,2.2863753E-1],"categories":[],"categories_nodes":[],"categories_segments":[],"categories_sizes":[],"default_left":[0,0,0,0,0,0,0,0,0,0,0,0,0,0,0,0,0,0,0,0,0,0,0,0,0,0,0,0,0,0,0,0,0,0,0,0,0,0,0],"id":6,"left_children":[1,3,5,7,9,11,-1,13,15,17,19,-1,-1,21,23,25,-1,-1,27,29,-1,31,33,35,37,-1,-1,-1,-1,-1,-1,-1,-1,-1,-1,-1,-1,-1,-1],"loss_changes":[4.575053E0,4.589448E0,2.3907037E0,4.4114733E0,3.7036433E0,1.7871952E-1,0E0,3.7390096E0,3.6776547E0,2.5133152E0,1.7564979E0,0E0,0E0,5.26365E0,3.5813863E0,1.8871518E0,0E0,0E0,8.305794E-1,1.0359507E0,0E0,6.2660074E0,3.7210665E0,3.8485913E0,2.698544E0,0E0,0E0,0E0,0E0,0E0,0E0,0E0,0E0,0E0,0E0,0E0,0E0,0E0,0E0],"parents":[2147483647,0,0,1,1,2,2,3,3,4,4,5,5,7,7,8,8,9,9,10,10,13,13,14,14,15,15,18,18,19,19,21,21,22,22,23,23,24,24],"right_children":[2,4,6,8,10,12,-1,14,16,18,20,-1,-1,22,24,26,-1,-1,28,30,-1,32,34,36,38,-1,-1,-1,-1,-1,-1,-1,-1,-1,-1,-1,-1,-1,-1],"split_conditions":[1.4E4,1.2E4,1E4,1.4E4,6E3,6E3,-9.000348E-2,1E4,6E3,8E3,1E4,1.04456425E-1,3.4341443E-1,8E3,8E3,8E3,3.8615975E-1,-1.8083425E-1,8E3,1.2E4,5.4385375E-2,1E4,1.2E4,8E3,4E3,-2.020023E-1,1.7794318E-1,4.072713E-3,3.1526405E-1,-3.3456045E-1,-3.0909054E-2,-1.1810516E-1,1.4989538E-1,1.12218745E-2,2.2443324E-1,-1.5101331E-1,1.5557031E-1,-1.2830344E-1,2.2863753E-1],"split_indices":[76,135,49,129,30,68,0,112,56,131,127,0,0,52,98,22,0,0,63,78,0,49,105,14,141,0,0,0,0,0,0,0,0,0,0,0,0,0,0],"split_type":[0,0,0,0,0,0,0,0,0,0,0,0,0,0,0,0,0,0,0,0,0,0,0,0,0,0,0,0,0,0,0,0,0,0,0,0,0,0,0],"sum_hessian":[1.769486E2,1.7002583E2,6.9227605E0,1.5598514E2,1.4040697E1,5.665669E0,1.2570913E0,1.4920961E2,6.7755256E0,4.059353E0,9.981343E0,1.5243851E0,4.141284E0,1.2045642E2,2.8753193E1,2.759546E0,4.01598E0,1.4267745E0,2.6325786E0,8.809575E0,1.1717684E0,6.3302124E1,5.7154297E1,1.3039477E1,1.5713716E1,1.5635346E0,1.1960114E0,1.1610162E0,1.4715623E0,7.413739E0,1.395836E0,5.5048344E1,8.2537775E0,4.9472775E1,7.6815233E0,7.5515175E0,5.4879603E0,1.5301898E0,1.4183526E1],"tree_param":{"num_deleted":"0","num_feature":"145","num_nodes":"39","size_leaf_vector":"1"}},{"base_weights":[2.4168711E-2,1.4332514E-1,-2.007232E-1,6.1589114E-2,5.8085984E-1,-4.2609674E-1,1.0151502E-1,-5.01316E-2,4.7292235E-1,9.8644733E-1,3.6241345E-2,6.1088866E-1,-5.4153144E-1,-3.2000282E-1,3.7152255E-1,-1.7281556E-1,3.5928348E-1,9.810192E-1,1.9464019E-1,1.1295685E0,1.844796E-2,4.6608442E-1,-5.1880485E-1,3.0341372E-1,-5.466691E-2,-6.9342077E-1,8.9352004E-2,-8.1255966E-1,2.758079E-1,5.7487965E-1,-4.6725526E-1,-4.046483E-1,1.4338283E-1,9.3000734E-1,3.900433E-2,3.376191E-1,3.5372394E-1,8.7540424E-1,-1.6467695E-1,7.178409E-2,3.7327957E-1,-1.4793503E-1,8.27328E-1,7.70691E-2,-2.6624358E-1,1.141373E-1,-7.9809666E-1,2.609431E-1,-4.4993144E-1,-3.278799E-1,-4.5654103E-2,-4.3650395E-1,2.761458E-1,8.571878E-1,2.5223093E-3,-2.6568398E-1,9.757793E-2,-1.6233972E-1,1.2258095E-1,-6.0027353E-2,1.5224522E-1,3.4694424E-1,-1.4993924E-2,-1.3771963E-1,1.6417134E-1,1.9638352E-1,-4.7058214E-2,1.5043797E-2,3.2392085E-1,1.7803079E-1,-1.6498657E-1,3.0915442E-1,5.549675E-2,-2.7729374E-1,2.1765072E-2,8.44867E-2,-2.4483363E-1,-2.4569923E-1,5.4917574E-2,-1.2956793E-2,3.2913446E-1,-2.7056623E-1,1.3157743E-1],"categories":[],"categories_nodes":[],"categories_segments":[],"categories_sizes":[],"default_left":[0,0,0,0,0,0,0,0,0,0,0,0,0,0,0,0,0,0,0,0,0,0,0,0,0,0,0,0,0,0,0,0,0,0,0,0,0,0,0,0,0,0,0,0,0,0,0,0,0,0,0,0,0,0,0,0,0,0,0,0,0,0,0,0,0,0,0,0,0,0,0,0,0,0,0,0,0,0,0,0,0,0,0],"id":7,"left_children":[1,3,5,7,9,11,13,15,17,19,21,23,25,27,29,31,33,35,37,39,-1,41,43,-1,-1,45,47,49,51,53,55,57,59,61,63,65,-1,67,69,-1,-1,-1,71,-1,-1,-1,73,-1,75,-1,-1,77,-1,79,81,-1,-1,-1,-1,-1,-1,-1,-1,-1,-1,-1,-1,-1,-1,-1,-1,-1,-1,-1,-1,-1,-1,-1,-1,-1,-1,-1,-1],"loss_changes":[4.652417E0,4.018514E0,4.1420946E0,4.464813E0,3.879766E0,4.480068E0,3.1362274E0,3.9248586E0,2.74126E0,1.2704535E0,2.2946584E0,1.4363962E0,3.101571E0,3.4196172E0,3.103974E0,4.4451504E0,3.2642274E0,5.055585E-1,3.726882E0,5.9145546E-1,0E0,2.270732E0,1.4372619E0,0E0,0E0,3.1902733E0,3.354798E0,9.842634E-1,3.0075548E0,2.2320843E0,1.5464082E0,4.082872E0,3.360035E0,1.4885826E0,3.4431274E0,5.839446E-1,0E0,8.258033E-1,3.3723202E0,0E0,0E0,0E0,3.6778498E-1,0E0,0E0,0E0,2.6738262E0,0E0,1.5217935E0,0E0,0E0,9.495208E-1,0E0,2.0471373E0,2.5924177E0,0E0,0E0,0E0,0E0,0E0,0E0,0E0,0E0,0E0,0E0,0E0,0E0,0E0,0E0,0E0,0E0,0E0,0E0,0E0,0E0,0E0,0E0,0E0,0E0,0E0,0E0,0E0,0E0],"parents":[2147483647,0,0,1,1,2,2,3,3,4,4,5,5,6,6,7,7,8,8,9,9,10,10,11,11,12,12,13,13,14,14,15,15,16,16,17,17,18,18,19,19,21,21,22,22,25,25,26,26,27,27,28,28,29,29,30,30,31,31,32,32,33,33,34,34,35,35,37,37,38,38,42,42,46,46,48,48,51,51,53,53,54,54],"right_children":[2,4,6,8,10,12,14,16,18,20,22,24,26,28,30,32,34,36,38,40,-1,42,44,-1,-1,46,48,50,52,54,56,58,60,62,64,66,-1,68,70,-1,-1,-1,72,-1,-1,-1,74,-1,76,-1,-1,78,-1,80,82,-1,-1,-1,-1,-1,-1,-1,-1,-1,-1,-1,-1,-1,-1,-1,-1,-1,-1,-1,-1,-1,-1,-1,-1,-1,-1,-1,-1],"split_conditions":[8E3,1.2E4,8E3,1E4,8E3,4E3,6E3,1E4,6E3,1E4,8E3,8E3,1E4,8E3,1E4,8E3,6E3,6E3,6E3,4E3,1.844796E-2,6E3,8E3,3.0341372E-1,-5.466691E-2,4E3,8E3,8E3,8E3,8E3,8E3,1.2E4,8E3,1E4,8E3,8E3,3.5372394E-1,6E3,6E3,7.178409E-2,3.7327957E-1,-1.4793503E-1,6E3,7.70691E-2,-2.6624358E-1,1.141373E-1,1.2E4,2.609431E-1,6E3,-3.278799E-1,-4.5654103E-2,8E3,2.761458E-1,6E3,8E3,-2.6568398E-1,9.757793E-2,-1.6233972E-1,1.2258095E-1,-6.0027353E-2,1.5224522E-1,3.4694424E-1,-1.4993924E-2,-1.3771963E-1,1.6417134E-1,1.9638352E-1,-4.7058214E-2,1.5043797E-2,3.2392085E-1,1.7803079E-1,-1.6498657E-1,3.0915442E-1,5.549675E-2,-2.7729374E-1,2.1765072E-2,8.44867E-2,-2.4483363E-1,-2.4569923E-1,5.4917574E-2,-1.2956793E-2,3.2913446E-1,-2.7056623E-1,1.3157743E-1],"split_indices":[138,79,106,87,50,106,63,144,29,15,88,119,46,118,142,53,126,10,80,93,0,0,55,0,0,105,137,58,17,133,20,81,57,110,32,41,0,83,110,0,0,0,137,0,0,0,71,0,121,0,0,47,0,59,134,0,0,0,0,0,0,0,0,0,0,0,0,0,0,0,0,0,0,0,0,0,0,0,0,0,0,0,0],"split_type":[0,0,0,0,0,0,0,0,0,0,0,0,0,0,0,0,0,0,0,0,0,0,0,0,0,0,0,0,0,0,0,0,0,0,0,0,0,0,0,0,0,0,0,0,0,0,0,0,0,0,0,0,0,0,0,0,0,0,0,0,0,0,0,0,0,0,0,0,0,0,0,0,0,0,0,0,0,0,0,0,0,0,0],"sum_hessian":[1.7154149E2,1.1236752E2,5.9173965E1,9.564147E1,1.6726055E1,3.3662582E1,2.551138E1,7.590368E1,1.9737795E1,9.1216955E0,7.604359E0,2.9419627E0,3.0720621E1,9.888675E0,1.5622705E1,5.884752E1,1.7056154E1,6.091133E0,1.3646663E1,7.707824E0,1.4138719E0,4.375855E0,3.2285044E0,1.7719789E0,1.1699837E0,2.4679695E1,6.040926E0,5.2142577E0,4.674417E0,1.2827395E1,2.79531E0,3.379195E1,2.505557E1,5.4466734E0,1.1609482E1,2.07032E0,4.020813E0,4.2183175E0,9.428345E0,1.2318988E0,6.4759254E0,1.0972639E0,3.278591E0,1.1377746E0,2.09073E0,1.9579804E0,2.2721716E1,2.2180433E0,3.8228824E0,3.2004533E0,2.0138044E0,2.3741283E0,2.3002887E0,8.257059E0,4.5703363E0,1.7526422E0,1.0426677E0,2.9222315E1,4.569635E0,1.3124787E1,1.1930783E1,4.2779484E0,1.1687253E0,5.9122286E0,5.6972528E0,1.0642377E0,1.0060822E0,1.0843294E0,3.1339881E0,2.9949317E0,6.433413E0,2.0316243E0,1.2469664E0,1.9791014E1,2.9307005E0,1.3522615E0,2.4706209E0,1.2688773E0,1.1052511E0,1.9098669E0,6.347192E0,1.1392678E0,3.4310687E0],"tree_param":{"num_deleted":"0","num_feature":"145","num_nodes":"83","size_leaf_vector":"1"}},{"base_weights":[2.8759511E-2,-4.710735E-2,3.4169796E-1,-1.3441035E-1,2.9502967E-1,-5.129367E-1,4.2806026E-1,2.1005439E-2,-4.1010243E-1,-2.9889788E-2,7.347749E-1,-2.5651917E-1,2.9285852E-2,-1.6106814E-1,5.1359737E-1,1.651057E-1,-2.6586473E-1,-5.445422E-1,4.1603193E-1,5.488994E-1,-2.699017E-1,9.2578536E-1,-1.2412993E-1,-1.485794E-1,5.844317E-1,-1.2007669E-1,4.586938E-1,1.9864166E-1,-6.0692877E-1,-6.8745977E-1,8.108637E-2,7.750405E-1,-1.6413523E-1,-6.906335E-2,3.0635843E-1,-4.8355803E-1,2.0254865E-1,1.0382662E0,-5.486778E-3,7.7053165E-1,1.8062754E-1,-9.922858E-2,1.8446629E-1,-1.3168623E-2,2.1353818E-1,-1.2681592E-1,2.1596524E-1,-2.534016E-1,1.70997E-1,-6.273734E-2,-2.6049405E-1,-1.8447194E-1,1.5916908E-1,2.760541E-1,3.7157103E-2,-1.9531442E-1,8.3205685E-2,3.5866812E-1,4.4096153E-2,2.524614E-1,-3.8643137E-2,-8.5208364E-2,1.8566602E-1],"categories":[],"categories_nodes":[],"categories_segments":[],"categories_sizes":[],"default_left":[0,0,0,0,0,0,0,0,0,0,0,0,0,0,0,0,0,0,0,0,0,0,0,0,0,0,0,0,0,0,0,0,0,0,0,0,0,0,0,0,0,0,0,0,0,0,0,0,0,0,0,0,0,0,0,0,0,0,0,0,0,0,0],"id":8,"left_children":[1,3,5,7,9,11,13,15,17,19,21,-1,-1,-1,23,25,27,29,31,33,35,37,-1,-1,39,41,43,45,47,49,51,53,-1,-1,-1,55,-1,57,-1,59,61,-1,-1,-1,-1,-1,-1,-1,-1,-1,-1,-1,-1,-1,-1,-1,-1,-1,-1,-1,-1,-1,-1],"loss_changes":[3.8950949E0,3.9938433E0,2.5815723E0,4.557079E0,3.9119947E0,7.920092E-1,2.7197337E0,2.8895187E0,4.4823904E0,2.4566374E0,2.9295945E0,0E0,0E0,0E0,2.2696643E0,3.9431496E0,3.82772E0,3.0411224E0,2.474454E0,2.1488118E0,2.833724E0,1.1086521E0,0E0,0E0,1.8410273E0,3.9736867E0,2.9683175E0,3.7570307E0,4.3257923E0,2.1788177E0,2.5484147E0,3.334055E-1,0E0,0E0,0E0,1.5455272E0,0E0,1.1121206E0,0E0,1.2407198E0,2.1346328E0,0E0,0E0,0E0,0E0,0E0,0E0,0E0,0E0,0E0,0E0,0E0,0E0,0E0,0E0,0E0,0E0,0E0,0E0,0E0,0E0,0E0,0E0],"parents":[2147483647,0,0,1,1,2,2,3,3,4,4,5,5,6,6,7,7,8,8,9,9,10,10,14,14,15,15,16,16,17,17,18,18,19,19,20,20,21,21,24,24,25,25,26,26,27,27,28,28,29,29,30,30,31,31,35,35,37,37,39,39,40,40],"right_children":[2,4,6,8,10,12,14,16,18,20,22,-1,-1,-1,24,26,28,30,32,34,36,38,-1,-1,40,42,44,46,48,50,52,54,-1,-1,-1,56,-1,58,-1,60,62,-1,-1,-1,-1,-1,-1,-1,-1,-1,-1,-1,-1,-1,-1,-1,-1,-1,-1,-1,-1,-1,-1],"split_conditions":[1E4,1E4,4E3,8E3,8E3,6E3,4E3,8E3,1.2E4,6E3,1E4,-2.5651917E-1,2.9285852E-2,-1.6106814E-1,4E3,8E3,6E3,1E4,8E3,6E3,1.2E4,1.2E4,-1.2412993E-1,-1.485794E-1,8E3,1E4,6E3,8E3,1.2E4,6E3,6E3,1.2E4,-1.6413523E-1,-6.906335E-2,3.0635843E-1,1E4,2.0254865E-1,1E4,-5.486778E-3,1.4E4,8E3,-9.922858E-2,1.8446629E-1,-1.3168623E-2,2.1353818E-1,-1.2681592E-1,2.1596524E-1,-2.534016E-1,1.70997E-1,-6.273734E-2,-2.6049405E-1,-1.8447194E-1,1.5916908E-1,2.760541E-1,3.7157103E-2,-1.9531442E-1,8.3205685E-2,3.5866812E-1,4.4096153E-2,2.524614E-1,-3.8643137E-2,-8.5208364E-2,1.8566602E-1],"split_indices":[119,88,33,134,54,3,39,138,95,29,43,0,0,0,23,144,65,46,4,105,1,18,0,0,136,83,8,126,106,71,40,92,0,0,0,95,0,0,0,68,126,0,0,0,0,0,0,0,0,0,0,0,0,0,0,0,0,0,0,0,0,0,0],"split_type":[0,0,0,0,0,0,0,0,0,0,0,0,0,0,0,0,0,0,0,0,0,0,0,0,0,0,0,0,0,0,0,0,0,0,0,0,0,0,0,0,0,0,0,0,0,0,0,0,0,0,0,0,0,0,0,0,0,0,0,0,0,0,0],"sum_hessian":[1.6238364E2,1.3138173E2,3.1001907E1,1.05156204E2,2.6225533E1,2.3919551E0,2.8609953E1,6.783782E1,3.7318382E1,1.5617836E1,1.0607697E1,1.2763058E0,1.1156492E0,1.8999261E0,2.6710026E1,4.5437946E1,2.2399874E1,3.2388535E1,4.929847E0,4.2007504E0,1.1417086E1,9.261407E0,1.34629E0,1.3592303E0,2.5350796E1,2.3348722E1,2.2089224E1,9.660501E0,1.2739373E1,2.6285166E1,6.10337E0,3.733508E0,1.1963384E0,1.7788625E0,2.421888E0,9.710179E0,1.7069063E0,8.186288E0,1.0751185E0,1.6731583E1,8.619213E0,1.8574196E1,4.774527E0,7.675098E0,1.4414126E1,4.493233E0,5.167267E0,1.0833298E1,1.9060755E0,7.8031445E0,1.8482021E1,2.2505145E0,3.852856E0,2.7152314E0,1.0182768E0,8.076729E0,1.6334505E0,6.6680946E0,1.5181934E0,1.5566802E1,1.1647813E0,4.3544326E0,4.264781E0],"tree_param":{"num_deleted":"0","num_feature":"145","num_nodes":"63","size_leaf_vector":"1"}},{"base_weights":[2.4880575E-2,-8.031216E-1,4.7147017E-2,-5.4246612E-2,-2.881312E-1,-2.051899E-2,3.1722134E-1,-8.4794775E-2,3.6169502E-1,6.7281865E-2,6.9312865E-1,-2.5497215E-2,-5.923891E-1,-1.8427902E-1,6.0338145E-1,-2.8197992E-1,4.3512368E-1,8.796566E-1,-5.7534043E-2,-7.4317175E-1,1.4565558E-2,1.411144E-1,-7.592087E-1,-6.3157237E-1,4.2807278E-1,2.5589254E-1,2.8788757E-1,-4.636248E-1,2.0854221E-1,8.3569074E-1,9.821618E-3,1.0413166E0,-4.106665E-2,-1.328248E-2,-2.837841E-1,-7.906783E-3,2.2438024E-1,-4.0111877E-2,-2.850261E-1,-4.857878E-2,-2.541145E-1,2.3797554E-1,-5.303535E-2,-7.091244E-2,2.0975815E-1,-2.0973389E-1,9.115304E-2,3.0205873E-1,2.2496521E-2,-1.3392544E-1,1.4425772E-1,3.3149308E-1,8.5686505E-2],"categories":[],"categories_nodes":[],"categories_segments":[],"categories_sizes":[],"default_left":[0,0,0,0,0,0,0,0,0,0,0,0,0,0,0,0,0,0,0,0,0,0,0,0,0,0,0,0,0,0,0,0,0,0,0,0,0,0,0,0,0,0,0,0,0,0,0,0,0,0,0,0,0],"id":9,"left_children":[1,3,5,-1,-1,7,9,11,13,15,17,19,21,23,25,27,29,31,-1,33,35,-1,37,39,41,43,-1,45,-1,47,49,51,-1,-1,-1,-1,-1,-1,-1,-1,-1,-1,-1,-1,-1,-1,-1,-1,-1,-1,-1,-1,-1],"loss_changes":[2.8975482E0,2.2941065E-1,2.7841246E0,0E0,0E0,3.0396264E0,2.8200967E0,3.165087E0,2.4628527E0,2.619468E0,2.162274E0,2.7609687E0,2.3085415E0,1.9779904E0,1.3126268E0,2.1993456E0,1.6713154E0,1.8112321E0,0E0,6.77542E-1,2.7678983E0,0E0,1.0545149E0,2.683121E-1,8.53173E-1,1.8533459E0,0E0,1.9325583E0,0E0,5.840161E-1,1.4597299E0,1.1145401E-1,0E0,0E0,0E0,0E0,0E0,0E0,0E0,0E0,0E0,0E0,0E0,0E0,0E0,0E0,0E0,0E0,0E0,0E0,0E0,0E0,0E0],"parents":[2147483647,0,0,1,1,2,2,5,5,6,6,7,7,8,8,9,9,10,10,11,11,12,12,13,13,14,14,15,15,16,16,17,17,19,19,20,20,22,22,23,23,24,24,25,25,27,27,29,29,30,30,31,31],"right_children":[2,4,6,-1,-1,8,10,12,14,16,18,20,22,24,26,28,30,32,-1,34,36,-1,38,40,42,44,-1,46,-1,48,50,52,-1,-1,-1,-1,-1,-1,-1,-1,-1,-1,-1,-1,-1,-1,-1,-1,-1,-1,-1,-1,-1],"split_conditions":[2E3,6E3,1E4,-5.4246612E-2,-2.881312E-1,1.2E4,8E3,1.2E4,6E3,8E3,1.2E4,4E3,4E3,8E3,8E3,1.4E4,8E3,1.2E4,-5.7534043E-2,6E3,1.4E4,1.411144E-1,6E3,1.2E4,6E3,8E3,2.8788757E-1,1E4,2.0854221E-1,1E4,6E3,1E4,-4.106665E-2,-1.328248E-2,-2.837841E-1,-7.906783E-3,2.2438024E-1,-4.0111877E-2,-2.850261E-1,-4.857878E-2,-2.541145E-1,2.3797554E-1,-5.303535E-2,-7.091244E-2,2.0975815E-1,-2.0973389E-1,9.115304E-2,3.0205873E-1,2.2496521E-2,-1.3392544E-1,1.4425772E-1,3.3149308E-1,8.5686505E-2],"split_indices":[40,79,88,0,0,119,54,134,83,114,125,31,86,131,94,101,131,140,0,58,107,0,1,120,86,21,0,120,0,68,53,43,0,0,0,0,0,0,0,0,0,0,0,0,0,0,0,0,0,0,0,0,0],"split_type":[0,0,0,0,0,0,0,0,0,0,0,0,0,0,0,0,0,0,0,0,0,0,0,0,0,0,0,0,0,0,0,0,0,0,0,0,0,0,0,0,0,0,0,0,0,0,0,0,0,0,0,0,0],"sum_hessian":[1.541085E2,3.117359E0,1.5099115E2,1.0627642E0,2.0545948E0,1.2147909E2,2.9512058E1,1.04657326E2,1.682176E1,1.8434204E1,1.1077854E1,9.465042E1,1.0006904E1,5.2344875E0,1.1587273E1,9.57565E0,8.858554E0,9.154197E0,1.9236572E0,4.076412E0,9.057401E1,1.1107655E0,8.896138E0,3.006787E0,2.2277005E0,6.7355547E0,4.8517184E0,8.517737E0,1.0579122E0,4.0650177E0,4.793536E0,7.877137E0,1.2770596E0,1.1907272E0,2.885685E0,8.670026E1,3.8737576E0,2.4775987E0,6.41854E0,1.4965217E0,1.5102654E0,1.1948484E0,1.0328519E0,3.4126906E0,3.3228638E0,6.585978E0,1.9317596E0,3.0541773E0,1.0108404E0,2.4615664E0,2.3319697E0,6.8388286E0,1.0383081E0],"tree_param":{"num_deleted":"0","num_feature":"145","num_nodes":"53","size_leaf_vector":"1"}},{"base_weights":[2.199161E-2,4.4133878E-1,-1.6418297E-2,8.634445E-1,-2.4360447E-1,-8.46862E-2,2.5704643E-1,1.47602325E-2,3.2997543E-1,1.7726806E-1,-5.6215113E-1,-1.5865074E-1,3.942832E-1,5.865575E-1,-1.1736787E-1,-2.4711993E-1,2.4156664E-2,-2.0717736E-1,5.428334E-1,-1.3806568E-1,5.678494E-1,-2.4706958E-2,7.9837257E-1,4.3164483E-1,-4.094569E-1,3.2481778E-1,-2.595974E-1,-4.7479976E-2,8.4957653E-1,3.6746606E-1,-2.2698979E-1,7.610492E-1,-1.2162697E-1,2.01504E-1,-5.4325575E-1,9.104348E-1,-4.4762403E-2,7.3569065E-1,-1.0730948E-1,-6.625633E-1,3.5571817E-1,2.8871706E-1,-5.3073548E-2,-1.0156876E-1,4.3914218E-2,2.9748055E-1,8.044866E-2,2.8153425E-3,1.6008025E-1,6.621669E-2,2.95925E-1,-1.9178131E-1,1.3827115E-1,-2.2025374E-1,-2.1998744E-2,3.212183E-1,-1.2633645E-2,5.2240614E-2,2.5940073E-1,-3.0132034E-1,7.489504E-2,2.0039527E-1,-4.0885907E-2],"categories":[],"categories_nodes":[],"categories_segments":[],"categories_sizes":[],"default_left":[0,0,0,0,0,0,0,0,0,0,0,0,0,0,0,0,0,0,0,0,0,0,0,0,0,0,0,0,0,0,0,0,0,0,0,0,0,0,0,0,0,0,0,0,0,0,0,0,0,0,0,0,0,0,0,0,0,0,0,0,0,0,0],"id":10,"left_children":[1,3,5,7,9,11,13,-1,-1,-1,15,17,19,21,23,-1,-1,25,27,29,31,33,35,37,39,41,43,-1,45,47,-1,49,51,-1,53,55,-1,57,-1,59,61,-1,-1,-1,-1,-1,-1,-1,-1,-1,-1,-1,-1,-1,-1,-1,-1,-1,-1,-1,-1,-1,-1],"loss_changes":[2.4205515E0,3.855499E0,2.6021965E0,1.4902372E0,1.8173938E0,4.0077033E0,3.5060592E0,0E0,0E0,0E0,8.322629E-1,3.4204445E0,1.4813097E0,1.9599643E0,2.401707E0,0E0,0E0,2.6391704E0,1.5460395E0,1.6969717E0,1.6438565E0,2.107759E0,1.3208003E0,1.5363601E0,2.0890522E0,2.9410179E0,2.7409034E0,0E0,1.2409854E-1,1.8357807E-1,0E0,9.0678453E-1,1.3232754E0,0E0,2.4396992E-1,1.5902367E0,0E0,1.5051723E-1,0E0,2.6020477E0,5.564521E-1,0E0,0E0,0E0,0E0,0E0,0E0,0E0,0E0,0E0,0E0,0E0,0E0,0E0,0E0,0E0,0E0,0E0,0E0,0E0,0E0,0E0,0E0],"parents":[2147483647,0,0,1,1,2,2,3,3,4,4,5,5,6,6,10,10,11,11,12,12,13,13,14,14,17,17,18,18,19,19,20,20,21,21,22,22,23,23,24,24,25,25,26,26,28,28,29,29,31,31,32,32,34,34,35,35,37,37,39,39,40,40],"right_children":[2,4,6,8,10,12,14,-1,-1,-1,16,18,20,22,24,-1,-1,26,28,30,32,34,36,38,40,42,44,-1,46,48,-1,50,52,-1,54,56,-1,58,-1,60,62,-1,-1,-1,-1,-1,-1,-1,-1,-1,-1,-1,-1,-1,-1,-1,-1,-1,-1,-1,-1,-1,-1],"split_conditions":[4E3,8E3,1E4,6E3,4E3,1.2E4,8E3,1.47602325E-2,3.2997543E-1,1.7726806E-1,8E3,1.4E4,6E3,6E3,6E3,-2.4711993E-1,2.4156664E-2,4E3,6E3,6E3,1E4,6E3,1.2E4,1E4,1.2E4,6E3,1.2E4,-4.7479976E-2,8E3,6E3,-2.2698979E-1,6E3,8E3,2.01504E-1,8E3,1E4,-4.4762403E-2,6E3,-1.0730948E-1,1.2E4,6E3,2.8871706E-1,-5.3073548E-2,-1.0156876E-1,4.3914218E-2,2.9748055E-1,8.044866E-2,2.8153425E-3,1.6008025E-1,6.621669E-2,2.95925E-1,-1.9178131E-1,1.3827115E-1,-2.2025374E-1,-2.1998744E-2,3.212183E-1,-1.2633645E-2,5.2240614E-2,2.5940073E-1,-3.0132034E-1,7.489504E-2,2.0039527E-1,-4.0885907E-2],"split_indices":[139,18,111,7,141,77,102,0,0,0,122,100,118,67,33,0,0,138,0,26,43,127,31,77,0,55,107,0,10,104,0,51,95,0,100,48,0,125,0,113,133,0,0,0,0,0,0,0,0,0,0,0,0,0,0,0,0,0,0,0,0,0,0],"split_type":[0,0,0,0,0,0,0,0,0,0,0,0,0,0,0,0,0,0,0,0,0,0,0,0,0,0,0,0,0,0,0,0,0,0,0,0,0,0,0,0,0,0,0,0,0,0,0,0,0,0,0,0,0,0,0,0,0,0,0,0,0,0,0],"sum_hessian":[1.4882881E2,1.1607843E1,1.3722096E2,7.020658E0,4.587185E0,1.1036076E2,2.6860209E1,1.8519484E0,5.1687098E0,1.0310838E0,3.556101E0,9.61774E1,1.4183367E1,1.3985435E1,1.2874774E1,2.3271656E0,1.2289356E0,9.061366E1,5.5637293E0,3.537612E0,1.0645755E1,3.8264017E0,1.0159033E1,4.305097E0,8.569676E0,7.6616306E0,8.2952034E1,1.8406755E0,3.7230537E0,2.1700504E0,1.3675616E0,8.23453E0,2.4112246E0,1.5071126E0,2.3192892E0,9.119721E0,1.0393107E0,3.1570203E0,1.1480767E0,6.5403476E0,2.0293293E0,2.9697187E0,4.691912E0,6.958366E1,1.3368377E1,2.4251497E0,1.2979039E0,1.0225549E0,1.1474954E0,3.006271E0,5.228259E0,1.2251438E0,1.1860808E0,1.2493657E0,1.0699235E0,7.6999235E0,1.4197983E0,1.0286266E0,2.1283937E0,4.684024E0,1.8563237E0,1.0226154E0,1.0067139E0],"tree_param":{"num_deleted":"0","num_feature":"145","num_nodes":"63","size_leaf_vector":"1"}},{"base_weights":[2.8134678E-2,-3.057289E-2,2.8641498E-1,1.2734814E-2,-5.426931E-1,5.9215534E-1,-1.446651E-1,-6.2039897E-2,3.4587106E-1,8.948279E-2,-7.9686785E-1,2.6786804E-1,1.0207922E0,2.8088295E-1,-6.6896254E-1,-1.10546306E-1,5.4403335E-1,6.846253E-1,-1.1645883E-3,-1.2131062E-1,1.6682467E-1,-2.7225474E-1,-3.8420495E-2,-1.3940641E-1,5.9331286E-1,3.5730803E-1,3.80083E-2,-1.3350122E-1,5.332677E-1,-2.7085555E-1,3.864064E-2,-1.5444225E-1,6.641816E-1,8.430408E-1,-7.204086E-2,8.352034E-1,-7.087366E-2,-4.7910258E-1,5.164752E-1,-2.1925077E-1,3.1640548E-1,-4.059971E-2,8.25355E-1,-5.6764066E-2,8.243597E-1,2.3441887E-1,-5.5922285E-2,-6.3755974E-2,3.0057952E-1,4.6720758E-2,3.1164014E-1,1.2757562E-1,-1.5627217E-1,7.390281E-2,3.0629316E-1,-2.2383799E-1,1.1989064E-1,-1.0771697E-1,2.4702191E-1,2.1686722E-1,-4.919465E-2,3.0040812E-1,5.350114E-2,2.8737488E-1,5.805603E-2],"categories":[],"categories_nodes":[],"categories_segments":[],"categories_sizes":[],"default_left":[0,0,0,0,0,0,0,0,0,0,0,0,0,0,0,0,0,0,0,0,0,0,0,0,0,0,0,0,0,0,0,0,0,0,0,0,0,0,0,0,0,0,0,0,0,0,0,0,0,0,0,0,0,0,0,0,0,0,0,0,0,0,0,0,0],"id":11,"left_children":[1,3,5,7,9,11,13,15,17,19,21,23,25,27,29,31,33,35,37,-1,-1,-1,-1,39,41,-1,-1,-1,43,-1,-1,45,47,49,51,53,-1,55,57,-1,59,-1,61,-1,63,-1,-1,-1,-1,-1,-1,-1,-1,-1,-1,-1,-1,-1,-1,-1,-1,-1,-1,-1,-1],"loss_changes":[2.182721E0,2.6178637E0,3.5980637E0,2.7496476E0,1.5499144E0,1.921103E0,2.834444E0,2.7146018E0,2.378863E0,1.0400947E0,3.769312E-1,1.4537287E0,8.299408E-1,1.5658591E0,1.1630595E0,2.9739168E0,1.3243914E0,1.61696E0,2.9664776E0,0E0,0E0,0E0,0E0,1.6880614E0,1.1159651E0,0E0,0E0,0E0,1.3832995E0,0E0,0E0,2.5602493E0,1.60939E0,4.7019792E-1,9.275025E-1,7.352061E-1,0E0,1.7607466E0,1.8428006E0,0E0,8.5076475E-1,0E0,3.5049295E-1,0E0,1.8082666E-1,0E0,0E0,0E0,0E0,0E0,0E0,0E0,0E0,0E0,0E0,0E0,0E0,0E0,0E0,0E0,0E0,0E0,0E0,0E0,0E0],"parents":[2147483647,0,0,1,1,2,2,3,3,4,4,5,5,6,6,7,7,8,8,9,9,10,10,11,11,12,12,13,13,14,14,15,15,16,16,17,17,18,18,23,23,24,24,28,28,31,31,32,32,33,33,34,34,35,35,37,37,38,38,40,40,42,42,44,44],"right_children":[2,4,6,8,10,12,14,16,18,20,22,24,26,28,30,32,34,36,38,-1,-1,-1,-1,40,42,-1,-1,-1,44,-1,-1,46,48,50,52,54,-1,56,58,-1,60,-1,62,-1,64,-1,-1,-1,-1,-1,-1,-1,-1,-1,-1,-1,-1,-1,-1,-1,-1,-1,-1,-1,-1],"split_conditions":[1E4,1.2E4,8E3,1E4,6E3,8E3,8E3,1.4E4,8E3,8E3,1E4,8E3,1E4,6E3,1.2E4,1.4E4,8E3,1E4,8E3,-1.2131062E-1,1.6682467E-1,-2.7225474E-1,-3.8420495E-2,8E3,6E3,3.5730803E-1,3.80083E-2,-1.3350122E-1,6E3,-2.7085555E-1,3.864064E-2,2E3,6E3,8E3,8E3,6E3,-7.087366E-2,1E4,6E3,-2.1925077E-1,6E3,-4.059971E-2,8E3,-5.6764066E-2,1.2E4,2.3441887E-1,-5.5922285E-2,-6.3755974E-2,3.0057952E-1,4.6720758E-2,3.1164014E-1,1.2757562E-1,-1.5627217E-1,7.390281E-2,3.0629316E-1,-2.2383799E-1,1.1989064E-1,-1.0771697E-1,2.4702191E-1,2.1686722E-1,-4.919465E-2,3.0040812E-1,5.350114E-2,2.8737488E-1,5.805603E-2],"split_indices":[127,135,65,67,30,4,49,92,92,130,102,26,69,57,97,22,29,137,16,0,0,0,0,86,91,0,0,0,142,0,0,12,32,24,9,50,0,103,36,0,116,0,135,0,141,0,0,0,0,0,0,0,0,0,0,0,0,0,0,0,0,0,0,0,0],"split_type":[0,0,0,0,0,0,0,0,0,0,0,0,0,0,0,0,0,0,0,0,0,0,0,0,0,0,0,0,0,0,0,0,0,0,0,0,0,0,0,0,0,0,0,0,0,0,0,0,0,0,0,0,0,0,0,0,0,0,0,0,0,0,0,0,0],"sum_hessian":[1.4237291E2,1.1672316E2,2.564975E1,1.0852115E2,8.202012E0,1.4787891E1,1.0861859E1,8.929259E1,1.9228561E1,2.5378625E0,5.6641493E0,9.343758E0,5.444134E0,6.251816E0,4.610043E0,8.343274E1,5.859846E0,9.238115E0,9.990446E0,1.2977195E0,1.2401431E0,4.5538216E0,1.1103278E0,4.4040275E0,4.9397297E0,4.294392E0,1.1497424E0,1.4160112E0,4.835805E0,3.4630237E0,1.1470193E0,7.971666E1,3.7160816E0,3.6970837E0,2.1627624E0,8.019774E0,1.2183409E0,5.2331314E0,4.757314E0,1.6542357E0,2.7497916E0,1.2937979E0,3.645932E0,1.4893277E0,3.346477E0,1.8585799E0,7.785808E1,1.1365926E0,2.579489E0,1.217618E0,2.4794657E0,1.0509917E0,1.1117707E0,2.4811442E0,5.5386305E0,4.129272E0,1.1038597E0,1.1907711E0,3.5665433E0,1.2160286E0,1.533763E0,2.4357033E0,1.2102288E0,2.3338864E0,1.0125908E0],"tree_param":{"num_deleted":"0","num_feature":"145","num_nodes":"65","size_leaf_vector":"1"}},{"base_weights":[3.2674886E-2,-8.627261E-2,1.5783659E-1,7.292003E-1,-1.3556054E-1,5.9013914E-2,5.7792544E-1,1.3198837E-2,2.97598E-1,-2.1620049E-1,3.8014868E-1,-3.4998575E-1,2.2310182E-1,-1.5882689E-1,7.539764E-1,-3.1566235E-1,1.956361E-1,6.854198E-1,-1.4391093E-1,-5.101729E-1,4.2216015E-1,-6.474835E-1,2.988509E-1,1.4533821E-1,1.0079292E0,-4.1909656E-1,3.1601968E-1,-1.8429147E-1,4.8496434E-1,-2.917569E-2,8.562157E-1,-1.5900187E-1,8.956342E-2,-6.6062206E-1,2.1487707E-1,2.2498421E-1,-5.1251974E-2,-2.5470096E-1,-2.323026E-2,3.870864E-1,-1.5909837E-1,-1.23578876E-1,1.8544316E-1,3.348072E-1,4.480547E-2,-1.4316611E-1,1.23028964E-1,-1.7324637E-1,2.1291213E-1,1.2190635E-1,-1.7837033E-1,-4.7681376E-2,2.0667562E-1,3.193051E-1,5.498972E-3,-1.0437839E-2,-2.6319242E-1,2.0637597E-1,-1.19019575E-1,-1.4468715E-1,1.3371275E-1,1.493938E-1,-1.7444333E-1],"categories":[],"categories_nodes":[],"categories_segments":[],"categories_sizes":[],"default_left":[0,0,0,0,0,0,0,0,0,0,0,0,0,0,0,0,0,0,0,0,0,0,0,0,0,0,0,0,0,0,0,0,0,0,0,0,0,0,0,0,0,0,0,0,0,0,0,0,0,0,0,0,0,0,0,0,0,0,0,0,0,0,0],"id":12,"left_children":[1,3,5,7,9,11,13,-1,-1,15,17,19,21,-1,23,25,27,29,31,33,35,37,39,41,43,45,47,49,51,-1,53,-1,-1,55,57,-1,-1,-1,-1,59,61,-1,-1,-1,-1,-1,-1,-1,-1,-1,-1,-1,-1,-1,-1,-1,-1,-1,-1,-1,-1,-1,-1],"loss_changes":[2.0636437E0,2.9625635E0,2.766057E0,7.1581984E-1,2.9113941E0,3.8174796E0,2.881215E0,0E0,0E0,2.4977455E0,1.6283592E0,2.2367873E0,2.8561363E0,0E0,1.6152062E0,3.2871761E0,1.4288896E0,9.1417646E-1,9.006846E-1,1.6677797E0,7.8028166E-1,3.41802E-1,1.5901275E0,1.4466298E0,5.6405735E-1,2.2160645E0,3.0001698E0,1.693814E0,1.054143E0,0E0,8.880899E-1,0E0,0E0,1.5736513E0,1.1866628E0,0E0,0E0,0E0,0E0,1.8462806E0,2.1823115E0,0E0,0E0,0E0,0E0,0E0,0E0,0E0,0E0,0E0,0E0,0E0,0E0,0E0,0E0,0E0,0E0,0E0,0E0,0E0,0E0,0E0,0E0],"parents":[2147483647,0,0,1,1,2,2,3,3,4,4,5,5,6,6,9,9,10,10,11,11,12,12,14,14,15,15,16,16,17,17,18,18,19,19,20,20,21,21,22,22,23,23,24,24,25,25,26,26,27,27,28,28,30,30,33,33,34,34,39,39,40,40],"right_children":[2,4,6,8,10,12,14,-1,-1,16,18,20,22,-1,24,26,28,30,32,34,36,38,40,42,44,46,48,50,52,-1,54,-1,-1,56,58,-1,-1,-1,-1,60,62,-1,-1,-1,-1,-1,-1,-1,-1,-1,-1,-1,-1,-1,-1,-1,-1,-1,-1,-1,-1,-1,-1],"split_conditions":[8E3,4E3,1.2E4,8E3,1E4,6E3,6E3,1.3198837E-2,2.97598E-1,1E4,1.2E4,1.2E4,4E3,-1.5882689E-1,6E3,1.2E4,8E3,6E3,8E3,1E4,8E3,8E3,1E4,6E3,1E4,1.4E4,6E3,1E4,6E3,-2.917569E-2,8E3,-1.5900187E-1,8.956342E-2,6E3,8E3,2.2498421E-1,-5.1251974E-2,-2.5470096E-1,-2.323026E-2,4E3,6E3,-1.23578876E-1,1.8544316E-1,3.348072E-1,4.480547E-2,-1.4316611E-1,1.23028964E-1,-1.7324637E-1,2.1291213E-1,1.2190635E-1,-1.7837033E-1,-4.7681376E-2,2.0667562E-1,3.193051E-1,5.498972E-3,-1.0437839E-2,-2.6319242E-1,2.0637597E-1,-1.19019575E-1,-1.4468715E-1,1.3371275E-1,1.493938E-1,-1.7444333E-1],"split_indices":[97,21,89,87,61,32,96,0,0,118,59,55,88,0,137,27,22,25,125,11,65,94,63,144,60,107,114,119,68,0,66,0,0,118,5,0,0,0,0,44,86,0,0,0,0,0,0,0,0,0,0,0,0,0,0,0,0,0,0,0,0,0,0],"split_type":[0,0,0,0,0,0,0,0,0,0,0,0,0,0,0,0,0,0,0,0,0,0,0,0,0,0,0,0,0,0,0,0,0,0,0,0,0,0,0,0,0,0,0,0,0,0,0,0,0,0,0,0,0,0,0,0,0,0,0,0,0,0,0],"sum_hessian":[1.3669963E2,7.0249084E1,6.645055E1,3.2176762E0,6.703141E1,5.4718838E1,1.1731708E1,1.215586E0,2.0020902E0,5.846948E1,8.56193E0,1.5342859E1,3.9375977E1,1.3339624E0,1.0397745E1,4.7283627E1,1.1185853E1,5.215774E0,3.3461561E0,1.298774E1,2.3551192E0,2.5476816E0,3.6828297E1,3.524066E0,6.873679E0,4.091979E1,6.363836E0,4.9927397E0,6.1931133E0,1.0114411E0,4.204333E0,1.6812184E0,1.6649377E0,1.0829466E1,2.1582737E0,1.3462812E0,1.008838E0,1.5207331E0,1.0269486E0,3.100847E1,5.819827E0,1.6766518E0,1.8474143E0,5.8387327E0,1.0349466E0,3.8636005E1,2.2837825E0,1.8035817E0,4.560254E0,2.0504332E0,2.9423063E0,1.5428658E0,4.6502476E0,3.151264E0,1.0530688E0,3.0837092E0,7.7457566E0,1.1466433E0,1.0116305E0,1.5022998E0,2.950617E1,2.2071974E0,3.6126294E0],"tree_param":{"num_deleted":"0","num_feature":"145","num_nodes":"63","size_leaf_vector":"1"}},{"base_weights":[2.9316705E-2,5.1687853E-3,5.929032E-1,-2.1119965E-2,5.599679E-1,-1.4533827E-2,2.5433502E-1,1.4912139E-1,-9.9327736E-2,-1.4286019E-1,2.901877E-1,-2.0264657E-1,3.3765435E-1,-1.4564553E-1,7.2205585E-1,-5.8965743E-2,-5.3311903E-3,-3.9865747E-1,3.4241858E-1,3.4195308E-2,6.6905403E-1,-3.283156E-1,7.5494885E-2,1.8597959E-2,2.796833E-1,-2.2087647E-1,3.764367E-2,-6.7245856E-2,1.9583236E-1,1.2512226E-1,-1.1613479E-1,2.3622493E-1,-5.7065416E-2,-3.2688644E-2,-1.788147E-1,-3.7648175E-2,1.1236526E-1],"categories":[],"categories_nodes":[],"categories_segments":[],"categories_sizes":[],"default_left":[0,0,0,0,0,0,0,0,0,0,0,0,0,0,0,0,0,0,0,0,0,0,0,0,0,0,0,0,0,0,0,0,0,0,0,0,0],"id":13,"left_children":[1,3,5,7,9,-1,-1,11,13,15,-1,17,19,21,23,-1,-1,25,27,29,31,33,35,-1,-1,-1,-1,-1,-1,-1,-1,-1,-1,-1,-1,-1,-1],"loss_changes":[1.791745E0,1.8709742E0,9.253762E-1,1.6480231E0,1.7995118E0,0E0,0E0,2.6557841E0,3.3257813E0,1.6659837E-2,0E0,1.6577072E0,2.5692227E0,3.2955031E0,5.9252214E-1,0E0,0E0,2.0271916E0,9.031135E-1,2.5018535E0,1.3973484E0,2.550057E0,2.2973883E0,0E0,0E0,0E0,0E0,0E0,0E0,0E0,0E0,0E0,0E0,0E0,0E0,0E0,0E0],"parents":[2147483647,0,0,1,1,2,2,3,3,4,4,7,7,8,8,9,9,11,11,12,12,13,13,14,14,17,17,18,18,19,19,20,20,21,21,22,22],"right_children":[2,4,6,8,10,-1,-1,12,14,16,-1,18,20,22,24,-1,-1,26,28,30,32,34,36,-1,-1,-1,-1,-1,-1,-1,-1,-1,-1,-1,-1,-1,-1],"split_conditions":[1.4E4,1.4E4,6E3,6E3,6E3,-1.4533827E-2,2.5433502E-1,6E3,1.4E4,8E3,2.901877E-1,1E4,8E3,8E3,6E3,-5.8965743E-2,-5.3311903E-3,8E3,6E3,8E3,1.2E4,8E3,8E3,1.8597959E-2,2.796833E-1,-2.2087647E-1,3.764367E-2,-6.7245856E-2,1.9583236E-1,1.2512226E-1,-1.1613479E-1,2.3622493E-1,-5.7065416E-2,-3.2688644E-2,-1.788147E-1,-3.7648175E-2,1.1236526E-1],"split_indices":[76,129,45,55,58,0,0,124,70,103,0,29,74,100,63,0,0,24,143,21,10,74,11,0,0,0,0,0,0,0,0,0,0,0,0,0,0],"split_type":[0,0,0,0,0,0,0,0,0,0,0,0,0,0,0,0,0,0,0,0,0,0,0,0,0,0,0,0,0,0,0,0,0,0,0,0,0],"sum_hessian":[1.3087973E2,1.2647006E2,4.4096756E0,1.216669E2,4.8031645E0,1.4844109E0,2.9252646E0,3.8013348E1,8.365355E1,2.0005453E0,2.8026195E0,1.3238281E1,2.4775066E1,7.99669E1,3.6866486E0,1.0000143E0,1.0005308E0,9.934383E0,3.303898E0,1.3508586E1,1.12664795E1,4.35272E1,3.6439705E1,1.2033175E0,2.483331E0,5.7962832E0,4.1380997E0,1.2675936E0,2.0363045E0,7.0823503E0,6.4262357E0,9.975945E0,1.2905345E0,2.4698633E1,1.8828566E1,2.2140163E1,1.42995405E1],"tree_param":{"num_deleted":"0","num_feature":"145","num_nodes":"37","size_leaf_vector":"1"}},{"base_weights":[2.7630553E-2,4.1348824E-1,-6.231776E-3,7.32946E-1,-1.4875306E-1,-2.107698E-1,1.3613665E-2,1.0304832E-2,2.8014237E-1,-1.7412725E-1,9.647761E-2,3.960503E-1,-2.2093363E-2,5.921691E-1,-1.1829416E-1,-8.666897E-2,2.7989033E-1,-6.456876E-2,7.3900616E-1,-1.6217911E-1,2.225648E-1,-2.1625139E-1,5.4568684E-1,2.817799E-1,3.2316726E-2,-5.917393E-2,1.857171E-1,-1.0825245E-2,1.591894E-1,5.409536E-2,-2.5102702E-1,2.3212242E-1,-8.941251E-2],"categories":[],"categories_nodes":[],"categories_segments":[],"categories_sizes":[],"default_left":[0,0,0,0,0,0,0,0,0,0,0,0,0,0,0,0,0,0,0,0,0,0,0,0,0,0,0,0,0,0,0,0,0],"id":14,"left_children":[1,3,5,7,9,-1,11,-1,-1,-1,-1,13,15,17,-1,19,21,-1,23,25,27,29,31,-1,-1,-1,-1,-1,-1,-1,-1,-1,-1],"loss_changes":[1.67944E0,1.9714124E0,1.6535988E0,9.194083E-1,1.1182137E0,0E0,1.6017252E0,0E0,0E0,0E0,0E0,1.7857721E0,2.1232953E0,1.1576686E0,0E0,2.1245418E0,2.6498036E0,0E0,8.2833385E-1,2.1073415E0,1.4514197E0,1.9751571E0,2.6906977E0,0E0,0E0,0E0,0E0,0E0,0E0,0E0,0E0,0E0,0E0],"parents":[2147483647,0,0,1,1,2,2,3,3,4,4,6,6,11,11,12,12,13,13,15,15,16,16,18,18,19,19,20,20,21,21,22,22],"right_children":[2,4,6,8,10,-1,12,-1,-1,-1,-1,14,16,18,-1,20,22,-1,24,26,28,30,32,-1,-1,-1,-1,-1,-1,-1,-1,-1,-1],"split_conditions":[4E3,8E3,2E3,6E3,6E3,-2.107698E-1,4E3,1.0304832E-2,2.8014237E-1,-1.7412725E-1,9.647761E-2,8E3,1E4,2E3,-1.1829416E-1,1E4,6E3,-6.456876E-2,8E3,1.4E4,8E3,8E3,1E4,2.817799E-1,3.2316726E-2,-5.917393E-2,1.857171E-1,-1.0825245E-2,1.591894E-1,5.409536E-2,-2.5102702E-1,2.3212242E-1,-8.941251E-2],"split_indices":[139,18,40,7,86,0,138,0,0,0,0,135,105,138,0,19,110,0,20,69,120,5,42,0,0,0,0,0,0,0,0,0,0],"split_type":[0,0,0,0,0,0,0,0,0,0,0,0,0,0,0,0,0,0,0,0,0,0,0,0,0,0,0,0,0,0,0,0,0],"sum_hessian":[1.27337524E2,9.36891E0,1.1796861E2,5.7807517E0,3.588158E0,2.3156462E0,1.1565297E2,1.5524273E0,4.228325E0,1.7489636E0,1.8391944E0,9.014318E0,1.0663865E2,7.4231286E0,1.5911902E0,8.843985E1,1.8198801E1,1.070594E0,6.352535E0,7.146478E1,1.6975061E1,6.4135423E0,1.178526E1,4.4522843E0,1.9002507E0,6.911016E1,2.3546255E0,9.70757E0,7.267491E0,4.3456244E0,2.0679173E0,9.342886E0,2.4423738E0],"tree_param":{"num_deleted":"0","num_feature":"145","num_nodes":"33","size_leaf_vector":"1"}},{"base_weights":[2.4528837E-2,-2.407588E-2,2.4774535E-1,-9.680013E-2,2.526572E-1,4.889371E-1,-8.330182E-2,-1.5439706E-1,2.875388E-1,4.1990542E-1,-3.367624E-1,2.3382378E-1,8.29468E-1,-4.5923784E-1,4.318919E-1,-1.2591203E-2,-4.401908E-1,5.1841164E-1,-4.3051186E-1,5.705321E-1,-1.7651169E-1,-6.146423E-1,1.12214945E-1,-6.2519275E-2,5.9861684E-1,2.9884237E-1,4.43234E-2,-6.1338097E-1,5.0670322E-2,2.0428784E-1,-6.000348E-3,-1.1903563E-1,4.2768267E-1,-5.523264E-1,2.7593362E-1,7.583538E-1,-7.440914E-2,-2.216629E-1,2.858782E-2,-8.464625E-2,6.9246894E-1,7.828717E-2,-1.9468042E-1,1.925997E-2,-2.694983E-1,-1.8167566E-1,2.579949E-1,2.6667094E-2,2.2774108E-1,-8.34697E-1,5.0299414E-2,-9.4477944E-2,4.3927863E-2,1.8455717E-1,-3.4041647E-2,-2.4700102E-1,-5.5703662E-2,1.8748467E-1,-9.524167E-2,2.640542E-1,1.9486751E-2,2.4256814E-1,-3.2771282E-2,1.9264053E-1,-1.0778088E-1,-6.965166E-2,-2.84066E-1],"categories":[],"categories_nodes":[],"categories_segments":[],"categories_sizes":[],"default_left":[0,0,0,0,0,0,0,0,0,0,0,0,0,0,0,0,0,0,0,0,0,0,0,0,0,0,0,0,0,0,0,0,0,0,0,0,0,0,0,0,0,0,0,0,0,0,0,0,0,0,0,0,0,0,0,0,0,0,0,0,0,0,0,0,0,0,0],"id":15,"left_children":[1,3,5,7,9,11,13,15,17,19,21,23,25,27,29,31,33,35,37,39,41,43,-1,45,47,-1,-1,49,-1,-1,-1,51,53,55,57,59,-1,-1,-1,-1,61,-1,-1,-1,-1,-1,63,-1,-1,65,-1,-1,-1,-1,-1,-1,-1,-1,-1,-1,-1,-1,-1,-1,-1,-1,-1],"loss_changes":[1.357619E0,2.1017423E0,1.8265244E0,1.8698075E0,2.286232E0,9.4273615E-1,2.1896083E0,2.927185E0,2.0627198E0,1.6632559E0,1.2894099E0,9.966176E-1,4.449737E-1,7.260388E-1,5.597925E-1,2.3658128E0,2.0771832E0,1.8156829E0,5.967236E-1,1.6637621E0,1.0519792E0,8.731891E-1,0E0,1.1659969E0,2.6567054E-1,0E0,0E0,1.0695441E0,0E0,0E0,0E0,2.1553264E0,1.0677596E0,1.9394574E0,1.008595E0,5.330229E-1,0E0,0E0,0E0,0E0,1.2652273E0,0E0,0E0,0E0,0E0,0E0,1.2620023E0,0E0,0E0,7.472563E-2,0E0,0E0,0E0,0E0,0E0,0E0,0E0,0E0,0E0,0E0,0E0,0E0,0E0,0E0,0E0,0E0,0E0],"parents":[2147483647,0,0,1,1,2,2,3,3,4,4,5,5,6,6,7,7,8,8,9,9,10,10,11,11,12,12,13,13,14,14,15,15,16,16,17,17,18,18,19,19,20,20,21,21,23,23,24,24,27,27,31,31,32,32,33,33,34,34,35,35,40,40,46,46,49,49],"right_children":[2,4,6,8,10,12,14,16,18,20,22,24,26,28,30,32,34,36,38,40,42,44,-1,46,48,-1,-1,50,-1,-1,-1,52,54,56,58,60,-1,-1,-1,-1,62,-1,-1,-1,-1,-1,64,-1,-1,66,-1,-1,-1,-1,-1,-1,-1,-1,-1,-1,-1,-1,-1,-1,-1,-1,-1],"split_conditions":[1E4,1E4,8E3,1.2E4,1E4,8E3,8E3,8E3,1E4,1.2E4,1E4,8E3,1E4,1E4,8E3,1E4,1.2E4,1.2E4,8E3,6E3,8E3,8E3,1.12214945E-1,6E3,6E3,2.9884237E-1,4.43234E-2,1E4,5.0670322E-2,2.0428784E-1,-6.000348E-3,8E3,1.2E4,8E3,8E3,1E4,-7.440914E-2,-2.216629E-1,2.858782E-2,-8.464625E-2,1.2E4,7.828717E-2,-1.9468042E-1,1.925997E-2,-2.694983E-1,-1.8167566E-1,6E3,2.6667094E-2,2.2774108E-1,6E3,5.0299414E-2,-9.4477944E-2,4.3927863E-2,1.8455717E-1,-3.4041647E-2,-2.4700102E-1,-5.5703662E-2,1.8748467E-1,-9.524167E-2,2.640542E-1,1.9486751E-2,2.4256814E-1,-3.2771282E-2,1.9264053E-1,-1.0778088E-1,-6.965166E-2,-2.84066E-1],"split_indices":[127,87,65,130,44,4,118,138,2,12,38,100,90,98,111,74,72,73,76,85,59,23,0,78,109,0,0,109,0,0,0,8,76,106,100,116,0,0,0,0,116,0,0,0,0,0,135,0,0,36,0,0,0,0,0,0,0,0,0,0,0,0,0,0,0,0,0],"split_type":[0,0,0,0,0,0,0,0,0,0,0,0,0,0,0,0,0,0,0,0,0,0,0,0,0,0,0,0,0,0,0,0,0,0,0,0,0,0,0,0,0,0,0,0,0,0,0,0,0,0,0,0,0,0,0,0,0,0,0,0,0,0,0,0,0,0,0],"sum_hessian":[1.235836E2,1.0221807E2,2.1365534E1,8.146075E1,2.0757326E1,1.2084305E1,9.281229E0,7.136438E1,1.0096367E1,1.6393309E1,4.364017E0,7.872877E0,4.2114277E0,5.4286E0,3.8526292E0,4.839546E1,2.2968924E1,7.8503084E0,2.2460585E0,1.3122571E1,3.2707376E0,3.2347445E0,1.1292726E0,4.801197E0,3.07168E0,3.013462E0,1.1979656E0,4.377798E0,1.0508019E0,2.1569114E0,1.6957179E0,3.956058E1,8.834876E0,2.0056992E1,2.9119313E0,5.9866743E0,1.8636345E0,1.1603358E0,1.0857226E0,1.4774002E0,1.1645171E1,1.9306002E0,1.3401374E0,1.1814048E0,2.0533397E0,1.4518397E0,3.3493574E0,1.1077664E0,1.9639137E0,3.357679E0,1.020119E0,2.26559E1,1.6904682E1,6.4597793E0,2.3750968E0,1.0816392E1,9.2406E0,1.8000594E0,1.1118718E0,4.8629107E0,1.1237634E0,1.0164716E1,1.480455E0,2.0397034E0,1.3096538E0,1.0088762E0,2.3488026E0],"tree_param":{"num_deleted":"0","num_feature":"145","num_nodes":"67","size_leaf_vector":"1"}},{"base_weights":[1.9901058E-2,5.758332E-2,-2.6644787E-1,5.352993E-1,2.9132895E-2,-6.2091124E-1,-2.317384E-2,-7.216115E-2,8.0333626E-1,-8.6536236E-2,1.6964296E-1,2.0852666E-2,-2.3922236E-1,-1.9251862E-1,2.3951133E-1,3.301311E-2,2.9941192E-1,-2.9097342E-1,1.6002977E-1,-3.8206227E-2,4.3261454E-1,-9.760319E-2,4.867362E-1,-9.556307E-2,-6.0927546E-1,6.048372E-1,-6.302268E-2,-1.985039E-1,5.326326E-1,-1.0499768E-1,6.540037E-1,-2.339075E-2,2.3625208E-1,5.3818654E-2,-1.343487E-1,-2.5554928E-1,-1.9824797E-2,2.5135392E-1,-4.816487E-2,-7.187654E-2,1.8200321E-1,-9.754855E-2,1.434382E-1,-4.0252727E-2,2.31184E-1,1.4665163E-1,-1.274089E-1,-9.741393E-2,2.2721446E-1],"categories":[],"categories_nodes":[],"categories_segments":[],"categories_sizes":[],"default_left":[0,0,0,0,0,0,0,0,0,0,0,0,0,0,0,0,0,0,0,0,0,0,0,0,0,0,0,0,0,0,0,0,0,0,0,0,0,0,0,0,0,0,0,0,0,0,0,0,0],"id":16,"left_children":[1,3,5,7,9,11,13,-1,15,17,19,-1,-1,-1,21,-1,-1,23,25,27,29,-1,31,33,35,37,39,41,43,45,47,-1,-1,-1,-1,-1,-1,-1,-1,-1,-1,-1,-1,-1,-1,-1,-1,-1,-1],"loss_changes":[1.2957417E0,1.420795E0,1.1908884E0,1.4165676E0,1.6529881E0,7.438977E-1,1.6692599E0,0E0,5.1146865E-1,2.8668823E0,2.5227108E0,0E0,0E0,0E0,1.174314E0,0E0,0E0,1.8664372E0,2.6184397E0,2.533225E0,2.4875321E0,0E0,9.8893905E-1,2.05227E0,1.4700146E0,1.7004125E0,2.3006215E0,1.9929786E0,1.0694549E0,1.4965947E0,1.7163835E0,0E0,0E0,0E0,0E0,0E0,0E0,0E0,0E0,0E0,0E0,0E0,0E0,0E0,0E0,0E0,0E0,0E0,0E0],"parents":[2147483647,0,0,1,1,2,2,3,3,4,4,5,5,6,6,8,8,9,9,10,10,14,14,17,17,18,18,19,19,20,20,22,22,23,23,24,24,25,25,26,26,27,27,28,28,29,29,30,30],"right_children":[2,4,6,8,10,12,14,-1,16,18,20,-1,-1,-1,22,-1,-1,24,26,28,30,-1,32,34,36,38,40,42,44,46,48,-1,-1,-1,-1,-1,-1,-1,-1,-1,-1,-1,-1,-1,-1,-1,-1,-1,-1],"split_conditions":[1E4,4E3,6E3,6E3,8E3,6E3,6E3,-7.216115E-2,6E3,8E3,8E3,2.0852666E-2,-2.3922236E-1,-1.9251862E-1,6E3,3.301311E-2,2.9941192E-1,8E3,6E3,1E4,6E3,-9.760319E-2,6E3,8E3,8E3,1E4,1E4,1.2E4,6E3,6E3,6E3,-2.339075E-2,2.3625208E-1,5.3818654E-2,-1.343487E-1,-2.5554928E-1,-1.9824797E-2,2.5135392E-1,-4.816487E-2,-7.187654E-2,1.8200321E-1,-9.754855E-2,1.434382E-1,-4.0252727E-2,2.31184E-1,1.4665163E-1,-1.274089E-1,-9.741393E-2,2.2721446E-1],"split_indices":[136,27,58,91,0,80,20,0,4,23,114,0,0,0,127,0,0,59,93,74,96,0,105,124,110,25,129,102,117,20,1,0,0,0,0,0,0,0,0,0,0,0,0,0,0,0,0,0,0],"split_type":[0,0,0,0,0,0,0,0,0,0,0,0,0,0,0,0,0,0,0,0,0,0,0,0,0,0,0,0,0,0,0,0,0,0,0,0,0,0,0,0,0,0,0,0,0,0,0,0,0],"sum_hessian":[1.1766229E2,1.046851E2,1.2977194E1,4.882755E0,9.9802345E1,4.64983E0,8.327364E0,1.2800965E0,3.6026585E0,5.4950626E1,4.4851715E1,1.0700765E0,3.5797534E0,2.052144E0,6.2752204E0,1.1331098E0,2.4695487E0,2.9943356E1,2.5007269E1,2.5528807E1,1.932291E1,1.8141946E0,4.4610257E0,1.935888E1,1.0584476E1,7.780297E0,1.7226973E1,2.0441011E1,5.0877957E0,5.789547E0,1.3533363E1,1.8077304E0,2.653295E0,1.1148072E1,8.210807E0,6.9243207E0,3.6601555E0,5.8919277E0,1.8883691E0,1.4140966E1,3.0860069E0,1.7655529E1,2.7854812E0,1.4529378E0,3.634858E0,1.8409479E0,3.948599E0,1.0883658E0,1.2444997E1],"tree_param":{"num_deleted":"0","num_feature":"145","num_nodes":"49","size_leaf_vector":"1"}},{"base_weights":[1.8170273E-2,-8.380951E-3,4.2424315E-1,-4.4439602E-1,1.7894126E-2,-1.4790534E-2,6.5432173E-1,-2.3756458E-1,7.314382E-2,-3.5506487E-2,2.4565478E-1,1.3051315E-1,-1.231345E-1,2.5072262E-1,5.3365E-2,-1.4248087E-1,1.5782458E-1,-1.0564291E-1,3.0202964E-1,6.4798594E-1,1.6061148E-2,3.640964E-1,-1.5432136E-1,-1.1109158E-1,4.8115122E-1,2.2131374E-2,8.299483E-1,2.511041E-1,-2.1719001E-1,-1.6944751E-1,2.1636872E-1,-7.0356734E-2,4.9417414E-2,-1.332196E-1,8.7465525E-2,-3.7195557E-3,2.1031338E-1,6.698395E-2,2.760279E-1,1.3008787E-1,-1.1409592E-1],"categories":[],"categories_nodes":[],"categories_segments":[],"categories_sizes":[],"default_left":[0,0,0,0,0,0,0,0,0,0,0,0,0,0,0,0,0,0,0,0,0,0,0,0,0,0,0,0,0,0,0,0,0,0,0,0,0,0,0,0,0],"id":17,"left_children":[1,3,5,7,9,11,13,-1,15,17,19,-1,-1,-1,-1,-1,-1,21,23,25,27,29,31,33,35,-1,37,39,-1,-1,-1,-1,-1,-1,-1,-1,-1,-1,-1,-1,-1],"loss_changes":[1.2280827E0,1.240476E0,7.157239E-1,1.1645468E0,1.2545463E0,7.803774E-1,2.4966156E-1,0E0,1.0907466E0,2.0169408E0,1.7983319E0,0E0,0E0,0E0,0E0,0E0,0E0,1.6606016E0,1.1401123E0,6.794498E-1,2.5285833E0,2.69181E0,1.6834002E0,8.3384156E-1,1.1407533E0,0E0,8.361125E-2,1.4306102E0,0E0,0E0,0E0,0E0,0E0,0E0,0E0,0E0,0E0,0E0,0E0,0E0,0E0],"parents":[2147483647,0,0,1,1,2,2,3,3,4,4,5,5,6,6,8,8,9,9,10,10,17,17,18,18,19,19,20,20,21,21,22,22,23,23,24,24,26,26,27,27],"right_children":[2,4,6,8,10,12,14,-1,16,18,20,-1,-1,-1,-1,-1,-1,22,24,26,28,30,32,34,36,-1,38,40,-1,-1,-1,-1,-1,-1,-1,-1,-1,-1,-1,-1,-1],"split_conditions":[1.4E4,4E3,6E3,8E3,1E4,8E3,8E3,-2.3756458E-1,6E3,1E4,6E3,1.3051315E-1,-1.231345E-1,2.5072262E-1,5.3365E-2,-1.4248087E-1,1.5782458E-1,4E3,6E3,6E3,1.2E4,6E3,1E4,8E3,6E3,2.2131374E-2,6E3,1E4,-2.1719001E-1,-1.6944751E-1,2.1636872E-1,-7.0356734E-2,4.9417414E-2,-1.332196E-1,8.7465525E-2,-3.7195557E-3,2.1031338E-1,6.698395E-2,2.760279E-1,1.3008787E-1,-1.1409592E-1],"split_indices":[100,91,86,32,111,110,7,0,144,77,102,0,0,0,0,0,0,110,33,28,77,87,7,69,62,0,108,141,0,0,0,0,0,0,0,0,0,0,0,0,0],"split_type":[0,0,0,0,0,0,0,0,0,0,0,0,0,0,0,0,0,0,0,0,0,0,0,0,0,0,0,0,0,0,0,0,0,0,0,0,0,0,0,0,0],"sum_hessian":[1.1257425E2,1.0658454E2,5.9897084E0,5.153465E0,1.01431076E2,2.3813515E0,3.6083567E0,2.7661388E0,2.3873262E0,8.285018E1,1.8580893E1,1.0677974E0,1.3135542E0,2.067094E0,1.5412626E0,1.0582354E0,1.3290907E0,6.916537E1,1.3684812E1,6.088798E0,1.2492095E1,5.886073E0,6.3279297E1,4.2537875E0,9.431024E0,1.8033683E0,4.28543E0,9.982272E0,2.509823E0,1.4730456E0,4.413028E0,5.0779408E1,1.2499887E1,2.2720206E0,1.981767E0,3.197612E0,6.233412E0,1.0041902E0,3.2812395E0,7.986823E0,1.9954492E0],"tree_param":{"num_deleted":"0","num_feature":"145","num_nodes":"41","size_leaf_vector":"1"}},{"base_weights":[1.787898E-2,-1.3278408E-1,8.625185E-2,-2.49288E-1,3.7795725E-1,-5.7728004E-1,1.2613992E-1,-3.5502487E-1,2.7374864E-1,-2.7315187E-1,7.207761E-1,-2.3903884E-1,-3.4616028E-3,-4.212811E-1,1.6396636E-1,-4.7725955E-1,3.806956E-1,5.7898605E-1,-6.1272327E-2,5.4867014E-2,-1.796993E-1,2.710273E-1,4.9612E-2,-6.6957974E-1,4.928925E-2,-5.2582737E-2,2.528027E-1,-5.708882E-1,8.696593E-2,2.0207451E-1,-6.2943615E-2,1.9470062E-2,2.266562E-1,-5.529896E-2,-2.3673962E-1,1.7234048E-1,-3.4749377E-1,5.2934E-1,1.3504122E-1,9.834546E-2,-1.95186E-1,-5.514374E-2,1.6076198E-1,1.0549664E-1,-1.7288594E-1,2.158502E-1,-2.1444177E-2,6.433734E-2,-1.615294E-1],"categories":[],"categories_nodes":[],"categories_segments":[],"categories_sizes":[],"default_left":[0,0,0,0,0,0,0,0,0,0,0,0,0,0,0,0,0,0,0,0,0,0,0,0,0,0,0,0,0,0,0,0,0,0,0,0,0,0,0,0,0,0,0,0,0,0,0,0,0],"id":18,"left_children":[1,3,5,7,9,11,13,15,17,19,21,-1,-1,23,25,27,29,31,-1,-1,-1,-1,-1,33,-1,35,37,39,-1,-1,-1,-1,-1,-1,-1,41,43,45,47,-1,-1,-1,-1,-1,-1,-1,-1,-1,-1],"loss_changes":[1.1446463E0,2.1609101E0,2.0915349E0,1.6945817E0,1.7255702E0,5.502107E-1,1.5758922E0,2.3815644E0,9.0929914E-1,5.68328E-1,3.3359313E-1,0E0,0E0,8.345927E-1,1.3365405E0,1.7040591E0,8.402944E-1,2.749232E-1,0E0,0E0,0E0,0E0,0E0,6.898749E-2,0E0,1.4420757E0,1.5225215E0,1.6053586E0,0E0,0E0,0E0,0E0,0E0,0E0,0E0,1.7156013E0,1.6978786E0,1.682529E0,2.023355E0,0E0,0E0,0E0,0E0,0E0,0E0,0E0,0E0,0E0,0E0],"parents":[2147483647,0,0,1,1,2,2,3,3,4,4,5,5,6,6,7,7,8,8,9,9,10,10,13,13,14,14,15,15,16,16,17,17,23,23,25,25,26,26,27,27,35,35,36,36,37,37,38,38],"right_children":[2,4,6,8,10,12,14,16,18,20,22,-1,-1,24,26,28,30,32,-1,-1,-1,-1,-1,34,-1,36,38,40,-1,-1,-1,-1,-1,-1,-1,42,44,46,48,-1,-1,-1,-1,-1,-1,-1,-1,-1,-1],"split_conditions":[6E3,1E4,4E3,1E4,6E3,8E3,4E3,1.2E4,8E3,8E3,8E3,-2.3903884E-1,-3.4616028E-3,8E3,6E3,1E4,8E3,8E3,-6.1272327E-2,5.4867014E-2,-1.796993E-1,2.710273E-1,4.9612E-2,6E3,4.928925E-2,8E3,6E3,4E3,8.696593E-2,2.0207451E-1,-6.2943615E-2,1.9470062E-2,2.266562E-1,-5.529896E-2,-2.3673962E-1,8E3,6E3,1E4,1E4,9.834546E-2,-1.95186E-1,-5.514374E-2,1.6076198E-1,1.0549664E-1,-1.7288594E-1,2.158502E-1,-2.1444177E-2,6.433734E-2,-1.615294E-1],"split_indices":[90,28,130,9,57,1,42,130,93,21,129,0,0,93,52,126,11,86,0,0,0,0,0,115,0,72,46,106,0,0,0,0,0,0,0,62,92,91,137,0,0,0,0,0,0,0,0,0,0],"split_type":[0,0,0,0,0,0,0,0,0,0,0,0,0,0,0,0,0,0,0,0,0,0,0,0,0,0,0,0,0,0,0,0,0,0,0,0,0,0,0,0,0,0,0,0,0,0,0,0,0],"sum_hessian":[1.0900526E2,3.3732323E1,7.5272934E1,2.7883741E1,5.8485804E0,3.5044506E0,7.176848E1,2.3461914E1,4.4218273E0,2.0873446E0,3.7612355E0,2.2305527E0,1.2738978E0,3.9834285E0,6.778505E1,2.0420498E1,3.0414164E0,2.5696144E0,1.852213E0,1.0527192E0,1.0346254E0,2.3588872E0,1.4023482E0,2.696571E0,1.2868574E0,1.9837322E1,4.794773E1,1.842731E1,1.993188E0,1.939006E0,1.1024104E0,1.0064293E0,1.563185E0,1.0354849E0,1.6610863E0,1.1489846E1,8.347475E0,1.3276269E1,3.4671463E1,1.248067E0,1.7179243E1,6.053553E0,5.4362926E0,1.9257439E0,6.4217315E0,9.934465E0,3.341804E0,3.1623903E1,3.0475595E0],"tree_param":{"num_deleted":"0","num_feature":"145","num_nodes":"49","size_leaf_vector":"1"}},{"base_weights":[1.3797845E-2,-1.0990671E-2,4.0591854E-1,-5.0517812E-2,2.5355792E-1,6.169042E-1,-1.2323049E-2,3.7846822E-1,-7.8940295E-2,6.047656E-1,-2.5007623E-1,1.3756043E-2,2.3293771E-1,-8.656956E-2,6.901091E-1,4.9384674E-1,-1.1126411E-1,7.82765E-1,-4.078167E-2,-5.760613E-1,9.152819E-2,2.7543148E-1,3.8682632E-2,2.1852542E-1,-3.2057364E-2,-3.1117013E-1,-2.5148122E-2,6.365083E-2,2.6177165E-1,-2.3368381E-1,-3.6559064E-2,6.8743215E-3,-1.6114073E-1,-2.3946734E-2,1.1607258E-1],"categories":[],"categories_nodes":[],"categories_segments":[],"categories_sizes":[],"default_left":[0,0,0,0,0,0,0,0,0,0,0,0,0,0,0,0,0,0,0,0,0,0,0,0,0,0,0,0,0,0,0,0,0,0,0],"id":19,"left_children":[1,3,5,7,9,11,-1,13,15,17,19,-1,-1,-1,21,23,25,27,-1,29,-1,-1,-1,-1,-1,31,33,-1,-1,-1,-1,-1,-1,-1,-1],"loss_changes":[1.0316371E0,1.0623208E0,6.2039626E-1,1.1047138E0,2.4883223E0,3.606342E-1,0E0,1.3736856E0,1.6009753E0,1.1713107E0,1.2862073E0,0E0,0E0,0E0,4.120574E-1,7.322749E-1,1.366946E0,1.5614843E-1,0E0,2.9322278E-1,0E0,0E0,0E0,0E0,0E0,1.8207843E0,1.312835E0,0E0,0E0,0E0,0E0,0E0,0E0,0E0,0E0],"parents":[2147483647,0,0,1,1,2,2,3,3,4,4,5,5,7,7,8,8,9,9,10,10,14,14,15,15,16,16,17,17,19,19,25,25,26,26],"right_children":[2,4,6,8,10,12,-1,14,16,18,20,-1,-1,-1,22,24,26,28,-1,30,-1,-1,-1,-1,-1,32,34,-1,-1,-1,-1,-1,-1,-1,-1],"split_conditions":[1.4E4,1.2E4,8E3,4E3,8E3,6E3,-1.2323049E-2,8E3,4E3,8E3,8E3,1.3756043E-2,2.3293771E-1,-8.656956E-2,8E3,8E3,6E3,6E3,-4.078167E-2,8E3,9.152819E-2,2.7543148E-1,3.8682632E-2,2.1852542E-1,-3.2057364E-2,6E3,1.2E4,6.365083E-2,2.6177165E-1,-2.3368381E-1,-3.6559064E-2,6.8743215E-3,-1.6114073E-1,-2.3946734E-2,1.1607258E-1],"split_indices":[100,83,120,7,38,40,0,128,12,135,89,0,0,0,86,50,7,69,0,87,0,0,0,0,0,65,16,0,0,0,0,0,0,0,0],"split_type":[0,0,0,0,0,0,0,0,0,0,0,0,0,0,0,0,0,0,0,0,0,0,0,0,0,0,0,0,0,0,0,0,0,0,0],"sum_hessian":[1.0467554E2,9.936594E1,5.3096004E0,8.715312E1,1.2212815E1,3.3488169E0,1.9607835E0,4.650246E0,8.250288E1,7.0769343E0,5.135881E0,1.0124862E0,2.3363307E0,1.5043643E0,3.1458821E0,3.644431E0,7.8858444E1,5.659992E0,1.4169424E0,3.2121432E0,1.9237378E0,1.7847106E0,1.3611715E0,2.4680626E0,1.1763685E0,2.2955992E1,5.5902454E1,1.226955E0,4.4330373E0,1.7261153E0,1.4860277E0,9.6247015E0,1.3331289E1,5.00657E1,5.8367543E0],"tree_param":{"num_deleted":"0","num_feature":"145","num_nodes":"35","size_leaf_vector":"1"}},{"base_weights":[1.7352354E-2,4.447316E-1,-3.2876967E-3,5.9155934E-2,2.1822189E-1,-4.1545057E-1,2.83041E-2,9.387582E-2,-6.790224E-2,-7.5655633E-1,2.3116365E-1,1.0596371E-1,-1.3315287E-1,-2.618991E-1,-4.854902E-2,-7.052086E-2,1.6931704E-1,3.3942896E-1,-1.0024753E-2,-4.4826108E-1,2.4447385E-2,7.4973714E-1,1.3222167E-1,-2.1350215E-1,1.7905582E-1,-6.689515E-1,2.2677332E-1,-3.988783E-1,2.1653193E-1,2.6502553E-1,1.9320138E-2,-8.7762006E-2,9.7819775E-2,8.684472E-2,-1.114958E-1,-1.8693757E-1,7.7870876E-2,-5.730975E-2,-2.5842446E-1,1.603227E-1,-6.0683466E-2,-1.9221893E-1,1.3029161E-1,-6.76329E-2,1.212383E-1],"categories":[],"categories_nodes":[],"categories_segments":[],"categories_sizes":[],"default_left":[0,0,0,0,0,0,0,0,0,0,0,0,0,0,0,0,0,0,0,0,0,0,0,0,0,0,0,0,0,0,0,0,0,0,0,0,0,0,0,0,0,0,0,0,0],"id":20,"left_children":[1,3,5,7,-1,9,11,-1,-1,13,15,17,19,-1,-1,-1,-1,21,23,25,27,29,31,33,35,37,39,41,43,-1,-1,-1,-1,-1,-1,-1,-1,-1,-1,-1,-1,-1,-1,-1,-1],"loss_changes":[9.125252E-1,4.7637194E-1,1.3075587E0,2.9573298E-1,0E0,1.7516015E0,1.1848192E0,0E0,0E0,1.9900966E-1,6.352168E-1,1.7256705E0,1.5388774E0,0E0,0E0,0E0,0E0,1.6980574E0,1.7103788E0,1.6875222E0,1.8311753E0,5.733361E-1,1.3518372E0,1.8091248E0,1.6518848E0,5.73365E-1,5.4193777E-1,1.698747E0,1.3686473E0,0E0,0E0,0E0,0E0,0E0,0E0,0E0,0E0,0E0,0E0,0E0,0E0,0E0,0E0,0E0,0E0],"parents":[2147483647,0,0,1,1,2,2,3,3,5,5,6,6,9,9,10,10,11,11,12,12,17,17,18,18,19,19,20,20,21,21,22,22,23,23,24,24,25,25,26,26,27,27,28,28],"right_children":[2,4,6,8,-1,10,12,-1,-1,14,16,18,20,-1,-1,-1,-1,22,24,26,28,30,32,34,36,38,40,42,44,-1,-1,-1,-1,-1,-1,-1,-1,-1,-1,-1,-1,-1,-1,-1,-1],"split_conditions":[4E3,8E3,4E3,8E3,2.1822189E-1,8E3,8E3,9.387582E-2,-6.790224E-2,1E4,8E3,6E3,6E3,-2.618991E-1,-4.854902E-2,-7.052086E-2,1.6931704E-1,6E3,8E3,1.2E4,6E3,1.2E4,6E3,6E3,4E3,6E3,8E3,1.2E4,6E3,2.6502553E-1,1.9320138E-2,-8.7762006E-2,9.7819775E-2,8.684472E-2,-1.114958E-1,-1.8693757E-1,7.7870876E-2,-5.730975E-2,-2.5842446E-1,1.603227E-1,-6.0683466E-2,-1.9221893E-1,1.3029161E-1,-6.76329E-2,1.212383E-1],"split_indices":[92,39,124,77,0,118,137,0,0,144,30,20,40,0,0,0,0,104,97,108,101,92,0,22,38,102,30,65,52,0,0,0,0,0,0,0,0,0,0,0,0,0,0,0,0],"split_type":[0,0,0,0,0,0,0,0,0,0,0,0,0,0,0,0,0,0,0,0,0,0,0,0,0,0,0,0,0,0,0,0,0,0,0,0,0,0,0,0,0,0,0,0,0],"sum_hessian":[1.0228189E2,3.7654893E0,9.8516396E1,2.1043596E0,1.6611297E0,6.148558E0,9.236784E1,1.0632439E0,1.0411158E0,3.9138653E0,2.2346926E0,6.2600952E1,2.976689E1,2.8817532E0,1.0321122E0,1.0542316E0,1.1804609E0,2.013871E1,4.2462242E1,9.30935E0,2.0457539E1,5.878975E0,1.4259735E1,2.0390272E1,2.207197E1,7.0224853E0,2.2868652E0,6.049271E0,1.4408268E1,4.677548E0,1.2014271E0,4.3088365E0,9.950899E0,4.6789236E0,1.5711348E1,1.3985422E0,2.0673428E1,2.5881746E0,4.4343104E0,1.1888702E0,1.0979949E0,4.8673835E0,1.1818877E0,4.2331743E0,1.0175094E1],"tree_param":{"num_deleted":"0","num_feature":"145","num_nodes":"45","size_leaf_vector":"1"}},{"base_weights":[1.146578E-2,-3.7806818E-1,3.4538187E-2,6.086021E-2,-5.891305E-1,7.6541514E-3,4.9439588E-1,-4.2872418E-2,-2.2862911E-1,8.833292E-2,-1.09177575E-1,-2.6570614E-2,6.8896306E-1,3.7211636E-1,-1.8318264E-2,-2.6282498E-1,8.692438E-2,2.48891E-1,5.952451E-2,6.0347104E-1,6.447713E-2,2.3541747E-1,-1.270425E-1,-3.921983E-1,2.6700455E-1,3.49685E-1,-2.537457E-1,2.2392714E-1,-3.52269E-2,-1.1032652E-1,1.18656285E-1,1.1221447E-1,-8.495373E-2,1.4654382E-1,-6.262541E-2,2.481694E-3,-1.6498932E-1,1.8081778E-1,-6.375104E-2,-1.3047542E-1,1.4666085E-1,-1.2942064E-1,1.3838856E-1],"categories":[],"categories_nodes":[],"categories_segments":[],"categories_sizes":[],"default_left":[0,0,0,0,0,0,0,0,0,0,0,0,0,0,0,0,0,0,0,0,0,0,0,0,0,0,0,0,0,0,0,0,0,0,0,0,0,0,0,0,0,0,0],"id":21,"left_children":[1,3,5,-1,7,9,11,-1,-1,13,15,-1,17,19,21,23,25,-1,-1,27,29,31,33,35,37,39,41,-1,-1,-1,-1,-1,-1,-1,-1,-1,-1,-1,-1,-1,-1,-1,-1],"loss_changes":[9.064564E-1,8.1133676E-1,1.1677477E0,0E0,2.3028767E-1,8.630989E-1,6.5290534E-1,0E0,0E0,1.6445498E0,1.1507103E0,0E0,1.1323559E-1,1.0164585E0,1.1412195E0,1.5604057E0,1.6280136E0,0E0,0E0,9.474988E-1,1.2163718E0,9.9984825E-1,1.5529163E0,1.108562E0,8.948045E-1,1.3186985E0,1.2238111E0,0E0,0E0,0E0,0E0,0E0,0E0,0E0,0E0,0E0,0E0,0E0,0E0,0E0,0E0,0E0,0E0],"parents":[2147483647,0,0,1,1,2,2,4,4,5,5,6,6,9,9,10,10,12,12,13,13,14,14,15,15,16,16,19,19,20,20,21,21,22,22,23,23,24,24,25,25,26,26],"right_children":[2,4,6,-1,8,10,12,-1,-1,14,16,-1,18,20,22,24,26,-1,-1,28,30,32,34,36,38,40,42,-1,-1,-1,-1,-1,-1,-1,-1,-1,-1,-1,-1,-1,-1,-1,-1],"split_conditions":[4E3,6E3,1.4E4,6.086021E-2,8E3,8E3,6E3,-4.2872418E-2,-2.2862911E-1,6E3,8E3,-2.6570614E-2,8E3,8E3,6E3,1E4,8E3,2.48891E-1,5.952451E-2,1E4,8E3,8E3,4E3,6E3,6E3,4E3,1E4,2.2392714E-1,-3.52269E-2,-1.1032652E-1,1.18656285E-1,1.1221447E-1,-8.495373E-2,1.4654382E-1,-6.262541E-2,2.481694E-3,-1.6498932E-1,1.8081778E-1,-6.375104E-2,-1.3047542E-1,1.4666085E-1,-1.2942064E-1,1.3838856E-1],"split_indices":[143,43,55,0,88,140,101,0,0,26,10,0,1,132,21,120,14,0,0,5,97,138,110,55,12,75,22,0,0,0,0,0,0,0,0,0,0,0,0,0,0,0,0],"split_type":[0,0,0,0,0,0,0,0,0,0,0,0,0,0,0,0,0,0,0,0,0,0,0,0,0,0,0,0,0,0,0,0,0,0,0,0,0,0,0,0,0,0,0],"sum_hessian":[9.8404724E1,4.6422887E0,9.3762436E1,1.2474874E0,3.3948014E0,8.954418E1,4.218255E0,1.4584582E0,1.9363432E0,5.3111607E1,3.6432575E1,1.1918901E0,3.0263648E0,1.3828053E1,3.9283554E1,2.0236708E1,1.6195866E1,1.8147173E0,1.2116476E0,7.3437185E0,6.484335E0,1.1434039E1,2.7849516E1,1.6473892E1,3.762816E0,9.128524E0,7.0673413E0,6.098898E0,1.2448207E0,2.7642524E0,3.7200823E0,9.242163E0,2.1918762E0,2.6802917E0,2.5169224E1,4.923566E0,1.1550326E1,2.0620975E0,1.7007183E0,1.0552372E0,8.073287E0,5.9785957E0,1.0887452E0],"tree_param":{"num_deleted":"0","num_feature":"145","num_nodes":"43","size_leaf_vector":"1"}},{"base_weights":[1.2490706E-2,-3.0311411E-2,2.1401542E-1,-9.323424E-2,2.0939228E-1,4.0255883E-1,-4.5807503E-2,-4.971461E-2,-5.608429E-1,3.308666E-1,-2.1450627E-1,4.9566823E-1,-4.3542124E-2,-3.237259E-1,3.4029222E-1,4.9779784E-2,-2.655049E-1,-2.2229025E-1,1.1160081E-2,-1.2081898E-1,4.831168E-1,5.9069727E-2,-1.5385695E-1,2.129005E-2,6.098041E-1,-5.365924E-1,2.8078228E-2,1.6223249E-1,-1.6377125E-2,-1.3172272E-1,3.0411845E-1,-3.8463783E-1,2.933186E-1,-1.7444932E-1,2.1612504E-1,5.931215E-1,-4.9522903E-2,1.6681786E-1,2.302057E-1,-3.894014E-2,-2.0232283E-1,-9.915563E-2,3.9167352E-2,1.2681282E-1,-9.5872946E-2,-1.1530872E-2,-1.8840986E-1,-5.9518874E-2,2.0526627E-1,1.4242241E-1,-4.6110906E-2,2.1251976E-1,-3.239025E-2,-3.412099E-2,1.1041752E-1],"categories":[],"categories_nodes":[],"categories_segments":[],"categories_sizes":[],"default_left":[0,0,0,0,0,0,0,0,0,0,0,0,0,0,0,0,0,0,0,0,0,0,0,0,0,0,0,0,0,0,0,0,0,0,0,0,0,0,0,0,0,0,0,0,0,0,0,0,0,0,0,0,0,0,0],"id":22,"left_children":[1,3,5,7,9,11,13,15,17,19,21,23,-1,25,27,29,31,-1,-1,33,35,-1,-1,-1,37,39,-1,-1,-1,41,43,45,47,-1,49,51,-1,53,-1,-1,-1,-1,-1,-1,-1,-1,-1,-1,-1,-1,-1,-1,-1,-1,-1],"loss_changes":[8.364107E-1,1.2297082E0,8.502276E-1,1.2795141E0,9.4588345E-1,5.789201E-1,9.726613E-1,1.2986681E0,6.063372E-1,9.936147E-1,6.3996667E-1,3.7958622E-1,0E0,5.109285E-1,3.3444995E-1,1.9706199E0,1.3811784E0,0E0,0E0,7.8202116E-1,8.374324E-1,0E0,0E0,0E0,3.4266877E-1,1.13328695E-1,0E0,0E0,0E0,1.3520008E0,1.445592E0,1.3355885E0,8.8829535E-1,0E0,3.7627536E-1,8.106787E-1,0E0,2.1389517E-1,0E0,0E0,0E0,0E0,0E0,0E0,0E0,0E0,0E0,0E0,0E0,0E0,0E0,0E0,0E0,0E0,0E0],"parents":[2147483647,0,0,1,1,2,2,3,3,4,4,5,5,6,6,7,7,8,8,9,9,10,10,11,11,13,13,14,14,15,15,16,16,19,19,20,20,24,24,25,25,29,29,30,30,31,31,32,32,34,34,35,35,37,37],"right_children":[2,4,6,8,10,12,14,16,18,20,22,24,-1,26,28,30,32,-1,-1,34,36,-1,-1,-1,38,40,-1,-1,-1,42,44,46,48,-1,50,52,-1,54,-1,-1,-1,-1,-1,-1,-1,-1,-1,-1,-1,-1,-1,-1,-1,-1,-1],"split_conditions":[1E4,1E4,8E3,1.2E4,1E4,1E4,8E3,8E3,1.2E4,6E3,8E3,6E3,-4.3542124E-2,1.2E4,8E3,8E3,1E4,-2.2229025E-1,1.1160081E-2,6E3,1.2E4,5.9069727E-2,-1.5385695E-1,2.129005E-2,6E3,6E3,2.8078228E-2,1.6223249E-1,-1.6377125E-2,8E3,1E4,6E3,8E3,-1.7444932E-1,8E3,1.2E4,-4.9522903E-2,8E3,2.302057E-1,-3.894014E-2,-2.0232283E-1,-9.915563E-2,3.9167352E-2,1.2681282E-1,-9.5872946E-2,-1.1530872E-2,-1.8840986E-1,-5.9518874E-2,2.0526627E-1,1.4242241E-1,-4.6110906E-2,2.1251976E-1,-3.239025E-2,-3.412099E-2,1.1041752E-1],"split_indices":[127,87,65,135,44,122,118,86,111,4,23,86,0,129,8,115,29,0,0,67,116,0,0,0,62,70,0,0,0,60,64,64,107,0,13,12,0,100,0,0,0,0,0,0,0,0,0,0,0,0,0,0,0,0,0],"split_type":[0,0,0,0,0,0,0,0,0,0,0,0,0,0,0,0,0,0,0,0,0,0,0,0,0,0,0,0,0,0,0,0,0,0,0,0,0,0,0,0,0,0,0,0,0,0,0,0,0,0,0,0,0,0,0],"sum_hessian":[9.521539E1,7.923595E1,1.59794445E1,6.3245014E1,1.5990934E1,8.94155E0,7.037894E0,5.8872185E1,4.372829E0,1.2599757E1,3.391177E0,7.72354E0,1.2180103E0,4.186185E0,2.8517091E0,4.082043E1,1.8051754E1,3.176971E0,1.195858E0,3.2284012E0,9.371356E0,1.5684407E0,1.8227363E0,1.9795135E0,5.744026E0,2.582896E0,1.6032889E0,1.6463807E0,1.2053285E0,2.4102428E1,1.6718004E1,1.5136563E1,2.9151917E0,1.0571873E0,2.1712139E0,8.084329E0,1.2870278E0,2.0470545E0,3.696972E0,1.1450129E0,1.4378831E0,1.3562518E1,1.0539909E1,1.4317827E1,2.400177E0,6.7266254E0,8.409938E0,1.5092173E0,1.4059743E0,1.1107786E0,1.0604352E0,6.9338007E0,1.1505277E0,1.036653E0,1.0104015E0],"tree_param":{"num_deleted":"0","num_feature":"145","num_nodes":"55","size_leaf_vector":"1"}},{"base_weights":[8.093353E-3,-6.885917E-3,1.6966191E-1,-4.051638E-1,1.6009063E-2,4.104469E-2,-1.986325E-1,-8.348159E-3,4.2889923E-1,7.8252755E-2,-1.1908744E-1,-2.4808839E-2,6.10508E-1,-1.7501003E-1,1.06031254E-1,-1.9727367E-1,3.499705E-1,2.2509114E-1,4.7997914E-2,-3.5890672E-2,6.2344488E-2,1.2267142E-1,-7.392484E-2,1.6417271E-1,-8.45837E-2],"categories":[],"categories_nodes":[],"categories_segments":[],"categories_sizes":[],"default_left":[0,0,0,0,0,0,0,0,0,0,0,0,0,0,0,0,0,0,0,0,0,0,0,0,0],"id":23,"left_children":[1,3,-1,5,7,-1,-1,9,11,13,15,-1,17,-1,19,21,23,-1,-1,-1,-1,-1,-1,-1,-1],"loss_changes":[7.761915E-1,8.36794E-1,0E0,7.8519034E-1,8.7922096E-1,0E0,0E0,8.072139E-1,5.028981E-1,9.310198E-1,1.4225966E0,0E0,1.1379826E-1,0E0,1.0867822E0,1.0621829E0,8.5657555E-1,0E0,0E0,0E0,0E0,0E0,0E0,0E0,0E0],"parents":[2147483647,0,0,1,1,3,3,4,4,7,7,8,8,9,9,10,10,12,12,14,14,15,15,16,16],"right_children":[2,4,-1,6,8,-1,-1,10,12,14,16,-1,18,-1,20,22,24,-1,-1,-1,-1,-1,-1,-1,-1],"split_conditions":[1.8E4,4E3,1.6966191E-1,6E3,1.4E4,4.104469E-2,-1.986325E-1,8E3,6E3,2E3,1.2E4,-2.4808839E-2,8E3,-1.7501003E-1,6E3,4E3,1.2E4,2.2509114E-1,4.7997914E-2,-3.5890672E-2,6.2344488E-2,1.2267142E-1,-7.392484E-2,1.6417271E-1,-8.45837E-2],"split_indices":[77,143,0,49,55,0,0,142,101,107,38,0,1,0,17,78,139,0,0,0,0,0,0,0,0],"split_type":[0,0,0,0,0,0,0,0,0,0,0,0,0,0,0,0,0,0,0,0,0,0,0,0,0],"sum_hessian":[9.148915E1,9.005686E1,1.4322915E0,3.9878664E0,8.606899E1,1.432914E0,2.5549524E0,8.219965E1,3.8693416E0,4.6291718E1,3.5907932E1,1.1563969E0,2.7129447E0,1.0593675E0,4.5232353E1,3.1274311E1,4.63362E0,1.5626234E0,1.1503214E0,1.4005365E1,3.1226986E1,1.7962711E0,2.947804E1,3.6333532E0,1.0002666E0],"tree_param":{"num_deleted":"0","num_feature":"145","num_nodes":"25","size_leaf_vector":"1"}},{"base_weights":[8.551894E-3,2.9207456E-1,-1.8960647E-2,-1.0603969E-1,4.623752E-1,1.8808074E-1,-3.4913365E-2,6.1742884E-1,-4.350248E-2,-8.230272E-2,1.874214E-1,2.2643732E-1,1.7816521E-2,-1.9021374E-1,4.1946862E-2,-1.3803901E-1,3.5034007E-1,-4.5546392E-1,-6.2401816E-2,-2.1487801E-1,1.5324402E-1,9.601393E-2,-4.1903204E-1,-9.0160824E-2,4.939617E-1,-1.665708E-1,9.433804E-2,-9.561055E-2,3.473696E-2,6.439049E-2,-1.3195594E-1,-3.1943787E-2,9.2460655E-2,3.9931E-2,-1.9682379E-1,5.1130746E-2,-1.0400571E-1,1.8003094E-1,-1.3751209E-2],"categories":[],"categories_nodes":[],"categories_segments":[],"categories_sizes":[],"default_left":[0,0,0,0,0,0,0,0,0,0,0,0,0,0,0,0,0,0,0,0,0,0,0,0,0,0,0,0,0,0,0,0,0,0,0,0,0,0,0],"id":24,"left_children":[1,3,5,-1,7,-1,9,11,-1,13,15,-1,-1,17,19,21,23,25,27,29,31,-1,33,35,37,-1,-1,-1,-1,-1,-1,-1,-1,-1,-1,-1,-1,-1,-1],"loss_changes":[7.152193E-1,1.0548546E0,8.86081E-1,0E0,7.3457026E-1,0E0,8.877985E-1,3.8799906E-1,0E0,9.323829E-1,8.3587706E-1,0E0,0E0,1.2286378E0,9.7235656E-1,8.641907E-1,6.885965E-1,1.0885849E0,1.232595E0,1.0947969E0,9.791204E-1,0E0,6.041168E-1,2.829489E-1,4.7621667E-1,0E0,0E0,0E0,0E0,0E0,0E0,0E0,0E0,0E0,0E0,0E0,0E0,0E0,0E0],"parents":[2147483647,0,0,1,1,2,2,4,4,6,6,7,7,9,9,10,10,13,13,14,14,15,15,16,16,17,17,18,18,19,19,20,20,22,22,23,23,24,24],"right_children":[2,4,6,-1,8,-1,10,12,-1,14,16,-1,-1,18,20,22,24,26,28,30,32,-1,34,36,38,-1,-1,-1,-1,-1,-1,-1,-1,-1,-1,-1,-1,-1,-1],"split_conditions":[4E3,2E3,2E3,-1.0603969E-1,1.2E4,1.8808074E-1,1E4,1E4,-4.350248E-2,8E3,6E3,2.2643732E-1,1.7816521E-2,6E3,6E3,8E3,6E3,1.2E4,6E3,6E3,6E3,9.601393E-2,6E3,8E3,1.2E4,-1.665708E-1,9.433804E-2,-9.561055E-2,3.473696E-2,6.439049E-2,-1.3195594E-1,-3.1943787E-2,9.2460655E-2,3.9931E-2,-1.9682379E-1,5.1130746E-2,-1.0400571E-1,1.8003094E-1,-1.3751209E-2],"split_indices":[138,138,28,0,82,0,127,48,0,52,142,0,0,69,83,55,30,124,50,133,2,0,91,36,73,0,0,0,0,0,0,0,0,0,0,0,0,0,0],"split_type":[0,0,0,0,0,0,0,0,0,0,0,0,0,0,0,0,0,0,0,0,0,0,0,0,0,0,0,0,0,0,0,0,0,0,0,0,0,0,0],"sum_hessian":[8.997978E1,7.108554E0,8.287123E1,1.2593462E0,5.8492074E0,1.0743206E0,8.179691E1,4.6465034E0,1.2027042E0,6.794472E1,1.3852194E1,3.4457536E0,1.2007498E0,3.6079067E1,3.1865648E1,4.671905E0,9.180288E0,1.0898235E1,2.5180834E1,9.35281E0,2.2512838E1,1.7233886E0,2.9485166E0,2.3487344E0,6.8315544E0,9.894837E0,1.0033978E0,1.00036545E1,1.5177178E1,3.2307534E0,6.1220565E0,8.529503E0,1.3983336E1,1.0173587E0,1.9311581E0,1.3315977E0,1.0171368E0,5.615629E0,1.215925E0],"tree_param":{"num_deleted":"0","num_feature":"145","num_nodes":"39","size_leaf_vector":"1"}},{"base_weights":[8.524682E-3,-3.7380815E-2,1.8871944E-1,4.4356692E-1,-6.9540896E-2,-1.6064389E-1,2.7075934E-1,2.0588434E-1,-4.606527E-2,-2.0106863E-2,-3.8868132E-1,-1.3056737E-1,4.2652333E-1,-7.7464744E-2,2.1610159E-1,-5.363436E-1,4.8807766E-2,9.118703E-2,-3.7627587E-1,-1.1913202E-1,6.3716745E-1,-1.9070692E-1,5.602641E-2,-1.9017135E-1,4.2161533E-1,-6.8504184E-1,3.1683803E-2,-1.9859825E-1,5.753907E-3,-1.619295E-1,1.03727825E-1,7.3308337E-1,-5.626902E-3,-8.607412E-2,8.7507635E-2,-7.3893994E-2,7.2010316E-2,-1.5144725E-1,1.0240919E-1,-4.220955E-2,1.7129928E-1,-1.351302E-2,-2.4757387E-1,2.4589658E-1,4.8185658E-2],"categories":[],"categories_nodes":[],"categories_segments":[],"categories_sizes":[],"default_left":[0,0,0,0,0,0,0,0,0,0,0,0,0,0,0,0,0,0,0,0,0,0,0,0,0,0,0,0,0,0,0,0,0,0,0,0,0,0,0,0,0,0,0,0,0],"id":25,"left_children":[1,3,5,7,9,-1,11,-1,-1,13,15,17,19,21,23,25,-1,-1,27,29,31,33,35,37,39,41,-1,-1,-1,-1,-1,43,-1,-1,-1,-1,-1,-1,-1,-1,-1,-1,-1,-1,-1],"loss_changes":[7.3767656E-1,1.1325411E0,1.220258E0,7.7202976E-1,1.0591022E0,0E0,1.1134446E0,0E0,0E0,8.243837E-1,8.212987E-1,7.01235E-1,1.5039155E0,7.4688435E-1,1.0746825E0,7.7339697E-1,0E0,0E0,4.599151E-1,1.0280391E0,5.875981E-1,1.317075E0,1.3456277E0,9.567832E-1,7.708702E-1,5.0986505E-1,0E0,0E0,0E0,0E0,0E0,2.6395702E-1,0E0,0E0,0E0,0E0,0E0,0E0,0E0,0E0,0E0,0E0,0E0,0E0,0E0],"parents":[2147483647,0,0,1,1,2,2,3,3,4,4,6,6,9,9,10,10,11,11,12,12,13,13,14,14,15,15,18,18,19,19,20,20,21,21,22,22,23,23,24,24,25,25,31,31],"right_children":[2,4,6,8,10,-1,12,-1,-1,14,16,18,20,22,24,26,-1,-1,28,30,32,34,36,38,40,42,-1,-1,-1,-1,-1,44,-1,-1,-1,-1,-1,-1,-1,-1,-1,-1,-1,-1,-1],"split_conditions":[1E4,4E3,4E3,8E3,1E4,-1.6064389E-1,6E3,2.0588434E-1,-4.606527E-2,1E4,1E4,6E3,6E3,8E3,6E3,1.2E4,4.8807766E-2,9.118703E-2,8E3,8E3,1.2E4,1E4,6E3,8E3,6E3,6E3,3.1683803E-2,-1.9859825E-1,5.753907E-3,-1.619295E-1,1.03727825E-1,1.2E4,-5.626902E-3,-8.607412E-2,8.7507635E-2,-7.3893994E-2,7.2010316E-2,-1.5144725E-1,1.0240919E-1,-4.220955E-2,1.7129928E-1,-1.351302E-2,-2.4757387E-1,2.4589658E-1,4.8185658E-2],"split_indices":[45,58,97,138,47,0,132,0,0,8,23,10,92,106,18,86,0,0,97,116,120,93,139,80,118,101,0,0,0,0,0,97,0,0,0,0,0,0,0,0,0,0,0,0,0],"split_type":[0,0,0,0,0,0,0,0,0,0,0,0,0,0,0,0,0,0,0,0,0,0,0,0,0,0,0,0,0,0,0,0,0,0,0,0,0,0,0,0,0,0,0,0,0],"sum_hessian":[8.732547E1,7.022728E1,1.709819E1,3.599844E0,6.662744E1,1.1774358E0,1.5920755E1,2.4533095E0,1.1465344E0,5.861165E1,8.01579E0,4.496712E0,1.1424043E1,4.770067E1,1.0910979E1,6.3440604E0,1.6717298E0,1.5386386E0,2.9580736E0,3.3028183E0,8.121224E0,2.5575796E1,2.2124872E1,3.6903365E0,7.220643E0,5.0964403E0,1.24762E0,1.326017E0,1.6320566E0,1.6493936E0,1.6534247E0,6.982532E0,1.1386927E0,2.1661076E1,3.9147208E0,8.242761E0,1.38821125E1,2.349661E0,1.3406754E0,1.5277865E0,5.6928563E0,1.1532784E0,3.9431622E0,5.6902184E0,1.2923132E0],"tree_param":{"num_deleted":"0","num_feature":"145","num_nodes":"45","size_leaf_vector":"1"}},{"base_weights":[6.658908E-3,1.2963073E-1,-5.08717E-2,-1.6704184E-1,2.5182846E-1,-8.7598376E-2,5.5486256E-1,-2.923294E-1,1.08157255E-1,-9.4981045E-2,3.9298564E-1,-1.4558198E-1,2.4307944E-1,5.01472E-2,2.0084955E-1,-4.4125897E-1,7.307207E-2,1.1683109E-1,-3.6772066E-1,4.9047086E-1,-1.08616576E-1,4.3537855E-1,-1.8886541E-1,-8.5873745E-2,5.062017E-1,-5.92943E-1,-3.2919797E-3,-1.9908337E-1,2.1678869E-2,5.7508826E-1,-2.4137884E-2,-9.7333275E-2,4.790291E-2,1.0686846E-2,1.989791E-1,-2.768671E-1,7.8912176E-2,-4.458192E-1,1.054453E-1,-1.5959356E-3,2.1919717E-1,-2.1195747E-1,-5.4417454E-2,3.3096857E-2,2.2632271E-1,-1.3975199E-1,8.650903E-3,-1.1842146E-1,9.640026E-2,-1.6604772E-1,-3.6404744E-2],"categories":[],"categories_nodes":[],"categories_segments":[],"categories_sizes":[],"default_left":[0,0,0,0,0,0,0,0,0,0,0,0,0,0,0,0,0,0,0,0,0,0,0,0,0,0,0,0,0,0,0,0,0,0,0,0,0,0,0,0,0,0,0,0,0,0,0,0,0,0,0],"id":26,"left_children":[1,3,5,7,9,11,13,15,-1,17,19,21,23,-1,-1,25,-1,-1,27,29,31,33,35,37,39,41,-1,-1,-1,43,-1,-1,-1,-1,-1,45,47,49,-1,-1,-1,-1,-1,-1,-1,-1,-1,-1,-1,-1,-1],"loss_changes":[6.096377E-1,1.0372016E0,1.3564856E0,6.744403E-1,1.0086224E0,1.1147435E0,4.3517828E-2,7.068085E-1,0E0,1.0079037E0,7.523267E-1,1.3023149E0,8.02799E-1,0E0,0E0,4.0023518E-1,0E0,0E0,6.600426E-1,6.332922E-1,2.3391576E-1,3.1041324E-1,1.1023774E0,9.0504295E-1,5.80155E-1,8.6344E-2,0E0,0E0,0E0,8.089702E-1,0E0,0E0,0E0,0E0,0E0,2.019968E0,1.5184999E0,3.933674E-2,0E0,0E0,0E0,0E0,0E0,0E0,0E0,0E0,0E0,0E0,0E0,0E0,0E0],"parents":[2147483647,0,0,1,1,2,2,3,3,4,4,5,5,6,6,7,7,9,9,10,10,11,11,12,12,15,15,18,18,19,19,20,20,21,21,22,22,23,23,24,24,25,25,29,29,35,35,36,36,37,37],"right_children":[2,4,6,8,10,12,14,16,-1,18,20,22,24,-1,-1,26,-1,-1,28,30,32,34,36,38,40,42,-1,-1,-1,44,-1,-1,-1,-1,-1,46,48,50,-1,-1,-1,-1,-1,-1,-1,-1,-1,-1,-1,-1,-1],"split_conditions":[6E3,6E3,1.4E4,1E4,6E3,1.2E4,8E3,1E4,1.08157255E-1,6E3,1E4,4E3,6E3,5.01472E-2,2.0084955E-1,1E4,7.307207E-2,1.1683109E-1,8E3,1.2E4,8E3,6E3,1E4,8E3,6E3,8E3,-3.2919797E-3,-1.9908337E-1,2.1678869E-2,6E3,-2.4137884E-2,-9.7333275E-2,4.790291E-2,1.0686846E-2,1.989791E-1,8E3,6E3,6E3,1.054453E-1,-1.5959356E-3,2.1919717E-1,-2.1195747E-1,-5.4417454E-2,3.3096857E-2,2.2632271E-1,-1.3975199E-1,8.650903E-3,-1.1842146E-1,9.640026E-2,-1.6604772E-1,-3.6404744E-2],"split_indices":[55,24,70,124,90,121,119,47,0,36,39,121,0,0,0,7,0,0,33,138,35,63,55,23,76,119,0,0,0,9,0,0,0,0,0,12,127,58,0,0,0,0,0,0,0,0,0,0,0,0,0],"split_type":[0,0,0,0,0,0,0,0,0,0,0,0,0,0,0,0,0,0,0,0,0,0,0,0,0,0,0,0,0,0,0,0,0,0,0,0,0,0,0,0,0,0,0,0,0,0,0,0,0,0,0],"sum_hessian":[8.424008E1,2.6449966E1,5.7790115E1,7.6092334E0,1.8840733E1,5.529299E1,2.4971216E0,6.5092845E0,1.0999494E0,5.5448055E0,1.3295926E1,4.7520184E1,7.7728076E0,1.1308112E0,1.3663104E0,5.23192E0,1.2773646E0,1.8431973E0,3.7016084E0,1.1150955E1,2.1449707E0,2.6668127E0,4.485337E1,3.7536554E0,4.019152E0,3.5887825E0,1.6431371E0,1.90932E0,1.7922883E0,9.70526E0,1.4456955E0,1.0727268E0,1.0722438E0,1.3881104E0,1.2787024E0,3.3733383E1,1.111999E1,2.0484424E0,1.7052131E0,1.5234939E0,2.4956582E0,2.2508485E0,1.3379341E0,3.1517494E0,6.5535107E0,2.0523067E1,1.3210315E1,3.5518956E0,7.5680947E0,1.0080825E0,1.04036E0],"tree_param":{"num_deleted":"0","num_feature":"145","num_nodes":"51","size_leaf_vector":"1"}},{"base_weights":[1.090032E-2,4.1235086E-2,-2.3178238E-1,4.2622283E-1,1.489923E-2,1.4931323E-1,-4.2326084E-1,2.0243135E-1,-6.1669495E-2,-2.4408686E-3,1.695018E-1,1.220707E-1,-7.262096E-2,-5.353024E-1,1.0665602E-2,-1.6290618E-1,6.6622615E-2,-2.147147E-1,-7.6450496E-3,-2.4121897E-1,3.6735785E-1,1.9494599E-1,-1.17294505E-1,-1.4149362E-1,-4.297555E-3,-1.43400105E-2,1.8135548E-1,1.1924196E-1,-2.4787068E-2,-1.4474873E-1,2.181036E-2],"categories":[],"categories_nodes":[],"categories_segments":[],"categories_sizes":[],"default_left":[0,0,0,0,0,0,0,0,0,0,0,0,0,0,0,0,0,0,0,0,0,0,0,0,0,0,0,0,0,0,0],"id":27,"left_children":[1,3,5,7,9,11,13,-1,-1,15,-1,-1,-1,17,-1,19,21,-1,-1,23,25,27,29,-1,-1,-1,-1,-1,-1,-1,-1],"loss_changes":[6.1327505E-1,7.4134684E-1,7.39123E-1,8.744634E-1,6.696687E-1,4.8531735E-1,3.49365E-1,0E0,0E0,7.7458054E-1,0E0,0E0,0E0,4.6253264E-1,0E0,9.617495E-1,1.1766691E0,0E0,0E0,9.8263335E-1,3.3431903E-1,1.6727527E0,1.4725069E0,0E0,0E0,0E0,0E0,0E0,0E0,0E0,0E0],"parents":[2147483647,0,0,1,1,2,2,3,3,4,4,5,5,6,6,9,9,13,13,15,15,16,16,19,19,20,20,21,21,22,22],"right_children":[2,4,6,8,10,12,14,-1,-1,16,-1,-1,-1,18,-1,20,22,-1,-1,24,26,28,30,-1,-1,-1,-1,-1,-1,-1,-1],"split_conditions":[1E4,4E3,6E3,8E3,1.8E4,8E3,1E4,2.0243135E-1,-6.1669495E-2,6E3,1.695018E-1,1.220707E-1,-7.262096E-2,8E3,1.0665602E-2,1.2E4,8E3,-2.147147E-1,-7.6450496E-3,6E3,8E3,8E3,6E3,-1.4149362E-1,-4.297555E-3,-1.43400105E-2,1.8135548E-1,1.1924196E-1,-2.4787068E-2,-1.4474873E-1,2.181036E-2],"split_indices":[136,19,0,103,34,78,139,0,0,82,0,0,0,69,0,25,141,0,0,84,115,65,120,0,0,0,0,0,0,0,0],"split_type":[0,0,0,0,0,0,0,0,0,0,0,0,0,0,0,0,0,0,0,0,0,0,0,0,0,0,0,0,0,0,0],"sum_hessian":[8.100765E1,7.2744804E1,8.262843E0,3.685443E0,6.9059364E1,2.8368762E0,5.4259667E0,2.5960934E0,1.0893496E0,6.7914185E1,1.1451828E0,1.6869539E0,1.1499223E0,4.227021E0,1.1989456E0,2.0026016E1,4.7888165E1,2.8238592E0,1.4031619E0,1.7923985E1,2.1020322E0,2.8171953E1,1.9716211E1,8.357578E0,9.566406E0,1.0545146E0,1.0475175E0,1.6037962E1,1.2133993E1,6.220307E0,1.3495905E1],"tree_param":{"num_deleted":"0","num_feature":"145","num_nodes":"31","size_leaf_vector":"1"}},{"base_weights":[9.339327E-3,-8.608287E-3,4.2373538E-1,2.775192E-1,-3.5759684E-2,-1.603207E-2,1.9591576E-1,-6.569719E-2,5.14805E-1,-1.9211765E-1,2.5922798E-2,2.0759861E-1,2.503169E-2,3.382979E-1,-2.6906356E-1,-3.3176206E-2,3.7194374E-1,2.0986302E-2,1.3173889E-1,-3.5301787E-1,2.6900586E-1,1.7122595E-1,-1.3929851E-1,-2.8482055E-2,5.155273E-1,-1.729372E-1,-1.1058959E-2,1.4275499E-1,-2.2615403E-2,1.4489552E-1,-5.17089E-4,-6.919804E-2,6.7472465E-2,1.9002016E-1,-3.565328E-4],"categories":[],"categories_nodes":[],"categories_segments":[],"categories_sizes":[],"default_left":[0,0,0,0,0,0,0,0,0,0,0,0,0,0,0,0,0,0,0,0,0,0,0,0,0,0,0,0,0,0,0,0,0,0,0],"id":28,"left_children":[1,3,5,7,9,-1,-1,-1,11,13,15,-1,-1,17,19,21,23,-1,-1,25,27,29,31,-1,33,-1,-1,-1,-1,-1,-1,-1,-1,-1,-1],"loss_changes":[5.981644E-1,6.127615E-1,4.001845E-1,9.1852134E-1,6.970558E-1,0E0,0E0,0E0,3.1878948E-1,9.24387E-1,1.0826521E0,0E0,0E0,5.1261336E-2,9.2565703E-1,1.0134703E0,5.662788E-1,0E0,0E0,1.1330004E0,2.5310302E-1,8.656895E-1,1.069482E0,0E0,3.6970198E-1,0E0,0E0,0E0,0E0,0E0,0E0,0E0,0E0,0E0,0E0],"parents":[2147483647,0,0,1,1,2,2,3,3,4,4,8,8,9,9,10,10,13,13,14,14,15,15,16,16,19,19,20,20,21,21,22,22,24,24],"right_children":[2,4,6,8,10,-1,-1,-1,12,14,16,-1,-1,18,20,22,24,-1,-1,26,28,30,32,-1,34,-1,-1,-1,-1,-1,-1,-1,-1,-1,-1],"split_conditions":[1.4E4,4E3,8E3,6E3,6E3,-1.603207E-2,1.9591576E-1,-6.569719E-2,8E3,4E3,1.2E4,2.0759861E-1,2.503169E-2,8E3,1.2E4,6E3,8E3,2.0986302E-2,1.3173889E-1,8E3,8E3,6E3,1E4,-2.8482055E-2,1E4,-1.729372E-1,-1.1058959E-2,1.4275499E-1,-2.2615403E-2,1.4489552E-1,-5.17089E-4,-6.919804E-2,6.7472465E-2,1.9002016E-1,-3.565328E-4],"split_indices":[57,138,84,14,52,0,0,0,19,53,105,0,0,49,106,46,103,0,0,0,73,39,68,0,42,0,0,0,0,0,0,0,0,0,0],"split_type":[0,0,0,0,0,0,0,0,0,0,0,0,0,0,0,0,0,0,0,0,0,0,0,0,0,0,0,0,0,0,0,0,0,0,0],"sum_hessian":[7.8935875E1,7.659764E1,2.3382392E0,5.839414E0,