{"learner":{"attributes":{"scikit_learn":"{\"_estimator_type\": \"classifier\"}"},"feature_names":[],"feature_types":[],"gradient_booster":{"model":{"gbtree_model_param":{"num_parallel_tree":"1","num_trees":"100"},"iteration_indptr":[0,1,2,3,4,5,6,7,8,9,10,11,12,13,14,15,16,17,18,19,20,21,22,23,24,25,26,27,28,29,30,31,32,33,34,35,36,37,38,39,40,41,42,43,44,45,46,47,48,49,50,51,52,53,54,55,56,57,58,59,60,61,62,63,64,65,66,67,68,69,70,71,72,73,74,75,76,77,78,79,80,81,82,83,84,85,86,87,88,89,90,91,92,93,94,95,96,97,98,99,100],"tree_info":[0,0,0,0,0,0,0,0,0,0,0,0,0,0,0,0,0,0,0,0,0,0,0,0,0,0,0,0,0,0,0,0,0,0,0,0,0,0,0,0,0,0,0,0,0,0,0,0,0,0,0,0,0,0,0,0,0,0,0,0,0,0,0,0,0,0,0,0,0,0,0,0,0,0,0,0,0,0,0,0,0,0,0,0,0,0,0,0,0,0,0,0,0,0,0,0,0,0,0,0],"trees":[{"base_weights":[2.3969092E-8,2.6981795E-1,-3.6264294E-1,5.4002367E-2,4.688415E-1,-1.6187425E-1,-6.712053E-1,-3.8357607E-1,2.1923262E-1,5.19144E-1,-7.018474E-1,-3.335479E-1,2.6711187E-1,-7.4188244E-1,5.224195E-1,-7.3681384E-1,4.5589656E-1,8.6353704E-2,8.2544076E-1,1.2214153E-1,6.786616E-1,-1.030542E0,2.0076337E-1,-5.195391E-1,2.5236055E-1,4.982934E-1,-6.958843E-1,-8.9284235E-1,-6.972375E-2,4.0106955E-1,-2.2981952E-1,-1.4830792E0,-4.400395E-1,1.0897729E0,-3.1859595E-1,-1.5671648E-2,9.208664E-1,1.3954897E0,2.6838353E-1,5.7321894E-1,-3.0592752E-1,7.918697E-1,1.4580664E-1,-1.3295252E0,6.742965E-2,-6.095626E-1,9.6030664E-1,4.4885388E-1,-1.0553279E0,6.615921E-1,-4.5766792E-1,-1.0816656E0,3.3409712E-1,-9.679614E-1,6.70229E-1,-4.9575263E-1,7.6256955E-1,-1.3751149E-1,-5.188125E-1,-2.6188254E-1,1.2182301E-2,9.807214E-4,4.5715538E-1,2.2603066E-1,-3.4628594E-1,-2.9204873E-2,3.3450446E-1,-1.9908537E-1,3.912376E-1,1.5103035E-1,4.9533144E-1,2.207523E-1,-2.9897144E-1,1.1803028E-2,3.227051E-1,-2.0339851E-1,1.8978842E-1,2.4712832E-1,-3.3257154E-1,1.5330055E-1,-2.5596714E-1,-4.7260225E-1,-6.590408E-2,-8.996165E-2,-2.763741E-1,-6.590408E-2,4.0106955E-1,3.079191E-1,1.0246309E-2,-6.590408E-2,-3.990861E-1,1.2764128E-1,4.4119197E-1,-3.322668E-1,2.0091604E-1,-4.654992E-1,1.0091569E-1,-3.1721333E-1,1.0114461E-1,-1.19176574E-1,4.0091679E-1,-3.766099E-1,5.5752296E-2,3.5114574E-1,-1.9923781E-1],"categories":[],"categories_nodes":[],"categories_segments":[],"categories_sizes":[],"default_left":[0,0,0,0,0,0,0,0,0,0,0,0,0,0,0,0,0,0,0,0,0,0,0,0,0,0,0,0,0,0,0,0,0,0,0,0,0,0,0,0,0,0,0,0,0,0,0,0,0,0,0,0,0,0,0,0,0,0,0,0,0,0,0,0,0,0,0,0,0,0,0,0,0,0,0,0,0,0,0,0,0,0,0,0,0,0,0,0,0,0,0,0,0,0,0,0,0,0,0,0,0,0,0,0,0],"id":0,"left_children":[1,3,5,7,9,11,13,15,17,19,21,23,25,27,29,31,33,35,37,39,41,43,-1,45,47,49,51,53,55,-1,-1,57,59,61,63,65,67,69,71,73,75,77,79,81,-1,83,85,87,89,91,93,95,-1,97,99,101,103,-1,-1,-1,-1,-1,-1,-1,-1,-1,-1,-1,-1,-1,-1,-1,-1,-1,-1,-1,-1,-1,-1,-1,-1,-1,-1,-1,-1,-1,-1,-1,-1,-1,-1,-1,-1,-1,-1,-1,-1,-1,-1,-1,-1,-1,-1,-1,-1],"loss_changes":[6.433445E1,1.6167639E1,1.7268135E1,1.3242841E1,1.1906452E1,1.2700838E1,9.688435E0,1.5236641E1,1.0621979E1,1.1854549E1,4.52024E0,1.3507583E1,1.1366731E1,1.054121E1,8.107863E0,7.264986E0,7.9566145E0,9.379942E0,7.167246E0,1.0843657E1,7.982918E0,3.0198588E0,0E0,1.3041443E1,8.246449E0,6.625102E0,8.185445E0,1.0658455E1,7.558275E0,0E0,0E0,1.6680069E0,5.6533976E0,4.1217403E0,7.812768E0,9.25136E0,8.1526165E0,1.7910252E0,8.568173E0,7.2675543E0,1.0555842E1,7.6103134E0,9.465771E0,1.2908239E0,0E0,8.290352E0,2.8488264E0,6.4315953E0,6.842756E-1,6.06042E0,5.5041256E0,6.3536425E0,0E0,9.896515E0,3.7308939E0,7.4817314E0,4.9966288E0,0E0,0E0,0E0,0E0,0E0,0E0,0E0,0E0,0E0,0E0,0E0,0E0,0E0,0E0,0E0,0E0,0E0,0E0,0E0,0E0,0E0,0E0,0E0,0E0,0E0,0E0,0E0,0E0,0E0,0E0,0E0,0E0,0E0,0E0,0E0,0E0,0E0,0E0,0E0,0E0,0E0,0E0,0E0,0E0,0E0,0E0,0E0,0E0],"parents":[2147483647,0,0,1,1,2,2,3,3,4,4,5,5,6,6,7,7,8,8,9,9,10,10,11,11,12,12,13,13,14,14,15,15,16,16,17,17,18,18,19,19,20,20,21,21,23,23,24,24,25,25,26,26,27,27,28,28,31,31,32,32,33,33,34,34,35,35,36,36,37,37,38,38,39,39,40,40,41,41,42,42,43,43,45,45,46,46,47,47,48,48,49,49,50,50,51,51,53,53,54,54,55,55,56,56],"right_children":[2,4,6,8,10,12,14,16,18,20,22,24,26,28,30,32,34,36,38,40,42,44,-1,46,48,50,52,54,56,-1,-1,58,60,62,64,66,68,70,72,74,76,78,80,82,-1,84,86,88,90,92,94,96,-1,98,100,102,104,-1,-1,-1,-1,-1,-1,-1,-1,-1,-1,-1,-1,-1,-1,-1,-1,-1,-1,-1,-1,-1,-1,-1,-1,-1,-1,-1,-1,-1,-1,-1,-1,-1,-1,-1,-1,-1,-1,-1,-1,-1,-1,-1,-1,-1,-1,-1,-1],"split_conditions":[8E3,8E3,1E4,6E3,1.4E4,1E4,1.4E4,1E4,1.2E4,6E3,1E4,1E4,1.2E4,1.2E4,8E3,6E3,8E3,1.2E4,8E3,8E3,1.2E4,1.2E4,2.0076337E-1,1.4E4,1.2E4,1.2E4,1.4E4,1.8E4,1E4,4.0106955E-1,-2.2981952E-1,6E3,8E3,6E3,8E3,1.4E4,6E3,6E3,1E4,8E3,1E4,2E4,1E4,1E4,6.742965E-2,8E3,6E3,8E3,6E3,1E4,1E4,1.2E4,3.3409712E-1,1.4E4,8E3,8E3,1.2E4,-1.3751149E-1,-5.188125E-1,-2.6188254E-1,1.2182301E-2,9.807214E-4,4.5715538E-1,2.2603066E-1,-3.4628594E-1,-2.9204873E-2,3.3450446E-1,-1.9908537E-1,3.912376E-1,1.5103035E-1,4.9533144E-1,2.207523E-1,-2.9897144E-1,1.1803028E-2,3.227051E-1,-2.0339851E-1,1.8978842E-1,2.4712832E-1,-3.3257154E-1,1.5330055E-1,-2.5596714E-1,-4.7260225E-1,-6.590408E-2,-8.996165E-2,-2.763741E-1,-6.590408E-2,4.0106955E-1,3.079191E-1,1.0246309E-2,-6.590408E-2,-3.990861E-1,1.2764128E-1,4.4119197E-1,-3.322668E-1,2.0091604E-1,-4.654992E-1,1.0091569E-1,-3.1721333E-1,1.0114461E-1,-1.19176574E-1,4.0091679E-1,-3.766099E-1,5.5752296E-2,3.5114574E-1,-1.9923781E-1],"split_indices":[136,129,136,55,141,138,78,91,52,139,47,88,53,108,110,79,104,127,56,114,60,17,0,54,2,60,20,128,63,0,0,142,99,109,38,47,108,7,96,123,98,6,70,83,0,115,31,50,9,63,107,84,0,96,120,25,58,0,0,0,0,0,0,0,0,0,0,0,0,0,0,0,0,0,0,0,0,0,0,0,0,0,0,0,0,0,0,0,0,0,0,0,0,0,0,0,0,0,0,0,0,0,0,0,0],"split_type":[0,0,0,0,0,0,0,0,0,0,0,0,0,0,0,0,0,0,0,0,0,0,0,0,0,0,0,0,0,0,0,0,0,0,0,0,0,0,0,0,0,0,0,0,0,0,0,0,0,0,0,0,0,0,0,0,0,0,0,0,0,0,0,0,0,0,0,0,0,0,0,0,0,0,0,0,0,0,0,0,0,0,0,0,0,0,0,0,0,0,0,0,0,0,0,0,0,0,0,0,0,0,0,0,0],"sum_hessian":[6.554966E2,3.7599802E2,2.7949854E2,1.8099905E2,1.9499898E2,1.702491E2,1.0924943E2,4.924974E1,1.3174931E2,1.8749902E2,7.499961E0,1.2174936E2,4.8499744E1,1.0349946E2,5.74997E0,3.4749817E1,1.4499924E1,1.0899943E2,2.274988E1,5.4249714E1,1.332493E2,6.249967E0,1.2499934E0,9.249951E1,2.9249847E1,3.9499794E1,8.999952E0,8.424956E1,1.9249899E1,3.4999816E0,2.249988E0,8.749954E0,2.5999863E1,7.7499595E0,6.7499647E0,9.799949E1,1.0999943E1,1.0499945E1,1.2249936E1,2.6249863E1,2.7999853E1,1.0949943E2,2.3749876E1,4.999974E0,1.2499934E0,8.774954E1,4.749975E0,2.5999863E1,3.2499828E0,3.399982E1,5.4999714E0,7.7499595E0,1.2499934E0,8.074957E1,3.4999816E0,1.2999931E1,6.249967E0,2.249988E0,6.4999657E0,1.324993E1,1.2749933E1,2.499987E0,5.2499723E0,2.9999843E0,3.7499804E0,9.224952E1,5.74997E0,1.9999895E0,8.999952E0,2.9999843E0,7.499961E0,9.249951E0,2.9999843E0,1.324993E1,1.2999931E1,2.0249893E1,7.7499595E0,1.08249435E2,1.2499934E0,1.7749907E1,5.9999685E0,3.7499804E0,1.2499934E0,4.4999763E1,4.2749775E1,1.2499934E0,3.4999816E0,1.0249947E1,1.5749917E1,1.2499934E0,1.9999895E0,2.7499855E1,6.4999657E0,3.4999816E0,1.9999895E0,5.74997E0,1.9999895E0,7.57496E1,4.999974E0,1.4999921E0,1.9999895E0,5.74997E0,7.249962E0,4.999974E0,1.2499934E0],"tree_param":{"num_deleted":"0","num_feature":"145","num_nodes":"105","size_leaf_vector":"1"}},{"base_weights":[9.012227E-4,1.9278115E-1,-2.580958E-1,9.0921186E-2,5.015454E-1,-3.56348E-1,1.5586703E-1,9.410726E-3,5.791155E-1,6.1236054E-1,-7.121424E-1,-3.9190033E-1,1.0139428E0,-5.0807834E-1,3.5646838E-1,-1.06828414E-1,3.611815E-1,7.755079E-1,-4.7865364E-1,6.9479686E-1,-4.5757967E-1,-1.3761344E0,2.778469E-1,-3.497189E-1,-1.3550898E0,-3.6390483E-2,4.535944E-1,2.365438E-1,-1.1778083E0,4.7892225E-1,-9.382711E-1,-1.6901807E-1,7.255089E-1,-4.4668835E-2,7.429262E-1,8.711318E-1,-2.4347313E-1,5.1146555E-1,-3.70482E-1,-2.3928155E-1,7.4845266E-1,-1.1839553E0,2.541943E-1,-4.8132768E-1,-7.704567E-2,5.0120264E-1,-4.017607E-1,-1.3258713E-1,-4.5374867E-1,7.9805624E-1,-3.2819718E-1,-4.1411704E-1,-4.0843323E-2,6.77737E-1,-3.919495E-1,-3.637007E-1,-5.43204E-2,-1.7343268E-1,-4.566788E-3,-2.0137991E-1,3.3685428E-1,4.029385E-2,-3.119642E-1,2.8029183E-1,-1.5809068E-1,-1.7428122E-1,2.9104623E-1,-1.1313588E-1,3.3073726E-1,1.3473481E-1,3.0324796E-1,-6.232408E-2,-4.4070253E-1,-9.32007E-2,3.3231282E-1,-2.1740453E-1,-8.3330035E-2,4.205463E-1,-1.6114427E-2,1.1812356E-1,4.301538E-1,1.4531207E-1,-3.5449067E-1],"categories":[],"categories_nodes":[],"categories_segments":[],"categories_sizes":[],"default_left":[0,0,0,0,0,0,0,0,0,0,0,0,0,0,0,0,0,0,0,0,0,0,0,0,0,0,0,0,0,0,0,0,0,0,0,0,0,0,0,0,0,0,0,0,0,0,0,0,0,0,0,0,0,0,0,0,0,0,0,0,0,0,0,0,0,0,0,0,0,0,0,0,0,0,0,0,0,0,0,0,0,0,0],"id":1,"left_children":[1,3,5,7,9,11,13,15,17,19,21,23,25,27,29,31,33,35,37,39,41,43,-1,45,47,-1,-1,49,51,53,55,57,59,61,63,65,-1,67,-1,-1,69,71,-1,-1,-1,73,75,-1,-1,77,-1,-1,-1,79,81,-1,-1,-1,-1,-1,-1,-1,-1,-1,-1,-1,-1,-1,-1,-1,-1,-1,-1,-1,-1,-1,-1,-1,-1,-1,-1,-1,-1],"loss_changes":[3.219472E1,1.16581335E1,1.1268957E1,1.1177956E1,1.2821659E1,1.1267042E1,7.317303E0,9.927583E0,8.720858E0,7.808243E0,1.0158761E1,8.391182E0,3.5312295E0,6.6840754E0,7.066309E0,9.571983E0,9.374835E0,5.9095745E0,5.807662E0,6.9425545E0,7.332809E0,1.1757908E0,0E0,9.518194E0,5.9737206E-1,0E0,0E0,6.0392766E0,1.274353E0,6.9820166E0,5.989759E-1,1.0729181E1,7.9022284E0,5.513388E0,8.057264E0,5.2819996E0,0E0,2.3590798E0,0E0,0E0,5.594261E0,1.0046563E0,0E0,0E0,0E0,6.534006E0,7.75951E0,0E0,0E0,2.873408E0,0E0,0E0,0E0,6.2955227E0,6.000147E0,0E0,0E0,0E0,0E0,0E0,0E0,0E0,0E0,0E0,0E0,0E0,0E0,0E0,0E0,0E0,0E0,0E0,0E0,0E0,0E0,0E0,0E0,0E0,0E0,0E0,0E0,0E0,0E0],"parents":[2147483647,0,0,1,1,2,2,3,3,4,4,5,5,6,6,7,7,8,8,9,9,10,10,11,11,12,12,13,13,14,14,15,15,16,16,17,17,18,18,19,19,20,20,21,21,23,23,24,24,27,27,28,28,29,29,30,30,31,31,32,32,33,33,34,34,35,35,37,37,40,40,41,41,45,45,46,46,49,49,53,53,54,54],"right_children":[2,4,6,8,10,12,14,16,18,20,22,24,26,28,30,32,34,36,38,40,42,44,-1,46,48,-1,-1,50,52,54,56,58,60,62,64,66,-1,68,-1,-1,70,72,-1,-1,-1,74,76,-1,-1,78,-1,-1,-1,80,82,-1,-1,-1,-1,-1,-1,-1,-1,-1,-1,-1,-1,-1,-1,-1,-1,-1,-1,-1,-1,-1,-1,-1,-1,-1,-1,-1,-1],"split_conditions":[8E3,1E4,1.2E4,1E4,1.4E4,1.8E4,6E3,1E4,1.2E4,1E4,1E4,1.8E4,6E3,8E3,2E4,1.4E4,8E3,1.8E4,8E3,4E3,1.2E4,1.2E4,2.778469E-1,4E3,6E3,-3.6390483E-2,4.535944E-1,1E4,1E4,1.2E4,1E4,6E3,6E3,1.2E4,1.2E4,4E3,-2.4347313E-1,8E3,-3.70482E-1,-2.3928155E-1,8E3,8E3,2.541943E-1,-4.8132768E-1,-7.704567E-2,8E3,6E3,-1.3258713E-1,-4.5374867E-1,8E3,-3.2819718E-1,-4.1411704E-1,-4.0843323E-2,1.2E4,8E3,-3.637007E-1,-5.43204E-2,-1.7343268E-1,-4.566788E-3,-2.0137991E-1,3.3685428E-1,4.029385E-2,-3.119642E-1,2.8029183E-1,-1.5809068E-1,-1.7428122E-1,2.9104623E-1,-1.1313588E-1,3.3073726E-1,1.3473481E-1,3.0324796E-1,-6.232408E-2,-4.4070253E-1,-9.32007E-2,3.3231282E-1,-2.1740453E-1,-8.3330035E-2,4.205463E-1,-1.6114427E-2,1.1812356E-1,4.301538E-1,1.4531207E-1,-3.5449067E-1],"split_indices":[136,99,78,138,65,31,139,54,38,137,40,137,129,105,79,121,16,141,80,112,130,14,0,46,102,0,0,8,51,142,34,88,63,142,134,39,0,64,0,0,92,122,0,0,0,143,107,0,0,27,0,0,0,129,2,0,0,0,0,0,0,0,0,0,0,0,0,0,0,0,0,0,0,0,0,0,0,0,0,0,0,0,0],"split_type":[0,0,0,0,0,0,0,0,0,0,0,0,0,0,0,0,0,0,0,0,0,0,0,0,0,0,0,0,0,0,0,0,0,0,0,0,0,0,0,0,0,0,0,0,0,0,0,0,0,0,0,0,0,0,0,0,0,0,0,0,0,0,0,0,0,0,0,0,0,0,0,0,0,0,0,0,0,0,0,0,0,0,0],"sum_hessian":[6.458278E2,3.711294E2,2.746984E2,2.8003995E2,9.108946E1,2.221187E2,5.257969E1,2.408467E2,3.9193245E1,8.3922424E1,7.1670394E0,2.171975E2,4.921207E0,1.1844449E1,4.073524E1,1.8155122E2,5.9295475E1,3.3280933E1,5.912312E0,7.82445E1,5.6779265E0,5.213901E0,1.9531382E0,2.0939062E2,7.806862E0,1.7312902E0,3.1899166E0,5.914912E0,5.9295373E0,3.779113E1,2.9441082E0,1.6967087E2,1.1880346E1,2.91683E1,3.0127174E1,3.1815142E1,1.4657904E0,2.7005305E0,3.2117813E0,2.2342772E0,7.601022E1,3.7070563E0,1.9708704E0,3.9706619E0,1.2432393E0,1.1570684E1,1.9781995E2,1.707746E0,6.099116E0,4.4409432E0,1.4739692E0,4.6918855E0,1.2376516E0,3.0947725E1,6.8434052E0,1.7203639E0,1.2237444E0,4.5604763E1,1.2406611E2,2.4784336E0,9.401913E0,2.5455376E1,3.7129247E0,2.641114E1,3.7160335E0,1.7203982E0,3.0094744E1,1.2232307E0,1.4772998E0,3.677087E1,3.9239353E1,1.2285379E0,2.4785185E0,5.1562657E0,6.414418E0,5.35399E1,1.4428004E2,2.220912E0,2.220031E0,2.36032E1,7.3445253E0,3.4270244E0,3.416381E0],"tree_param":{"num_deleted":"0","num_feature":"145","num_nodes":"83","size_leaf_vector":"1"}},{"base_weights":[-1.4630699E-3,1.5382221E-1,-2.1320407E-1,5.0038304E-2,4.7037238E-1,-3.51355E-1,5.4987315E-2,-1.1804814E-2,7.8481674E-1,-3.641277E-1,5.11773E-1,-1.4247893E-1,-5.7065237E-1,8.4855664E-1,-1.6517782E-1,-6.399126E-2,8.5732573E-1,1.1468982E0,-4.5414132E-1,5.533707E-1,-3.5531756E-1,-3.4045193E-1,6.088962E-1,-8.719215E-1,-2.329325E-1,1.9715738E-1,1.3196747E0,3.0799177E-3,-8.121274E-1,-1.5867457E-1,3.3374292E-1,1.0407257E0,-1.02046095E-1,1.5000039E0,3.4900572E-2,1.8673879E-1,-1.0735039E0,6.851325E-1,1.8141178E-2,2.1710348E-1,-5.320948E-1,-4.56957E-2,1.1084981E0,-9.950691E-1,5.196494E-1,-4.6064228E-1,4.815175E-1,-2.2440451E-1,3.7327945E-1,4.9169162E-1,4.1976103E-1,6.4188236E-1,-2.1665427E-1,2.0951344E-1,-1.048077E0,-8.226418E-2,7.0466846E-2,-1.05884865E-1,1.6873068E-1,3.774725E-1,-8.515833E-2,4.8802462E-1,1.262506E-1,-3.178167E-1,1.9512057E-1,-6.390914E-2,-4.1251752E-1,-2.6940742E-1,2.1949038E-1,3.2372662E-1,-8.235168E-2,-3.0845756E-2,3.797548E-1,-2.2580835E-1,6.85112E-2,2.9137364E-1,-1.7563011E-1,-2.0710792E-2,4.3153122E-1,-3.2890236E-1,1.4096715E-1,3.4057662E-1,-1.8435532E-1,1.2105249E-1,-2.2953062E-1,2.5025123E-1,-2.6057908E-1,-2.906229E-1,1.7289531E-1,3.4888333E-1,-1.9032413E-1,3.755692E-1,5.030383E-2,6.023186E-2,-2.0453751E-1,-2.0607299E-1,3.311498E-1,-4.0591794E-1,-4.8249226E-2],"categories":[],"categories_nodes":[],"categories_segments":[],"categories_sizes":[],"default_left":[0,0,0,0,0,0,0,0,0,0,0,0,0,0,0,0,0,0,0,0,0,0,0,0,0,0,0,0,0,0,0,0,0,0,0,0,0,0,0,0,0,0,0,0,0,0,0,0,0,0,0,0,0,0,0,0,0,0,0,0,0,0,0,0,0,0,0,0,0,0,0,0,0,0,0,0,0,0,0,0,0,0,0,0,0,0,0,0,0,0,0,0,0,0,0,0,0,0,0],"id":2,"left_children":[1,3,5,7,9,11,13,15,17,-1,19,21,23,25,27,29,31,33,35,37,-1,39,41,43,45,47,49,51,53,55,57,59,-1,61,63,-1,65,67,69,71,73,75,77,79,81,83,85,87,-1,-1,89,91,93,95,97,-1,-1,-1,-1,-1,-1,-1,-1,-1,-1,-1,-1,-1,-1,-1,-1,-1,-1,-1,-1,-1,-1,-1,-1,-1,-1,-1,-1,-1,-1,-1,-1,-1,-1,-1,-1,-1,-1,-1,-1,-1,-1,-1,-1],"loss_changes":[2.0966745E1,1.2062464E1,1.001524E1,1.2649536E1,6.946142E0,8.081306E0,1.6317022E1,1.173694E1,1.0214981E1,0E0,6.9519634E0,1.39819145E1,8.607828E0,5.9609165E0,7.9834366E0,9.23797E0,3.573267E0,6.6251507E0,4.40463E0,6.1785336E0,0E0,8.01526E0,6.4832034E0,8.298023E0,7.086201E0,4.5537705E0,2.641737E0,8.446134E0,3.868311E0,9.053377E0,7.6140337E0,4.0905905E0,0E0,1.0776176E0,4.139208E0,0E0,7.252941E-1,5.84116E0,5.999517E0,6.7136135E0,9.450637E0,5.768931E0,4.448675E0,6.7546196E0,3.7336628E0,8.861311E0,5.8127346E0,5.1781282E0,0E0,0E0,4.16855E0,4.2446218E0,8.831796E0,3.7030807E0,3.1548452E0,0E0,0E0,0E0,0E0,0E0,0E0,0E0,0E0,0E0,0E0,0E0,0E0,0E0,0E0,0E0,0E0,0E0,0E0,0E0,0E0,0E0,0E0,0E0,0E0,0E0,0E0,0E0,0E0,0E0,0E0,0E0,0E0,0E0,0E0,0E0,0E0,0E0,0E0,0E0,0E0,0E0,0E0,0E0,0E0],"parents":[2147483647,0,0,1,1,2,2,3,3,4,4,5,5,6,6,7,7,8,8,10,10,11,11,12,12,13,13,14,14,15,15,16,16,17,17,18,18,19,19,21,21,22,22,23,23,24,24,25,25,26,26,27,27,28,28,29,29,30,30,31,31,33,33,34,34,36,36,37,37,38,38,39,39,40,40,41,41,42,42,43,43,44,44,45,45,46,46,47,47,50,50,51,51,52,52,53,53,54,54],"right_children":[2,4,6,8,10,12,14,16,18,-1,20,22,24,26,28,30,32,34,36,38,-1,40,42,44,46,48,50,52,54,56,58,60,-1,62,64,-1,66,68,70,72,74,76,78,80,82,84,86,88,-1,-1,90,92,94,96,98,-1,-1,-1,-1,-1,-1,-1,-1,-1,-1,-1,-1,-1,-1,-1,-1,-1,-1,-1,-1,-1,-1,-1,-1,-1,-1,-1,-1,-1,-1,-1,-1,-1,-1,-1,-1,-1,-1,-1,-1,-1,-1,-1,-1],"split_conditions":[8E3,1E4,1E4,1.4E4,2E3,8E3,1.2E4,1.4E4,1E4,-3.641277E-1,2E4,1.2E4,8E3,8E3,1.2E4,1E4,1.2E4,8E3,6E3,1E4,-3.5531756E-1,6E3,8E3,1.4E4,1.2E4,1E4,1E4,6E3,6E3,1E4,6E3,1E4,-1.02046095E-1,1E4,6E3,1.8673879E-1,8E3,2E3,6E3,1.2E4,1.2E4,6E3,6E3,1.4E4,1E4,6E3,1.2E4,8E3,3.7327945E-1,4.9169162E-1,8E3,6E3,8E3,1.2E4,1E4,-8.226418E-2,7.0466846E-2,-1.05884865E-1,1.6873068E-1,3.774725E-1,-8.515833E-2,4.8802462E-1,1.262506E-1,-3.178167E-1,1.9512057E-1,-6.390914E-2,-4.1251752E-1,-2.6940742E-1,2.1949038E-1,3.2372662E-1,-8.235168E-2,-3.0845756E-2,3.797548E-1,-2.2580835E-1,6.85112E-2,2.9137364E-1,-1.7563011E-1,-2.0710792E-2,4.3153122E-1,-3.2890236E-1,1.4096715E-1,3.4057662E-1,-1.8435532E-1,1.2105249E-1,-2.2953062E-1,2.5025123E-1,-2.6057908E-1,-2.906229E-1,1.7289531E-1,3.4888333E-1,-1.9032413E-1,3.755692E-1,5.030383E-2,6.023186E-2,-2.0453751E-1,-2.0607299E-1,3.311498E-1,-4.0591794E-1,-4.8249226E-2],"split_indices":[135,121,133,45,109,73,133,52,57,0,142,43,57,95,142,138,58,134,94,1,0,1,106,91,97,77,67,43,21,99,94,141,0,141,104,0,79,23,93,20,108,110,78,77,13,106,108,120,0,0,20,118,116,52,61,0,0,0,0,0,0,0,0,0,0,0,0,0,0,0,0,0,0,0,0,0,0,0,0,0,0,0,0,0,0,0,0,0,0,0,0,0,0,0,0,0,0,0,0],"split_type":[0,0,0,0,0,0,0,0,0,0,0,0,0,0,0,0,0,0,0,0,0,0,0,0,0,0,0,0,0,0,0,0,0,0,0,0,0,0,0,0,0,0,0,0,0,0,0,0,0,0,0,0,0,0,0,0,0,0,0,0,0,0,0,0,0,0,0,0,0,0,0,0,0,0,0,0,0,0,0,0,0,0,0,0,0,0,0,0,0,0,0,0,0,0,0,0,0,0,0],"sum_hessian":[6.356723E2,3.6688327E2,2.68789E2,2.7716895E2,8.971433E1,1.771997E2,9.15893E1,2.565594E2,2.0609558E1,1.4730942E0,8.824124E1,9.160121E1,8.559849E1,1.9271694E1,7.231761E1,2.4290091E2,1.3658473E1,1.6006124E1,4.6034327E0,8.678659E1,1.4546514E0,7.293194E1,1.866928E1,4.440469E1,4.1193798E1,8.683625E0,1.0588069E1,5.818117E1,1.4136438E1,1.9668077E2,4.622014E1,1.1957954E1,1.7005184E0,1.1883643E1,4.122482E0,1.6793336E0,2.924099E0,6.941745E1,1.7369135E1,1.8621803E1,5.431013E1,8.474412E0,1.0194867E1,4.1056328E1,3.3483644E0,3.1507093E1,9.686705E0,6.7512755E0,1.9323493E0,7.208998E0,3.379071E0,1.4399204E1,4.3781967E1,2.6733053E0,1.1463133E1,1.5227914E2,4.4401623E1,1.1411534E1,3.48086E1,1.0314291E1,1.6436638E0,1.0180561E1,1.7030822E0,1.2244219E0,2.89806E0,1.2016579E0,1.722441E0,1.458299E0,6.795915E1,3.1742E0,1.4194934E1,1.4960135E1,3.6616683E0,4.2106018E1,1.2204112E1,2.6610842E0,5.813328E0,2.4044144E0,7.790453E0,3.863699E1,2.4193373E0,2.1697192E0,1.178645E0,8.123832E0,2.338326E1,7.983534E0,1.7031705E0,3.3900774E0,3.3611982E0,1.9213543E0,1.4577168E0,5.5804753E0,8.818729E0,2.3373922E1,2.0408045E1,1.450905E0,1.2224002E0,8.140054E0,3.323079E0],"tree_param":{"num_deleted":"0","num_feature":"145","num_nodes":"99","size_leaf_vector":"1"}},{"base_weights":[1.1785354E-3,7.198061E-2,-3.613008E-1,9.2166685E-2,-9.145729E-1,-8.9933103E-1,-2.3952925E-1,5.8464076E-2,6.0405767E-1,-1.2494841E0,1.13551214E-1,-1.0499167E0,2.0670097E-1,-3.822187E-1,3.7825537E-1,-8.173542E-3,3.5857958E-1,-1.6266333E-1,9.0467656E-1,-4.6884322E-1,1.1591968E-1,8.587657E-2,-1.1597385E0,-2.3386644E-2,-6.313405E-1,-9.661612E-2,1.0675511E0,1.2801266E-1,-2.7397436E-1,4.785422E-1,-4.2713284E-1,4.2536327E-1,-9.17053E-1,1.0206734E0,-2.1299094E-1,-3.6116433E-1,-1.3431509E0,9.467335E-1,-3.472074E-1,-1.0261334E0,-2.3228408E-1,5.5620056E-1,-6.092025E-1,1.4700406E0,-3.414673E-2,8.8846296E-2,-3.3305578E-2,-1.0577188E-1,2.4226663E-1,-2.6164114E-1,1.7097329E-1,-2.030117E-1,2.5586665E-1,3.5480446E-1,-1.2615073E-1,5.140578E-2,-4.0003943E-1,3.846638E-1,1.3749608E-3,-3.1362292E-1,1.9464296E-1,-4.3801978E-1,-1.5446627E-1,-1.0427844E-1,4.052485E-1,3.5062183E-2,-2.5566304E-1,1.8492237E-1,-3.6761004E-1,2.7607437E-2,-3.0465072E-1,-1.415422E-1,2.9317415E-1,1.1675881E-1,-3.2169905E-1,4.937525E-1,1.2478409E-1],"categories":[],"categories_nodes":[],"categories_segments":[],"categories_sizes":[],"default_left":[0,0,0,0,0,0,0,0,0,0,0,0,0,0,0,0,0,0,0,0,0,0,0,0,0,0,0,0,0,0,0,0,0,0,0,0,0,0,0,0,0,0,0,0,0,0,0,0,0,0,0,0,0,0,0,0,0,0,0,0,0,0,0,0,0,0,0,0,0,0,0,0,0,0,0,0,0],"id":3,"left_children":[1,3,5,7,9,11,13,15,17,19,-1,21,-1,23,25,27,29,31,33,-1,-1,-1,35,37,39,41,43,45,47,49,51,53,55,57,-1,59,61,63,65,67,69,71,73,75,-1,-1,-1,-1,-1,-1,-1,-1,-1,-1,-1,-1,-1,-1,-1,-1,-1,-1,-1,-1,-1,-1,-1,-1,-1,-1,-1,-1,-1,-1,-1,-1,-1],"loss_changes":[1.604658E1,1.0500929E1,6.4785557E0,8.823353E0,5.0545444E0,5.1467037E0,7.609082E0,9.659892E0,7.4334364E0,5.030157E0,0E0,2.8688831E0,0E0,6.1790295E0,5.4683533E0,1.4373775E1,8.476166E0,4.7157235E0,5.006336E0,0E0,0E0,0E0,1.88377E0,9.574127E0,6.198435E0,3.8932261E0,3.38591E0,1.0587032E1,1.17194E1,9.950951E0,4.4593945E0,4.4452467E0,2.307998E0,5.7711525E0,0E0,3.711086E0,4.8625183E-1,4.4621334E0,5.442322E0,7.3806686E0,5.5828357E0,2.7095337E0,3.3892496E0,2.643423E-1,0E0,0E0,0E0,0E0,0E0,0E0,0E0,0E0,0E0,0E0,0E0,0E0,0E0,0E0,0E0,0E0,0E0,0E0,0E0,0E0,0E0,0E0,0E0,0E0,0E0,0E0,0E0,0E0,0E0,0E0,0E0,0E0,0E0],"parents":[2147483647,0,0,1,1,2,2,3,3,4,4,5,5,6,6,7,7,8,8,9,9,11,11,13,13,14,14,15,15,16,16,17,17,18,18,22,22,23,23,24,24,25,25,26,26,27,27,28,28,29,29,30,30,31,31,32,32,33,33,35,35,36,36,37,37,38,38,39,39,40,40,41,41,42,42,43,43],"right_children":[2,4,6,8,10,12,14,16,18,20,-1,22,-1,24,26,28,30,32,34,-1,-1,-1,36,38,40,42,44,46,48,50,52,54,56,58,-1,60,62,64,66,68,70,72,74,76,-1,-1,-1,-1,-1,-1,-1,-1,-1,-1,-1,-1,-1,-1,-1,-1,-1,-1,-1,-1,-1,-1,-1,-1,-1,-1,-1,-1,-1,-1,-1,-1,-1],"split_conditions":[1E4,1.8E4,6E3,1.4E4,1E4,1.4E4,1.2E4,1E4,6E3,1.4E4,1.13551214E-1,4E3,2.0670097E-1,1E4,1E4,8E3,1.4E4,8E3,1.4E4,-4.6884322E-1,1.1591968E-1,8.587657E-2,6E3,6E3,8E3,1E4,1E4,8E3,1.4E4,6E3,1.2E4,8E3,8E3,1E4,-2.1299094E-1,8E3,1.2E4,6E3,8E3,4E3,1E4,6E3,6E3,1E4,-3.414673E-2,8.8846296E-2,-3.3305578E-2,-1.0577188E-1,2.4226663E-1,-2.6164114E-1,1.7097329E-1,-2.030117E-1,2.5586665E-1,3.5480446E-1,-1.2615073E-1,5.140578E-2,-4.0003943E-1,3.846638E-1,1.3749608E-3,-3.1362292E-1,1.9464296E-1,-4.3801978E-1,-1.5446627E-1,-1.0427844E-1,4.052485E-1,3.5062183E-2,-2.5566304E-1,1.8492237E-1,-3.6761004E-1,2.7607437E-2,-3.0465072E-1,-1.415422E-1,2.9317415E-1,1.1675881E-1,-3.2169905E-1,4.937525E-1,1.2478409E-1],"split_indices":[136,141,139,54,109,110,129,138,13,42,0,96,0,137,63,139,139,1,124,0,0,0,144,95,120,135,96,142,129,140,21,18,128,110,0,37,91,0,40,49,66,67,41,49,0,0,0,0,0,0,0,0,0,0,0,0,0,0,0,0,0,0,0,0,0,0,0,0,0,0,0,0,0,0,0,0,0],"split_type":[0,0,0,0,0,0,0,0,0,0,0,0,0,0,0,0,0,0,0,0,0,0,0,0,0,0,0,0,0,0,0,0,0,0,0,0,0,0,0,0,0,0,0,0,0,0,0,0,0,0,0,0,0,0,0,0,0,0,0,0,0,0,0,0,0,0,0,0,0,0,0,0,0,0,0,0,0],"sum_hessian":[6.23236E2,5.220641E2,1.01171906E2,5.124846E2,9.579476E0,1.749359E1,8.3678314E1,4.8187262E2,3.061201E1,7.6355553E0,1.9439213E0,1.6288319E1,1.2052702E0,6.828733E1,1.5390986E1,3.9511426E2,8.675837E1,8.751199E0,2.186081E1,6.4456625E0,1.189893E0,1.1150657E0,1.5173253E1,2.84304E1,3.985693E1,9.622004E0,5.7689834E0,2.6159918E2,1.3351506E2,7.560581E1,1.1152559E1,5.162959E0,3.5882397E0,2.0738792E1,1.1220179E0,3.3885775E0,1.1784676E1,6.633565E0,2.1796835E1,1.9245575E1,2.0611355E1,4.1946807E0,5.4273224E0,4.120721E0,1.6482624E0,1.5343176E2,1.0816743E2,1.2509777E2,8.417288E0,4.2489824E0,7.135683E1,9.727305E0,1.4252533E0,2.513969E0,2.6489902E0,1.1557845E0,2.432455E0,1.628513E1,4.4536624E0,1.9991153E0,1.389462E0,9.658506E0,2.126169E0,1.6115472E0,5.0220175E0,1.1759135E1,1.0037701E1,1.8553761E0,1.7390198E1,1.5199973E1,5.4113812E0,1.1838031E0,3.0108778E0,1.7703922E0,3.6569304E0,3.0505683E0,1.0701525E0],"tree_param":{"num_deleted":"0","num_feature":"145","num_nodes":"77","size_leaf_vector":"1"}},{"base_weights":[-4.940997E-4,-1.3795914E-1,1.290487E-1,-1.8079741E-1,5.5183035E-1,8.269646E-2,7.823434E-1,-1.2475436E-2,-3.632588E-1,8.247747E-1,-6.155554E-1,2.4798246E-2,7.5332505E-1,1.0754032E0,-5.2158874E-1,-1.1403332E-1,4.8941523E-1,-1.166594E-1,-5.9820485E-1,1.0403471E0,-1.08810715E-1,-3.196736E-1,4.2834014E-2,-7.540015E-2,3.367435E-1,-2.2558293E-1,8.9942807E-1,1.2343912E0,1.4398691E-4,2.1998926E-1,-3.51529E-1,-7.405752E-3,-7.671199E-1,-3.1789458E-1,8.009075E-1,9.1945815E-1,-2.0950559E-1,-5.5740513E-2,-7.626944E-1,-1.2437449E-1,1.2936393E0,-1.16264805E-1,9.8753715E-1,1.2528405E-1,8.404622E-1,1.0009471E0,-1.1542604E-1,3.229681E-1,4.3108904E-1,-1.7217192E-1,1.8712494E-1,1.23465545E-1,-5.1264536E-2,-2.8745946E-1,1.3837042E-1,1.5590137E-1,-3.2152545E-1,3.5719103E-1,6.2879935E-2,-4.508795E-2,4.1500348E-1,-8.4150866E-2,3.134232E-1,1.1307283E-1,-2.4910344E-1,-2.4859099E-1,1.0518473E-1,4.310354E-1,8.017098E-3,-1.296783E-1,-1.7174748E-3,-3.4737844E-2,4.113095E-1,-1.5778627E-1,1.0897984E-1,-4.4259775E-2,3.6590308E-1,-1.08238034E-1,3.2999966E-1,3.0181012E-1,-1.2947991E-1],"categories":[],"categories_nodes":[],"categories_segments":[],"categories_sizes":[],"default_left":[0,0,0,0,0,0,0,0,0,0,0,0,0,0,0,0,0,0,0,0,0,0,0,0,0,0,0,0,0,0,0,0,0,0,0,0,0,0,0,0,0,0,0,0,0,0,0,0,0,0,0,0,0,0,0,0,0,0,0,0,0,0,0,0,0,0,0,0,0,0,0,0,0,0,0,0,0,0,0,0,0],"id":4,"left_children":[1,3,5,7,9,11,13,15,17,19,21,23,25,27,29,31,33,35,37,39,-1,-1,-1,41,43,-1,45,47,49,-1,-1,51,53,55,57,59,61,63,65,-1,67,69,71,73,75,77,-1,79,-1,-1,-1,-1,-1,-1,-1,-1,-1,-1,-1,-1,-1,-1,-1,-1,-1,-1,-1,-1,-1,-1,-1,-1,-1,-1,-1,-1,-1,-1,-1,-1,-1],"loss_changes":[1.094563E1,8.911692E0,9.517963E0,8.641777E0,6.1422877E0,1.1497911E1,8.527167E0,7.572625E0,7.7548866E0,4.155712E0,1.4911851E0,8.591707E0,5.852886E0,2.9655209E0,4.5299325E0,8.592024E0,6.543381E0,6.650981E0,6.107086E0,5.235241E0,0E0,0E0,0E0,9.160626E0,7.011314E0,0E0,3.2416077E0,2.3262444E0,1.515963E0,0E0,0E0,7.408688E0,4.506877E0,5.405188E0,3.974475E0,3.0398512E0,5.8521767E0,6.04856E0,4.1671143E0,0E0,1.9751244E0,7.0337963E0,3.4655428E0,7.666358E0,7.5156546E0,3.1731987E0,0E0,2.5155447E0,0E0,0E0,0E0,0E0,0E0,0E0,0E0,0E0,0E0,0E0,0E0,0E0,0E0,0E0,0E0,0E0,0E0,0E0,0E0,0E0,0E0,0E0,0E0,0E0,0E0,0E0,0E0,0E0,0E0,0E0,0E0,0E0,0E0],"parents":[2147483647,0,0,1,1,2,2,3,3,4,4,5,5,6,6,7,7,8,8,9,9,10,10,11,11,12,12,13,13,14,14,15,15,16,16,17,17,18,18,19,19,23,23,24,24,26,26,27,27,28,28,31,31,32,32,33,33,34,34,35,35,36,36,37,37,38,38,40,40,41,41,42,42,43,43,44,44,45,45,47,47],"right_children":[2,4,6,8,10,12,14,16,18,20,22,24,26,28,30,32,34,36,38,40,-1,-1,-1,42,44,-1,46,48,50,-1,-1,52,54,56,58,60,62,64,66,-1,68,70,72,74,76,78,-1,80,-1,-1,-1,-1,-1,-1,-1,-1,-1,-1,-1,-1,-1,-1,-1,-1,-1,-1,-1,-1,-1,-1,-1,-1,-1,-1,-1,-1,-1,-1,-1,-1,-1],"split_conditions":[8E3,1.4E4,1.4E4,8E3,1.2E4,1.4E4,1.2E4,1.2E4,8E3,1.2E4,8E3,1E4,4E3,1.2E4,6E3,1.2E4,6E3,4E3,6E3,6E3,-1.08810715E-1,-3.196736E-1,4.2834014E-2,2E4,1E4,-2.2558293E-1,1.4E4,6E3,8E3,2.1998926E-1,-3.51529E-1,6E3,1.2E4,8E3,8E3,6E3,1.4E4,1E4,1.4E4,-1.2437449E-1,1.2E4,6E3,6E3,6E3,6E3,4E3,-1.1542604E-1,8E3,4.3108904E-1,-1.7217192E-1,1.8712494E-1,1.23465545E-1,-5.1264536E-2,-2.8745946E-1,1.3837042E-1,1.5590137E-1,-3.2152545E-1,3.5719103E-1,6.2879935E-2,-4.508795E-2,4.1500348E-1,-8.4150866E-2,3.134232E-1,1.1307283E-1,-2.4910344E-1,-2.4859099E-1,1.0518473E-1,4.310354E-1,8.017098E-3,-1.296783E-1,-1.7174748E-3,-3.4737844E-2,4.113095E-1,-1.5778627E-1,1.0897984E-1,-4.4259775E-2,3.6590308E-1,-1.08238034E-1,3.2999966E-1,3.0181012E-1,-1.2947991E-1],"split_indices":[129,47,96,139,30,78,24,88,8,125,5,109,8,22,55,135,42,50,123,68,0,0,0,120,125,0,141,49,33,0,0,143,101,75,135,1,133,141,31,0,96,139,81,18,138,86,0,17,0,0,0,0,0,0,0,0,0,0,0,0,0,0,0,0,0,0,0,0,0,0,0,0,0,0,0,0,0,0,0,0,0],"split_type":[0,0,0,0,0,0,0,0,0,0,0,0,0,0,0,0,0,0,0,0,0,0,0,0,0,0,0,0,0,0,0,0,0,0,0,0,0,0,0,0,0,0,0,0,0,0,0,0,0,0,0,0,0,0,0,0,0,0,0,0,0,0,0,0,0,0,0,0,0,0,0,0,0,0,0,0,0,0,0,0,0],"sum_hessian":[6.126607E2,2.9720987E2,3.154508E2,2.8052615E2,1.6683737E1,2.9560385E2,1.9846956E1,1.4647253E2,1.340536E2,1.3760018E1,2.9237187E0,2.730659E2,2.253796E1,1.6347992E1,3.4989629E0,1.2246455E2,2.4007984E1,6.613492E1,6.791869E1,1.1750716E1,2.009302E0,1.5805873E0,1.3431313E0,2.0725336E2,6.581254E1,1.6271476E0,2.0910812E1,1.4113215E1,2.2347772E0,1.1505216E0,2.3484414E0,1.06145775E2,1.6318775E1,6.678481E0,1.7329502E1,4.706761E0,6.1428154E1,1.6114414E1,5.1804276E1,1.6479577E0,1.0102758E1,2.0043813E2,6.81523E0,4.7233E1,1.8579538E1,1.9583244E1,1.327568E0,3.0381508E0,1.1075065E1,1.2051201E0,1.0296571E0,2.9366804E1,7.677897E1,1.4312336E1,2.0064404E0,3.3107512E0,3.3677297E0,9.834226E0,7.495277E0,1.6281532E0,3.0786078E0,5.8872036E1,2.5561178E0,1.0668829E1,5.445585E0,4.9148853E1,2.6554217E0,8.956686E0,1.1460723E0,5.119072E1,1.492474E2,1.9378917E0,4.8773384E0,1.2317122E1,3.491588E1,5.3227506E0,1.3256787E1,1.1487005E0,1.8434544E1,1.4197116E0,1.6184392E0],"tree_param":{"num_deleted":"0","num_feature":"145","num_nodes":"81","size_leaf_vector":"1"}},{"base_weights":[2.7798035E-3,1.6425576E-2,-3.5217598E-1,-1.7211184E-2,4.7014034E-1,1.6184893E-1,-1.1038659E-1,6.5565455E-1,-1.4275706E-1,3.8767043E-1,-3.6197685E-2,-1.8246026E-1,2.0860133E-1,6.855865E-2,8.842945E-1,2.905614E-1,-3.461374E-1,-2.1219663E-1,6.5425676E-1,-1.1965268E-1,8.12189E-1,3.899392E-1,-2.1602134E-1,4.7732178E-2,8.4881103E-1,5.705404E-1,-7.729166E-1,-1.335685E-1,9.9178725E-1,-7.673431E-1,8.725467E-1,-1.546162E-1,2.0475824E-1,-1.0898328E-1,2.1931972E-1,-3.019561E-1,-1.6745605E-2,3.184633E-1,-1.733868E-1,1.8631428E-1,-2.6459712E-1,-9.109303E-2,1.6582442E-2,9.829501E-2,-1.1419613E-1,3.848019E-1,-7.828258E-2,3.104366E-1,-1.4178409E-1,4.9307913E-2,-3.5040468E-1,-9.390686E-2,3.2465386E-1,-4.156492E-2,-3.0977097E-1,-1.1025228E-1,3.9136654E-1],"categories":[],"categories_nodes":[],"categories_segments":[],"categories_sizes":[],"default_left":[0,0,0,0,0,0,0,0,0,0,0,0,0,0,0,0,0,0,0,0,0,0,0,0,0,0,0,0,0,0,0,0,0,0,0,0,0,0,0,0,0,0,0,0,0,0,0,0,0,0,0,0,0,0,0,0,0],"id":5,"left_children":[1,3,-1,5,7,9,11,13,15,17,19,21,23,25,27,29,-1,31,33,35,37,39,41,43,45,47,49,-1,51,53,55,-1,-1,-1,-1,-1,-1,-1,-1,-1,-1,-1,-1,-1,-1,-1,-1,-1,-1,-1,-1,-1,-1,-1,-1,-1,-1],"loss_changes":[9.700847E0,9.119582E0,0E0,9.307235E0,4.7828274E0,8.554831E0,8.471321E0,4.2130737E0,4.893182E0,1.4421543E1,7.3654838E0,5.8423777E0,6.9701324E0,4.6683087E0,3.7043076E0,5.645168E0,0E0,8.011051E0,5.117403E0,5.2843027E0,3.8449898E0,5.532526E0,6.762768E0,6.775208E0,6.887719E0,3.8033316E0,1.7340012E0,0E0,2.8665524E0,4.2398643E-1,3.5229964E0,0E0,0E0,0E0,0E0,0E0,0E0,0E0,0E0,0E0,0E0,0E0,0E0,0E0,0E0,0E0,0E0,0E0,0E0,0E0,0E0,0E0,0E0,0E0,0E0,0E0,0E0],"parents":[2147483647,0,0,1,1,3,3,4,4,5,5,6,6,7,7,8,8,9,9,10,10,11,11,12,12,13,13,14,14,15,15,17,17,18,18,19,19,20,20,21,21,22,22,23,23,24,24,25,25,26,26,28,28,29,29,30,30],"right_children":[2,4,-1,6,8,10,12,14,16,18,20,22,24,26,28,30,-1,32,34,36,38,40,42,44,46,48,50,-1,52,54,56,-1,-1,-1,-1,-1,-1,-1,-1,-1,-1,-1,-1,-1,-1,-1,-1,-1,-1,-1,-1,-1,-1,-1,-1,-1,-1],"split_conditions":[2E4,1.4E4,-3.5217598E-1,6E3,1E4,6E3,1.2E4,6E3,1E4,6E3,1.4E4,4E3,1.2E4,6E3,4E3,6E3,-3.461374E-1,1E4,4E3,4E3,1.2E4,1.2E4,1E4,8E3,1E4,1E4,8E3,-1.335685E-1,4E3,1E4,6E3,-1.546162E-1,2.0475824E-1,-1.0898328E-1,2.1931972E-1,-3.019561E-1,-1.6745605E-2,3.184633E-1,-1.733868E-1,1.8631428E-1,-2.6459712E-1,-9.109303E-2,1.6582442E-2,9.829501E-2,-1.1419613E-1,3.848019E-1,-7.828258E-2,3.104366E-1,-1.4178409E-1,4.9307913E-2,-3.5040468E-1,-9.390686E-2,3.2465386E-1,-4.156492E-2,-3.0977097E-1,-1.1025228E-1,3.9136654E-1],"split_indices":[137,45,0,135,57,133,102,97,69,92,119,46,121,98,15,52,0,49,36,25,142,75,64,122,40,24,111,0,106,113,114,0,0,0,0,0,0,0,0,0,0,0,0,0,0,0,0,0,0,0,0,0,0,0,0,0,0],"split_type":[0,0,0,0,0,0,0,0,0,0,0,0,0,0,0,0,0,0,0,0,0,0,0,0,0,0,0,0,0,0,0,0,0,0,0,0,0,0,0,0,0,0,0,0,0,0,0,0,0,0,0,0,0,0,0,0,0],"sum_hessian":[6.019506E2,5.960248E2,5.9258494E0,5.5578314E2,4.0241673E1,1.8997023E2,3.658129E2,3.0837801E1,9.403872E0,8.831364E1,1.0165659E2,2.9874173E2,6.707116E1,9.007758E0,2.1830044E1,7.0814486E0,2.3224232E0,2.7234701E1,6.1078938E1,9.333434E1,8.3222475E0,1.5957668E1,2.8278406E2,5.4460995E1,1.26101675E1,5.8436856E0,3.1640723E0,1.3979228E0,2.0432121E1,2.4001253E0,4.6813235E0,2.0658297E1,6.5764046E0,4.025187E0,5.705375E1,5.275282E0,8.805906E1,7.256925E0,1.0653222E0,1.3937047E1,2.0206208E0,2.1365836E2,6.912572E1,3.308052E1,2.138047E1,8.953821E0,3.6563466E0,4.049503E0,1.7941828E0,1.1114444E0,2.052628E0,1.1641852E0,1.9267935E1,1.1636808E0,1.2364445E0,1.2480822E0,3.4332411E0],"tree_param":{"num_deleted":"0","num_feature":"145","num_nodes":"57","size_leaf_vector":"1"}},{"base_weights":[1.6489816E-3,4.7036465E-2,-2.589706E-1,1.4402586E-2,4.941212E-1,-3.3756548E-1,7.2295696E-1,-5.6544293E-2,2.540161E-1,7.0992637E-1,-3.7788078E-1,1.2737447E-1,-5.2831644E-1,1.0936089E0,-7.1059115E-2,-2.813105E-1,1.5979806E-2,-7.115372E-2,5.26178E-1,8.572231E-1,-4.5156494E-1,-1.1206452E0,3.88406E-1,1.0162232E0,-1.7248227E-1,-5.412721E-2,-7.036812E-1,2.3263585E-2,4.0482286E-1,-1.0590117E-1,-6.711522E-1,-7.222038E-1,5.7574544E-2,-1.492608E-1,3.7737045E-1,6.993416E-1,-4.960376E-2,1.0218179E0,7.637782E-2,-3.4034148E-1,1.7272359E-1,-9.22657E-2,-3.9967027E-1,-2.687202E-1,3.3435535E-1,4.1098994E-1,-9.925236E-2,-4.468911E-1,9.1752946E-1,8.4718645E-1,-4.2013508E-1,-7.719867E-1,1.7844833E-1,1.5314891E-2,-2.1099207E-1,2.7954504E-1,-2.3082994E-1,-3.0607235E-1,1.017764E-1,-1.138865E-2,1.1391135E-1,-9.5344715E-2,1.267274E-1,-1.1651518E-1,2.3591782E-1,-2.2040604E-1,1.537737E-1,3.737096E-1,1.214745E-1,2.4794531E-1,-2.3284356E-1,-3.035143E-1,6.898649E-3,3.6450362E-1,7.869008E-3,4.1506177E-1,-2.4935255E-2,1.7755343E-1,-2.386346E-1,-5.7625484E-2,-2.8545785E-1],"categories":[],"categories_nodes":[],"categories_segments":[],"categories_sizes":[],"default_left":[0,0,0,0,0,0,0,0,0,0,0,0,0,0,0,0,0,0,0,0,0,0,0,0,0,0,0,0,0,0,0,0,0,0,0,0,0,0,0,0,0,0,0,0,0,0,0,0,0,0,0,0,0,0,0,0,0,0,0,0,0,0,0,0,0,0,0,0,0,0,0,0,0,0,0,0,0,0,0,0,0],"id":6,"left_children":[1,3,5,7,9,11,13,15,17,19,21,23,25,27,-1,29,31,33,35,37,39,41,43,45,47,49,51,-1,-1,53,55,57,59,61,-1,63,65,67,69,-1,-1,-1,-1,-1,-1,-1,-1,71,73,75,77,79,-1,-1,-1,-1,-1,-1,-1,-1,-1,-1,-1,-1,-1,-1,-1,-1,-1,-1,-1,-1,-1,-1,-1,-1,-1,-1,-1,-1,-1],"loss_changes":[7.0348277E0,7.3824353E0,7.0516343E0,8.056177E0,6.7462873E0,7.3711596E0,2.697957E0,5.967432E0,9.617435E0,5.1675596E0,4.6937265E0,6.7755833E0,4.8340893E0,1.2270613E0,0E0,6.0348425E0,8.562437E0,5.3992324E0,5.921959E0,3.1533546E0,3.3188848E0,2.8817654E-1,5.124534E0,3.4991055E0,6.2044077E0,5.9315333E0,4.2455406E0,0E0,0E0,5.9214063E0,5.052767E0,5.052451E0,8.127825E0,4.7894306E0,0E0,4.610033E0,5.9942923E0,2.3524017E0,4.131728E0,0E0,0E0,0E0,0E0,0E0,0E0,0E0,0E0,4.309128E0,1.088002E0,2.7160027E0,5.290098E0,4.085024E0,0E0,0E0,0E0,0E0,0E0,0E0,0E0,0E0,0E0,0E0,0E0,0E0,0E0,0E0,0E0,0E0,0E0,0E0,0E0,0E0,0E0,0E0,0E0,0E0,0E0,0E0,0E0,0E0,0E0],"parents":[2147483647,0,0,1,1,2,2,3,3,4,4,5,5,6,6,7,7,8,8,9,9,10,10,11,11,12,12,13,13,15,15,16,16,17,17,18,18,19,19,20,20,21,21,22,22,23,23,24,24,25,25,26,26,29,29,30,30,31,31,32,32,33,33,35,35,36,36,37,37,38,38,47,47,48,48,49,49,50,50,51,51],"right_children":[2,4,6,8,10,12,14,16,18,20,22,24,26,28,-1,30,32,34,36,38,40,42,44,46,48,50,52,-1,-1,54,56,58,60,62,-1,64,66,68,70,-1,-1,-1,-1,-1,-1,-1,-1,72,74,76,78,80,-1,-1,-1,-1,-1,-1,-1,-1,-1,-1,-1,-1,-1,-1,-1,-1,-1,-1,-1,-1,-1,-1,-1,-1,-1,-1,-1,-1,-1],"split_conditions":[1.2E4,1.4E4,1.4E4,1E4,1.2E4,6E3,1.8E4,6E3,8E3,1.2E4,8E3,6E3,6E3,8E3,-7.1059115E-2,8E3,4E3,2E4,1E4,1.2E4,8E3,6E3,6E3,1E4,1.2E4,6E3,1.8E4,2.3263585E-2,4.0482286E-1,1.2E4,4E3,1E4,1E4,1E4,3.7737045E-1,4E3,1E4,1E4,8E3,-3.4034148E-1,1.7272359E-1,-9.22657E-2,-3.9967027E-1,-2.687202E-1,3.3435535E-1,4.1098994E-1,-9.925236E-2,8E3,1.8E4,8E3,6E3,6E3,1.7844833E-1,1.5314891E-2,-2.1099207E-1,2.7954504E-1,-2.3082994E-1,-3.0607235E-1,1.017764E-1,-1.138865E-2,1.1391135E-1,-9.5344715E-2,1.267274E-1,-1.1651518E-1,2.3591782E-1,-2.2040604E-1,1.537737E-1,3.737096E-1,1.214745E-1,2.4794531E-1,-2.3284356E-1,-3.035143E-1,6.898649E-3,3.6450362E-1,7.869008E-3,4.1506177E-1,-2.4935255E-2,1.7755343E-1,-2.386346E-1,-5.7625484E-2,-2.8545785E-1],"split_indices":[142,99,115,53,28,39,115,138,42,62,109,15,101,139,0,142,141,132,29,84,32,59,37,54,128,0,84,0,0,104,80,14,88,127,0,28,28,9,115,0,0,0,0,0,0,0,0,102,128,72,81,94,0,0,0,0,0,0,0,0,0,0,0,0,0,0,0,0,0,0,0,0,0,0,0,0,0,0,0,0,0],"split_type":[0,0,0,0,0,0,0,0,0,0,0,0,0,0,0,0,0,0,0,0,0,0,0,0,0,0,0,0,0,0,0,0,0,0,0,0,0,0,0,0,0,0,0,0,0,0,0,0,0,0,0,0,0,0,0,0,0,0,0,0,0,0,0,0,0,0,0,0,0,0,0,0,0,0,0,0,0,0,0,0,0],"sum_hessian":[5.9268713E2,5.0547675E2,8.721039E1,4.720526E2,3.3424133E1,8.135485E1,5.855536E0,3.6480264E2,1.0724996E2,2.6942265E1,6.481871E0,2.376408E1,5.759077E1,4.123705E0,1.7318308E0,8.8291466E1,2.765112E2,4.9202744E1,5.8047215E1,2.4142546E1,2.7997184E0,3.0566316E0,3.4252393E0,5.3919606E0,1.8372118E1,1.5901502E1,4.168927E1,1.091463E0,3.032242E0,6.1769787E1,2.6521677E1,1.3876767E1,2.6263443E2,4.7310078E1,1.892666E0,4.4461143E1,1.3586073E1,1.968461E1,4.457935E0,1.6191036E0,1.1806148E0,1.1378075E0,1.9188242E0,1.152833E0,2.2724063E0,4.2570457E0,1.1349148E0,1.5148515E1,3.2236035E0,4.21274E0,1.1688762E1,3.9991096E1,1.698172E0,4.9642284E1,1.2127504E1,1.0421977E0,2.547948E1,1.0864931E1,3.0118356E0,2.0324002E2,5.9394398E1,3.688039E1,1.04296875E1,3.038073E0,4.142307E1,5.9853735E0,7.6006994E0,1.3695198E1,5.9894123E0,2.3876576E0,2.0702772E0,6.3556523E0,8.792863E0,2.144618E0,1.0789855E0,2.3631253E0,1.8496146E0,3.006156E0,8.682606E0,9.943632E0,3.0047464E1],"tree_param":{"num_deleted":"0","num_feature":"145","num_nodes":"81","size_leaf_vector":"1"}},{"base_weights":[3.0288761E-3,9.2537045E-2,-1.2112602E-1,5.2297667E-2,6.080752E-1,-1.611751E-1,4.4174513E-1,-1.8507695E-1,1.3598672E-1,-4.5777643E-1,8.96353E-1,7.0758E-2,-2.582662E-1,6.6089404E-1,-3.9645803E-1,4.3402407E-1,-3.549477E-1,3.9008245E-1,4.179215E-2,-9.3869555E-1,1.4280987E-1,3.0192032E-1,4.1852766E-1,-8.966124E-2,7.029672E-1,-3.644142E-1,7.751123E-2,8.8472086E-1,-1.4731728E-1,-2.6471442E-1,1.0672275E-1,-3.125171E-1,9.3298864E-1,-4.067038E-2,-6.6619915E-1,1.7772315E-1,1.0105836E0,-5.3370222E-2,4.1574374E-1,2.0387128E-2,-3.818553E-1,8.805504E-1,-3.2865664E-1,-4.5006725E-1,2.5576E-1,4.673514E-1,-6.890326E-2,6.671962E-1,-4.1846517E-1,-3.1423017E-1,4.331567E-1,-2.0182484E-1,1.1420751E0,-3.2103458E-1,1.4687937E-1,3.4366652E-1,-7.4191354E-2,-9.044783E-2,2.421789E-1,-2.8480667E-1,4.043561E-2,1.0646487E-1,-1.257588E-1,3.4378493E-1,-1.165135E-1,-9.196734E-2,5.917168E-2,3.5397655E-1,3.5389673E-2,3.684047E-1,4.1666572E-4,-3.4915608E-1,8.532798E-2,-3.1515142E-1,-5.050722E-2,1.5644118E-1,-2.916371E-1,-1.665931E-1,3.3130765E-1,-1.3621098E-1,2.9405117E-1,-1.5747745E-1,1.45361E-2,-1.8040532E-1,1.8540013E-1,2.501403E-1,-2.034485E-2,6.5893576E-2,-1.5559421E-1,4.066988E-1,-4.497104E-2],"categories":[],"categories_nodes":[],"categories_segments":[],"categories_sizes":[],"default_left":[0,0,0,0,0,0,0,0,0,0,0,0,0,0,0,0,0,0,0,0,0,0,0,0,0,0,0,0,0,0,0,0,0,0,0,0,0,0,0,0,0,0,0,0,0,0,0,0,0,0,0,0,0,0,0,0,0,0,0,0,0,0,0,0,0,0,0,0,0,0,0,0,0,0,0,0,0,0,0,0,0,0,0,0,0,0,0,0,0,0,0],"id":7,"left_children":[1,3,5,7,9,11,13,15,17,19,21,23,25,27,29,31,33,35,37,39,-1,41,-1,43,45,47,49,51,-1,-1,-1,53,55,57,59,61,63,65,67,-1,-1,69,71,73,75,-1,77,79,81,83,85,87,89,-1,-1,-1,-1,-1,-1,-1,-1,-1,-1,-1,-1,-1,-1,-1,-1,-1,-1,-1,-1,-1,-1,-1,-1,-1,-1,-1,-1,-1,-1,-1,-1,-1,-1,-1,-1,-1,-1],"loss_changes":[6.4971995E0,7.015482E0,5.5926485E0,6.3068733E0,7.938735E0,5.184013E0,3.2997568E0,8.866863E0,5.5930223E0,3.0866013E0,5.396538E0,7.007929E0,5.7994347E0,3.911292E0,1.7951658E0,7.103601E0,6.3859205E0,8.15649E0,6.146531E0,1.504792E0,0E0,4.0216928E0,0E0,7.0250816E0,9.32691E0,7.1489735E0,5.669528E0,3.4875193E0,0E0,0E0,0E0,5.431101E0,3.0963326E0,7.693459E0,7.583787E0,5.26133E0,3.4593182E0,8.8214245E0,7.8309526E0,0E0,0E0,1.7108207E0,3.2102757E0,4.479116E0,9.961844E0,0E0,5.350049E0,2.7327619E0,5.875286E0,5.5854344E0,4.319273E0,5.2523977E-1,2.8433456E0,0E0,0E0,0E0,0E0,0E0,0E0,0E0,0E0,0E0,0E0,0E0,0E0,0E0,0E0,0E0,0E0,0E0,0E0,0E0,0E0,0E0,0E0,0E0,0E0,0E0,0E0,0E0,0E0,0E0,0E0,0E0,0E0,0E0,0E0,0E0,0E0,0E0,0E0],"parents":[2147483647,0,0,1,1,2,2,3,3,4,4,5,5,6,6,7,7,8,8,9,9,10,10,11,11,12,12,13,13,14,14,15,15,16,16,17,17,18,18,19,19,21,21,23,23,24,24,25,25,26,26,27,27,31,31,32,32,33,33,34,34,35,35,36,36,37,37,38,38,41,41,42,42,43,43,44,44,46,46,47,47,48,48,49,49,50,50,51,51,52,52],"right_children":[2,4,6,8,10,12,14,16,18,20,22,24,26,28,30,32,34,36,38,40,-1,42,-1,44,46,48,50,52,-1,-1,-1,54,56,58,60,62,64,66,68,-1,-1,70,72,74,76,-1,78,80,82,84,86,88,90,-1,-1,-1,-1,-1,-1,-1,-1,-1,-1,-1,-1,-1,-1,-1,-1,-1,-1,-1,-1,-1,-1,-1,-1,-1,-1,-1,-1,-1,-1,-1,-1,-1,-1,-1,-1,-1,-1],"split_conditions":[8E3,1.4E4,1.4E4,6E3,6E3,6E3,1E4,6E3,6E3,1E4,8E3,1.2E4,1E4,1.2E4,1.2E4,8E3,8E3,1E4,1.2E4,6E3,1.4280987E-1,8E3,4.1852766E-1,8E3,8E3,4E3,8E3,6E3,-1.4731728E-1,-2.6471442E-1,1.0672275E-1,8E3,8E3,1E4,1.2E4,1E4,1E4,8E3,6E3,2.0387128E-2,-3.818553E-1,8E3,6E3,6E3,1.2E4,4.673514E-1,1E4,6E3,1.2E4,1.2E4,8E3,8E3,1.8E4,-3.2103458E-1,1.4687937E-1,3.4366652E-1,-7.4191354E-2,-9.044783E-2,2.421789E-1,-2.8480667E-1,4.043561E-2,1.0646487E-1,-1.257588E-1,3.4378493E-1,-1.165135E-1,-9.196734E-2,5.917168E-2,3.5397655E-1,3.5389673E-2,3.684047E-1,4.1666572E-4,-3.4915608E-1,8.532798E-2,-3.1515142E-1,-5.050722E-2,1.5644118E-1,-2.916371E-1,-1.665931E-1,3.3130765E-1,-1.3621098E-1,2.9405117E-1,-1.5747745E-1,1.45361E-2,-1.8040532E-1,1.8540013E-1,2.501403E-1,-2.034485E-2,6.5893576E-2,-1.5559421E-1,4.066988E-1,-4.497104E-2],"split_indices":[136,91,144,45,98,116,17,65,40,67,32,77,56,124,19,25,36,65,130,34,0,115,0,62,108,33,120,139,0,0,0,144,63,21,38,48,36,119,10,0,0,113,138,2,6,0,67,88,107,114,80,129,143,0,0,0,0,0,0,0,0,0,0,0,0,0,0,0,0,0,0,0,0,0,0,0,0,0,0,0,0,0,0,0,0,0,0,0,0,0,0],"split_type":[0,0,0,0,0,0,0,0,0,0,0,0,0,0,0,0,0,0,0,0,0,0,0,0,0,0,0,0,0,0,0,0,0,0,0,0,0,0,0,0,0,0,0,0,0,0,0,0,0,0,0,0,0,0,0,0,0,0,0,0,0,0,0,0,0,0,0,0,0,0,0,0,0,0,0,0,0,0,0,0,0,0,0,0,0,0,0,0,0,0,0],"sum_hessian":[5.826464E2,3.3871097E2,2.4393546E2,3.1520932E2,2.3501637E1,2.2839825E2,1.5537202E1,8.184725E1,2.3336208E2,4.878043E0,1.8623594E1,6.747763E1,1.6092061E2,1.2484623E1,3.0525796E0,1.7287436E1,6.455982E1,6.2262863E1,1.7109921E2,3.21636E0,1.6616833E0,9.229083E0,9.394511E0,5.4505398E1,1.2972235E1,1.222036E2,3.871702E1,1.0647726E1,1.8368965E0,1.7493979E0,1.3031818E0,7.075251E0,1.0212185E1,3.2686363E1,3.1873455E1,4.7345753E1,1.4917111E1,1.3707416E2,3.4025047E1,1.0001154E0,2.2162447E0,4.606055E0,4.6230283E0,2.6525862E1,2.7979534E1,5.672025E0,7.300209E0,5.519286E0,1.1668431E2,1.8478981E1,2.0238039E1,2.0803382E0,8.567388E0,3.4667687E0,3.6084824E0,8.678629E0,1.5335566E0,2.5490105E1,7.1962595E0,2.3411877E1,8.461579E0,3.682263E1,1.052312E1,1.376595E1,1.151161E0,6.807526E1,6.89989E1,8.710127E0,2.531492E1,3.0169017E0,1.589153E0,1.5767193E0,3.0463092E0,7.599413E0,1.8926449E1,2.3474934E1,4.5046005E0,5.5330367E0,1.7671726E0,1.1060693E0,4.413217E0,9.4918274E1,2.1766035E1,1.439909E1,4.0798917E0,1.0875879E1,9.362159E0,1.0243571E0,1.0559812E0,7.309674E0,1.257714E0],"tree_param":{"num_deleted":"0","num_feature":"145","num_nodes":"91","size_leaf_vector":"1"}},{"base_weights":[5.1392065E-3,1.585361E-2,-1.0104624E0,-9.367137E-3,3.6484835E-1,-3.2713956E-1,-9.2179835E-2,-3.5254974E-2,3.4582877E-1,5.5170405E-1,-2.4223103E-1,4.6614492E-1,-5.7840064E-2,7.764876E-1,5.1249277E-2,2.2348447E-3,8.0101913E-1,-5.1840407E-1,2.530283E-1,9.99088E-1,-1.7176062E-1,4.0128526E-1,-7.987118E-2,-1.8549213E-1,1.0414683E0,2.9687798E-1,-9.8207E-1,-3.2309702E-1,3.2103908E-1,9.2773676E-1,-1.3279955E-1,1.1364571E-1,-7.814356E-1,3.6981374E-1,-1.2125687E-1,1.970777E-1,-1.5828757E-1,1.873737E-1,-2.458649E-1,-3.233089E-2,8.453096E-2,-2.871691E-1,2.8545597E-1,3.6164933E-1,-8.80623E-2,-1.1414872E-1,1.9259985E-1,-5.835632E-2,-3.460129E-1,-3.0934873E-1,1.16857424E-1,3.300681E-1,9.578912E-3,-3.0892414E-1,5.0755363E-2],"categories":[],"categories_nodes":[],"categories_segments":[],"categories_sizes":[],"default_left":[0,0,0,0,0,0,0,0,0,0,0,0,0,0,0,0,0,0,0,0,0,0,0,0,0,0,0,0,0,0,0,0,0,0,0,0,0,0,0,0,0,0,0,0,0,0,0,0,0,0,0,0,0,0,0],"id":8,"left_children":[1,3,5,7,9,-1,-1,11,13,15,17,19,21,23,25,27,29,31,-1,33,35,37,39,41,43,45,47,49,-1,51,-1,-1,53,-1,-1,-1,-1,-1,-1,-1,-1,-1,-1,-1,-1,-1,-1,-1,-1,-1,-1,-1,-1,-1,-1],"loss_changes":[6.2323494E0,4.9878707E0,1.3203621E-3,4.877413E0,4.4658885E0,0E0,0E0,5.6218424E0,4.5317864E0,4.0405035E0,3.3405795E0,7.448903E0,4.823141E0,3.906231E0,5.9945154E0,3.8938556E0,3.609107E0,2.2639894E0,0E0,4.369749E0,3.4715962E0,6.46934E0,4.5988283E0,4.4160237E0,2.887844E0,4.667723E0,3.891492E-1,4.739072E0,0E0,2.8607578E0,0E0,0E0,1.773448E0,0E0,0E0,0E0,0E0,0E0,0E0,0E0,0E0,0E0,0E0,0E0,0E0,0E0,0E0,0E0,0E0,0E0,0E0,0E0,0E0,0E0,0E0],"parents":[2147483647,0,0,1,1,2,2,3,3,4,4,7,7,8,8,9,9,10,10,11,11,12,12,13,13,14,14,15,15,16,16,17,17,19,19,20,20,21,21,22,22,23,23,24,24,25,25,26,26,27,27,29,29,32,32],"right_children":[2,4,6,8,10,-1,-1,12,14,16,18,20,22,24,26,28,30,32,-1,34,36,38,40,42,44,46,48,50,-1,52,-1,-1,54,-1,-1,-1,-1,-1,-1,-1,-1,-1,-1,-1,-1,-1,-1,-1,-1,-1,-1,-1,-1,-1,-1],"split_conditions":[2E4,1.4E4,1.2E4,1.4E4,1E4,-3.2713956E-1,-9.2179835E-2,4E3,8E3,6E3,1E4,8E3,4E3,6E3,1.8E4,1E4,1.4E4,6E3,2.530283E-1,1E4,6E3,1.2E4,1.4E4,1.2E4,2E4,6E3,6E3,8E3,3.2103908E-1,1.2E4,-1.3279955E-1,1.1364571E-1,1.2E4,3.6981374E-1,-1.2125687E-1,1.970777E-1,-1.5828757E-1,1.873737E-1,-2.458649E-1,-3.233089E-2,8.453096E-2,-2.871691E-1,2.8545597E-1,3.6164933E-1,-8.80623E-2,-1.1414872E-1,1.9259985E-1,-5.835632E-2,-3.460129E-1,-3.0934873E-1,1.16857424E-1,3.300681E-1,9.578912E-3,-3.0892414E-1,5.0755363E-2],"split_indices":[137,78,16,96,10,0,0,78,44,137,40,72,113,27,95,31,114,107,0,94,10,142,129,137,97,128,52,129,0,140,0,0,56,0,0,0,0,0,0,0,0,0,0,0,0,0,0,0,0,0,0,0,0,0,0],"split_type":[0,0,0,0,0,0,0,0,0,0,0,0,0,0,0,0,0,0,0,0,0,0,0,0,0,0,0,0,0,0,0,0,0,0,0,0,0,0,0,0,0,0,0,0,0,0,0,0,0,0,0,0,0,0,0],"sum_hessian":[5.702716E2,5.652923E2,4.9793363E0,5.2810126E2,3.7191048E1,3.976233E0,1.0031033E0,4.9306577E2,3.5035492E1,2.850774E1,8.68331E0,2.0405878E1,4.7265988E2,1.356634E1,2.1469152E1,9.212698E0,1.929504E1,7.3389134E0,1.3443962E0,1.0809118E1,9.596761E0,2.085386E1,4.5180603E2,2.9946413E0,1.0571699E1,1.7921707E1,3.5474455E0,7.59603E0,1.616668E0,1.7741428E1,1.5536132E0,1.5639485E0,5.7749653E0,9.370603E0,1.4385154E0,2.6289172E0,6.9678435E0,1.8042284E1,2.8115778E0,4.2009982E2,3.1706205E1,1.8780481E0,1.1165931E0,9.5013075E0,1.0703923E0,6.014495E0,1.1907212E1,1.0153011E0,2.5321445E0,3.5859802E0,4.0100503E0,1.4685496E1,3.055931E0,4.5129104E0,1.2620549E0],"tree_param":{"num_deleted":"0","num_feature":"145","num_nodes":"55","size_leaf_vector":"1"}},{"base_weights":[4.6112626E-3,4.0528116E-1,-1.6353253E-2,8.1021297E-1,4.5207262E-2,-4.243422E-2,3.5555318E-1,1.03995524E-1,1.2028954E0,-5.668026E-1,5.177325E-1,-5.601707E-2,6.4594495E-1,5.192719E-1,-8.022509E-2,7.441035E-1,-5.9670156E-1,4.6813097E-2,4.4283193E-1,-9.37693E-1,1.4944685E-1,8.70367E-1,-3.8823968E-1,-2.2543175E-2,-3.3054772E-1,-2.1030706E-1,1.0756584E0,8.3041453E-1,1.1226176E-1,5.431724E-1,-5.643862E-1,3.1880817E-1,1.041937E-2,8.075913E-3,-2.7094314E-1,9.246682E-3,-3.664796E-1,-3.83828E-2,3.632156E-1,-2.465277E-1,7.742207E-2,-4.6838682E-2,4.342483E-1,1.8725576E-1,-4.9350035E-1,1.2354696E0,3.7213046E-2,1.1692829E0,-2.8856543E-1,-4.7768566E-1,5.382985E-1,-1.5419921E-1,2.928512E-1,-3.2661006E-1,2.7015963E-1,2.5716683E-2,-3.8941316E-2,2.526301E-1,-1.3892391E-1,3.422865E-1,-5.6962702E-2,-1.7973304E-1,1.4939147E-1,4.032489E-1,9.823882E-2,3.8726977E-1,6.1792515E-2,2.1521176E-1,-2.5111473E-1,5.538989E-2,-2.6206502E-1,2.4570711E-1,-1.7909822E-1,2.4796028E-1,-1.3949086E-1],"categories":[],"categories_nodes":[],"categories_segments":[],"categories_sizes":[],"default_left":[0,0,0,0,0,0,0,0,0,0,0,0,0,0,0,0,0,0,0,0,0,0,0,0,0,0,0,0,0,0,0,0,0,0,0,0,0,0,0,0,0,0,0,0,0,0,0,0,0,0,0,0,0,0,0,0,0,0,0,0,0,0,0,0,0,0,0,0,0,0,0,0,0,0,0],"id":9,"left_children":[1,3,5,7,9,11,13,15,17,19,21,23,25,27,29,31,33,-1,-1,35,-1,37,39,41,43,-1,45,47,49,51,53,-1,-1,-1,-1,-1,-1,-1,-1,-1,-1,55,57,59,61,63,-1,65,67,69,71,-1,-1,-1,73,-1,-1,-1,-1,-1,-1,-1,-1,-1,-1,-1,-1,-1,-1,-1,-1,-1,-1,-1,-1],"loss_changes":[4.748284E0,4.0614533E0,5.2275643E0,3.5272312E0,4.9021015E0,4.7399073E0,2.561759E0,3.045822E0,2.1633663E0,3.398194E0,3.3779361E0,4.5345116E0,6.434511E0,3.175324E0,3.479517E0,7.4878454E-1,6.596054E-1,0E0,0E0,1.6464491E0,0E0,2.58703E0,1.1528397E0,4.921296E0,4.6185703E0,0E0,1.0382729E0,5.824806E0,3.3583279E0,2.8386097E0,3.0978172E0,0E0,0E0,0E0,0E0,0E0,0E0,0E0,0E0,0E0,0E0,4.632589E0,8.587526E0,5.0956254E0,4.5994387E0,2.108984E-1,0E0,1.0586004E0,2.898954E0,1.6567692E0,2.922206E0,0E0,0E0,0E0,1.7232037E0,0E0,0E0,0E0,0E0,0E0,0E0,0E0,0E0,0E0,0E0,0E0,0E0,0E0,0E0,0E0,0E0,0E0,0E0,0E0,0E0],"parents":[2147483647,0,0,1,1,2,2,3,3,4,4,5,5,6,6,7,7,8,8,9,9,10,10,11,11,12,12,13,13,14,14,15,15,16,16,19,19,21,21,22,22,23,23,24,24,26,26,27,27,28,28,29,29,30,30,41,41,42,42,43,43,44,44,45,45,47,47,48,48,49,49,50,50,54,54],"right_children":[2,4,6,8,10,12,14,16,18,20,22,24,26,28,30,32,34,-1,-1,36,-1,38,40,42,44,-1,46,48,50,52,54,-1,-1,-1,-1,-1,-1,-1,-1,-1,-1,56,58,60,62,64,-1,66,68,70,72,-1,-1,-1,74,-1,-1,-1,-1,-1,-1,-1,-1,-1,-1,-1,-1,-1,-1,-1,-1,-1,-1,-1,-1],"split_conditions":[4E3,8E3,1.4E4,6E3,8E3,2E4,1E4,8E3,6E3,1E4,1E4,1.2E4,6E3,8E3,8E3,8E3,8E3,4.6813097E-2,4.4283193E-1,6E3,1.4944685E-1,6E3,8E3,1.4E4,6E3,-2.1030706E-1,1E4,1.2E4,8E3,6E3,8E3,3.1880817E-1,1.041937E-2,8.075913E-3,-2.7094314E-1,9.246682E-3,-3.664796E-1,-3.83828E-2,3.632156E-1,-2.465277E-1,7.742207E-2,6E3,1.4E4,6E3,1.4E4,1E4,3.7213046E-2,1.4E4,6E3,6E3,1E4,-1.5419921E-1,2.928512E-1,-3.2661006E-1,1E4,2.5716683E-2,-3.8941316E-2,2.526301E-1,-1.3892391E-1,3.422865E-1,-5.6962702E-2,-1.7973304E-1,1.4939147E-1,4.032489E-1,9.823882E-2,3.8726977E-1,6.1792515E-2,2.1521176E-1,-2.5111473E-1,5.538989E-2,-2.6206502E-1,2.4570711E-1,-1.7909822E-1,2.4796028E-1,-1.3949086E-1],"split_indices":[27,128,45,0,79,92,64,56,106,102,86,136,98,116,72,5,108,0,0,98,0,62,6,138,126,0,135,90,75,77,61,0,0,0,0,0,0,0,0,0,0,135,139,40,112,121,0,104,141,125,36,0,0,0,8,0,0,0,0,0,0,0,0,0,0,0,0,0,0,0,0,0,0,0,0],"split_type":[0,0,0,0,0,0,0,0,0,0,0,0,0,0,0,0,0,0,0,0,0,0,0,0,0,0,0,0,0,0,0,0,0,0,0,0,0,0,0,0,0,0,0,0,0,0,0,0,0,0,0,0,0,0,0,0,0,0,0,0,0,0,0,0,0,0,0,0,0,0,0,0,0,0,0],"sum_hessian":[5.63493E2,2.7106518E1,5.363865E2,1.2170119E1,1.49363985E1,5.0206375E2,3.4322704E1,4.8008647E0,7.3692546E0,6.4207683E0,8.515631E0,4.9324976E2,8.814004E0,2.4810125E1,9.51258E0,2.4765313E0,2.3243337E0,1.8503791E0,5.518875E0,4.850871E0,1.5698972E0,6.158024E0,2.357607E0,4.4060794E2,5.264181E1,1.979075E0,6.8349295E0,1.3471463E1,1.1338662E1,4.105074E0,5.4075065E0,1.3652841E0,1.1112472E0,1.066375E0,1.2579587E0,1.3016976E0,3.5491734E0,1.7243366E0,4.433687E0,1.2486258E0,1.108981E0,4.192088E2,2.1399126E1,1.2565174E1,4.0076637E1,5.596743E0,1.2381866E0,1.0305594E1,3.1658688E0,4.7038507E0,6.634811E0,1.1384559E0,2.966618E0,3.1339934E0,2.2735128E0,1.6135913E2,2.5784967E2,1.4754488E1,6.644639E0,2.9867797E0,9.578394E0,3.6576332E1,3.500307E0,4.569415E0,1.0273281E0,8.848425E0,1.4571698E0,1.0084382E0,2.1574306E0,1.9593192E0,2.7445314E0,5.5428123E0,1.0919988E0,1.2233186E0,1.0501944E0],"tree_param":{"num_deleted":"0","num_feature":"145","num_nodes":"75","size_leaf_vector":"1"}},{"base_weights":[6.5653785E-3,1.486279E-2,-2.6432136E-1,-7.741581E-3,3.4427422E-1,-1.5561861E-1,4.1871984E-2,4.617859E-1,-5.793784E-1,-2.7868482E-1,3.074277E-1,-2.6143798E-1,1.00012735E-1,3.6260985E-2,8.328374E-1,-3.1827247E-1,1.3804315E-1,-3.288461E-1,3.344085E-1,5.799194E-1,-3.1381476E-1,6.374926E-2,-5.904576E-1,3.6179823E-1,-4.1802652E-2,1.0076227E0,-2.733045E-1,8.350976E-2,1.1053605E0,-8.0047354E-2,-3.6340886E-1,-1.2676105E-1,2.3472355E-1,9.553059E-2,-2.3798877E-1,-4.1793544E-2,2.3824187E-1,-2.0570107E-1,2.3133889E-1,9.198855E-2,3.4435093E-1,-3.974456E-2,9.593187E-2,7.891326E-2,3.5318202E-1,2.2981302E-1,-1.9024466E-1,1.948577E-1,-2.6834354E-1,3.810453E-1,1.858308E-2],"categories":[],"categories_nodes":[],"categories_segments":[],"categories_sizes":[],"default_left":[0,0,0,0,0,0,0,0,0,0,0,0,0,0,0,0,0,0,0,0,0,0,0,0,0,0,0,0,0,0,0,0,0,0,0,0,0,0,0,0,0,0,0,0,0,0,0,0,0,0,0],"id":10,"left_children":[1,3,-1,5,7,9,11,13,15,17,19,21,23,25,27,-1,-1,29,-1,31,33,35,37,39,41,43,45,47,49,-1,-1,-1,-1,-1,-1,-1,-1,-1,-1,-1,-1,-1,-1,-1,-1,-1,-1,-1,-1,-1,-1],"loss_changes":[4.105192E0,4.108804E0,0E0,3.7996876E0,4.113396E0,7.499239E0,6.866934E0,5.0207405E0,2.7119856E0,7.586874E0,4.886672E0,6.7433877E0,1.2126938E1,5.070552E0,3.388074E0,0E0,0E0,5.1769247E0,0E0,4.3232894E0,3.0180683E0,4.919479E0,4.5801554E0,4.6236725E0,7.0098543E0,2.0409203E-1,5.31612E0,3.695895E0,2.056223E0,0E0,0E0,0E0,0E0,0E0,0E0,0E0,0E0,0E0,0E0,0E0,0E0,0E0,0E0,0E0,0E0,0E0,0E0,0E0,0E0,0E0,0E0],"parents":[2147483647,0,0,1,1,3,3,4,4,5,5,6,6,7,7,8,8,9,9,10,10,11,11,12,12,13,13,14,14,17,17,19,19,20,20,21,21,22,22,23,23,24,24,25,25,26,26,27,27,28,28],"right_children":[2,4,-1,6,8,10,12,14,16,18,20,22,24,26,28,-1,-1,30,-1,32,34,36,38,40,42,44,46,48,50,-1,-1,-1,-1,-1,-1,-1,-1,-1,-1,-1,-1,-1,-1,-1,-1,-1,-1,-1,-1,-1,-1],"split_conditions":[2E4,1.4E4,-2.6432136E-1,6E3,1.8E4,1E4,6E3,8E3,1E4,1.8E4,1E4,8E3,8E3,6E3,6E3,-3.1827247E-1,1.3804315E-1,1.4E4,3.344085E-1,6E3,8E3,1.2E4,2E4,1.4E4,1E4,1.8E4,6E3,1E4,1E4,-8.0047354E-2,-3.6340886E-1,-1.2676105E-1,2.3472355E-1,9.553059E-2,-2.3798877E-1,-4.1793544E-2,2.3824187E-1,-2.0570107E-1,2.3133889E-1,9.198855E-2,3.4435093E-1,-3.974456E-2,9.593187E-2,7.891326E-2,3.5318202E-1,2.2981302E-1,-1.9024466E-1,1.948577E-1,-2.6834354E-1,3.810453E-1,1.858308E-2],"split_indices":[137,108,0,140,105,89,138,121,48,15,123,110,139,22,84,0,0,66,0,87,12,58,17,84,107,108,4,33,142,0,0,0,0,0,0,0,0,0,0,0,0,0,0,0,0,0,0,0,0,0,0],"split_type":[0,0,0,0,0,0,0,0,0,0,0,0,0,0,0,0,0,0,0,0,0,0,0,0,0,0,0,0,0,0,0,0,0,0,0,0,0,0,0,0,0,0,0,0,0,0,0,0,0,0,0],"sum_hessian":[5.5460754E2,5.504454E2,4.162174E0,5.160128E2,3.443255E1,1.2909593E2,3.869169E2,3.0989904E1,3.4426455E0,1.0230417E2,2.6791765E1,6.167464E1,3.2524228E2,1.4946668E1,1.6043236E1,2.3387237E0,1.1039219E0,9.948667E1,2.8174977E0,1.8669426E1,8.122338E0,3.142345E1,3.0251192E1,1.1373706E2,2.1150522E2,3.067243E0,1.1879424E1,4.6270795E0,1.1416157E1,9.417087E1,5.315803E0,2.9547918E0,1.5714635E1,3.6479626E0,4.4743752E0,2.5220877E1,6.202574E0,2.8738026E1,1.5131649E0,1.0757666E2,6.160398E0,1.6960399E2,4.190123E1,1.0424681E0,2.024775E0,2.7720652E0,9.107359E0,3.1435742E0,1.4835054E0,9.671416E0,1.744741E0],"tree_param":{"num_deleted":"0","num_feature":"145","num_nodes":"51","size_leaf_vector":"1"}},{"base_weights":[6.682733E-3,1.5184556E-2,-7.3987496E-1,-2.269934E-2,1.856379E-1,-3.150956E-1,5.6481905E-2,7.929126E-2,-1.237465E-1,-2.8734723E-1,3.365619E-1,3.3493808E-1,-1.2653607E-2,-1.51037E-1,1.0454347E0,1.4624904E-1,-7.193704E-1,-5.511338E-1,3.9219013E-1,6.119414E-1,4.163882E-2,6.332356E-1,-5.8199484E-2,-2.1472283E-1,2.9131326E-1,3.6394632E-1,6.805027E-2,-6.218657E-1,4.8211402E-1,-9.2900944E-1,1.4203547E-1,1.1363462E-1,-3.096969E-1,1.9996674E-1,6.524497E-1,-4.6578187E-2,2.4488539E-1,7.970584E-2,-1.9926216E-1,2.8344E-1,-3.6755573E-2,1.1552347E-2,-1.01093225E-1,-1.22134686E-1,-1.2789607E-2,2.542667E-1,1.3251578E-2,-3.2856798E-1,9.428919E-2,-1.1673209E-1,2.367005E-1,9.594786E-3,-3.572905E-1,-8.234344E-2,1.2564279E-1,1.1317315E-2,2.5980216E-1],"categories":[],"categories_nodes":[],"categories_segments":[],"categories_sizes":[],"default_left":[0,0,0,0,0,0,0,0,0,0,0,0,0,0,0,0,0,0,0,0,0,0,0,0,0,0,0,0,0,0,0,0,0,0,0,0,0,0,0,0,0,0,0,0,0,0,0,0,0,0,0,0,0,0,0,0,0],"id":11,"left_children":[1,3,5,7,9,-1,-1,11,13,15,17,19,21,23,25,27,29,31,33,35,37,39,41,43,45,-1,-1,47,49,51,-1,-1,-1,53,55,-1,-1,-1,-1,-1,-1,-1,-1,-1,-1,-1,-1,-1,-1,-1,-1,-1,-1,-1,-1,-1,-1],"loss_changes":[3.49043E0,3.5103612E0,1.9819598E0,4.597176E0,7.1524477E0,0E0,0E0,5.225642E0,7.3047256E0,4.6851053E0,3.939067E0,4.751378E0,4.8713527E0,6.2532387E0,4.4357777E-1,3.6622014E0,3.5445428E0,2.566442E0,3.448042E0,4.85577E0,4.862387E0,2.6845775E0,4.1764116E0,6.361761E0,3.8227937E0,0E0,0E0,2.2948835E0,2.8821566E0,2.7814093E0,0E0,0E0,0E0,4.5364704E0,3.8985434E0,0E0,0E0,0E0,0E0,0E0,0E0,0E0,0E0,0E0,0E0,0E0,0E0,0E0,0E0,0E0,0E0,0E0,0E0,0E0,0E0,0E0,0E0],"parents":[2147483647,0,0,1,1,2,2,3,3,4,4,7,7,8,8,9,9,10,10,11,11,12,12,13,13,14,14,15,15,16,16,17,17,18,18,19,19,20,20,21,21,22,22,23,23,24,24,27,27,28,28,29,29,33,33,34,34],"right_children":[2,4,6,8,10,-1,-1,12,14,16,18,20,22,24,26,28,30,32,34,36,38,40,42,44,46,-1,-1,48,50,52,-1,-1,-1,54,56,-1,-1,-1,-1,-1,-1,-1,-1,-1,-1,-1,-1,-1,-1,-1,-1,-1,-1,-1,-1,-1,-1],"split_conditions":[2E4,1.2E4,1E4,8E3,6E3,-3.150956E-1,5.6481905E-2,6E3,2E4,8E3,4E3,8E3,4E3,1.4E4,1.4E4,6E3,1.8E4,8E3,1E4,6E3,1.2E4,1E4,1E4,8E3,6E3,3.6394632E-1,6.805027E-2,1.4E4,6E3,6E3,1.4203547E-1,1.1363462E-1,-3.096969E-1,6E3,6E3,-4.6578187E-2,2.4488539E-1,7.970584E-2,-1.9926216E-1,2.8344E-1,-3.6755573E-2,1.1552347E-2,-1.01093225E-1,-1.22134686E-1,-1.2789607E-2,2.542667E-1,1.3251578E-2,-3.2856798E-1,9.428919E-2,-1.1673209E-1,2.367005E-1,9.594786E-3,-3.572905E-1,-8.234344E-2,1.2564279E-1,1.1317315E-2,2.5980216E-1],"split_indices":[138,42,67,83,19,0,0,71,103,60,144,101,41,83,106,48,41,90,45,11,143,12,10,130,102,0,0,42,140,47,0,0,0,82,121,0,0,0,0,0,0,0,0,0,0,0,0,0,0,0,0,0,0,0,0,0,0],"split_type":[0,0,0,0,0,0,0,0,0,0,0,0,0,0,0,0,0,0,0,0,0,0,0,0,0,0,0,0,0,0,0,0,0,0,0,0,0,0,0,0,0,0,0,0,0,0,0,0,0,0,0,0,0,0,0,0,0],"sum_hessian":[5.4715497E2,5.4196277E2,5.1922283E0,4.4412183E2,9.784091E1,3.7921991E0,1.4000294E0,2.2113623E2,2.229856E2,2.3449116E1,7.43918E1,5.7795826E1,1.6334041E2,2.1875044E2,4.235154E0,1.203339E1,1.1415726E1,3.8616416E0,7.053016E1,2.9164925E1,2.8630901E1,9.909524E0,1.5343088E2,1.9167E2,2.7080437E1,3.1149576E0,1.1201966E0,3.4018683E0,8.631521E0,9.897417E0,1.5183089E0,1.3893985E0,2.472243E0,4.158472E1,2.8945436E1,6.1847224E0,2.2980202E1,2.2205954E1,6.4249487E0,6.839681E0,3.069843E0,1.1455421E2,3.8876675E1,8.985211E1,1.01817894E2,7.5832753E0,1.9497162E1,2.1465685E0,1.2552998E0,2.1786513E0,6.4528704E0,2.3080986E0,7.5893183E0,1.3046349E1,2.853837E1,7.766424E0,2.1179012E1],"tree_param":{"num_deleted":"0","num_feature":"145","num_nodes":"57","size_leaf_vector":"1"}},{"base_weights":[5.5805114E-3,-1.4799677E-2,3.163848E-1,-3.0545838E-2,5.0942624E-1,-2.0350826E-1,6.230349E-1,-6.8818396E-3,-3.6431602E-1,1.043338E0,-9.554069E-2,5.641618E-1,-5.9626245E-1,1.001493E-1,1.1236004E0,-3.3657093E-2,3.5841405E-1,-5.571647E-1,5.477072E-1,3.9972666E-1,-1.0834728E-1,-2.9075643E-1,2.2852518E-1,8.2732284E-1,-6.556329E-2,-9.201059E-1,3.110089E-1,-3.0262083E-1,3.157753E-1,1.9322605E-1,1.3836938E0,5.909054E-2,-1.3739333E-1,6.9427E-1,-8.798946E-2,-7.3206955E-1,6.109404E-1,1.1496413E0,-4.276293E-1,7.4791914E-1,-5.455203E-1,3.0328304E-1,5.8427125E-2,6.092918E-3,-3.8321254E-1,-7.376823E-2,2.257752E-1,-6.8426275E-1,2.3504373E-1,-1.6952235E-1,2.4781257E-1,8.233796E-2,4.6028662E-1,-3.8249236E-2,6.654339E-2,-8.6194746E-2,5.3456468E-3,-3.722541E-2,2.773418E-1,-1.7027852E-1,1.3129884E-1,2.605123E-2,-2.8257194E-1,3.1321132E-1,-5.897287E-2,3.96874E-1,1.05442524E-1,7.229369E-2,-2.5887123E-1,-5.990425E-2,3.4236875E-1,-1.2475823E-2,-2.3999617E-1,-3.5013512E-1,8.136889E-2],"categories":[],"categories_nodes":[],"categories_segments":[],"categories_sizes":[],"default_left":[0,0,0,0,0,0,0,0,0,0,0,0,0,0,0,0,0,0,0,0,0,0,0,0,0,0,0,0,0,0,0,0,0,0,0,0,0,0,0,0,0,0,0,0,0,0,0,0,0,0,0,0,0,0,0,0,0,0,0,0,0,0,0,0,0,0,0,0,0,0,0,0,0,0,0],"id":12,"left_children":[1,3,5,7,9,11,13,15,17,19,21,23,25,27,29,31,33,35,37,-1,-1,-1,39,41,-1,43,45,47,-1,49,51,53,55,57,59,61,63,65,67,69,71,-1,-1,-1,-1,-1,-1,73,-1,-1,-1,-1,-1,-1,-1,-1,-1,-1,-1,-1,-1,-1,-1,-1,-1,-1,-1,-1,-1,-1,-1,-1,-1,-1,-1],"loss_changes":[3.4335082E0,4.21679E0,5.444542E0,3.9076529E0,4.9118376E0,4.2948165E0,5.4433613E0,4.5435953E0,6.066433E0,3.7284756E0,2.4582782E0,1.2019199E0,2.980868E0,4.7223372E0,2.333249E0,4.170086E0,4.817646E0,6.0727797E0,4.1443105E0,0E0,0E0,0E0,3.05021E0,2.5830865E-1,0E0,2.3816962E0,9.621266E-1,4.202242E0,0E0,2.1512568E0,9.548025E-1,6.983699E0,4.763652E0,3.5465841E0,3.9061391E0,4.275235E0,1.6499916E0,1.0460758E-1,1.1110811E0,1.8509009E0,3.793046E-1,0E0,0E0,0E0,0E0,0E0,0E0,3.5824096E0,0E0,0E0,0E0,0E0,0E0,0E0,0E0,0E0,0E0,0E0,0E0,0E0,0E0,0E0,0E0,0E0,0E0,0E0,0E0,0E0,0E0,0E0,0E0,0E0,0E0,0E0,0E0],"parents":[2147483647,0,0,1,1,2,2,3,3,4,4,5,5,6,6,7,7,8,8,9,9,10,10,11,11,12,12,13,13,14,14,15,15,16,16,17,17,18,18,22,22,23,23,25,25,26,26,27,27,29,29,30,30,31,31,32,32,33,33,34,34,35,35,36,36,37,37,38,38,39,39,40,40,47,47],"right_children":[2,4,6,8,10,12,14,16,18,20,22,24,26,28,30,32,34,36,38,-1,-1,-1,40,42,-1,44,46,48,-1,50,52,54,56,58,60,62,64,66,68,70,72,-1,-1,-1,-1,-1,-1,74,-1,-1,-1,-1,-1,-1,-1,-1,-1,-1,-1,-1,-1,-1,-1,-1,-1,-1,-1,-1,-1,-1,-1,-1,-1,-1,-1],"split_conditions":[1.4E4,1.8E4,8E3,1.4E4,8E3,6E3,8E3,1.4E4,1.2E4,1E4,6E3,1.2E4,1E4,1.2E4,6E3,8E3,8E3,1.8E4,8E3,3.9972666E-1,-1.0834728E-1,-2.9075643E-1,8E3,8E3,-6.556329E-2,6E3,8E3,1.2E4,3.157753E-1,8E3,6E3,6E3,1E4,6E3,8E3,6E3,1E4,2E4,8E3,8E3,8E3,3.0328304E-1,5.8427125E-2,6.092918E-3,-3.8321254E-1,-7.376823E-2,2.257752E-1,8E3,2.3504373E-1,-1.6952235E-1,2.4781257E-1,8.233796E-2,4.6028662E-1,-3.8249236E-2,6.654339E-2,-8.6194746E-2,5.3456468E-3,-3.722541E-2,2.773418E-1,-1.7027852E-1,1.3129884E-1,2.605123E-2,-2.8257194E-1,3.1321132E-1,-5.897287E-2,3.96874E-1,1.05442524E-1,7.229369E-2,-2.5887123E-1,-5.990425E-2,3.4236875E-1,-1.2475823E-2,-2.3999617E-1,-3.5013512E-1,8.136889E-2],"split_indices":[31,20,27,105,39,90,87,129,34,136,125,19,104,80,71,139,27,102,118,0,0,0,117,114,0,101,47,14,0,111,51,139,139,101,6,47,132,106,13,61,0,0,0,0,0,0,0,74,0,0,0,0,0,0,0,0,0,0,0,0,0,0,0,0,0,0,0,0,0,0,0,0,0,0,0],"split_type":[0,0,0,0,0,0,0,0,0,0,0,0,0,0,0,0,0,0,0,0,0,0,0,0,0,0,0,0,0,0,0,0,0,0,0,0,0,0,0,0,0,0,0,0,0,0,0,0,0,0,0,0,0,0,0,0,0,0,0,0,0,0,0,0,0,0,0,0,0,0,0,0,0,0,0],"sum_hessian":[5.403152E2,5.0795947E2,3.2355747E1,4.940611E2,1.3898371E1,1.2128871E1,2.0226875E1,4.6230472E2,3.1756363E1,6.997834E0,6.900537E0,3.957395E0,8.171476E0,1.0479826E1,9.747049E0,4.3157895E2,3.0725769E1,2.6534658E1,5.2217045E0,5.8459015E0,1.1519326E0,1.3284533E0,5.5720835E0,2.9189754E0,1.0384196E0,6.011553E0,2.159923E0,7.844692E0,2.635134E0,2.510327E0,7.2367225E0,2.2808499E2,2.0349397E2,1.7217081E1,1.3508688E1,2.3403627E1,3.1310296E0,3.118434E0,2.1032705E0,3.354755E0,2.2173285E0,1.7986901E0,1.1202853E0,1.9147196E0,4.096833E0,1.1512012E0,1.008722E0,6.0786963E0,1.7659961E0,1.1906382E0,1.3196889E0,1.2024398E0,6.0342827E0,1.0635115E2,1.2173384E2,1.0307788E2,1.0041609E2,3.881081E0,1.33359995E1,7.022009E0,6.4866796E0,4.893292E0,1.8510336E1,1.8473413E0,1.2836882E0,2.0220344E0,1.0963994E0,1.0053569E0,1.0979137E0,1.1284037E0,2.2263513E0,1.1343465E0,1.0829822E0,3.890942E0,2.1877542E0],"tree_param":{"num_deleted":"0","num_feature":"145","num_nodes":"75","size_leaf_vector":"1"}},{"base_weights":[7.321787E-3,1.4736056E-1,-3.9172735E-2,3.5890976E-1,-5.2454077E-2,-1.6039617E-1,7.894928E-2,5.0451934E-1,-1.7661838E-1,1.0682185E-1,-5.9717166E-1,4.2490344E-3,-3.294514E-1,-1.7050834E-2,3.5699272E-1,1.1411829E0,2.7721447E-1,-7.536862E-1,2.9413956E-1,-2.0599534E-1,3.8921124E-1,-9.566894E-1,5.352442E-1,3.634353E-1,-1.248502E-1,-4.3256202E-1,1.9627611E-1,2.404295E-2,-7.6379925E-1,4.3731207E-1,-3.3037E-1,1.3863515E0,4.6233848E-1,1.2034343E-1,1.2221661E0,-9.995873E-1,2.8785808E-2,6.4450234E-1,-2.1131508E-1,-4.0959585E-1,6.578846E-1,6.1408234E-1,-5.5908906E-1,-1.1281438E0,-1.1995113E-2,3.1262183E-1,-7.287273E-2,4.6317747E-1,-2.513692E-1,-2.55428E-1,3.6410674E-1,-5.828651E-1,-2.3697408E-2,-1.448001E-1,9.784158E-1,3.2350382E-1,-9.043235E-2,-1.0986837E0,8.8942975E-2,5.5799675E-1,-5.036815E-1,4.9421465E-1,6.0628254E-2,-1.4482252E-1,3.314115E-1,1.05472356E-1,-1.9862917E-1,4.064732E-1,9.942406E-2,-3.493509E-1,-4.1576944E-2,2.7932695E-1,-6.1351795E-2,1.8887277E-1,-1.8287228E-1,3.2446408E-1,-1.1944658E-1,-1.4671142E-2,2.5338826E-1,1.8016642E-1,-2.807426E-1,-3.644682E-1,-1.1798575E-1,2.60713E-2,2.5452504E-1,-2.6083094E-1,-3.182245E-2,-1.388567E-1,2.1200718E-1,-1.9238552E-1,2.1420296E-1,1.4695017E-1,-1.4965117E-1,-1.9245839E-1,1.17098294E-1,4.2061514E-1,-9.255512E-2,-1.9707622E-1,1.1890037E-1,-1.51813E-1,1.2674954E-2,-1.8506184E-2,-3.9363945E-1,2.1202262E-1,-7.7137195E-2,1.5796249E-1,-2.6399398E-1],"categories":[],"categories_nodes":[],"categories_segments":[],"categories_sizes":[],"default_left":[0,0,0,0,0,0,0,0,0,0,0,0,0,0,0,0,0,0,0,0,0,0,0,0,0,0,0,0,0,0,0,0,0,0,0,0,0,0,0,0,0,0,0,0,0,0,0,0,0,0,0,0,0,0,0,0,0,0,0,0,0,0,0,0,0,0,0,0,0,0,0,0,0,0,0,0,0,0,0,0,0,0,0,0,0,0,0,0,0,0,0,0,0,0,0,0,0,0,0,0,0,0,0,0,0,0,0],"id":13,"left_children":[1,3,5,7,9,11,13,15,17,19,21,23,25,27,29,31,33,35,37,39,41,43,45,47,49,51,53,55,57,59,-1,61,63,65,67,69,-1,71,-1,73,75,77,79,81,-1,-1,-1,83,-1,85,87,89,91,93,95,97,99,101,-1,103,105,-1,-1,-1,-1,-1,-1,-1,-1,-1,-1,-1,-1,-1,-1,-1,-1,-1,-1,-1,-1,-1,-1,-1,-1,-1,-1,-1,-1,-1,-1,-1,-1,-1,-1,-1,-1,-1,-1,-1,-1,-1,-1,-1,-1,-1,-1],"loss_changes":[3.4789212E0,5.647975E0,5.758306E0,5.1430807E0,6.0811915E0,5.522521E0,5.448565E0,7.0955744E0,4.1868258E0,4.8956614E0,6.962283E0,4.7509284E0,5.3908424E0,4.698725E0,6.616164E0,1.5482693E0,5.643419E0,1.5246136E0,3.5178244E0,4.933461E0,6.5266E0,1.9013739E0,2.0117521E0,3.633573E0,4.906515E0,5.0342073E0,4.6067047E0,5.018314E0,3.1613164E0,5.9999266E0,0E0,2.499752E0,3.5629616E0,6.494668E0,1.9565964E-1,6.040859E-1,0E0,1.8948765E0,0E0,4.971382E0,2.8650868E0,3.6966267E0,3.2187023E0,1.8494987E-1,0E0,0E0,0E0,3.644815E0,0E0,5.418192E0,4.9456177E0,5.005287E0,5.8861947E0,3.5799823E0,3.2737617E0,3.1498756E0,5.8704247E0,1.3094535E0,0E0,5.6509037E0,2.8862877E0,0E0,0E0,0E0,0E0,0E0,0E0,0E0,0E0,0E0,0E0,0E0,0E0,0E0,0E0,0E0,0E0,0E0,0E0,0E0,0E0,0E0,0E0,0E0,0E0,0E0,0E0,0E0,0E0,0E0,0E0,0E0,0E0,0E0,0E0,0E0,0E0,0E0,0E0,0E0,0E0,0E0,0E0,0E0,0E0,0E0,0E0],"parents":[2147483647,0,0,1,1,2,2,3,3,4,4,5,5,6,6,7,7,8,8,9,9,10,10,11,11,12,12,13,13,14,14,15,15,16,16,17,17,18,18,19,19,20,20,21,21,22,22,23,23,24,24,25,25,26,26,27,27,28,28,29,29,31,31,32,32,33,33,34,34,35,35,37,37,39,39,40,40,41,41,42,42,43,43,47,47,49,49,50,50,51,51,52,52,53,53,54,54,55,55,56,56,57,57,59,59,60,60],"right_children":[2,4,6,8,10,12,14,16,18,20,22,24,26,28,30,32,34,36,38,40,42,44,46,48,50,52,54,56,58,60,-1,62,64,66,68,70,-1,72,-1,74,76,78,80,82,-1,-1,-1,84,-1,86,88,90,92,94,96,98,100,102,-1,104,106,-1,-1,-1,-1,-1,-1,-1,-1,-1,-1,-1,-1,-1,-1,-1,-1,-1,-1,-1,-1,-1,-1,-1,-1,-1,-1,-1,-1,-1,-1,-1,-1,-1,-1,-1,-1,-1,-1,-1,-1,-1,-1,-1,-1,-1,-1],"split_conditions":[6E3,8E3,8E3,1E4,1E4,8E3,1.2E4,6E3,8E3,8E3,1E4,6E3,1.2E4,1.8E4,2E4,1E4,1E4,1.2E4,1.2E4,1.2E4,1.2E4,1.2E4,8E3,1.4E4,1.2E4,1.2E4,1.2E4,6E3,1E4,1.8E4,-3.3037E-1,1.2E4,6E3,1E4,1E4,1E4,2.8785808E-2,1E4,-2.1131508E-1,4E3,8E3,6E3,6E3,1.2E4,-1.1995113E-2,3.1262183E-1,-7.287273E-2,8E3,-2.513692E-1,6E3,6E3,1.4E4,8E3,8E3,1E4,4E3,6E3,6E3,8.8942975E-2,1.2E4,6E3,4.9421465E-1,6.0628254E-2,-1.4482252E-1,3.314115E-1,1.05472356E-1,-1.9862917E-1,4.064732E-1,9.942406E-2,-3.493509E-1,-4.1576944E-2,2.7932695E-1,-6.1351795E-2,1.8887277E-1,-1.8287228E-1,3.2446408E-1,-1.1944658E-1,-1.4671142E-2,2.5338826E-1,1.8016642E-1,-2.807426E-1,-3.644682E-1,-1.1798575E-1,2.60713E-2,2.5452504E-1,-2.6083094E-1,-3.182245E-2,-1.388567E-1,2.1200718E-1,-1.9238552E-1,2.1420296E-1,1.4695017E-1,-1.4965117E-1,-1.9245839E-1,1.17098294E-1,4.2061514E-1,-9.255512E-2,-1.9707622E-1,1.1890037E-1,-1.51813E-1,1.2674954E-2,-1.8506184E-2,-3.9363945E-1,2.1202262E-1,-7.7137195E-2,1.5796249E-1,-2.6399398E-1],"split_indices":[64,122,121,19,0,80,64,36,98,24,131,53,28,35,110,58,120,13,130,20,106,83,59,13,126,78,32,126,83,62,0,10,130,24,1,84,0,140,0,65,142,54,118,111,0,0,0,111,0,55,109,99,110,52,8,53,31,44,0,141,56,0,0,0,0,0,0,0,0,0,0,0,0,0,0,0,0,0,0,0,0,0,0,0,0,0,0,0,0,0,0,0,0,0,0,0,0,0,0,0,0,0,0,0,0,0,0],"split_type":[0,0,0,0,0,0,0,0,0,0,0,0,0,0,0,0,0,0,0,0,0,0,0,0,0,0,0,0,0,0,0,0,0,0,0,0,0,0,0,0,0,0,0,0,0,0,0,0,0,0,0,0,0,0,0,0,0,0,0,0,0,0,0,0,0,0,0,0,0,0,0,0,0,0,0,0,0,0,0,0,0,0,0,0,0,0,0,0,0,0,0,0,0,0,0,0,0,0,0,0,0,0,0,0,0,0,0],"sum_hessian":[5.324249E2,1.3216931E2,4.002556E2,6.3812775E1,6.835653E1,1.9735794E2,2.0289767E2,5.021678E1,1.3595995E1,5.3513134E1,1.4843396E1,1.0047694E2,9.6881004E1,1.5152075E2,5.1376926E1,1.2153965E1,3.8062817E1,5.8382745E0,7.7577205E0,2.5517082E1,2.7996054E1,1.1384303E1,3.4590936E0,2.6085476E1,7.439146E1,8.114358E1,1.5737425E1,1.4453476E2,6.985987E0,4.9358364E1,2.0185602E0,8.163462E0,3.9905033E0,3.3610504E1,4.452312E0,4.390964E0,1.4473104E0,6.005166E0,1.752554E0,2.1075777E1,4.4413056E0,2.2914711E1,5.0813427E0,9.396243E0,1.9880598E0,1.8893542E0,1.5697395E0,2.4653069E1,1.432406E0,5.90891E1,1.5302359E1,5.9021175E1,2.2122404E1,1.1526016E1,4.211409E0,3.946655E1,1.05068214E2,5.281591E0,1.7043965E0,4.410837E1,5.2499924E0,6.368637E0,1.7948245E0,1.7153273E0,2.275176E0,2.6368586E1,7.2419176E0,3.421358E0,1.0309539E0,3.3892765E0,1.0016873E0,4.417377E0,1.5877892E0,3.0545955E0,1.8021181E1,3.1524515E0,1.2888545E0,6.1156406E0,1.679907E1,1.1002643E0,3.9810784E0,7.8198705E0,1.5763724E0,1.3091677E1,1.1561393E1,1.0617588E1,4.847151E1,4.379535E0,1.0922824E1,5.6960796E1,2.060379E0,1.0616817E1,1.1505587E1,5.874359E0,5.6516566E0,3.101125E0,1.1102841E0,2.1744854E0,3.7292065E1,2.4744646E1,8.032357E1,1.1215842E0,4.1600065E0,3.741394E1,6.694432E0,1.2977549E0,3.9522374E0],"tree_param":{"num_deleted":"0","num_feature":"145","num_nodes":"107","size_leaf_vector":"1"}},{"base_weights":[5.5591636E-3,3.4754428E-1,-1.1652846E-2,4.7364947E-1,-2.444322E-1,-2.3235483E-2,6.2780786E-1,-2.3127663E-1,6.0393417E-1,3.3374983E-1,-4.10237E-2,9.326511E-1,-1.117067E-1,2.766645E-1,9.946116E-1,5.526759E-1,-3.695914E-1,-8.682961E-2,1.01839125E-1,6.217612E-2,3.3712658E-1,5.162862E-1,-5.117914E-1,1.2198024E0,-1.6774211E-2,8.2603043E-1,-1.6434442E-1,1.4194158E-1,-6.5145606E-1,-2.6435336E-1,-2.5079386E-2,4.4360623E-1,-9.752727E-3,2.3348328E-1,-1.3780144E-1,-2.4187149E-1,1.4974303E-2,4.2765066E-1,4.7332287E-2,3.076815E-1,-4.1365728E-2,-2.2680074E-1,1.6549033E-1,6.3026495E-2,-3.2419133E-1,-3.9777886E-2,-2.1247001E-1,-3.1368103E-2,6.869909E-2,1.8713205E-1,-9.816795E-2,7.082343E-2,-7.741492E-2],"categories":[],"categories_nodes":[],"categories_segments":[],"categories_sizes":[],"default_left":[0,0,0,0,0,0,0,0,0,0,0,0,0,0,0,0,0,0,0,0,0,0,0,0,0,0,0,0,0,0,0,0,0,0,0,0,0,0,0,0,0,0,0,0,0,0,0,0,0,0,0,0,0],"id":14,"left_children":[1,3,5,7,-1,9,11,-1,13,15,17,19,-1,21,23,25,27,29,31,-1,-1,33,35,37,-1,39,41,-1,43,45,47,49,51,-1,-1,-1,-1,-1,-1,-1,-1,-1,-1,-1,-1,-1,-1,-1,-1,-1,-1,-1,-1],"loss_changes":[3.0686471E0,4.0473886E0,3.6931417E0,4.222202E0,0E0,3.1175382E0,3.0521812E0,0E0,2.477972E0,3.7933912E0,3.0614402E0,7.492099E-1,0E0,2.739747E0,2.2991123E0,3.698413E0,1.764876E0,3.8713567E0,4.3411765E0,0E0,0E0,3.0532587E0,6.2840176E-1,1.4811401E0,0E0,2.7049246E0,2.8956268E0,0E0,2.0817618E0,5.2395153E0,5.346545E0,4.0943108E0,5.353125E0,0E0,0E0,0E0,0E0,0E0,0E0,0E0,0E0,0E0,0E0,0E0,0E0,0E0,0E0,0E0,0E0,0E0,0E0,0E0,0E0],"parents":[2147483647,0,0,1,1,2,2,3,3,5,5,6,6,8,8,9,9,10,10,11,11,13,13,14,14,15,15,16,16,17,17,18,18,21,21,22,22,23,23,25,25,26,26,28,28,29,29,30,30,31,31,32,32],"right_children":[2,4,6,8,-1,10,12,-1,14,16,18,20,-1,22,24,26,28,30,32,-1,-1,34,36,38,-1,40,42,-1,44,46,48,50,52,-1,-1,-1,-1,-1,-1,-1,-1,-1,-1,-1,-1,-1,-1,-1,-1,-1,-1,-1,-1],"split_conditions":[4E3,1.4E4,2E4,4E3,-2.444322E-1,4E3,1E4,-2.3127663E-1,8E3,1.2E4,1E4,6E3,-1.117067E-1,1.2E4,1.2E4,1E4,6E3,6E3,6E3,6.217612E-2,3.3712658E-1,1E4,8E3,1.2E4,-1.6774211E-2,1.2E4,8E3,1.4194158E-1,8E3,1E4,1E4,1E4,8E3,2.3348328E-1,-1.3780144E-1,-2.4187149E-1,1.4974303E-2,4.2765066E-1,4.7332287E-2,3.076815E-1,-4.1365728E-2,-2.2680074E-1,1.6549033E-1,6.3026495E-2,-3.2419133E-1,-3.9777886E-2,-2.1247001E-1,-3.1368103E-2,6.869909E-2,1.8713205E-1,-9.816795E-2,7.082343E-2,-7.741492E-2],"split_indices":[101,8,92,50,0,27,86,0,98,117,101,0,0,35,13,66,71,120,53,0,0,26,60,144,0,142,116,0,19,141,56,144,27,0,0,0,0,0,0,0,0,0,0,0,0,0,0,0,0,0,0,0,0],"split_type":[0,0,0,0,0,0,0,0,0,0,0,0,0,0,0,0,0,0,0,0,0,0,0,0,0,0,0,0,0,0,0,0,0,0,0,0,0,0,0,0,0,0,0,0,0,0,0,0,0,0,0,0,0],"sum_hessian":[5.196365E2,2.3980303E1,4.956562E2,2.2167723E1,1.8125807E0,4.8778455E2,7.871643E0,1.6347007E0,2.0533022E1,2.2309088E1,4.6547546E2,6.0845985E0,1.7870445E0,1.2102744E1,8.430278E0,1.7176764E1,5.132325E0,3.527621E2,1.12713394E2,1.7033793E0,4.3812194E0,9.546604E0,2.55614E0,6.8094654E0,1.6208125E0,1.2325714E1,4.851049E0,1.1162666E0,4.016059E0,9.019172E1,2.6257034E2,2.7011448E1,8.570194E1,7.6851363E0,1.8614676E0,1.3914177E0,1.1647222E0,5.417858E0,1.3916073E0,1.0158455E1,2.16726E0,2.6255186E0,2.2255301E0,1.505131E0,2.5109277E0,7.054886E1,1.9642866E1,2.004526E2,6.211774E1,2.2048758E1,4.9626904E0,4.308957E1,4.2612377E1],"tree_param":{"num_deleted":"0","num_feature":"145","num_nodes":"53","size_leaf_vector":"1"}},{"base_weights":[4.595603E-3,3.141276E-1,-1.295884E-2,-3.1942096E-1,5.078369E-1,-3.2698788E-2,2.9774764E-1,6.012848E-1,-3.1467503E-1,-1.4153051E-1,7.309588E-1,3.449819E-1,-4.9600985E-2,-6.136959E-2,6.466419E-1,-3.597594E-2,2.9042476E-1,5.243258E-1,-2.7024406E-1,-1.0487749E-1,8.658135E-1,-3.838844E-1,6.345497E-1,-8.917324E-2,1.12942554E-1,3.787132E-1,-4.903475E-1,8.3731395E-1,-4.785703E-2,3.252445E-1,-1.3306671E-1,1.0188549E0,1.5460489E-2,-7.872074E-1,1.8895614E-1,8.2348585E-1,-2.749355E-1,-1.0961084E-1,4.8186105E-1,-1.1568033E-1,3.5120606E-1,-4.2585725E-1,7.7821714E-1,1.5268603E-1,-8.288706E-1,-2.0869335E-2,1.0186954E0,-4.908363E-1,1.8926723E-1,3.4661818E-1,-6.737458E-2,-2.832533E-1,2.739337E-1,8.504404E-2,-3.4322196E-1,-1.060195E-2,3.237908E-1,-2.187128E-1,1.1049649E-1,-4.6213716E-2,2.9810626E-2,-1.9107287E-1,2.1991622E-1,-7.656146E-2,1.8449213E-1,2.3787597E-1,4.0637515E-3,4.9253188E-2,-2.5235233E-1,3.4465024E-1,1.1192663E-2,-3.3269307E-1,-7.564979E-3,1.7235773E-2,3.3888045E-1,-2.2810733E-1,1.9751792E-3],"categories":[],"categories_nodes":[],"categories_segments":[],"categories_sizes":[],"default_left":[0,0,0,0,0,0,0,0,0,0,0,0,0,0,0,0,0,0,0,0,0,0,0,0,0,0,0,0,0,0,0,0,0,0,0,0,0,0,0,0,0,0,0,0,0,0,0,0,0,0,0,0,0,0,0,0,0,0,0,0,0,0,0,0,0,0,0,0,0,0,0,0,0,0,0,0,0],"id":15,"left_children":[1,3,5,7,9,11,13,15,-1,17,19,21,23,25,27,-1,-1,29,-1,-1,31,33,35,37,39,41,43,45,47,-1,-1,49,51,53,-1,55,57,59,61,63,65,67,69,-1,71,-1,73,75,-1,-1,-1,-1,-1,-1,-1,-1,-1,-1,-1,-1,-1,-1,-1,-1,-1,-1,-1,-1,-1,-1,-1,-1,-1,-1,-1,-1,-1],"loss_changes":[2.7992935E0,3.5553505E0,3.0014431E0,5.3913584E0,3.2273083E0,2.9506528E0,3.7029645E0,1.1131246E0,0E0,3.6834443E0,2.6646156E0,4.4247074E0,2.844946E0,3.0780857E0,2.015337E0,0E0,0E0,2.656918E0,0E0,0E0,1.8970575E0,3.053553E0,2.7274117E0,4.195855E0,4.7651286E0,2.9436097E0,3.1938272E0,2.004858E0,1.5601717E0,0E0,0E0,2.3716774E0,3.667985E0,2.2040906E0,0E0,2.7408094E0,1.2188113E0,3.2054782E0,3.9662063E0,4.74582E0,6.3606524E0,9.572476E-1,1.5454082E0,0E0,1.4354963E0,0E0,9.8644066E-1,4.1779852E-1,0E0,0E0,0E0,0E0,0E0,0E0,0E0,0E0,0E0,0E0,0E0,0E0,0E0,0E0,0E0,0E0,0E0,0E0,0E0,0E0,0E0,0E0,0E0,0E0,0E0,0E0,0E0,0E0,0E0],"parents":[2147483647,0,0,1,1,2,2,3,3,4,4,5,5,6,6,7,7,9,9,10,10,11,11,12,12,13,13,14,14,17,17,20,20,21,21,22,22,23,23,24,24,25,25,26,26,27,27,28,28,31,31,32,32,33,33,35,35,36,36,37,37,38,38,39,39,40,40,41,41,42,42,44,44,46,46,47,47],"right_children":[2,4,6,8,10,12,14,16,-1,18,20,22,24,26,28,-1,-1,30,-1,-1,32,34,36,38,40,42,44,46,48,-1,-1,50,52,54,-1,56,58,60,62,64,66,68,70,-1,72,-1,74,76,-1,-1,-1,-1,-1,-1,-1,-1,-1,-1,-1,-1,-1,-1,-1,-1,-1,-1,-1,-1,-1,-1,-1,-1,-1,-1,-1,-1,-1],"split_conditions":[4E3,6E3,1.4E4,6E3,6E3,4E3,8E3,8E3,-3.1467503E-1,8E3,4E3,6E3,1.2E4,8E3,1E4,-3.597594E-2,2.9042476E-1,8E3,-2.7024406E-1,-1.0487749E-1,1.2E4,1E4,1.2E4,1.8E4,8E3,6E3,6E3,6E3,1E4,3.252445E-1,-1.3306671E-1,1.2E4,8E3,6E3,1.8895614E-1,6E3,8E3,1.2E4,6E3,1.2E4,8E3,8E3,1.2E4,1.5268603E-1,1E4,-2.0869335E-2,4E3,8E3,1.8926723E-1,3.4661818E-1,-6.737458E-2,-2.832533E-1,2.739337E-1,8.504404E-2,-3.4322196E-1,-1.060195E-2,3.237908E-1,-2.187128E-1,1.1049649E-1,-4.6213716E-2,2.9810626E-2,-1.9107287E-1,2.1991622E-1,-7.656146E-2,1.8449213E-1,2.3787597E-1,4.0637515E-3,4.9253188E-2,-2.5235233E-1,3.4465024E-1,1.1192663E-2,-3.3269307E-1,-7.564979E-3,1.7235773E-2,3.3888045E-1,-2.2810733E-1,1.9751792E-3],"split_indices":[61,129,108,127,139,62,76,102,0,5,6,3,43,87,62,0,0,144,0,0,7,46,139,120,75,42,47,12,46,0,0,65,32,136,0,117,129,90,129,53,72,24,105,0,55,0,65,91,0,0,0,0,0,0,0,0,0,0,0,0,0,0,0,0,0,0,0,0,0,0,0,0,0,0,0,0,0],"split_type":[0,0,0,0,0,0,0,0,0,0,0,0,0,0,0,0,0,0,0,0,0,0,0,0,0,0,0,0,0,0,0,0,0,0,0,0,0,0,0,0,0,0,0,0,0,0,0,0,0,0,0,0,0,0,0,0,0,0,0,0,0,0,0,0,0,0,0,0,0,0,0,0,0,0,0,0,0],"sum_hessian":[5.1342706E2,2.664847E1,4.867786E2,6.0879974E0,2.0560472E1,4.585411E2,2.823749E1,2.7689826E0,3.319015E0,5.3514514E0,1.5209021E1,1.8810425E1,4.3973068E2,1.4320987E1,1.3916503E1,1.1604153E0,1.6085674E0,3.0160022E0,2.3354492E0,1.51083E0,1.3698191E1,5.2556925E0,1.3554731E1,3.539988E2,8.573187E1,7.1268344E0,7.1941524E0,1.0757449E1,3.1590536E0,1.8346915E0,1.1813105E0,1.1440962E1,2.257229E0,3.9196804E0,1.3360121E0,1.1301517E1,2.2532153E0,3.4254694E2,1.1451874E1,4.4013622E1,4.1718254E1,2.3427498E0,4.784085E0,1.6930152E0,5.5011373E0,1.8957036E0,8.861746E0,2.079037E0,1.0800166E0,1.0372758E1,1.0682033E0,1.065897E0,1.191332E0,1.0312645E0,2.8884158E0,2.7915623E0,8.509954E0,1.242624E0,1.0105911E0,2.8269992E2,5.9847E1,1.8182337E0,9.63364E0,3.7502853E1,6.5107675E0,1.7490107E1,2.4228148E1,1.2176079E0,1.125142E0,2.821926E0,1.9621586E0,3.7976E0,1.7035371E0,1.0737135E0,7.788032E0,1.0055753E0,1.0734618E0],"tree_param":{"num_deleted":"0","num_feature":"145","num_nodes":"77","size_leaf_vector":"1"}},{"base_weights":[5.7186526E-3,1.4254062E-2,-6.041304E-1,-1.15579225E-1,5.7339363E-2,-9.511446E-1,1.3170709E-1,1.0367056E-1,-3.1797603E-1,-1.8692361E-1,1.0481771E-1,-3.4205917E-1,-3.638117E-2,2.5457913E-1,-4.5445573E-1,-1.7920658E-1,-7.191239E-1,-4.3796044E-2,-7.3889565E-1,4.8249368E-2,3.5747167E-1,-2.4092995E-1,3.230309E-1,-7.5735605E-1,4.766244E-1,3.0611171E-3,-6.1915696E-1,3.4007144E-1,-9.9069023E-1,4.182674E-1,-2.1215725E-1,-1.0753567E0,3.7874484E-1,-1.6531618E-2,2.9477564E-1,8.068709E-1,1.6515557E-1,1.1925408E-1,-1.6866817E-1,2.4975816E-2,-3.346617E-1,-2.6762513E-2,2.7509078E-1,4.8236426E-2,-2.2601971E-1,-2.7375984E-1,2.2769025E-2,2.6858878E-1,-2.012704E-1,-3.988512E-1,-1.988027E-2,-6.719675E-2,2.8299502E-1,-1.3066943E-1,1.18064485E-1,-3.7462965E-1,-6.572481E-2,2.7289656E-1,-1.1539884E-1,-1.6320929E-2,1.6146366E-1,2.4039534E-1,4.343752E-2,3.1609556E-1,-2.5253756E-2,1.6996479E-1,-1.3613777E-2],"categories":[],"categories_nodes":[],"categories_segments":[],"categories_sizes":[],"default_left":[0,0,0,0,0,0,0,0,0,0,0,0,0,0,0,0,0,0,0,0,0,0,0,0,0,0,0,0,0,0,0,0,0,0,0,0,0,0,0,0,0,0,0,0,0,0,0,0,0,0,0,0,0,0,0,0,0,0,0,0,0,0,0,0,0,0,0],"id":16,"left_children":[1,3,5,7,9,11,-1,13,15,17,19,-1,-1,21,23,25,27,29,31,33,35,-1,37,39,41,43,45,47,49,51,53,55,57,59,61,63,65,-1,-1,-1,-1,-1,-1,-1,-1,-1,-1,-1,-1,-1,-1,-1,-1,-1,-1,-1,-1,-1,-1,-1,-1,-1,-1,-1,-1,-1,-1],"loss_changes":[2.6450493E0,2.8062432E0,2.95657E0,5.5813527E0,4.3852806E0,7.370124E-1,0E0,5.234262E0,3.5040183E0,4.8359356E0,4.4965353E0,0E0,0E0,3.769251E0,4.11007E0,3.9968636E0,5.0661573E0,3.978148E0,5.155037E0,4.144378E0,4.846601E0,0E0,3.2727022E0,3.2292404E0,1.047765E0,4.4428024E0,3.0461016E0,2.9018488E0,4.0906496E0,4.8273153E0,5.2198954E0,1.2060194E0,1.8336906E0,4.361547E0,3.9858613E0,3.829237E0,3.5419602E0,0E0,0E0,0E0,0E0,0E0,0E0,0E0,0E0,0E0,0E0,0E0,0E0,0E0,0E0,0E0,0E0,0E0,0E0,0E0,0E0,0E0,0E0,0E0,0E0,0E0,0E0,0E0,0E0,0E0,0E0],"parents":[2147483647,0,0,1,1,2,2,3,3,4,4,5,5,7,7,8,8,9,9,10,10,13,13,14,14,15,15,16,16,17,17,18,18,19,19,20,20,22,22,23,23,24,24,25,25,26,26,27,27,28,28,29,29,30,30,31,31,32,32,33,33,34,34,35,35,36,36],"right_children":[2,4,6,8,10,12,-1,14,16,18,20,-1,-1,22,24,26,28,30,32,34,36,-1,38,40,42,44,46,48,50,52,54,56,58,60,62,64,66,-1,-1,-1,-1,-1,-1,-1,-1,-1,-1,-1,-1,-1,-1,-1,-1,-1,-1,-1,-1,-1,-1,-1,-1,-1,-1,-1,-1,-1,-1],"split_conditions":[2E4,6E3,1E4,6E3,6E3,1.2E4,1.3170709E-1,1E4,1E4,1.2E4,1.2E4,-3.4205917E-1,-3.638117E-2,4E3,1.2E4,1E4,6E3,6E3,1E4,1E4,6E3,-2.4092995E-1,1.4E4,6E3,8E3,1.2E4,1E4,8E3,1.2E4,8E3,1E4,1.2E4,8E3,1.4E4,6E3,1.2E4,8E3,1.1925408E-1,-1.6866817E-1,2.4975816E-2,-3.346617E-1,-2.6762513E-2,2.7509078E-1,4.8236426E-2,-2.2601971E-1,-2.7375984E-1,2.2769025E-2,2.6858878E-1,-2.012704E-1,-3.988512E-1,-1.988027E-2,-6.719675E-2,2.8299502E-1,-1.3066943E-1,1.18064485E-1,-3.7462965E-1,-6.572481E-2,2.7289656E-1,-1.1539884E-1,-1.6320929E-2,1.6146366E-1,2.4039534E-1,4.343752E-2,3.1609556E-1,-2.5253756E-2,1.6996479E-1,-1.3613777E-2],"split_indices":[140,140,122,142,138,109,0,1,39,106,78,0,0,74,130,130,128,5,65,114,8,0,66,17,32,105,79,137,77,64,123,31,23,21,29,95,139,0,0,0,0,0,0,0,0,0,0,0,0,0,0,0,0,0,0,0,0,0,0,0,0,0,0,0,0,0,0],"split_type":[0,0,0,0,0,0,0,0,0,0,0,0,0,0,0,0,0,0,0,0,0,0,0,0,0,0,0,0,0,0,0,0,0,0,0,0,0,0,0,0,0,0,0,0,0,0,0,0,0,0,0,0,0,0,0,0,0,0,0,0,0,0,0,0,0,0,0],"sum_hessian":[5.0549E2,4.9947598E2,6.014008E0,1.24032814E2,3.7544318E2,4.5789757E0,1.4350325E0,5.9771786E1,6.4261024E1,6.062212E1,3.1482104E2,3.4248292E0,1.1541461E0,4.7478275E1,1.2293511E1,4.8819565E1,1.544146E1,4.899655E1,1.1625567E1,2.582016E2,5.6619465E1,2.2335975E0,4.524468E1,9.416655E0,2.8768563E0,3.5220894E1,1.3598674E1,3.0996346E0,1.2341825E1,1.2688609E1,3.630794E1,8.964634E0,2.6609333E0,2.0521034E2,5.2991245E1,1.6010653E1,4.0608814E1,4.2241573E1,3.0031052E0,3.0429099E0,6.373745E0,1.6080116E0,1.2688446E0,2.979573E1,5.425161E0,9.342426E0,4.256248E0,2.0746577E0,1.024977E0,8.710944E0,3.6308808E0,5.9651933E0,6.723416E0,2.6729843E1,9.578098E0,7.0737243E0,1.89091E0,1.4564654E0,1.2044679E0,1.9294054E2,1.2269812E1,1.1113803E1,4.1877445E1,1.2395243E1,3.6154096E0,1.3389725E1,2.7219088E1],"tree_param":{"num_deleted":"0","num_feature":"145","num_nodes":"67","size_leaf_vector":"1"}},{"base_weights":[2.0872122E-3,3.5625808E-2,-1.5696783E-1,1.2495761E-1,-5.6901403E-2,-2.9565684E-2,-5.748418E-1,6.2518024E-1,9.03609E-2,1.0208501E-1,-2.1129094E-1,-1.9539553E-1,5.071546E-1,-7.9449517E-1,1.5813585E-1,-3.2163325E-1,8.7169194E-1,1.439664E-1,-2.233594E-1,-1.3732135E-1,3.1585965E-1,-3.796111E-1,1.817961E-1,2.498289E-1,-3.3197555E-1,-1.12261504E-1,7.1187E-1,-2.0043807E-1,-1.0615054E0,-3.756577E-1,2.4468733E-1,-2.6662838E-1,1.6024753E-1,1.1039685E0,-8.572275E-2,-9.137471E-2,2.284794E-1,-5.356441E-1,1.22759424E-1,-5.780314E-1,6.3956395E-2,4.6173707E-2,5.804686E-1,-4.8353368E-1,1.5867561E-1,-3.8877833E-1,3.7513927E-1,-3.9387292E-1,7.0812225E-1,-4.929862E-1,2.4382797E-1,-5.599606E-1,2.3850411E-1,9.35048E-1,8.092815E-3,2.1850385E-1,-6.459524E-1,-1.1975449E0,2.1690797E-2,-2.3980369E-1,8.220358E-2,3.975995E-1,-9.1034435E-2,-8.5073784E-2,1.9096439E-1,8.1801146E-2,-1.8089215E-1,-2.1731451E-1,8.1696436E-2,1.756574E-1,-9.75475E-2,-2.2519413E-1,1.0289251E-1,-1.2020073E-1,7.531776E-2,-1.3230483E-1,1.23270765E-1,2.2476014E-1,-6.444588E-2,-1.8015149E-1,3.3128835E-2,1.8559998E-1,-2.2552283E-1,-2.7153888E-1,8.50227E-2,3.0793723E-2,2.7115887E-1,-2.5736856E-1,1.6401349E-1,-4.273709E-2,3.368977E-1,-1.7242737E-1,2.4078025E-1,1.9784722E-1,-7.016111E-2,2.1253001E-2,-2.5179765E-1,3.3756864E-1,-1.834239E-2,-2.4524339E-1,2.0294015E-1,-2.9519293E-1,7.160569E-2,-3.8868693E-1,-1.4487308E-1],"categories":[],"categories_nodes":[],"categories_segments":[],"categories_sizes":[],"default_left":[0,0,0,0,0,0,0,0,0,0,0,0,0,0,0,0,0,0,0,0,0,0,0,0,0,0,0,0,0,0,0,0,0,0,0,0,0,0,0,0,0,0,0,0,0,0,0,0,0,0,0,0,0,0,0,0,0,0,0,0,0,0,0,0,0,0,0,0,0,0,0,0,0,0,0,0,0,0,0,0,0,0,0,0,0,0,0,0,0,0,0,0,0,0,0,0,0,0,0,0,0,0,0,0,0],"id":17,"left_children":[1,3,5,7,9,11,13,15,17,19,21,23,25,27,29,31,33,35,37,39,41,43,45,47,49,51,53,55,57,59,-1,-1,-1,61,-1,63,65,67,69,71,73,75,77,79,81,83,85,87,89,91,93,95,-1,97,99,-1,101,103,-1,-1,-1,-1,-1,-1,-1,-1,-1,-1,-1,-1,-1,-1,-1,-1,-1,-1,-1,-1,-1,-1,-1,-1,-1,-1,-1,-1,-1,-1,-1,-1,-1,-1,-1,-1,-1,-1,-1,-1,-1,-1,-1,-1,-1,-1,-1],"loss_changes":[2.6659052E0,3.4180975E0,4.6162944E0,3.582525E0,5.0141296E0,6.129105E0,3.39074E0,3.4157243E0,3.3592713E0,5.2063704E0,6.9181113E0,3.2741766E0,2.1429849E0,2.2886505E0,2.2402282E0,2.1761007E0,3.2533617E0,3.3936598E0,3.2288015E0,4.3200655E0,3.797913E0,4.149393E0,3.644236E0,4.0816307E0,3.8832808E0,2.4376054E0,1.9345016E0,3.0040562E0,1.7288113E0,1.2445731E0,0E0,0E0,0E0,3.301772E0,0E0,6.5492973E0,4.7593403E0,2.5716205E0,3.2360694E0,2.679986E0,3.0603642E0,5.0908523E0,3.779585E0,4.3231373E0,5.7141614E0,3.2127337E0,3.393085E0,3.0892124E0,2.943143E0,3.8568292E0,2.048276E0,7.416624E-1,0E0,1.8456812E0,2.752253E0,0E0,1.6307238E0,4.4625282E-2,0E0,0E0,0E0,0E0,0E0,0E0,0E0,0E0,0E0,0E0,0E0,0E0,0E0,0E0,0E0,0E0,0E0,0E0,0E0,0E0,0E0,0E0,0E0,0E0,0E0,0E0,0E0,0E0,0E0,0E0,0E0,0E0,0E0,0E0,0E0,0E0,0E0,0E0,0E0,0E0,0E0,0E0,0E0,0E0,0E0,0E0,0E0],"parents":[2147483647,0,0,1,1,2,2,3,3,4,4,5,5,6,6,7,7,8,8,9,9,10,10,11,11,12,12,13,13,14,14,15,15,16,16,17,17,18,18,19,19,20,20,21,21,22,22,23,23,24,24,25,25,26,26,27,27,28,28,29,29,33,33,35,35,36,36,37,37,38,38,39,39,40,40,41,41,42,42,43,43,44,44,45,45,46,46,47,47,48,48,49,49,50,50,51,51,53,53,54,54,56,56,57,57],"right_children":[2,4,6,8,10,12,14,16,18,20,22,24,26,28,30,32,34,36,38,40,42,44,46,48,50,52,54,56,58,60,-1,-1,-1,62,-1,64,66,68,70,72,74,76,78,80,82,84,86,88,90,92,94,96,-1,98,100,-1,102,104,-1,-1,-1,-1,-1,-1,-1,-1,-1,-1,-1,-1,-1,-1,-1,-1,-1,-1,-1,-1,-1,-1,-1,-1,-1,-1,-1,-1,-1,-1,-1,-1,-1,-1,-1,-1,-1,-1,-1,-1,-1,-1,-1,-1,-1,-1,-1],"split_conditions":[1E4,8E3,1.2E4,4E3,8E3,1E4,1.2E4,6E3,1.2E4,8E3,1E4,6E3,6E3,6E3,8E3,1E4,1E4,6E3,8E3,6E3,8E3,1.2E4,6E3,8E3,1E4,1.4E4,1E4,6E3,1.2E4,8E3,2.4468733E-1,-2.6662838E-1,1.6024753E-1,1E4,-8.572275E-2,1.2E4,1.4E4,1.2E4,8E3,1.2E4,6E3,8E3,1.2E4,1E4,1.2E4,8E3,1E4,1E4,8E3,1.8E4,8E3,8E3,2.3850411E-1,1.2E4,1.2E4,2.1850385E-1,1E4,1.2E4,2.1690797E-2,-2.3980369E-1,8.220358E-2,3.975995E-1,-9.1034435E-2,-8.5073784E-2,1.9096439E-1,8.1801146E-2,-1.8089215E-1,-2.1731451E-1,8.1696436E-2,1.756574E-1,-9.75475E-2,-2.2519413E-1,1.0289251E-1,-1.2020073E-1,7.531776E-2,-1.3230483E-1,1.23270765E-1,2.2476014E-1,-6.444588E-2,-1.8015149E-1,3.3128835E-2,1.8559998E-1,-2.2552283E-1,-2.7153888E-1,8.50227E-2,3.0793723E-2,2.7115887E-1,-2.5736856E-1,1.6401349E-1,-4.273709E-2,3.368977E-1,-1.7242737E-1,2.4078025E-1,1.9784722E-1,-7.016111E-2,2.1253001E-2,-2.5179765E-1,3.3756864E-1,-1.834239E-2,-2.4524339E-1,2.0294015E-1,-2.9519293E-1,7.160569E-2,-3.8868693E-1,-1.4487308E-1],"split_indices":[137,112,66,125,38,128,87,109,141,6,35,33,27,87,111,144,143,48,61,94,118,14,66,93,109,7,135,75,92,10,0,0,0,129,0,31,22,18,94,84,140,70,132,139,38,21,103,127,112,29,16,24,0,3,134,0,31,43,0,0,0,0,0,0,0,0,0,0,0,0,0,0,0,0,0,0,0,0,0,0,0,0,0,0,0,0,0,0,0,0,0,0,0,0,0,0,0,0,0,0,0,0,0,0,0],"split_type":[0,0,0,0,0,0,0,0,0,0,0,0,0,0,0,0,0,0,0,0,0,0,0,0,0,0,0,0,0,0,0,0,0,0,0,0,0,0,0,0,0,0,0,0,0,0,0,0,0,0,0,0,0,0,0,0,0,0,0,0,0,0,0,0,0,0,0,0,0,0,0,0,0,0,0,0,0,0,0,0,0,0,0,0,0,0,0,0,0,0,0,0,0,0,0,0,0,0,0,0,0,0,0,0,0],"sum_hessian":[4.9770126E2,4.1167157E2,8.602969E1,2.0927415E2,2.0239742E2,6.674969E1,1.9280008E1,1.2433382E1,1.9684076E2,9.9881134E1,1.0251627E2,5.1479935E1,1.5269751E1,1.4769934E1,4.510073E0,2.5054798E0,9.927902E0,1.6857704E2,2.8263721E1,4.7284653E1,5.2596485E1,7.180402E1,3.0712254E1,1.189039E1,3.9589546E1,3.9052107E0,1.136454E1,5.122912E0,9.647022E0,2.7257628E0,1.7843105E0,1.4837093E0,1.0217704E0,8.307023E0,1.6208789E0,4.4520576E1,1.2405647E2,1.4570214E1,1.3693506E1,1.4237957E1,3.3046696E1,2.663002E1,2.5966465E1,6.026992E1,1.1534099E1,7.517263E0,2.319499E1,5.003386E0,6.887004E0,3.1050728E1,8.538816E0,2.8712096E0,1.0340009E0,8.378866E0,2.9856741E0,1.4549233E0,3.6679885E0,8.563338E0,1.0836843E0,1.5103722E0,1.2153907E0,7.2284346E0,1.0785886E0,3.570363E1,8.816948E0,1.1843386E2,5.622611E0,1.1895031E1,2.6751828E0,6.584023E0,7.1094837E0,1.2146435E1,2.0915227E0,9.159589E0,2.3887108E1,1.1311466E1,1.5318554E1,2.1469378E1,4.497087E0,5.0344406E1,9.925516E0,7.8754616E0,3.6586363E0,4.0554566E0,3.4618063E0,1.6094398E1,7.100592E0,3.4093504E0,1.5940356E0,2.4731333E0,4.413871E0,2.9730637E1,1.3200929E0,4.362386E0,4.17643E0,1.1103839E0,1.7608259E0,6.9269257E0,1.4519404E0,1.2359519E0,1.7497222E0,2.5726686E0,1.0953201E0,6.8150396E0,1.7482983E0],"tree_param":{"num_deleted":"0","num_feature":"145","num_nodes":"105","size_leaf_vector":"1"}},{"base_weights":[1.6550082E-3,1.209121E-1,-4.1874047E-2,1.8694712E-1,-5.94435E-1,3.0980036E-2,-1.4636828E-1,-5.927183E-1,2.290725E-1,1.5711178E-1,-7.8803194E-1,2.4931811E-1,-4.4705905E-2,-4.3141183E-1,-4.658724E-2,-9.4965255E-1,1.2054188E-1,2.9606733E-1,-2.3272438E-1,-9.7423947E-1,8.291763E-2,5.0026965E-1,-5.356141E-2,-1.2924762E-1,2.4278384E-1,-2.4825934E-2,-7.5680655E-1,1.3725108E-1,-2.3994796E-1,-3.5406908E-1,-1.8362524E-2,-2.770221E-1,3.231932E-1,4.1482997E-1,-4.7885343E-1,1.6595816E-2,-3.5700214E-1,6.148958E-1,-5.043983E-1,5.1346534E-1,-3.199511E-1,-1.8975788E-1,5.220904E-1,6.141257E-1,-7.5016946E-2,-4.2093104E-1,3.7370512E-1,-8.785646E-1,1.20662645E-1,-6.594212E-1,2.139979E-1,-4.2715377E-1,1.5519215E-1,1.8300457E-1,6.544265E-2,2.461188E-1,-1.2602578E-1,-2.1842146E-1,9.9478275E-2,-1.3367534E-1,2.0705284E-1,-3.2427388E-1,9.804549E-2,2.828871E-1,-9.0120226E-2,-1.4760163E-1,1.6894765E-1,-8.93801E-2,5.9887853E-2,2.4375367E-1,-8.97411E-2,2.5598863E-1,-9.083712E-2,9.629881E-2,-1.4623074E-1,3.6385115E-2,-2.1908225E-1,2.3829529E-1,-6.480965E-2,7.172539E-2,-2.9231465E-1,-8.626086E-3,-3.1384435E-1,1.794694E-1,1.5149539E-2,3.7082575E-2,-2.041826E-1,1.3012946E-1,-1.4697258E-1],"categories":[],"categories_nodes":[],"categories_segments":[],"categories_sizes":[],"default_left":[0,0,0,0,0,0,0,0,0,0,0,0,0,0,0,0,0,0,0,0,0,0,0,0,0,0,0,0,0,0,0,0,0,0,0,0,0,0,0,0,0,0,0,0,0,0,0,0,0,0,0,0,0,0,0,0,0,0,0,0,0,0,0,0,0,0,0,0,0,0,0,0,0,0,0,0,0,0,0,0,0,0,0,0,0,0,0,0,0],"id":18,"left_children":[1,3,5,7,9,11,13,15,17,-1,19,21,23,25,27,29,-1,31,33,35,-1,37,39,41,43,45,47,49,51,-1,-1,-1,53,55,57,-1,-1,59,61,63,65,67,69,71,73,75,77,79,-1,81,83,85,87,-1,-1,-1,-1,-1,-1,-1,-1,-1,-1,-1,-1,-1,-1,-1,-1,-1,-1,-1,-1,-1,-1,-1,-1,-1,-1,-1,-1,-1,-1,-1,-1,-1,-1,-1,-1],"loss_changes":[2.530984E0,6.269515E0,2.7239351E0,4.080718E0,2.8494506E0,3.5028434E0,4.158492E0,2.6661472E0,3.6167731E0,0E0,2.2502627E0,4.172482E0,3.8655608E0,5.005056E0,3.941111E0,9.5886517E-1,0E0,3.625824E0,2.6035216E0,2.0046263E0,0E0,3.756359E0,4.0338306E0,4.929393E0,4.317645E0,2.9852707E0,3.3251286E0,3.6259499E0,4.0569544E0,0E0,0E0,0E0,2.8541126E0,1.9332135E0,2.5434427E0,0E0,0E0,2.4878664E0,2.085106E0,3.2796729E0,3.0189502E0,4.813912E0,2.7913365E0,3.9427438E0,3.4874673E0,1.6744305E0,2.5180492E0,2.3073616E0,0E0,1.2511513E0,3.2831771E0,5.231198E0,3.4609067E0,0E0,0E0,0E0,0E0,0E0,0E0,0E0,0E0,0E0,0E0,0E0,0E0,0E0,0E0,0E0,0E0,0E0,0E0,0E0,0E0,0E0,0E0,0E0,0E0,0E0,0E0,0E0,0E0,0E0,0E0,0E0,0E0,0E0,0E0,0E0,0E0],"parents":[2147483647,0,0,1,1,2,2,3,3,4,4,5,5,6,6,7,7,8,8,10,10,11,11,12,12,13,13,14,14,15,15,17,17,18,18,19,19,21,21,22,22,23,23,24,24,25,25,26,26,27,27,28,28,32,32,33,33,34,34,37,37,38,38,39,39,40,40,41,41,42,42,43,43,44,44,45,45,46,46,47,47,49,49,50,50,51,51,52,52],"right_children":[2,4,6,8,10,12,14,16,18,-1,20,22,24,26,28,30,-1,32,34,36,-1,38,40,42,44,46,48,50,52,-1,-1,-1,54,56,58,-1,-1,60,62,64,66,68,70,72,74,76,78,80,-1,82,84,86,88,-1,-1,-1,-1,-1,-1,-1,-1,-1,-1,-1,-1,-1,-1,-1,-1,-1,-1,-1,-1,-1,-1,-1,-1,-1,-1,-1,-1,-1,-1,-1,-1,-1,-1,-1,-1],"split_conditions":[6E3,1.4E4,8E3,4E3,4E3,6E3,6E3,1.2E4,1.2E4,1.5711178E-1,2E4,8E3,1E4,8E3,8E3,8E3,1.2054188E-1,2E3,6E3,6E3,8.291763E-2,1.2E4,6E3,1.4E4,8E3,8E3,1.4E4,4E3,1E4,-3.5406908E-1,-1.8362524E-2,-2.770221E-1,6E3,8E3,1.2E4,1.6595816E-2,-3.5700214E-1,4E3,8E3,1E4,1.2E4,1E4,1.2E4,1E4,8E3,6E3,8E3,4E3,1.20662645E-1,8E3,6E3,6E3,1E4,1.8300457E-1,6.544265E-2,2.461188E-1,-1.2602578E-1,-2.1842146E-1,9.9478275E-2,-1.3367534E-1,2.0705284E-1,-3.2427388E-1,9.804549E-2,2.828871E-1,-9.0120226E-2,-1.4760163E-1,1.6894765E-1,-8.93801E-2,5.9887853E-2,2.4375367E-1,-8.97411E-2,2.5598863E-1,-9.083712E-2,9.629881E-2,-1.4623074E-1,3.6385115E-2,-2.1908225E-1,2.3829529E-1,-6.480965E-2,7.172539E-2,-2.9231465E-1,-8.626086E-3,-3.1384435E-1,1.794694E-1,1.5149539E-2,3.7082575E-2,-2.041826E-1,1.3012946E-1,-1.4697258E-1],"split_indices":[118,65,136,81,97,71,107,97,142,0,63,112,53,132,20,120,0,120,57,14,0,73,39,121,79,20,63,22,138,0,0,0,101,95,56,0,0,112,79,110,14,100,60,108,88,17,126,116,0,105,23,38,135,0,0,0,0,0,0,0,0,0,0,0,0,0,0,0,0,0,0,0,0,0,0,0,0,0,0,0,0,0,0,0,0,0,0,0,0],"split_type":[0,0,0,0,0,0,0,0,0,0,0,0,0,0,0,0,0,0,0,0,0,0,0,0,0,0,0,0,0,0,0,0,0,0,0,0,0,0,0,0,0,0,0,0,0,0,0,0,0,0,0,0,0,0,0,0,0,0,0,0,0,0,0,0,0,0,0,0,0,0,0,0,0,0,0,0,0,0,0,0,0,0,0,0,0,0,0,0,0],"sum_hessian":[4.8558224E2,1.2936945E2,3.562128E2,1.1911261E2,1.02568445E1,2.1029631E2,1.4591649E2,5.4357758E0,1.13676834E2,1.262131E0,8.994714E0,5.354271E1,1.567536E2,3.6972866E1,1.0894362E2,4.033334E0,1.4024421E0,9.958805E1,1.4088779E1,7.7275944E0,1.2671193E0,2.8925066E1,2.4617641E1,1.21557724E2,3.5195885E1,1.6914377E1,2.0058489E1,5.5995705E1,5.2947914E1,2.9415026E0,1.0918312E0,1.4480454E0,9.814001E1,3.6914158E0,1.0397364E1,1.4677379E0,6.259856E0,2.63111E1,2.6139672E0,7.5722175E0,1.7045424E1,1.118732E2,9.684521E0,1.5800726E1,1.9395159E1,8.454818E0,8.4595585E0,1.8370579E1,1.6879116E0,4.2531905E0,5.174251E1,3.587186E1,1.7076056E1,2.502021E1,7.31198E1,2.4962409E0,1.1951749E0,8.029792E0,2.3675716E0,1.4179074E0,2.4893192E1,1.3660821E0,1.247885E0,4.8527303E0,2.719487E0,1.4636667E1,2.408757E0,8.773435E1,2.4138847E1,7.162249E0,2.5222716E0,1.2586922E1,3.2138042E0,1.0007463E1,9.387695E0,3.2922003E0,5.1626177E0,4.7353272E0,3.7242312E0,1.3325094E0,1.7038069E1,2.0250778E0,2.2281127E0,1.4651559E1,3.7090954E1,1.1466732E1,2.4405127E1,1.2154851E1,4.921205E0],"tree_param":{"num_deleted":"0","num_feature":"145","num_nodes":"89","size_leaf_vector":"1"}},{"base_weights":[-5.413362E-4,6.396831E-3,-6.86809E-1,3.1829393E-1,-8.287846E-3,-4.2856213E-2,-2.528985E-1,4.8881203E-1,-3.541998E-1,-1.2435983E-1,3.308661E-2,1.10767946E-1,8.655243E-1,-2.4209507E-1,1.02952935E-1,-3.567499E-2,-4.684072E-1,5.2499913E-2,-4.723451E-1,7.3633665E-1,-6.765559E-1,9.894779E-1,-8.067316E-3,-2.9437953E-1,7.934826E-3,-6.1510634E-1,2.7220103E-1,2.740098E-2,4.7980723E-1,4.7256857E-1,-7.2846884E-1,3.33924E-1,6.756305E-3,4.4224556E-3,-2.9435456E-1,-1.658489E-4,3.4408593E-1,-2.6430395E-2,1.1448976E-1,-2.4478485E-1,3.683277E-2,-2.3658386E-1,1.2131773E-2,1.8109375E-1,-1.7193699E-1,2.6900953E-1,-4.665906E-2,-2.7850544E-1,1.1550453E-1],"categories":[],"categories_nodes":[],"categories_segments":[],"categories_sizes":[],"default_left":[0,0,0,0,0,0,0,0,0,0,0,0,0,0,0,0,0,0,0,0,0,0,0,0,0,0,0,0,0,0,0,0,0,0,0,0,0,0,0,0,0,0,0,0,0,0,0,0,0],"id":19,"left_children":[1,3,5,7,9,-1,-1,11,13,15,17,19,21,-1,-1,23,25,27,29,31,33,35,-1,-1,37,39,-1,41,43,45,47,-1,-1,-1,-1,-1,-1,-1,-1,-1,-1,-1,-1,-1,-1,-1,-1,-1,-1],"loss_changes":[2.2696166E0,2.164323E0,2.8489757E-1,2.60964E0,2.1734855E0,0E0,0E0,2.3778396E0,1.8171005E0,3.611641E0,3.3001616E0,5.332986E0,9.7278166E-1,0E0,0E0,3.9511952E0,5.460019E0,3.444166E0,3.3566477E0,1.574755E0,1.0394821E0,1.1756611E0,0E0,0E0,3.3498635E0,3.4411755E0,0E0,3.2826304E0,2.6700492E0,1.0081564E0,2.6245408E0,0E0,0E0,0E0,0E0,0E0,0E0,0E0,0E0,0E0,0E0,0E0,0E0,0E0,0E0,0E0,0E0,0E0,0E0],"parents":[2147483647,0,0,1,1,2,2,3,3,4,4,7,7,8,8,9,9,10,10,11,11,12,12,15,15,16,16,17,17,18,18,19,19,20,20,21,21,24,24,25,25,27,27,28,28,29,29,30,30],"right_children":[2,4,6,8,10,-1,-1,12,14,16,18,20,22,-1,-1,24,26,28,30,32,34,36,-1,-1,38,40,-1,42,44,46,48,-1,-1,-1,-1,-1,-1,-1,-1,-1,-1,-1,-1,-1,-1,-1,-1,-1,-1],"split_conditions":[2E4,4E3,8E3,1.2E4,6E3,-4.2856213E-2,-2.528985E-1,8E3,8E3,1.2E4,1.8E4,8E3,1E4,-2.4209507E-1,1.02952935E-1,4E3,1.4E4,1.4E4,6E3,8E3,6E3,6E3,-8.067316E-3,-2.9437953E-1,1.2E4,1E4,2.7220103E-1,2E3,1.4E4,8E3,1.2E4,3.33924E-1,6.756305E-3,4.4224556E-3,-2.9435456E-1,-1.658489E-4,3.4408593E-1,-2.6430395E-2,1.1448976E-1,-2.4478485E-1,3.683277E-2,-2.3658386E-1,1.2131773E-2,1.8109375E-1,-1.7193699E-1,2.6900953E-1,-4.665906E-2,-2.7850544E-1,1.1550453E-1],"split_indices":[138,65,43,131,31,0,0,144,89,3,68,20,63,0,0,67,103,54,132,96,135,101,0,0,84,21,0,135,140,46,119,0,0,0,0,0,0,0,0,0,0,0,0,0,0,0,0,0,0],"split_type":[0,0,0,0,0,0,0,0,0,0,0,0,0,0,0,0,0,0,0,0,0,0,0,0,0,0,0,0,0,0,0,0,0,0,0,0,0,0,0,0,0,0,0,0,0,0,0,0,0],"sum_hessian":[4.7474335E2,4.709725E2,3.7708538E0,2.0247515E1,4.5072498E2,1.2683083E0,2.5025456E0,1.6369886E1,3.8776276E0,1.1791638E2,3.328086E2,8.816378E0,7.553509E0,2.2558236E0,1.621804E0,9.462791E1,2.3288473E1,3.2136145E2,1.1447156E1,4.948948E0,3.86743E0,6.536804E0,1.016705E0,3.2238684E0,9.140404E1,2.1544065E1,1.7444073E0,3.045378E2,1.6823643E1,2.260915E0,9.186241E0,2.8731802E0,2.0757678E0,1.4740131E0,2.393417E0,1.0338132E0,5.502991E0,7.332466E1,1.8079376E1,1.6851486E1,4.6925807E0,3.853882E0,3.0068393E2,1.5434983E1,1.3886594E0,1.0943233E0,1.1665916E0,7.929138E0,1.2571031E0],"tree_param":{"num_deleted":"0","num_feature":"145","num_nodes":"49","size_leaf_vector":"1"}},{"base_weights":[-1.1875646E-3,6.100871E-2,-6.828534E-2,7.522434E-2,-2.5541577E-1,9.0021354E-1,-8.551943E-2,-3.5091456E-2,1.8422772E-1,-3.1845638E-4,3.6774352E-1,-2.0693867E-1,3.7423383E-2,-1.2043343E-1,3.776869E-1,-4.987854E-1,2.2456108E-1,-3.0699447E-1,1.4130615E-1,2.1067128E-1,-1.2818149E-1,-1.7434682E-1,5.307627E-1,1.0322772E0,1.0477918E-1,-8.0736274E-1,1.8397592E-1,4.6558186E-1,1.0053666E-1,-4.0263948E-1,1.508239E-1,5.7341987E-1,-2.4928898E-1,3.1634775E-1,-3.0767274E-1,8.0903804E-1,-1.9411016E-1,-2.3380632E-2,-1.6717054E-1,2.4092229E-1,-1.17788784E-1,3.8095793E-1,2.7299726E-2,8.537106E-2,-2.304896E-1,5.0788065E-3,-3.3644688E-1,-5.754602E-2,1.97323E-1,6.0310107E-2,-1.10184185E-1,-1.5821095E-1,4.808965E-3,1.7989777E-1,-7.257478E-2,2.4986495E-1,-2.4387865E-1,8.171397E-2,-2.1037507E-1,-3.369063E-2,1.5217209E-1,-1.7755748E-1,1.2764733E-1,2.9833364E-1,5.138919E-2,-1.01906024E-1,9.537244E-2],"categories":[],"categories_nodes":[],"categories_segments":[],"categories_sizes":[],"default_left":[0,0,0,0,0,0,0,0,0,0,0,0,0,0,0,0,0,0,0,0,0,0,0,0,0,0,0,0,0,0,0,0,0,0,0,0,0,0,0,0,0,0,0,0,0,0,0,0,0,0,0,0,0,0,0,0,0,0,0,0,0,0,0,0,0,0,0],"id":20,"left_children":[1,3,5,7,-1,9,11,13,15,-1,-1,17,19,21,23,25,27,29,31,33,35,37,39,41,43,45,-1,47,49,51,53,55,57,59,61,63,65,-1,-1,-1,-1,-1,-1,-1,-1,-1,-1,-1,-1,-1,-1,-1,-1,-1,-1,-1,-1,-1,-1,-1,-1,-1,-1,-1,-1,-1,-1],"loss_changes":[1.9677501E0,3.2379477E0,3.8627605E0,2.914912E0,0E0,1.1904461E0,3.3479557E0,4.309813E0,3.4679055E0,0E0,0E0,3.971366E0,3.241208E0,3.640935E0,3.6400008E0,2.932513E0,3.41223E0,3.9090757E0,4.5051227E0,3.1171515E0,3.7346573E0,3.430076E0,2.3206785E0,1.2397814E0,2.7177374E0,1.5704603E0,0E0,5.057887E0,3.7257543E0,3.8190346E0,2.9505265E0,5.199816E0,3.5559003E0,3.844411E0,2.302669E0,3.0247736E-1,4.200201E0,0E0,0E0,0E0,0E0,0E0,0E0,0E0,0E0,0E0,0E0,0E0,0E0,0E0,0E0,0E0,0E0,0E0,0E0,0E0,0E0,0E0,0E0,0E0,0E0,0E0,0E0,0E0,0E0,0E0,0E0],"parents":[2147483647,0,0,1,1,2,2,3,3,5,5,6,6,7,7,8,8,11,11,12,12,13,13,14,14,15,15,16,16,17,17,18,18,19,19,20,20,21,21,22,22,23,23,24,24,25,25,27,27,28,28,29,29,30,30,31,31,32,32,33,33,34,34,35,35,36,36],"right_children":[2,4,6,8,-1,10,12,14,16,-1,-1,18,20,22,24,26,28,30,32,34,36,38,40,42,44,46,-1,48,50,52,54,56,58,60,62,64,66,-1,-1,-1,-1,-1,-1,-1,-1,-1,-1,-1,-1,-1,-1,-1,-1,-1,-1,-1,-1,-1,-1,-1,-1,-1,-1,-1,-1,-1,-1],"split_conditions":[8E3,1.2E4,2E3,8E3,-2.5541577E-1,6E3,8E3,1.2E4,4E3,-3.1845638E-4,3.6774352E-1,1E4,8E3,1.4E4,6E3,1.2E4,8E3,1.2E4,8E3,1.2E4,4E3,1E4,1E4,1E4,1.2E4,6E3,1.8397592E-1,6E3,1.2E4,1E4,8E3,1.2E4,8E3,6E3,8E3,1E4,1E4,-2.3380632E-2,-1.6717054E-1,2.4092229E-1,-1.17788784E-1,3.8095793E-1,2.7299726E-2,8.537106E-2,-2.304896E-1,5.0788065E-3,-3.3644688E-1,-5.754602E-2,1.97323E-1,6.0310107E-2,-1.10184185E-1,-1.5821095E-1,4.808965E-3,1.7989777E-1,-7.257478E-2,2.4986495E-1,-2.4387865E-1,8.171397E-2,-2.1037507E-1,-3.369063E-2,1.5217209E-1,-1.7755748E-1,1.2764733E-1,2.9833364E-1,5.138919E-2,-1.01906024E-1,9.537244E-2],"split_indices":[142,141,5,120,0,118,78,87,31,0,0,5,120,60,29,137,122,53,65,6,40,58,137,49,24,135,0,25,22,121,17,125,83,6,121,125,64,0,0,0,0,0,0,0,0,0,0,0,0,0,0,0,0,0,0,0,0,0,0,0,0,0,0,0,0,0,0],"split_type":[0,0,0,0,0,0,0,0,0,0,0,0,0,0,0,0,0,0,0,0,0,0,0,0,0,0,0,0,0,0,0,0,0,0,0,0,0,0,0,0,0,0,0,0,0,0,0,0,0,0,0,0,0,0,0,0,0,0,0,0,0,0,0,0,0,0,0],"sum_hessian":[4.695188E2,2.4370616E2,2.2581264E2,2.408708E2,2.8353517E0,3.0522425E0,2.227604E2,1.2005172E2,1.20819084E2,1.0745537E0,1.9776888E0,1.1173091E2,1.1102949E2,1.0007039E2,1.9981329E1,6.103005E0,1.1471608E2,8.68858E1,2.4845104E1,5.412958E1,5.689991E1,9.3095184E1,6.975207E0,5.0605917E0,1.4920736E1,4.9918156E0,1.1111894E0,3.8039227E1,7.667686E1,7.197061E1,1.4915195E1,1.1573417E1,1.3271688E1,4.528656E1,8.843021E0,2.998785E0,5.3901123E1,7.533049E1,1.7764692E1,5.487286E0,1.4879208E0,3.761974E0,1.2986178E0,1.2931783E1,1.9889532E0,1.6384661E0,3.3533497E0,8.604436E0,2.9434792E1,6.3587246E1,1.308961E1,5.5250656E1,1.6719954E1,6.7146373E0,8.200558E0,1.0085147E1,1.4882692E0,6.345192E0,6.9264965E0,1.4080484E1,3.1206074E1,6.511715E0,2.3313067E0,1.8899912E0,1.1087939E0,4.22307E1,1.1670421E1],"tree_param":{"num_deleted":"0","num_feature":"145","num_nodes":"67","size_leaf_vector":"1"}},{"base_weights":[3.0935378E-4,1.04617625E-1,-3.9473806E-2,-9.076454E-3,4.463526E-1,5.6235124E-3,-2.4268195E-1,-7.0774794E-1,4.3589607E-2,5.742561E-1,-5.726746E-1,-1.9939886E-2,4.0725482E-1,-6.949196E-1,-7.6958515E-2,-4.2429008E-3,-9.1670877E-1,1.387636E-1,-4.14964E-1,7.130702E-1,-1.2914185E-1,-2.7013525E-1,3.9518874E-2,4.7225538E-1,-4.2768203E-2,5.2343035E-1,-1.5780815E-1,-8.5045403E-1,2.1532355E-1,-5.6930816E-1,1.332389E-1,-3.31738E-1,-2.8588422E-2,2.4367135E-2,5.1672065E-1,-6.3225853E-1,3.2949823E-1,8.7505513E-1,-2.3418695E-1,-5.464947E-1,1.7467375E-1,-3.6138594E-1,7.2067004E-1,-9.752253E-2,1.4971322E-1,8.6252826E-1,1.104188E-1,-1.054054E0,2.3418115E-1,1.7611254E-2,-8.2511395E-1,-3.5356916E-2,5.9910387E-1,1.2952007E-1,-4.0787626E-2,2.968913E-1,